################################################################################
# Neural network connection values (weights and biases).
################################################################################
# Col  Name       Description
################################################################################
# 1    connection Neural network connection value.
# 2    t          Connection type (a = weight, b = bias).
# 3    index      Index enumerating weights.
# 4    l_s        Starting point layer (end point layer for biases).
# 5    n_s        Starting point neuron in starting layer (end point neuron for biases).
# 6    l_e        End point layer.
# 7    n_e        End point neuron in end layer.
################################################################################
#                      1 2         3     4     5     6     7
#             connection t     index   l_s   n_s   l_e   n_e
############################################################
  6.4015726543330667E-02 a         1     0     1     1     1
  4.6804335072302861E-01 a         2     0     1     1     2
  2.0910046709668895E-01 a         3     0     1     1     3
 -2.1095382675073032E-01 a         4     0     1     1     4
  3.1523788132775948E-01 a         5     0     1     1     5
  1.9329414804555292E-01 a         6     0     1     1     6
  3.8095419306898143E-01 a         7     0     1     1     7
 -3.5083133783991061E-01 a         8     0     1     1     8
  6.6859820669564946E-02 a         9     0     1     1     9
 -1.2118454244221975E-01 a        10     0     1     1    10
 -2.0666246298159754E-01 a        11     0     1     1    11
 -2.0554873645013105E-01 a        12     0     1     1    12
  1.8738720286653604E-01 a        13     0     1     1    13
  1.3635469992061777E-01 a        14     0     1     1    14
 -2.6941491273435855E-02 a        15     0     1     1    15
 -2.2692993784920543E-01 a        16     0     1     1    16
 -1.9450207265434347E-01 a        17     0     1     1    17
 -8.7469238404257438E-02 a        18     0     1     1    18
 -2.7372134908130824E-01 a        19     0     1     1    19
 -9.9482475848096108E-02 a        20     0     1     1    20
  6.6078395338834972E-02 a        21     0     2     1     1
 -1.7012979987160021E-01 a        22     0     2     1     2
  1.9310437154016608E-01 a        23     0     2     1     3
 -7.6480106817280610E-02 a        24     0     2     1     4
  7.0900882502005408E-02 a        25     0     2     1     5
  3.2987154500492610E-01 a        26     0     2     1     6
 -3.8752312924477156E-01 a        27     0     2     1     7
 -2.1933522972101487E-02 a        28     0     2     1     8
 -2.9716580910543949E-01 a        29     0     2     1     9
 -3.3091015524148574E-03 a        30     0     2     1    10
 -3.2591444946393877E-02 a        31     0     2     1    11
  3.1477939294809504E-01 a        32     0     2     1    12
  2.4246136663603576E-01 a        33     0     2     1    13
  3.0942162034733539E-01 a        34     0     2     1    14
 -2.3423310385174731E-01 a        35     0     2     1    15
  5.1413578506976643E-02 a        36     0     2     1    16
 -8.1777230132518225E-02 a        37     0     2     1    17
 -5.5485096241127307E-01 a        38     0     2     1    18
 -4.4833598387561763E-01 a        39     0     2     1    19
  3.1904471211658086E-01 a        40     0     2     1    20
  1.7858028720748369E-02 a        41     0     3     1     1
 -3.8474328660233259E-01 a        42     0     3     1     2
  5.8316330246778479E-02 a        43     0     3     1     3
 -8.6036724981241360E-04 a        44     0     3     1     4
 -1.2041761502794231E-01 a        45     0     3     1     5
 -3.8329794600665984E-01 a        46     0     3     1     6
 -1.6369648688746413E-01 a        47     0     3     1     7
  3.1522958180976823E-01 a        48     0     3     1     8
  2.8354200763653320E-01 a        49     0     3     1     9
 -2.3821153715598614E-01 a        50     0     3     1    10
  3.5042120501912249E-01 a        51     0     3     1    11
  1.7349115357733394E-01 a        52     0     3     1    12
 -4.9147522119948628E-01 a        53     0     3     1    13
 -2.9384997417418857E-01 a        54     0     3     1    14
  2.5281398241005398E-01 a        55     0     3     1    15
  4.7441829250146506E-01 a        56     0     3     1    16
  4.0377005182638004E-01 a        57     0     3     1    17
 -4.8248630395088905E-03 a        58     0     3     1    18
  4.6671630196475378E-01 a        59     0     3     1    19
 -2.9561629005003576E-01 a        60     0     3     1    20
  4.7534364142447433E-01 a        61     0     4     1     1
 -2.8065111893298900E-01 a        62     0     4     1     2
 -1.5340342694218226E-01 a        63     0     4     1     3
  1.6503058468160353E-01 a        64     0     4     1     4
 -4.0988197568773088E-01 a        65     0     4     1     5
 -1.9790217343778588E-02 a        66     0     4     1     6
 -3.8483387497368582E-01 a        67     0     4     1     7
 -1.8041948128079760E-01 a        68     0     4     1     8
 -8.7017178880752347E-02 a        69     0     4     1     9
 -9.4947395088978120E-02 a        70     0     4     1    10
  2.8174688474725057E-01 a        71     0     4     1    11
 -3.9656301741054195E-01 a        72     0     4     1    12
  1.8096240665871030E-01 a        73     0     4     1    13
 -5.0403357712336602E-02 a        74     0     4     1    14
 -8.1755000869590741E-02 a        75     0     4     1    15
  3.7802846871992463E-01 a        76     0     4     1    16
  2.6567677318900801E-01 a        77     0     4     1    17
  3.6287791526823632E-01 a        78     0     4     1    18
  1.9209647835999197E-01 a        79     0     4     1    19
  5.0599603808877036E-01 a        80     0     4     1    20
 -3.6536403230893433E-01 a        81     0     5     1     1
 -1.4423006041231201E-01 a        82     0     5     1     2
 -2.4475162996253602E-01 a        83     0     5     1     3
  1.9764322361268605E-01 a        84     0     5     1     4
  3.7474388456859280E-03 a        85     0     5     1     5
  1.3570359989427744E-01 a        86     0     5     1     6
  8.2558137755160521E-02 a        87     0     5     1     7
  1.0421830308099828E-01 a        88     0     5     1     8
  1.4049076312075090E-01 a        89     0     5     1     9
  2.1851838060759984E-01 a        90     0     5     1    10
  2.2522819897910240E-01 a        91     0     5     1    11
  3.1219302432560270E-01 a        92     0     5     1    12
  3.4255816448237136E-01 a        93     0     5     1    13
  2.7421628518512992E-01 a        94     0     5     1    14
  2.8608813009204148E-01 a        95     0     5     1    15
 -3.6769859809224625E-01 a        96     0     5     1    16
 -4.7035737000593447E-01 a        97     0     5     1    17
  2.5497107211653580E-01 a        98     0     5     1    18
  2.2098603994621138E-01 a        99     0     5     1    19
 -2.1355266995445743E-01 a       100     0     5     1    20
 -2.6062123392075864E-02 a       101     0     6     1     1
  3.4346842715921966E-01 a       102     0     6     1     2
  5.9162215672254818E-02 a       103     0     6     1     3
 -1.2180415420124863E-03 a       104     0     6     1     4
  2.8112030390790671E-01 a       105     0     6     1     5
 -4.2390351210947919E-01 a       106     0     6     1     6
  6.3890386923883297E-02 a       107     0     6     1     7
  2.2041172134651757E-01 a       108     0     6     1     8
 -2.4976169480957983E-01 a       109     0     6     1     9
  5.1629660459458042E-02 a       110     0     6     1    10
  9.7317597317756188E-02 a       111     0     6     1    11
  2.7622840302407858E-01 a       112     0     6     1    12
 -4.0980909705600110E-01 a       113     0     6     1    13
  2.2417332311142943E-01 a       114     0     6     1    14
  3.2701606381315174E-01 a       115     0     6     1    15
 -2.0796350995860879E-01 a       116     0     6     1    16
  8.7994199222207557E-03 a       117     0     6     1    17
 -6.4384266856415323E-02 a       118     0     6     1    18
  1.5476903222082550E-01 a       119     0     6     1    19
 -3.7896044645524075E-02 a       120     0     6     1    20
 -2.6116974889678596E-01 a       121     0     7     1     1
  1.2748972318758509E-01 a       122     0     7     1     2
 -1.8329962327892027E-01 a       123     0     7     1     3
  5.0897287319043538E-01 a       124     0     7     1     4
 -7.6068394034696729E-02 a       125     0     7     1     5
 -2.8787501958634870E-01 a       126     0     7     1     6
 -7.0108762048256265E-02 a       127     0     7     1     7
  2.5893918503086893E-01 a       128     0     7     1     8
  5.3701208961600344E-01 a       129     0     7     1     9
  4.2706844153346485E-01 a       130     0     7     1    10
 -4.3263366406598247E-01 a       131     0     7     1    11
 -1.3097355428162924E-01 a       132     0     7     1    12
 -3.1580793232141557E-01 a       133     0     7     1    13
 -3.4561954650274634E-01 a       134     0     7     1    14
  1.2444368362302763E-01 a       135     0     7     1    15
 -3.9842428283817621E-02 a       136     0     7     1    16
 -9.4450000419221344E-02 a       137     0     7     1    17
  3.8955276785459231E-01 a       138     0     7     1    18
  1.7728166795462327E-01 a       139     0     7     1    19
  3.3952842994163035E-01 a       140     0     7     1    20
 -1.3185066094603562E-01 a       141     0     8     1     1
  3.3724252272324434E-01 a       142     0     8     1     2
 -2.8261378869642909E-03 a       143     0     8     1     3
  1.0567757195198034E-01 a       144     0     8     1     4
 -4.7042572227780566E-01 a       145     0     8     1     5
  4.4814560858032004E-01 a       146     0     8     1     6
 -3.6148394586639965E-01 a       147     0     8     1     7
  2.2622592243013806E-01 a       148     0     8     1     8
  2.8039254213915427E-02 a       149     0     8     1     9
  4.2341367185490858E-01 a       150     0     8     1    10
 -4.6373963092538550E-01 a       151     0     8     1    11
  1.8032006436787758E-02 a       152     0     8     1    12
 -3.2767819026363959E-01 a       153     0     8     1    13
 -2.2282636071948750E-01 a       154     0     8     1    14
 -4.2572455850762492E-01 a       155     0     8     1    15
 -3.1666614101883911E-01 a       156     0     8     1    16
 -4.1186988688391529E-01 a       157     0     8     1    17
  9.0375591401273644E-02 a       158     0     8     1    18
  3.6472462277371465E-01 a       159     0     8     1    19
 -3.8240119618007168E-01 a       160     0     8     1    20
  2.4068400521721037E-01 a       161     0     9     1     1
  9.3116177538709780E-02 a       162     0     9     1     2
 -1.3414955531041853E-01 a       163     0     9     1     3
 -1.2734569164058856E-02 a       164     0     9     1     4
 -3.5145076148944340E-02 a       165     0     9     1     5
  6.9447073988893951E-02 a       166     0     9     1     6
  1.5930975044240925E-01 a       167     0     9     1     7
 -7.2674822774974482E-03 a       168     0     9     1     8
  2.4872537921022803E-01 a       169     0     9     1     9
  6.6084531358941975E-02 a       170     0     9     1    10
  2.6557520435573839E-02 a       171     0     9     1    11
  2.2025978848373659E-01 a       172     0     9     1    12
  3.7402955080705697E-01 a       173     0     9     1    13
  3.6610981583522423E-01 a       174     0     9     1    14
  2.1045879124624900E-01 a       175     0     9     1    15
  4.9435394921831570E-02 a       176     0     9     1    16
  2.5419446315753369E-01 a       177     0     9     1    17
  1.4395066317989044E-01 a       178     0     9     1    18
 -2.2075548942010109E-01 a       179     0     9     1    19
 -1.3391206372653558E-01 a       180     0     9     1    20
 -2.6041359526710500E-01 a       181     0    10     1     1
 -8.0474738250517333E-02 a       182     0    10     1     2
 -1.9058679890383853E-01 a       183     0    10     1     3
 -4.0451318900204952E-01 a       184     0    10     1     4
 -4.7039239172664497E-02 a       185     0    10     1     5
 -2.9336095595267742E-01 a       186     0    10     1     6
  2.7180081154905528E-01 a       187     0    10     1     7
  7.9594040602843599E-02 a       188     0    10     1     8
 -2.4652879468594738E-01 a       189     0    10     1     9
 -2.0442270814608748E-01 a       190     0    10     1    10
  4.7875155281477781E-02 a       191     0    10     1    11
 -1.1501868840249051E-02 a       192     0    10     1    12
  2.4209452069506440E-01 a       193     0    10     1    13
  2.5612105550924713E-01 a       194     0    10     1    14
 -1.7494712938427998E-01 a       195     0    10     1    15
  1.6386942488079675E-01 a       196     0    10     1    16
 -1.3543196343396336E-02 a       197     0    10     1    17
 -8.4112518023300484E-02 a       198     0    10     1    18
 -2.9593705281862337E-01 a       199     0    10     1    19
  2.0234354748698016E-02 a       200     0    10     1    20
 -7.4689216720193088E-02 a       201     0    11     1     1
  1.3169962986866521E-01 a       202     0    11     1     2
  5.2136155042598875E-01 a       203     0    11     1     3
 -2.6004113672461443E-01 a       204     0    11     1     4
  3.6213472636331007E-01 a       205     0    11     1     5
  4.4469379862415843E-02 a       206     0    11     1     6
  1.1325197197751721E-01 a       207     0    11     1     7
  5.4065271325322151E-01 a       208     0    11     1     8
  3.9110339788324244E-01 a       209     0    11     1     9
  5.4903986818000772E-01 a       210     0    11     1    10
  2.2506617837848014E-01 a       211     0    11     1    11
  4.5148524833676540E-02 a       212     0    11     1    12
  1.2552783285365160E-01 a       213     0    11     1    13
  1.7259732814715295E-01 a       214     0    11     1    14
  2.6926566067787328E-01 a       215     0    11     1    15
 -1.8964302199792910E-01 a       216     0    11     1    16
 -3.1593316182251757E-01 a       217     0    11     1    17
  1.6362724120604369E-01 a       218     0    11     1    18
  5.1586918375709068E-01 a       219     0    11     1    19
 -1.5881869184295175E-01 a       220     0    11     1    20
 -3.1156925524373436E-01 a       221     0    12     1     1
  1.8120338768298661E-01 a       222     0    12     1     2
  2.2527429318839439E-02 a       223     0    12     1     3
 -3.3063965153525715E-01 a       224     0    12     1     4
 -8.6914476058205320E-02 a       225     0    12     1     5
 -9.8153589613086845E-02 a       226     0    12     1     6
  3.9173212266585361E-01 a       227     0    12     1     7
  1.3947719471614090E-01 a       228     0    12     1     8
  3.9650103961865413E-01 a       229     0    12     1     9
 -1.0878262476110294E-01 a       230     0    12     1    10
  6.2526448817134248E-02 a       231     0    12     1    11
 -1.3385034429575302E-01 a       232     0    12     1    12
  1.2258214264858455E-01 a       233     0    12     1    13
 -2.0391377887940312E-01 a       234     0    12     1    14
 -2.3382426554210528E-01 a       235     0    12     1    15
  1.5855348470277458E-01 a       236     0    12     1    16
 -3.2943108275895944E-01 a       237     0    12     1    17
  1.1045568751190293E-02 a       238     0    12     1    18
  1.2769617578913944E-01 a       239     0    12     1    19
  2.3248704909608564E-01 a       240     0    12     1    20
 -3.6165379122151065E-01 a       241     0    13     1     1
 -8.6605159940623760E-02 a       242     0    13     1     2
 -4.4126397764734027E-01 a       243     0    13     1     3
  2.9249539945525665E-01 a       244     0    13     1     4
  4.8697382588370017E-02 a       245     0    13     1     5
 -3.1115751950153581E-02 a       246     0    13     1     6
 -2.8736125017816223E-04 a       247     0    13     1     7
 -2.9540440509275867E-01 a       248     0    13     1     8
  3.9772213746704321E-01 a       249     0    13     1     9
  1.8419669813101164E-01 a       250     0    13     1    10
  1.9155233222258958E-01 a       251     0    13     1    11
 -2.3993747398503520E-01 a       252     0    13     1    12
 -8.3296273320744005E-02 a       253     0    13     1    13
 -4.3656808748312376E-01 a       254     0    13     1    14
 -2.5855508644230135E-01 a       255     0    13     1    15
 -4.0800512717505755E-01 a       256     0    13     1    16
 -3.3235951523791346E-01 a       257     0    13     1    17
  6.3232489067945527E-02 a       258     0    13     1    18
  2.4420216008798584E-01 a       259     0    13     1    19
 -5.0143889417858405E-02 a       260     0    13     1    20
 -2.6197434097239536E-01 a       261     0    14     1     1
  5.8227656136986078E-02 a       262     0    14     1     2
 -1.6045052986804931E-01 a       263     0    14     1     3
  4.6201963644408833E-01 a       264     0    14     1     4
  9.5999497578642592E-03 a       265     0    14     1     5
 -3.1983568686316716E-02 a       266     0    14     1     6
  3.7785485941656249E-01 a       267     0    14     1     7
 -1.8033101950333461E-01 a       268     0    14     1     8
  1.1204950956167317E-01 a       269     0    14     1     9
  1.1370542048958708E-01 a       270     0    14     1    10
 -1.6472018350561943E-01 a       271     0    14     1    11
 -5.4686528651132292E-02 a       272     0    14     1    12
  2.6420891434961408E-01 a       273     0    14     1    13
  2.9205926580789594E-02 a       274     0    14     1    14
 -4.1965311133128708E-01 a       275     0    14     1    15
 -1.2109532900244860E-01 a       276     0    14     1    16
 -1.4574373474286931E-01 a       277     0    14     1    17
  1.1962507431155339E-01 a       278     0    14     1    18
  1.3031446808534447E-01 a       279     0    14     1    19
 -6.2377935377562244E-01 a       280     0    14     1    20
 -2.4586243915873780E-02 a       281     0    15     1     1
  3.7681199886575495E-01 a       282     0    15     1     2
 -2.9766053039406208E-02 a       283     0    15     1     3
 -1.4639395193171600E-01 a       284     0    15     1     4
  2.1396034712031667E-01 a       285     0    15     1     5
 -3.5494591696017243E-02 a       286     0    15     1     6
 -4.9571484519429987E-01 a       287     0    15     1     7
  5.5652628174296601E-02 a       288     0    15     1     8
 -2.1373725162627791E-01 a       289     0    15     1     9
  2.3976151445232866E-01 a       290     0    15     1    10
  3.0673310221867173E-01 a       291     0    15     1    11
  1.4661853121404625E-01 a       292     0    15     1    12
 -2.6720756297678244E-01 a       293     0    15     1    13
  2.9686823573248700E-01 a       294     0    15     1    14
 -2.1558717551936363E-01 a       295     0    15     1    15
  3.6419012821831936E-01 a       296     0    15     1    16
  8.1471204269372554E-03 a       297     0    15     1    17
 -2.4067463560130864E-01 a       298     0    15     1    18
  4.0287893018747817E-01 a       299     0    15     1    19
 -7.8576715880045972E-02 a       300     0    15     1    20
 -1.7890460911043735E-01 a       301     0    16     1     1
  2.5624653470120812E-01 a       302     0    16     1     2
  1.3079802233725604E-01 a       303     0    16     1     3
 -2.1450964234659353E-01 a       304     0    16     1     4
  1.0652334972341138E-01 a       305     0    16     1     5
 -2.3865964458230510E-01 a       306     0    16     1     6
  1.9375709641072220E-01 a       307     0    16     1     7
  1.0840921399622255E-01 a       308     0    16     1     8
  3.9068123436415886E-01 a       309     0    16     1     9
  6.2216626059572129E-02 a       310     0    16     1    10
  1.1132796053484671E-01 a       311     0    16     1    11
 -1.1396058281716311E-01 a       312     0    16     1    12
  4.1616464571922467E-02 a       313     0    16     1    13
  2.6976785572693091E-01 a       314     0    16     1    14
 -8.9691896952574665E-02 a       315     0    16     1    15
 -4.5935297843166339E-01 a       316     0    16     1    16
  3.7817974881530894E-02 a       317     0    16     1    17
 -1.9510889625076444E-01 a       318     0    16     1    18
  1.9182912091385521E-01 a       319     0    16     1    19
  2.0100269948243779E-01 a       320     0    16     1    20
  2.4455745883023702E-01 a       321     0    17     1     1
 -5.1902644615258349E-02 a       322     0    17     1     2
  3.7116453140216105E-01 a       323     0    17     1     3
  2.6465914925272710E-01 a       324     0    17     1     4
  1.6434848696240917E-01 a       325     0    17     1     5
 -3.4698496337841955E-01 a       326     0    17     1     6
 -2.8343707033533372E-01 a       327     0    17     1     7
 -1.3086952968553972E-01 a       328     0    17     1     8
 -3.3244197484414673E-01 a       329     0    17     1     9
  7.6721927836484460E-02 a       330     0    17     1    10
  4.3180061358523292E-01 a       331     0    17     1    11
 -1.4107543945381770E-01 a       332     0    17     1    12
 -4.1904633002518968E-02 a       333     0    17     1    13
 -7.9727792727926697E-02 a       334     0    17     1    14
 -1.0664011765342304E-01 a       335     0    17     1    15
  1.1244457549070744E-01 a       336     0    17     1    16
  2.3813428853870947E-01 a       337     0    17     1    17
 -2.9435872025306653E-01 a       338     0    17     1    18
  6.3124488090134143E-02 a       339     0    17     1    19
  1.0166635480825055E-01 a       340     0    17     1    20
 -9.5241774037687549E-02 a       341     0    18     1     1
  8.4800811696009407E-02 a       342     0    18     1     2
  3.6230916073212160E-01 a       343     0    18     1     3
 -2.1406033530045035E-01 a       344     0    18     1     4
  1.9467329470127220E-01 a       345     0    18     1     5
 -5.5439952690518068E-01 a       346     0    18     1     6
  1.8983695534560113E-01 a       347     0    18     1     7
  1.4018512249941786E-01 a       348     0    18     1     8
  1.4607635831972765E-01 a       349     0    18     1     9
  5.0156620599437776E-02 a       350     0    18     1    10
 -2.3322908099917486E-01 a       351     0    18     1    11
 -7.2935748006598730E-02 a       352     0    18     1    12
 -2.6970961106806063E-01 a       353     0    18     1    13
 -4.8316635169628597E-01 a       354     0    18     1    14
  1.3996729070284819E-01 a       355     0    18     1    15
  5.1231031309822289E-02 a       356     0    18     1    16
  2.0889478896131677E-01 a       357     0    18     1    17
  1.8001027452885779E-01 a       358     0    18     1    18
 -5.9865912235382270E-02 a       359     0    18     1    19
 -3.3119923776057275E-01 a       360     0    18     1    20
  2.1302894560447463E-01 a       361     0    19     1     1
  2.1120103701002862E-01 a       362     0    19     1     2
  2.7756909837057547E-01 a       363     0    19     1     3
 -5.6643809442190975E-02 a       364     0    19     1     4
 -1.7581244027089792E-02 a       365     0    19     1     5
 -9.8088838652562294E-02 a       366     0    19     1     6
  1.6868714584434594E-02 a       367     0    19     1     7
  1.7379807561287744E-01 a       368     0    19     1     8
 -1.0791904783151984E-01 a       369     0    19     1     9
 -8.7083581671857941E-03 a       370     0    19     1    10
  1.3346336522621993E-01 a       371     0    19     1    11
 -1.1224153956089468E-01 a       372     0    19     1    12
  1.6433495533732212E-01 a       373     0    19     1    13
 -2.0420587949772817E-01 a       374     0    19     1    14
 -1.9279560484460811E-01 a       375     0    19     1    15
 -6.7799136806628912E-02 a       376     0    19     1    16
  1.1257174672138655E-01 a       377     0    19     1    17
  1.9715282757204682E-02 a       378     0    19     1    18
 -4.1434890011091019E-02 a       379     0    19     1    19
 -1.3782593883576646E-01 a       380     0    19     1    20
  6.4578985663950580E-02 a       381     0    20     1     1
 -1.6000793108515035E-01 a       382     0    20     1     2
 -4.0321744192867792E-01 a       383     0    20     1     3
 -3.9552625305832634E-01 a       384     0    20     1     4
 -1.2100762381238131E-02 a       385     0    20     1     5
  7.7422314292200167E-01 a       386     0    20     1     6
  3.1164832176151996E-01 a       387     0    20     1     7
 -4.3742744956391189E-01 a       388     0    20     1     8
 -7.1685760789651540E-02 a       389     0    20     1     9
 -3.2546504672512661E-01 a       390     0    20     1    10
  1.8204085399638417E-01 a       391     0    20     1    11
 -2.0751984476508173E-01 a       392     0    20     1    12
  3.9046366441409275E-01 a       393     0    20     1    13
  7.6217175472420018E-02 a       394     0    20     1    14
  3.5832914740480543E-01 a       395     0    20     1    15
 -3.8758185690842456E-01 a       396     0    20     1    16
 -1.2762406618285327E-01 a       397     0    20     1    17
 -4.2649996075013921E-02 a       398     0    20     1    18
  1.1801869573999441E-01 a       399     0    20     1    19
 -6.0043596296769315E-02 a       400     0    20     1    20
 -5.1747362274123865E-01 a       401     0    21     1     1
 -4.2891481728522762E-01 a       402     0    21     1     2
  4.9485596583141646E-02 a       403     0    21     1     3
 -4.1519566185638013E-01 a       404     0    21     1     4
  1.7634813901099533E-01 a       405     0    21     1     5
  3.8423653913313444E-01 a       406     0    21     1     6
  2.5709137950696503E-01 a       407     0    21     1     7
 -3.5300540110261819E-02 a       408     0    21     1     8
  1.8972217198852240E-01 a       409     0    21     1     9
  3.4093810416334680E-01 a       410     0    21     1    10
  2.1909456326814200E-01 a       411     0    21     1    11
 -1.4529583999628509E-01 a       412     0    21     1    12
  1.2304540162334836E-01 a       413     0    21     1    13
 -1.5833091854711218E-01 a       414     0    21     1    14
 -5.1838803315446935E-01 a       415     0    21     1    15
 -2.5546816781535236E-01 a       416     0    21     1    16
  3.1927033423059409E-01 a       417     0    21     1    17
 -6.4155856200714026E-02 a       418     0    21     1    18
 -5.6199160414431328E-03 a       419     0    21     1    19
 -4.0766947025952044E-02 a       420     0    21     1    20
  9.2951250758322654E-02 a       421     0    22     1     1
  3.4187482684706860E-01 a       422     0    22     1     2
 -5.1671566939041451E-02 a       423     0    22     1     3
 -2.9526661291105309E-02 a       424     0    22     1     4
  3.3904661034125694E-01 a       425     0    22     1     5
 -4.6047805209744164E-02 a       426     0    22     1     6
 -3.7402896119394424E-01 a       427     0    22     1     7
 -1.1430058876950284E-01 a       428     0    22     1     8
  1.3657125408219625E-01 a       429     0    22     1     9
 -3.4445809745465666E-01 a       430     0    22     1    10
  3.6149234254041041E-01 a       431     0    22     1    11
  8.9509052373395875E-02 a       432     0    22     1    12
 -2.9982079590391206E-02 a       433     0    22     1    13
  1.0754816000741040E-01 a       434     0    22     1    14
  4.5642732939856206E-01 a       435     0    22     1    15
  1.1621232298671080E-01 a       436     0    22     1    16
 -1.0247233928521218E-01 a       437     0    22     1    17
  1.0204929534054571E-02 a       438     0    22     1    18
  2.1687692089144062E-02 a       439     0    22     1    19
  4.8863424565310637E-01 a       440     0    22     1    20
 -2.1719976435679966E-01 a       441     0    23     1     1
 -5.1261680797205633E-01 a       442     0    23     1     2
 -1.8851779254265194E-01 a       443     0    23     1     3
 -3.3958639450625383E-01 a       444     0    23     1     4
 -2.2740383815476792E-01 a       445     0    23     1     5
 -1.9908637285292168E-03 a       446     0    23     1     6
  1.3456979379530531E-01 a       447     0    23     1     7
 -5.9389802974575259E-02 a       448     0    23     1     8
  2.3078510785320513E-02 a       449     0    23     1     9
 -6.1785126609403251E-01 a       450     0    23     1    10
  1.2998201918843920E-02 a       451     0    23     1    11
 -3.3358329755839744E-01 a       452     0    23     1    12
 -1.6941696641281201E-01 a       453     0    23     1    13
 -4.7808382032705660E-01 a       454     0    23     1    14
 -1.7220064176758071E-01 a       455     0    23     1    15
  6.6456332251791972E-01 a       456     0    23     1    16
 -8.8832036288863186E-02 a       457     0    23     1    17
 -1.5248498202316790E-01 a       458     0    23     1    18
  3.2199539791772425E-02 a       459     0    23     1    19
  3.1149562582197382E-01 a       460     0    23     1    20
  1.5270739902374170E-01 a       461     0    24     1     1
  1.4134479955421289E-01 a       462     0    24     1     2
  1.8726701884733793E-01 a       463     0    24     1     3
  1.7916907082929809E-01 a       464     0    24     1     4
  8.6602974714799413E-02 a       465     0    24     1     5
  4.9889614788061330E-02 a       466     0    24     1     6
 -2.6653053949845706E-01 a       467     0    24     1     7
  3.7054110639879401E-01 a       468     0    24     1     8
 -6.2976103879825898E-02 a       469     0    24     1     9
  3.7817824405201006E-01 a       470     0    24     1    10
  3.5881995593268745E-01 a       471     0    24     1    11
  5.5101168145772497E-02 a       472     0    24     1    12
  1.7883987041839761E-02 a       473     0    24     1    13
  3.3078659223361112E-01 a       474     0    24     1    14
 -2.0390473020987857E-01 a       475     0    24     1    15
 -2.4437420030198062E-01 a       476     0    24     1    16
  8.8840104569363781E-02 a       477     0    24     1    17
 -1.0051518754793434E-01 a       478     0    24     1    18
  8.6032711016766211E-02 a       479     0    24     1    19
 -2.2328734913725071E-02 a       480     0    24     1    20
  4.1184095121275166E-01 a       481     0    25     1     1
  1.2263828866394889E-01 a       482     0    25     1     2
  1.3996099098160975E-01 a       483     0    25     1     3
  1.9626659480767175E-01 a       484     0    25     1     4
 -8.0665475999074948E-02 a       485     0    25     1     5
 -3.3181137071905525E-01 a       486     0    25     1     6
 -1.4556851627668796E-01 a       487     0    25     1     7
 -4.3929264315027111E-01 a       488     0    25     1     8
 -1.3077881364849045E-01 a       489     0    25     1     9
  1.2241596190185269E-01 a       490     0    25     1    10
 -1.2157045820468365E-01 a       491     0    25     1    11
 -9.0265051836392149E-02 a       492     0    25     1    12
  1.1139893265861991E-01 a       493     0    25     1    13
  7.5668455901095485E-02 a       494     0    25     1    14
 -5.2567201260295682E-02 a       495     0    25     1    15
 -2.2540364163458498E-01 a       496     0    25     1    16
  1.6411740094048052E-01 a       497     0    25     1    17
 -1.9843176924568533E-02 a       498     0    25     1    18
 -9.9731173550738794E-02 a       499     0    25     1    19
 -1.5866901315838733E-01 a       500     0    25     1    20
 -7.1987628686453309E-02 a       501     0    26     1     1
 -7.8547529190738333E-02 a       502     0    26     1     2
 -7.0815312196727861E-02 a       503     0    26     1     3
  2.3387541164929229E-01 a       504     0    26     1     4
  1.3457208076719049E-01 a       505     0    26     1     5
 -1.6933210017122339E-02 a       506     0    26     1     6
  3.1743872413618451E-01 a       507     0    26     1     7
 -2.3069014058869203E-01 a       508     0    26     1     8
 -3.4999798883024563E-01 a       509     0    26     1     9
  1.3118821818894738E-01 a       510     0    26     1    10
 -2.9698228872023988E-02 a       511     0    26     1    11
  3.6645222277657891E-01 a       512     0    26     1    12
 -1.6538258362851659E-02 a       513     0    26     1    13
 -3.0308492465179454E-01 a       514     0    26     1    14
  2.9728372004239884E-01 a       515     0    26     1    15
  5.2525892784055095E-01 a       516     0    26     1    16
  2.5030465785086964E-01 a       517     0    26     1    17
 -9.9012313604604260E-02 a       518     0    26     1    18
 -2.9208644358410286E-02 a       519     0    26     1    19
  1.0472779223381735E-02 a       520     0    26     1    20
  4.3483479668055053E-01 a       521     0    27     1     1
  1.8449258452769479E-01 a       522     0    27     1     2
  4.0030451129542738E-01 a       523     0    27     1     3
  1.4182271144702191E-01 a       524     0    27     1     4
 -2.3228231997699154E-02 a       525     0    27     1     5
 -1.6282263751206669E-01 a       526     0    27     1     6
 -2.5414179088140565E-01 a       527     0    27     1     7
  8.0833827894219112E-02 a       528     0    27     1     8
  8.9488169202206508E-02 a       529     0    27     1     9
 -2.1041800722420925E-01 a       530     0    27     1    10
  1.4296955499583000E-01 a       531     0    27     1    11
 -3.4203244689555146E-01 a       532     0    27     1    12
  7.9428626679953068E-02 a       533     0    27     1    13
  3.1111783052205194E-01 a       534     0    27     1    14
  2.6442515956494395E-01 a       535     0    27     1    15
  5.6797894423321379E-02 a       536     0    27     1    16
  1.4210187186820644E-01 a       537     0    27     1    17
  2.4687954292118569E-01 a       538     0    27     1    18
  6.4223438845225342E-02 a       539     0    27     1    19
 -1.4406694132468048E-02 a       540     0    27     1    20
 -3.0925165046408964E-01 b       541     1     1
  1.1657037258823069E+00 b       542     1     2
 -7.7866498744450130E-01 b       543     1     3
 -1.2093629057083417E+00 b       544     1     4
 -8.3774714607578837E-01 b       545     1     5
 -4.6705916933861064E-01 b       546     1     6
 -3.3487728097825620E-01 b       547     1     7
 -2.3538437911028931E-01 b       548     1     8
  2.9620175551727412E-01 b       549     1     9
 -2.3552949242004778E-01 b       550     1    10
  4.9828202704840979E-01 b       551     1    11
 -1.0609743785128991E+00 b       552     1    12
 -5.3144750622485371E-01 b       553     1    13
  6.9244323279790299E-01 b       554     1    14
  1.2433871991279564E+00 b       555     1    15
 -1.4079988033745718E+00 b       556     1    16
  1.6583382906194548E+00 b       557     1    17
  1.1462494489790345E+00 b       558     1    18
  5.2748449910117978E-01 b       559     1    19
  1.3617932559379768E+00 b       560     1    20
 -4.5469085681838944E-01 a       561     1     1     2     1
 -1.7133224095566232E-01 a       562     1     1     2     2
 -2.7950692346544531E-01 a       563     1     1     2     3
 -7.0287413731005541E-02 a       564     1     1     2     4
  3.5400217626752267E-01 a       565     1     1     2     5
  4.7487933164060847E-01 a       566     1     1     2     6
 -4.5371413769415747E-01 a       567     1     1     2     7
 -2.8506379934422749E-01 a       568     1     1     2     8
  4.9371610752891987E-01 a       569     1     1     2     9
 -4.5101055150685943E-01 a       570     1     1     2    10
 -6.9560705705688775E-01 a       571     1     1     2    11
  3.0266976089263775E-01 a       572     1     1     2    12
 -1.9815002287949976E-01 a       573     1     1     2    13
  2.5111801908723069E-01 a       574     1     1     2    14
  5.2174727846469282E-01 a       575     1     1     2    15
 -7.8179379649493938E-02 a       576     1     1     2    16
  1.3977403709700192E-01 a       577     1     1     2    17
  4.1088052005839421E-01 a       578     1     1     2    18
 -1.4676489340555257E-01 a       579     1     1     2    19
  3.3679455197751029E-01 a       580     1     1     2    20
  5.6533820608348784E-01 a       581     1     2     2     1
 -4.4293074558304374E-01 a       582     1     2     2     2
 -1.0192935399176077E-01 a       583     1     2     2     3
 -3.3135191262319169E-01 a       584     1     2     2     4
 -1.5661779207634249E-01 a       585     1     2     2     5
  6.5644846617630315E-02 a       586     1     2     2     6
  1.6630206728800401E-01 a       587     1     2     2     7
  4.6328904910359348E-01 a       588     1     2     2     8
 -3.4890478429235983E-01 a       589     1     2     2     9
  5.7248226851841266E-01 a       590     1     2     2    10
 -1.7472972342504361E-01 a       591     1     2     2    11
 -2.7064890583944151E-01 a       592     1     2     2    12
  2.9992752523873362E-01 a       593     1     2     2    13
 -2.8367818132804007E-01 a       594     1     2     2    14
 -1.6213395780966838E-01 a       595     1     2     2    15
  2.0791378382513107E-01 a       596     1     2     2    16
 -5.6194394403974512E-01 a       597     1     2     2    17
 -2.4294944612053934E-02 a       598     1     2     2    18
 -7.1226319083395370E-02 a       599     1     2     2    19
  5.5297668562749713E-01 a       600     1     2     2    20
 -4.6626796326001890E-01 a       601     1     3     2     1
  3.4888878840440002E-01 a       602     1     3     2     2
  3.1460378136022688E-01 a       603     1     3     2     3
 -4.4040951473918766E-01 a       604     1     3     2     4
  4.5993067274271981E-01 a       605     1     3     2     5
  6.8455084472765682E-01 a       606     1     3     2     6
  4.1954197944147564E-01 a       607     1     3     2     7
 -7.4033414973852907E-02 a       608     1     3     2     8
 -4.9932995273349712E-01 a       609     1     3     2     9
 -3.6797499366179676E-01 a       610     1     3     2    10
  5.1537042416866108E-01 a       611     1     3     2    11
 -3.5038635306855664E-01 a       612     1     3     2    12
 -5.3107516613923356E-01 a       613     1     3     2    13
  2.8670222979415727E-01 a       614     1     3     2    14
 -3.0332364266592582E-01 a       615     1     3     2    15
 -3.3782357885027392E-01 a       616     1     3     2    16
  2.7225409771929382E-01 a       617     1     3     2    17
 -4.7950117006635457E-01 a       618     1     3     2    18
 -4.8142837899101920E-01 a       619     1     3     2    19
 -4.5010059961514021E-01 a       620     1     3     2    20
  3.9706118403544882E-01 a       621     1     4     2     1
  2.9003972382186577E-01 a       622     1     4     2     2
 -4.5703084609675687E-01 a       623     1     4     2     3
 -6.5618671515349836E-02 a       624     1     4     2     4
 -1.7827957670835717E-01 a       625     1     4     2     5
 -2.3982744860665095E-02 a       626     1     4     2     6
 -6.4335464467061143E-01 a       627     1     4     2     7
  1.2403768326608752E-01 a       628     1     4     2     8
 -4.8643951659072310E-01 a       629     1     4     2     9
 -4.1371465498445908E-01 a       630     1     4     2    10
  9.0400705629252676E-02 a       631     1     4     2    11
 -4.6812017028208996E-01 a       632     1     4     2    12
 -3.5337749553292330E-01 a       633     1     4     2    13
 -2.6211673867725954E-01 a       634     1     4     2    14
 -3.4166700320172383E-01 a       635     1     4     2    15
  4.2942300099655219E-03 a       636     1     4     2    16
  5.5172871539375845E-01 a       637     1     4     2    17
 -1.4861083749140286E-01 a       638     1     4     2    18
 -2.3885071151574111E-01 a       639     1     4     2    19
 -3.3986709188938885E-01 a       640     1     4     2    20
  1.4363983784605027E-02 a       641     1     5     2     1
 -2.7435022937913406E-01 a       642     1     5     2     2
  4.1554895277229220E-01 a       643     1     5     2     3
 -4.5851679072462592E-01 a       644     1     5     2     4
  1.3785193602224782E-01 a       645     1     5     2     5
  2.2528513505652625E-01 a       646     1     5     2     6
  4.9219580605218194E-01 a       647     1     5     2     7
  3.6079738099704900E-01 a       648     1     5     2     8
  6.3312444178567018E-01 a       649     1     5     2     9
 -2.0370320478348419E-01 a       650     1     5     2    10
 -4.2272468469527685E-01 a       651     1     5     2    11
  6.7994903455312452E-03 a       652     1     5     2    12
  2.5565593179328461E-01 a       653     1     5     2    13
  3.6010968486828103E-02 a       654     1     5     2    14
 -4.0978707333544417E-01 a       655     1     5     2    15
 -6.8998800764310766E-02 a       656     1     5     2    16
  2.7205136986994377E-01 a       657     1     5     2    17
  4.4456861054160013E-01 a       658     1     5     2    18
  2.8872882661189608E-01 a       659     1     5     2    19
 -1.7107008991345368E-01 a       660     1     5     2    20
 -4.7710913081230594E-01 a       661     1     6     2     1
  6.7322246738264468E-01 a       662     1     6     2     2
  2.3122052527769660E-01 a       663     1     6     2     3
 -4.3056117614588169E-01 a       664     1     6     2     4
 -3.3232239315756207E-01 a       665     1     6     2     5
 -3.8642785445621858E-01 a       666     1     6     2     6
  3.5824068276647347E-01 a       667     1     6     2     7
 -3.2317109967217733E-01 a       668     1     6     2     8
  1.2508900480786564E-01 a       669     1     6     2     9
 -4.2990592148964135E-01 a       670     1     6     2    10
 -5.3519587308831573E-01 a       671     1     6     2    11
  4.3799346804655798E-01 a       672     1     6     2    12
 -2.5248770047960728E-01 a       673     1     6     2    13
 -2.9454060399152771E-01 a       674     1     6     2    14
  1.3182165037224247E-01 a       675     1     6     2    15
 -5.8624995438619165E-01 a       676     1     6     2    16
  1.8622812474971354E-01 a       677     1     6     2    17
  1.3894877174352069E-01 a       678     1     6     2    18
 -3.4925323227533084E-01 a       679     1     6     2    19
  4.0437868314648195E-01 a       680     1     6     2    20
  1.7582198742067179E-01 a       681     1     7     2     1
 -5.2438614295368580E-01 a       682     1     7     2     2
 -7.6217374784351521E-01 a       683     1     7     2     3
 -3.3742918177871040E-01 a       684     1     7     2     4
 -1.1171118699490254E-01 a       685     1     7     2     5
 -4.1463752982930741E-01 a       686     1     7     2     6
 -3.6269944102149848E-01 a       687     1     7     2     7
  4.1458801147894220E-01 a       688     1     7     2     8
  1.3474844881002895E-01 a       689     1     7     2     9
 -2.6502768446132391E-01 a       690     1     7     2    10
  1.3426712330505580E-01 a       691     1     7     2    11
 -4.1126013902537856E-01 a       692     1     7     2    12
 -1.6586877211762380E-01 a       693     1     7     2    13
 -3.2235999259145309E-01 a       694     1     7     2    14
  3.5552320011837218E-01 a       695     1     7     2    15
  4.5363918972220435E-01 a       696     1     7     2    16
  2.1488872337707923E-01 a       697     1     7     2    17
 -2.0659957794475731E-01 a       698     1     7     2    18
 -2.6413388338496317E-02 a       699     1     7     2    19
 -3.7514572900848586E-01 a       700     1     7     2    20
  4.4684624043085802E-01 a       701     1     8     2     1
 -4.5287898137970023E-01 a       702     1     8     2     2
 -3.9062899375460930E-01 a       703     1     8     2     3
 -6.2888930054685752E-02 a       704     1     8     2     4
  1.0014840799425208E-01 a       705     1     8     2     5
 -5.5926205040472321E-01 a       706     1     8     2     6
  4.7213391389623255E-01 a       707     1     8     2     7
 -5.5209587185831688E-02 a       708     1     8     2     8
  2.5984812882106512E-01 a       709     1     8     2     9
  4.5666909454017378E-02 a       710     1     8     2    10
 -4.5135355757934326E-01 a       711     1     8     2    11
  6.2993571413378149E-02 a       712     1     8     2    12
 -4.7867791622918832E-01 a       713     1     8     2    13
  7.1262356200060648E-02 a       714     1     8     2    14
  1.5454397737086126E-01 a       715     1     8     2    15
 -3.2900092351181309E-01 a       716     1     8     2    16
  3.9811644850101074E-01 a       717     1     8     2    17
  3.6752069513541019E-01 a       718     1     8     2    18
  3.6186018480954230E-01 a       719     1     8     2    19
  1.4941411863814583E-01 a       720     1     8     2    20
 -3.6754717637598566E-01 a       721     1     9     2     1
  1.1576662131987954E-01 a       722     1     9     2     2
 -4.0261961839155452E-01 a       723     1     9     2     3
 -3.5881951916434696E-01 a       724     1     9     2     4
  2.9432310750100071E-01 a       725     1     9     2     5
  4.2285532855420699E-01 a       726     1     9     2     6
  4.9661535143144697E-01 a       727     1     9     2     7
 -5.3722407714075404E-01 a       728     1     9     2     8
 -2.7381391742987499E-01 a       729     1     9     2     9
  1.2769778256711500E-01 a       730     1     9     2    10
 -3.2345706656317880E-01 a       731     1     9     2    11
  2.4212682374890343E-01 a       732     1     9     2    12
 -3.9808173712236655E-01 a       733     1     9     2    13
  7.7581532476404660E-02 a       734     1     9     2    14
  2.1839069356031937E-01 a       735     1     9     2    15
  3.0327400572178465E-01 a       736     1     9     2    16
  4.2288148531266022E-02 a       737     1     9     2    17
  3.8688542618935556E-01 a       738     1     9     2    18
 -3.5540293710334558E-01 a       739     1     9     2    19
  1.0001609254215653E-01 a       740     1     9     2    20
 -2.0557639361486879E-01 a       741     1    10     2     1
  2.4339167307936896E-01 a       742     1    10     2     2
 -1.6751511078811113E-01 a       743     1    10     2     3
  2.1658579285715437E-01 a       744     1    10     2     4
 -4.6846699854358625E-01 a       745     1    10     2     5
 -5.7780542067587104E-01 a       746     1    10     2     6
  3.4533528314914619E-01 a       747     1    10     2     7
  3.6021383965723325E-01 a       748     1    10     2     8
 -1.6824776367173522E-01 a       749     1    10     2     9
  3.9726256030189067E-01 a       750     1    10     2    10
 -7.0003706776249175E-01 a       751     1    10     2    11
  2.5719388829693751E-01 a       752     1    10     2    12
  2.2570855235183584E-01 a       753     1    10     2    13
 -3.2828379933655810E-01 a       754     1    10     2    14
  5.7334996814857808E-01 a       755     1    10     2    15
  4.2813164318663949E-01 a       756     1    10     2    16
  3.2838411176893695E-01 a       757     1    10     2    17
 -5.1131324793059330E-01 a       758     1    10     2    18
  3.9155164233243833E-01 a       759     1    10     2    19
 -5.2790858882435621E-01 a       760     1    10     2    20
 -1.9794240080250231E-01 a       761     1    11     2     1
 -3.1376993096698946E-01 a       762     1    11     2     2
 -4.3559232497353251E-01 a       763     1    11     2     3
 -2.6238006235312195E-01 a       764     1    11     2     4
 -2.9310187769089519E-01 a       765     1    11     2     5
  4.6041412816766641E-01 a       766     1    11     2     6
 -3.6672401271368443E-01 a       767     1    11     2     7
  4.5228531049915766E-01 a       768     1    11     2     8
 -3.2212955313672925E-01 a       769     1    11     2     9
  3.6040879312647101E-01 a       770     1    11     2    10
  3.8411362831559359E-01 a       771     1    11     2    11
 -3.8300218520384677E-01 a       772     1    11     2    12
  4.0830570638341696E-01 a       773     1    11     2    13
 -5.7229307701452192E-01 a       774     1    11     2    14
 -1.4159452353469296E-01 a       775     1    11     2    15
  3.8630070204028449E-01 a       776     1    11     2    16
 -2.5515776256849892E-01 a       777     1    11     2    17
  4.6676347049735190E-01 a       778     1    11     2    18
 -3.7798434522420776E-01 a       779     1    11     2    19
  2.4789422707009270E-01 a       780     1    11     2    20
  2.4037194475632231E-01 a       781     1    12     2     1
 -2.2498117300266901E-01 a       782     1    12     2     2
 -4.6934661976290190E-02 a       783     1    12     2     3
  4.6257668423216097E-01 a       784     1    12     2     4
  5.5993388794612009E-01 a       785     1    12     2     5
 -4.1317078611175445E-01 a       786     1    12     2     6
 -2.5201130796484456E-01 a       787     1    12     2     7
 -2.2995541143075940E-01 a       788     1    12     2     8
 -4.7001135876364014E-01 a       789     1    12     2     9
 -3.5195822545506411E-01 a       790     1    12     2    10
 -5.7323956288245281E-01 a       791     1    12     2    11
 -1.6972454442021578E-01 a       792     1    12     2    12
 -3.3072898927644034E-01 a       793     1    12     2    13
  5.2411264733995677E-01 a       794     1    12     2    14
 -8.3816718959004843E-01 a       795     1    12     2    15
 -5.3475122387750396E-01 a       796     1    12     2    16
  7.1679198066049088E-01 a       797     1    12     2    17
 -2.1034000521153928E-01 a       798     1    12     2    18
  8.6797328705620555E-02 a       799     1    12     2    19
 -5.8826459882914017E-01 a       800     1    12     2    20
  4.2247438081730526E-01 a       801     1    13     2     1
  6.5553056252759923E-01 a       802     1    13     2     2
 -7.7675997696260421E-02 a       803     1    13     2     3
  4.6459006843083112E-01 a       804     1    13     2     4
  2.9251075396414244E-01 a       805     1    13     2     5
  8.4203304704397214E-02 a       806     1    13     2     6
  2.3689388564639982E-01 a       807     1    13     2     7
 -2.2349183857311006E-01 a       808     1    13     2     8
 -2.6406344186828923E-01 a       809     1    13     2     9
 -4.3208482812017951E-01 a       810     1    13     2    10
  7.8711916729579362E-02 a       811     1    13     2    11
  2.0224506260918737E-01 a       812     1    13     2    12
  1.5456503199396926E-01 a       813     1    13     2    13
  6.4211850823586258E-01 a       814     1    13     2    14
  4.7453080055969282E-01 a       815     1    13     2    15
 -1.2678113825284787E-01 a       816     1    13     2    16
 -1.7780200368525539E-01 a       817     1    13     2    17
 -4.9860297450569135E-01 a       818     1    13     2    18
  3.7488897848224700E-01 a       819     1    13     2    19
  2.4234186669336547E-01 a       820     1    13     2    20
 -4.5446968598965132E-01 a       821     1    14     2     1
  2.2754116713525180E-01 a       822     1    14     2     2
 -2.5910224635636225E-01 a       823     1    14     2     3
 -2.7639322897118918E-01 a       824     1    14     2     4
 -1.8736305451328045E-01 a       825     1    14     2     5
  2.5662058150998229E-01 a       826     1    14     2     6
  4.7055257742430251E-01 a       827     1    14     2     7
  3.3059861176408367E-01 a       828     1    14     2     8
  4.5416949447278709E-01 a       829     1    14     2     9
  5.3288763252389981E-01 a       830     1    14     2    10
 -1.8339805708864512E-01 a       831     1    14     2    11
 -2.3045190283627554E-01 a       832     1    14     2    12
  3.7994583830824324E-01 a       833     1    14     2    13
 -1.5519775169094049E-01 a       834     1    14     2    14
  4.1033656842025085E-01 a       835     1    14     2    15
  2.9545481989823064E-01 a       836     1    14     2    16
 -2.3881121889129248E-02 a       837     1    14     2    17
 -6.8686296840194960E-01 a       838     1    14     2    18
  4.5076514579544380E-01 a       839     1    14     2    19
  2.4751839176815740E-01 a       840     1    14     2    20
 -1.0258714661973412E-01 a       841     1    15     2     1
 -4.0112288574394028E-01 a       842     1    15     2     2
 -2.2155937236568365E-01 a       843     1    15     2     3
  2.1372062310592066E-01 a       844     1    15     2     4
  2.4609140407883651E-01 a       845     1    15     2     5
 -1.8681446680971936E-01 a       846     1    15     2     6
  1.3913450629794294E-01 a       847     1    15     2     7
  3.2393478805803588E-01 a       848     1    15     2     8
  4.7421801979855731E-02 a       849     1    15     2     9
  4.8377120347645464E-02 a       850     1    15     2    10
  5.0486009499105178E-01 a       851     1    15     2    11
 -2.9574627007632570E-01 a       852     1    15     2    12
 -4.3624610026004079E-01 a       853     1    15     2    13
  1.4146927562033021E-01 a       854     1    15     2    14
  3.5523332744059249E-01 a       855     1    15     2    15
  1.8974855713737238E-01 a       856     1    15     2    16
 -1.8647051693038955E-01 a       857     1    15     2    17
 -3.5137553235327890E-01 a       858     1    15     2    18
  2.8946098194021985E-01 a       859     1    15     2    19
 -2.6402484067819454E-01 a       860     1    15     2    20
  3.9258920039760409E-01 a       861     1    16     2     1
 -5.1234079013934097E-01 a       862     1    16     2     2
  3.9276210151349622E-01 a       863     1    16     2     3
 -4.6054985104278251E-01 a       864     1    16     2     4
 -9.2846348650695049E-02 a       865     1    16     2     5
  5.1666450873070613E-01 a       866     1    16     2     6
  8.7966003841601359E-02 a       867     1    16     2     7
 -3.4646661160065251E-01 a       868     1    16     2     8
  3.7581072904658466E-02 a       869     1    16     2     9
 -3.1872250798138158E-01 a       870     1    16     2    10
 -1.2108996592805500E-01 a       871     1    16     2    11
 -4.5165682110033127E-02 a       872     1    16     2    12
 -1.1287997273508798E-02 a       873     1    16     2    13
 -4.0097547402144301E-01 a       874     1    16     2    14
  5.1778581529129265E-02 a       875     1    16     2    15
  5.4507329681565242E-01 a       876     1    16     2    16
 -1.9359318530396716E-01 a       877     1    16     2    17
  1.8276445237977565E-01 a       878     1    16     2    18
  3.1842880414212554E-01 a       879     1    16     2    19
 -5.6624161474753776E-01 a       880     1    16     2    20
  4.3876555191065048E-01 a       881     1    17     2     1
  4.9728671987986678E-01 a       882     1    17     2     2
 -3.1392914374606817E-01 a       883     1    17     2     3
  1.7983923414496983E-01 a       884     1    17     2     4
  2.7738281277923804E-01 a       885     1    17     2     5
  9.4687387750530122E-02 a       886     1    17     2     6
  3.5329828966521026E-01 a       887     1    17     2     7
 -4.1966807167374687E-01 a       888     1    17     2     8
  3.2086060090856336E-02 a       889     1    17     2     9
  5.0719163492796648E-01 a       890     1    17     2    10
 -5.2277577398050146E-01 a       891     1    17     2    11
 -1.7353816496441518E-01 a       892     1    17     2    12
 -4.7420412261930134E-01 a       893     1    17     2    13
 -1.7885018988151843E-01 a       894     1    17     2    14
  3.7511912510573057E-03 a       895     1    17     2    15
  4.7485950514575603E-01 a       896     1    17     2    16
 -6.5938591110721922E-01 a       897     1    17     2    17
 -2.1223063920021562E-01 a       898     1    17     2    18
 -4.2816245137312442E-01 a       899     1    17     2    19
  4.4053670252806482E-01 a       900     1    17     2    20
  9.8333185106782628E-02 a       901     1    18     2     1
 -1.7497135831303995E-01 a       902     1    18     2     2
 -3.1691076906671567E-01 a       903     1    18     2     3
  1.8592662485586178E-01 a       904     1    18     2     4
 -2.5530470089550145E-01 a       905     1    18     2     5
  5.0214108074120210E-02 a       906     1    18     2     6
 -3.3899000958260692E-03 a       907     1    18     2     7
 -5.0756929163546260E-01 a       908     1    18     2     8
 -3.8653879613375652E-01 a       909     1    18     2     9
 -8.8905713714441850E-02 a       910     1    18     2    10
  1.6275529804824060E-01 a       911     1    18     2    11
 -8.2117464331139045E-01 a       912     1    18     2    12
 -9.6573637020578987E-02 a       913     1    18     2    13
  5.3120844209026452E-01 a       914     1    18     2    14
  3.7821254705156870E-01 a       915     1    18     2    15
  7.5422591730359492E-02 a       916     1    18     2    16
 -6.5805274022050486E-01 a       917     1    18     2    17
  5.0629334590137665E-01 a       918     1    18     2    18
 -9.4519227354357457E-02 a       919     1    18     2    19
  2.3812978699574400E-01 a       920     1    18     2    20
  3.7468303312349566E-01 a       921     1    19     2     1
 -8.4982184445422812E-02 a       922     1    19     2     2
  3.0362101957449361E-01 a       923     1    19     2     3
  3.4227698286844332E-01 a       924     1    19     2     4
  2.5226670866142298E-01 a       925     1    19     2     5
 -2.8135136674213934E-01 a       926     1    19     2     6
  2.2750265040046752E-01 a       927     1    19     2     7
  7.5791649381374698E-02 a       928     1    19     2     8
  4.3575903031625490E-01 a       929     1    19     2     9
 -4.4497772457834667E-01 a       930     1    19     2    10
 -1.7481130683007856E-02 a       931     1    19     2    11
  4.9645776917583359E-02 a       932     1    19     2    12
 -4.0119829617861236E-01 a       933     1    19     2    13
  4.2517655704242741E-01 a       934     1    19     2    14
  1.2182020006148789E-01 a       935     1    19     2    15
  4.8165792041452038E-01 a       936     1    19     2    16
  1.6832212555338677E-02 a       937     1    19     2    17
 -4.7073042046677527E-01 a       938     1    19     2    18
  4.2005526700209256E-01 a       939     1    19     2    19
 -9.2499799184707771E-02 a       940     1    19     2    20
  2.7708117468681398E-01 a       941     1    20     2     1
  2.5079552834958735E-01 a       942     1    20     2     2
 -5.5275616679479778E-01 a       943     1    20     2     3
 -3.1572434659851323E-01 a       944     1    20     2     4
 -2.0234284712052725E-01 a       945     1    20     2     5
 -6.2177433482599875E-01 a       946     1    20     2     6
 -4.4003642890849315E-01 a       947     1    20     2     7
 -5.5338624303981482E-02 a       948     1    20     2     8
 -6.3448925841526604E-01 a       949     1    20     2     9
 -4.9168437587315234E-01 a       950     1    20     2    10
 -3.9758278798647739E-01 a       951     1    20     2    11
 -4.0821802134053231E-01 a       952     1    20     2    12
  6.4075378064171729E-01 a       953     1    20     2    13
  8.7968965908326972E-03 a       954     1    20     2    14
  6.1916261603862033E-01 a       955     1    20     2    15
  3.2227594669608389E-01 a       956     1    20     2    16
  3.5965564748397827E-01 a       957     1    20     2    17
  2.5785764667781386E-01 a       958     1    20     2    18
 -4.5168257833513209E-01 a       959     1    20     2    19
 -2.8994137555365967E-01 a       960     1    20     2    20
 -5.1279173020022584E-01 b       961     2     1
 -6.9364472782476616E-01 b       962     2     2
 -5.1642750382484837E-01 b       963     2     3
  2.2413179573791911E-01 b       964     2     4
 -5.0844049636491095E-01 b       965     2     5
 -1.3656793339025715E+00 b       966     2     6
 -1.3617336525575163E+00 b       967     2     7
  7.0110023005892003E-02 b       968     2     8
  6.3291322332245337E-01 b       969     2     9
  1.2726121682231903E+00 b       970     2    10
  1.1691426724982621E+00 b       971     2    11
 -5.0351787130147019E-01 b       972     2    12
  2.3400369132091292E-01 b       973     2    13
 -1.2478768015907489E+00 b       974     2    14
 -5.1364331603806539E-02 b       975     2    15
  9.4447165459668958E-01 b       976     2    16
  1.0043330203679666E+00 b       977     2    17
  5.2457087266069669E-01 b       978     2    18
 -6.2078807223487209E-01 b       979     2    19
  7.3220678457088217E-01 b       980     2    20
 -4.9306114404651179E-02 a       981     2     1     3     1
 -4.3176780668948006E-02 a       982     2     2     3     1
 -6.5568394701631094E-01 a       983     2     3     3     1
 -2.5665423102900226E-01 a       984     2     4     3     1
 -6.8104725809129618E-01 a       985     2     5     3     1
  8.0881676236202488E-02 a       986     2     6     3     1
 -5.1647709043585149E-02 a       987     2     7     3     1
  1.4961093163274300E-01 a       988     2     8     3     1
 -7.9472592805457418E-02 a       989     2     9     3     1
 -9.0908413666167054E-01 a       990     2    10     3     1
  2.4115043241394069E-01 a       991     2    11     3     1
  1.2743119581535296E+00 a       992     2    12     3     1
 -1.7266546371702565E-01 a       993     2    13     3     1
  1.0784678966764643E+00 a       994     2    14     3     1
 -8.7341571773269688E-01 a       995     2    15     3     1
  1.1593729707065574E-01 a       996     2    16     3     1
  1.2621743846700326E+00 a       997     2    17     3     1
  8.7972829975987293E-02 a       998     2    18     3     1
  4.6218242417990996E-01 a       999     2    19     3     1
 -1.2110725635176036E+00 a      1000     2    20     3     1
 -7.5102024593359284E-01 b      1001     3     1
