################################################################################
# Neural network connection values (weights and biases).
################################################################################
# Col  Name       Description
################################################################################
# 1    connection Neural network connection value.
# 2    t          Connection type (a = weight, b = bias).
# 3    index      Index enumerating weights.
# 4    l_s        Starting point layer (end point layer for biases).
# 5    n_s        Starting point neuron in starting layer (end point neuron for biases).
# 6    l_e        End point layer.
# 7    n_e        End point neuron in end layer.
################################################################################
#                      1 2         3     4     5     6     7
#             connection t     index   l_s   n_s   l_e   n_e
############################################################
  1.5302212479880281E-01 a         1     0     1     1     1
 -7.8347785505068449E-02 a         2     0     1     1     2
 -1.9764959842499910E-01 a         3     0     1     1     3
  5.4117566134098009E-02 a         4     0     1     1     4
  2.3194399712592637E-01 a         5     0     1     1     5
  2.2041126103725958E-01 a         6     0     1     1     6
 -4.6411304189163705E-01 a         7     0     1     1     7
  3.1449627749350650E-01 a         8     0     1     1     8
 -1.8379934604352299E-01 a         9     0     1     1     9
  2.1517749243465265E-01 a        10     0     1     1    10
 -3.7393838764457848E-01 a        11     0     1     1    11
 -1.2021232198496339E-01 a        12     0     1     1    12
 -1.7436469195837041E-02 a        13     0     1     1    13
 -3.8465111770678462E-01 a        14     0     1     1    14
  1.7358297210447404E-01 a        15     0     1     1    15
 -3.1794263959194430E-01 a        16     0     1     1    16
 -4.7535794335207847E-02 a        17     0     1     1    17
 -1.7077818821647597E-01 a        18     0     1     1    18
  1.4427389773409658E-04 a        19     0     1     1    19
  4.3741600823168791E-01 a        20     0     1     1    20
 -8.0576715309263816E-02 a        21     0     2     1     1
 -2.6097879349570025E-01 a        22     0     2     1     2
 -2.4338832268930127E-01 a        23     0     2     1     3
  1.6808609652004636E-01 a        24     0     2     1     4
 -6.0312311304778342E-02 a        25     0     2     1     5
 -6.3739566130467185E-01 a        26     0     2     1     6
  5.5385173348210515E-01 a        27     0     2     1     7
 -9.1833064776544182E-02 a        28     0     2     1     8
  1.7923098084250774E-01 a        29     0     2     1     9
 -1.3387495695449650E-01 a        30     0     2     1    10
  1.0725570861438753E-01 a        31     0     2     1    11
  3.3798459197403552E-01 a        32     0     2     1    12
  2.3251784208443269E-01 a        33     0     2     1    13
  1.4190346169769233E-01 a        34     0     2     1    14
  1.6937812809762401E-01 a        35     0     2     1    15
  3.2391928159508926E-01 a        36     0     2     1    16
 -6.8071201123125313E-02 a        37     0     2     1    17
 -8.9729510546837407E-02 a        38     0     2     1    18
 -2.4972509415692046E-01 a        39     0     2     1    19
 -1.4279884202639934E-01 a        40     0     2     1    20
  6.7963235554292886E-02 a        41     0     3     1     1
  2.0708218447880614E-01 a        42     0     3     1     2
  9.9758256530006001E-02 a        43     0     3     1     3
  2.5608059910764321E-03 a        44     0     3     1     4
 -3.3405250854280166E-01 a        45     0     3     1     5
 -2.0576454955647167E-01 a        46     0     3     1     6
 -1.3232811221153665E-01 a        47     0     3     1     7
  1.2989098051571671E-01 a        48     0     3     1     8
 -8.7015976826929103E-02 a        49     0     3     1     9
 -1.2100143451390853E-01 a        50     0     3     1    10
 -3.2170753981861894E-01 a        51     0     3     1    11
 -2.0457416001605638E-01 a        52     0     3     1    12
  3.1997115258835412E-01 a        53     0     3     1    13
  9.6383016638745295E-02 a        54     0     3     1    14
 -2.5684625981654230E-01 a        55     0     3     1    15
  8.9348227751037596E-02 a        56     0     3     1    16
  2.6955626776825609E-01 a        57     0     3     1    17
  3.2801500164778818E-01 a        58     0     3     1    18
 -1.8222854309368386E-01 a        59     0     3     1    19
 -2.0900551603136797E-01 a        60     0     3     1    20
 -8.4797087896868253E-02 a        61     0     4     1     1
  4.1304232968758142E-01 a        62     0     4     1     2
 -9.6472042483061043E-02 a        63     0     4     1     3
  5.0656570025425458E-02 a        64     0     4     1     4
 -1.5590054460868452E-01 a        65     0     4     1     5
  3.0183737726613274E-01 a        66     0     4     1     6
 -2.4367934013377759E-01 a        67     0     4     1     7
 -1.4327004623461867E-01 a        68     0     4     1     8
 -1.9318148516558281E-01 a        69     0     4     1     9
 -1.3295544532750661E-01 a        70     0     4     1    10
  2.5895494469057093E-02 a        71     0     4     1    11
 -2.5989208359059357E-01 a        72     0     4     1    12
 -4.2544451977092601E-01 a        73     0     4     1    13
  3.0582554093693143E-01 a        74     0     4     1    14
  2.0121478869771808E-01 a        75     0     4     1    15
  2.0757345315759415E-01 a        76     0     4     1    16
  2.1856301685715038E-01 a        77     0     4     1    17
  1.4623234364013176E-02 a        78     0     4     1    18
 -3.1603295549898930E-01 a        79     0     4     1    19
  3.4214049251225398E-01 a        80     0     4     1    20
 -7.1318796304485543E-03 a        81     0     5     1     1
  5.8303138458544821E-03 a        82     0     5     1     2
  3.6715411261213649E-01 a        83     0     5     1     3
 -1.1534933599045050E-01 a        84     0     5     1     4
  1.7010853687406083E-01 a        85     0     5     1     5
  5.8394750974178747E-02 a        86     0     5     1     6
  2.3488326827424150E-01 a        87     0     5     1     7
  2.2763199322848116E-01 a        88     0     5     1     8
 -1.7630806490418732E-02 a        89     0     5     1     9
 -8.7424334100499032E-02 a        90     0     5     1    10
  6.1875493788464064E-01 a        91     0     5     1    11
  3.8749973069529353E-01 a        92     0     5     1    12
  3.7909876309118246E-01 a        93     0     5     1    13
 -1.9201428781867805E-01 a        94     0     5     1    14
 -1.0678957324900389E-01 a        95     0     5     1    15
  7.6098839369458077E-02 a        96     0     5     1    16
  2.0293801309394591E-01 a        97     0     5     1    17
 -1.6367346473572486E-01 a        98     0     5     1    18
  1.2033377667979650E-01 a        99     0     5     1    19
  3.7683463076961871E-01 a       100     0     5     1    20
  1.8725564583142926E-01 a       101     0     6     1     1
 -2.0138665279138848E-01 a       102     0     6     1     2
 -4.6949761306872381E-02 a       103     0     6     1     3
  8.7363189216376994E-02 a       104     0     6     1     4
 -3.9470760563137608E-01 a       105     0     6     1     5
 -1.0213755612121210E-01 a       106     0     6     1     6
  3.9780647315052564E-01 a       107     0     6     1     7
 -2.4937839183664509E-01 a       108     0     6     1     8
 -1.0642177813639700E-01 a       109     0     6     1     9
 -1.0074266478634950E-02 a       110     0     6     1    10
 -2.9738816564496567E-01 a       111     0     6     1    11
 -4.4516869211327820E-01 a       112     0     6     1    12
 -2.4453408160595411E-01 a       113     0     6     1    13
 -2.7340141236223270E-01 a       114     0     6     1    14
 -4.1344431725704095E-01 a       115     0     6     1    15
 -1.7967074113305970E-01 a       116     0     6     1    16
  2.0946533377133247E-01 a       117     0     6     1    17
 -2.6134196107978985E-01 a       118     0     6     1    18
 -8.1456120555477074E-02 a       119     0     6     1    19
 -2.6531837109716561E-01 a       120     0     6     1    20
  2.4424881824769870E-01 a       121     0     7     1     1
  1.1018593108555266E-01 a       122     0     7     1     2
 -4.0343924102707612E-01 a       123     0     7     1     3
  3.1351768505843502E-01 a       124     0     7     1     4
 -1.9439993221614976E-01 a       125     0     7     1     5
 -2.6003156111649672E-01 a       126     0     7     1     6
 -3.4558286140370231E-01 a       127     0     7     1     7
 -2.3816739394748948E-01 a       128     0     7     1     8
  2.1191639168558088E-01 a       129     0     7     1     9
 -6.5474221255516885E-02 a       130     0     7     1    10
 -2.9087051499487354E-01 a       131     0     7     1    11
  2.7441424742980675E-01 a       132     0     7     1    12
  3.9150506885843728E-01 a       133     0     7     1    13
 -2.1198460646808512E-01 a       134     0     7     1    14
  1.0641570041161859E-01 a       135     0     7     1    15
 -2.9024941799382858E-01 a       136     0     7     1    16
 -1.2799676471311114E-01 a       137     0     7     1    17
  1.4831376822800577E-01 a       138     0     7     1    18
 -1.8952587254098588E-01 a       139     0     7     1    19
  2.9734584120277130E-01 a       140     0     7     1    20
 -5.6674342126008537E-01 a       141     0     8     1     1
 -2.5253100958540714E-01 a       142     0     8     1     2
  2.1532866100237832E-01 a       143     0     8     1     3
 -3.6932510609005820E-01 a       144     0     8     1     4
 -1.6960972347142017E-01 a       145     0     8     1     5
  3.8000395781641871E-01 a       146     0     8     1     6
 -1.4811775268702565E-01 a       147     0     8     1     7
  1.5808381780883238E-01 a       148     0     8     1     8
  2.6567784089614221E-01 a       149     0     8     1     9
  6.8055152556332314E-03 a       150     0     8     1    10
 -1.8466644309216337E-01 a       151     0     8     1    11
 -1.2211514893801613E-01 a       152     0     8     1    12
 -2.5177998980419780E-01 a       153     0     8     1    13
 -2.3876316415574064E-01 a       154     0     8     1    14
  3.4099224910848563E-01 a       155     0     8     1    15
 -2.7493377790598733E-01 a       156     0     8     1    16
 -8.2427218635350047E-02 a       157     0     8     1    17
  1.1087839121428987E-01 a       158     0     8     1    18
  7.7614743602773140E-03 a       159     0     8     1    19
  6.9179500519886999E-02 a       160     0     8     1    20
  1.4679288185643072E-01 a       161     0     9     1     1
 -1.4628175102204074E-02 a       162     0     9     1     2
  2.2993989489654115E-01 a       163     0     9     1     3
  2.1519766629644643E-01 a       164     0     9     1     4
  4.5914365444759825E-02 a       165     0     9     1     5
  1.9602130688026323E-01 a       166     0     9     1     6
  2.2965199373316977E-01 a       167     0     9     1     7
  2.4981672247459275E-01 a       168     0     9     1     8
  1.3593955926065562E-01 a       169     0     9     1     9
  2.0974559151550165E-01 a       170     0     9     1    10
  1.3259120416789247E-01 a       171     0     9     1    11
 -2.3936399573069528E-01 a       172     0     9     1    12
  4.4491007393685972E-01 a       173     0     9     1    13
 -2.2836849799998013E-01 a       174     0     9     1    14
  2.8344323744388566E-01 a       175     0     9     1    15
  2.2300776944388292E-01 a       176     0     9     1    16
 -3.0207573545001182E-01 a       177     0     9     1    17
 -2.0794214319905324E-01 a       178     0     9     1    18
  1.6294108258490834E-02 a       179     0     9     1    19
  4.8525405558854040E-01 a       180     0     9     1    20
  5.5102500299197180E-02 a       181     0    10     1     1
 -2.2301196188743269E-01 a       182     0    10     1     2
  1.5524454487751457E-01 a       183     0    10     1     3
  4.5345754533060967E-01 a       184     0    10     1     4
  2.1627367937359671E-01 a       185     0    10     1     5
 -2.4053220936417352E-01 a       186     0    10     1     6
 -2.7088759555925046E-01 a       187     0    10     1     7
  2.7837126461124723E-01 a       188     0    10     1     8
  3.8305083135336142E-02 a       189     0    10     1     9
  2.1728478142802729E-01 a       190     0    10     1    10
  3.4850190956411752E-02 a       191     0    10     1    11
 -1.3845862136728890E-01 a       192     0    10     1    12
  3.3802030742053113E-01 a       193     0    10     1    13
  4.3288369612088123E-01 a       194     0    10     1    14
 -2.7738601812635155E-01 a       195     0    10     1    15
  5.3456263380526239E-02 a       196     0    10     1    16
  1.0840475499544809E-01 a       197     0    10     1    17
 -1.4614939127237343E-02 a       198     0    10     1    18
 -4.1572777653801762E-01 a       199     0    10     1    19
 -5.6057301770239473E-02 a       200     0    10     1    20
  2.1423970177333213E-01 a       201     0    11     1     1
 -2.4365226759660447E-01 a       202     0    11     1     2
  2.9181844504974314E-01 a       203     0    11     1     3
 -1.5090377471281849E-01 a       204     0    11     1     4
  1.4265919866928631E-01 a       205     0    11     1     5
 -2.1819148557916240E-01 a       206     0    11     1     6
 -2.9767473340721018E-01 a       207     0    11     1     7
  2.3224148002709966E-01 a       208     0    11     1     8
 -5.0200935451815400E-02 a       209     0    11     1     9
 -1.4026595486048754E-01 a       210     0    11     1    10
  3.3261644275279795E-01 a       211     0    11     1    11
  5.0510949734485755E-01 a       212     0    11     1    12
 -2.2229863825975654E-01 a       213     0    11     1    13
 -1.4760075590288743E-01 a       214     0    11     1    14
  1.6036580734060982E-01 a       215     0    11     1    15
  1.7841633425950798E-02 a       216     0    11     1    16
  4.0719732560202102E-02 a       217     0    11     1    17
  4.3423365655518346E-02 a       218     0    11     1    18
  8.1092960504010519E-02 a       219     0    11     1    19
  2.1930881108773570E-01 a       220     0    11     1    20
  2.5859791473877614E-01 a       221     0    12     1     1
  2.2603424274654868E-01 a       222     0    12     1     2
  2.7669279730773777E-01 a       223     0    12     1     3
 -5.1622445596141729E-02 a       224     0    12     1     4
 -2.6896502584557241E-01 a       225     0    12     1     5
 -1.3345157518856565E-01 a       226     0    12     1     6
  1.0816248166633785E-01 a       227     0    12     1     7
 -2.0274668889876790E-01 a       228     0    12     1     8
 -3.5674867879885480E-01 a       229     0    12     1     9
 -2.1818431762863907E-01 a       230     0    12     1    10
  3.1503591279823329E-02 a       231     0    12     1    11
  3.1869531326585304E-01 a       232     0    12     1    12
 -8.3943861239153636E-02 a       233     0    12     1    13
 -2.7593058742253473E-01 a       234     0    12     1    14
  1.1365654852048698E-01 a       235     0    12     1    15
  1.7770019111299812E-01 a       236     0    12     1    16
  4.6091972915145069E-01 a       237     0    12     1    17
 -6.5409006146586110E-02 a       238     0    12     1    18
 -1.8127627835422155E-01 a       239     0    12     1    19
  1.0523523423829456E-01 a       240     0    12     1    20
  2.4397266958101282E-01 a       241     0    13     1     1
  2.1166519657152663E-01 a       242     0    13     1     2
 -2.8612057394761559E-01 a       243     0    13     1     3
  2.2111456812884378E-01 a       244     0    13     1     4
 -1.0368594847371608E-01 a       245     0    13     1     5
  6.7526943282378224E-02 a       246     0    13     1     6
 -3.7397053554355610E-02 a       247     0    13     1     7
  3.0988192336792592E-01 a       248     0    13     1     8
  1.0693403054240687E-02 a       249     0    13     1     9
  8.1800662472903435E-02 a       250     0    13     1    10
  8.8428698430554342E-02 a       251     0    13     1    11
 -2.0362344816210720E-01 a       252     0    13     1    12
  2.0300833231278212E-01 a       253     0    13     1    13
 -1.7460251226159376E-01 a       254     0    13     1    14
  2.9371768857319852E-01 a       255     0    13     1    15
  1.2970883019045663E-02 a       256     0    13     1    16
 -2.1028510087356844E-01 a       257     0    13     1    17
  1.6973261435352954E-01 a       258     0    13     1    18
 -2.9261160368877626E-01 a       259     0    13     1    19
  1.7214821775659200E-01 a       260     0    13     1    20
 -5.9112146427080688E-02 a       261     0    14     1     1
  9.3791973338397013E-03 a       262     0    14     1     2
  2.2010651755178559E-01 a       263     0    14     1     3
 -5.3524440081678136E-02 a       264     0    14     1     4
 -1.6010377514487192E-01 a       265     0    14     1     5
  1.8384839594316868E-01 a       266     0    14     1     6
 -3.7858505800612098E-02 a       267     0    14     1     7
  6.9952406137821596E-02 a       268     0    14     1     8
  4.2216848336639728E-01 a       269     0    14     1     9
  1.7331593986026816E-01 a       270     0    14     1    10
  2.5152703397216203E-01 a       271     0    14     1    11
 -1.4220715250512136E-01 a       272     0    14     1    12
 -9.5432110808104861E-02 a       273     0    14     1    13
  7.5803067626089377E-02 a       274     0    14     1    14
  7.2002369334383545E-02 a       275     0    14     1    15
  7.0772068428769014E-02 a       276     0    14     1    16
 -2.7445328804993269E-01 a       277     0    14     1    17
 -8.0929231034283650E-02 a       278     0    14     1    18
 -1.7232115253233560E-01 a       279     0    14     1    19
  1.6114595038969626E-01 a       280     0    14     1    20
  7.9492348652654685E-02 a       281     0    15     1     1
  3.8612010967961588E-02 a       282     0    15     1     2
  2.8610827769502634E-01 a       283     0    15     1     3
 -6.0234262408700813E-02 a       284     0    15     1     4
  1.3695273910410752E-01 a       285     0    15     1     5
 -2.2486972989701540E-02 a       286     0    15     1     6
  4.5688637817418012E-02 a       287     0    15     1     7
 -1.2646285924859760E-01 a       288     0    15     1     8
  5.0077269513280044E-02 a       289     0    15     1     9
 -1.1824549660684129E-02 a       290     0    15     1    10
 -1.7324799706166152E-01 a       291     0    15     1    11
 -1.5216326793387450E-01 a       292     0    15     1    12
 -9.8632972958739278E-03 a       293     0    15     1    13
 -2.4599160879790002E-01 a       294     0    15     1    14
  6.6373896298104168E-02 a       295     0    15     1    15
  1.9310569971872390E-03 a       296     0    15     1    16
 -3.7783866795777013E-02 a       297     0    15     1    17
 -9.4310404616534584E-03 a       298     0    15     1    18
  3.2790647957548152E-01 a       299     0    15     1    19
 -1.5174052179542363E-01 a       300     0    15     1    20
  7.6175323075401660E-02 a       301     0    16     1     1
 -1.3996719039810482E-01 a       302     0    16     1     2
  1.7856204870055456E-01 a       303     0    16     1     3
  2.0062862359431294E-01 a       304     0    16     1     4
  2.6587242663658334E-01 a       305     0    16     1     5
  1.0251114669558808E-01 a       306     0    16     1     6
  1.3752801110312948E-01 a       307     0    16     1     7
 -6.4628910154611752E-02 a       308     0    16     1     8
 -5.5366352911290169E-02 a       309     0    16     1     9
  1.7119513195896330E-01 a       310     0    16     1    10
 -5.5708797414460415E-02 a       311     0    16     1    11
 -8.8818603822206993E-02 a       312     0    16     1    12
  2.1302714533649601E-02 a       313     0    16     1    13
  2.1268578701154072E-02 a       314     0    16     1    14
  5.2997586796901065E-02 a       315     0    16     1    15
 -9.8484482818917946E-02 a       316     0    16     1    16
 -1.0644956291316796E-01 a       317     0    16     1    17
 -9.1211547752132291E-02 a       318     0    16     1    18
 -3.1992491083334955E-02 a       319     0    16     1    19
 -5.7417695485138684E-02 a       320     0    16     1    20
  2.4112510115249147E-01 a       321     0    17     1     1
  1.5808590077390161E-01 a       322     0    17     1     2
  9.4499883274503454E-02 a       323     0    17     1     3
 -7.9865512951021192E-02 a       324     0    17     1     4
  4.0869819065974022E-01 a       325     0    17     1     5
  2.4352357452921719E-01 a       326     0    17     1     6
 -1.6912201313835021E-01 a       327     0    17     1     7
 -2.4302406446171293E-02 a       328     0    17     1     8
 -1.8601656420032123E-01 a       329     0    17     1     9
  1.3259742618420866E-02 a       330     0    17     1    10
  5.1079046999864382E-02 a       331     0    17     1    11
  5.9655120529713834E-02 a       332     0    17     1    12
  2.1614069061376762E-01 a       333     0    17     1    13
  1.4776035292927667E-01 a       334     0    17     1    14
  1.3589605726440485E-01 a       335     0    17     1    15
  1.4855813328143820E-02 a       336     0    17     1    16
 -4.0454532512707270E-01 a       337     0    17     1    17
  2.4307179833357015E-01 a       338     0    17     1    18
  1.2794211215886508E-01 a       339     0    17     1    19
 -2.7854851673919517E-01 a       340     0    17     1    20
 -2.2152044359214332E-01 a       341     0    18     1     1
 -1.0292954288568897E-01 a       342     0    18     1     2
 -1.5138353139183719E-01 a       343     0    18     1     3
 -3.2078893587836382E-01 a       344     0    18     1     4
 -7.5790199248572415E-02 a       345     0    18     1     5
  1.4229675897911806E-01 a       346     0    18     1     6
 -6.7999290742994919E-02 a       347     0    18     1     7
  4.0077422993237228E-03 a       348     0    18     1     8
  5.4701344583637242E-02 a       349     0    18     1     9
 -1.6737255511637825E-01 a       350     0    18     1    10
  1.2553350353663834E-01 a       351     0    18     1    11
 -7.5310052862872429E-02 a       352     0    18     1    12
  1.8475990195485320E-01 a       353     0    18     1    13
  2.2891451553393941E-01 a       354     0    18     1    14
 -2.9799492127615106E-02 a       355     0    18     1    15
  1.0291510210999964E-01 a       356     0    18     1    16
 -8.4424854064489296E-02 a       357     0    18     1    17
 -1.2265026812765248E-01 a       358     0    18     1    18
  1.4454290704168854E-01 a       359     0    18     1    19
 -3.9493673537860634E-03 a       360     0    18     1    20
 -1.6787602671630988E-01 a       361     0    19     1     1
  8.8389393629225654E-02 a       362     0    19     1     2
 -2.4504500499757809E-01 a       363     0    19     1     3
  1.0309018531155280E-01 a       364     0    19     1     4
  6.5125658704488568E-02 a       365     0    19     1     5
 -2.8638160572508931E-01 a       366     0    19     1     6
 -7.8155733581410883E-02 a       367     0    19     1     7
 -1.6594958682645394E-01 a       368     0    19     1     8
  2.0363063181269306E-02 a       369     0    19     1     9
  2.0571039023869198E-02 a       370     0    19     1    10
 -1.4921382212749706E-01 a       371     0    19     1    11
  4.3515915364743396E-01 a       372     0    19     1    12
 -2.0456506063488755E-01 a       373     0    19     1    13
 -1.7338567546786035E-01 a       374     0    19     1    14
 -2.3969360306188420E-01 a       375     0    19     1    15
 -2.3587269855275614E-01 a       376     0    19     1    16
  1.1854052062897709E-01 a       377     0    19     1    17
  2.5488681439219747E-03 a       378     0    19     1    18
  2.9534691095024662E-01 a       379     0    19     1    19
 -1.4400601402998645E-01 a       380     0    19     1    20
  1.4286471347670540E-01 a       381     0    20     1     1
  1.2217436964958937E-01 a       382     0    20     1     2
  2.0228527878648245E-01 a       383     0    20     1     3
  2.7900314290077294E-01 a       384     0    20     1     4
 -1.4149226164443710E-01 a       385     0    20     1     5
 -2.0453435850139345E-01 a       386     0    20     1     6
  1.2138527213723735E-01 a       387     0    20     1     7
 -2.2017408298164182E-01 a       388     0    20     1     8
  2.9244266767068663E-02 a       389     0    20     1     9
  3.4068658722048888E-02 a       390     0    20     1    10
 -9.1843820330765200E-02 a       391     0    20     1    11
  7.6345830520783253E-02 a       392     0    20     1    12
  2.8749266740224100E-01 a       393     0    20     1    13
 -1.9325554541762985E-01 a       394     0    20     1    14
 -1.9412782180569266E-01 a       395     0    20     1    15
  7.5933256235255287E-03 a       396     0    20     1    16
  2.3513141352318059E-01 a       397     0    20     1    17
  1.3357546341666529E-01 a       398     0    20     1    18
  1.3869419844670486E-01 a       399     0    20     1    19
  8.9737182967516531E-03 a       400     0    20     1    20
 -3.6906926219911457E-01 a       401     0    21     1     1
 -2.7253582828674328E-01 a       402     0    21     1     2
 -2.5156658474745291E-01 a       403     0    21     1     3
 -4.5425895343195348E-02 a       404     0    21     1     4
  6.5569333874926819E-02 a       405     0    21     1     5
  1.7197610967509855E-01 a       406     0    21     1     6
  3.9105448690260397E-01 a       407     0    21     1     7
 -3.4196351427078658E-01 a       408     0    21     1     8
  3.2914236784090667E-01 a       409     0    21     1     9
  1.1571418327328115E-01 a       410     0    21     1    10
  3.5953106049765586E-02 a       411     0    21     1    11
 -2.2414262974151911E-01 a       412     0    21     1    12
  1.5403350196333365E-01 a       413     0    21     1    13
  9.9327502046117011E-02 a       414     0    21     1    14
 -1.5618926581982509E-01 a       415     0    21     1    15
 -8.9627560675102233E-02 a       416     0    21     1    16
 -1.0369787717961394E-01 a       417     0    21     1    17
 -3.9263851439807135E-01 a       418     0    21     1    18
 -2.8127168426107918E-01 a       419     0    21     1    19
  4.6663186430197956E-02 a       420     0    21     1    20
 -5.7529917519000648E-02 a       421     0    22     1     1
 -1.2729383578775116E-01 a       422     0    22     1     2
 -2.4051036342082477E-01 a       423     0    22     1     3
  4.5384778376820277E-02 a       424     0    22     1     4
 -3.2625686068534054E-01 a       425     0    22     1     5
  1.9507818206673883E-02 a       426     0    22     1     6
  2.4286639704807303E-01 a       427     0    22     1     7
  8.8160488533664913E-02 a       428     0    22     1     8
  3.0696891433181972E-01 a       429     0    22     1     9
  1.3198811027650542E-01 a       430     0    22     1    10
  3.1913566723353098E-01 a       431     0    22     1    11
 -1.8470086970549063E-01 a       432     0    22     1    12
 -2.3625019427957297E-01 a       433     0    22     1    13
 -3.1329237374353287E-02 a       434     0    22     1    14
 -1.3152648189041383E-01 a       435     0    22     1    15
 -5.9052068253630713E-02 a       436     0    22     1    16
  2.5406071540579062E-01 a       437     0    22     1    17
 -1.2993640921892238E-01 a       438     0    22     1    18
 -1.5368927219814102E-01 a       439     0    22     1    19
  1.1783101467673351E-01 a       440     0    22     1    20
  2.1663035135924061E-01 a       441     0    23     1     1
 -6.4671828570296547E-02 a       442     0    23     1     2
  8.6174386026884556E-02 a       443     0    23     1     3
  1.6288549510821232E-01 a       444     0    23     1     4
 -6.9798790600694452E-02 a       445     0    23     1     5
 -4.4497628181045669E-02 a       446     0    23     1     6
 -2.3412519884944655E-02 a       447     0    23     1     7
  3.3812437771394016E-01 a       448     0    23     1     8
 -1.3461717909246981E-01 a       449     0    23     1     9
  3.0932484674868754E-01 a       450     0    23     1    10
 -1.0639535547957293E-01 a       451     0    23     1    11
 -2.1180824317274538E-01 a       452     0    23     1    12
 -1.1313866775315895E-01 a       453     0    23     1    13
 -1.9156092199321118E-01 a       454     0    23     1    14
  1.8054390752763030E-01 a       455     0    23     1    15
 -4.9794840812076087E-02 a       456     0    23     1    16
  2.0778045734932998E-01 a       457     0    23     1    17
  1.8005838668267629E-01 a       458     0    23     1    18
 -6.2876846592056168E-02 a       459     0    23     1    19
 -1.0438699699334383E-01 a       460     0    23     1    20
  1.9449879870826559E-01 a       461     0    24     1     1
 -2.7739758304307777E-01 a       462     0    24     1     2
  9.6076870840028240E-03 a       463     0    24     1     3
  2.5355414007483679E-01 a       464     0    24     1     4
  1.7062982682218802E-01 a       465     0    24     1     5
 -3.2114230076007055E-01 a       466     0    24     1     6
  1.7082877998867765E-01 a       467     0    24     1     7
  1.8744864570470679E-01 a       468     0    24     1     8
 -5.9699291384862810E-02 a       469     0    24     1     9
  6.5790027485570696E-02 a       470     0    24     1    10
 -9.2509928557195212E-02 a       471     0    24     1    11
 -2.7256429348949746E-01 a       472     0    24     1    12
 -2.6816441177715128E-01 a       473     0    24     1    13
 -3.8275953292578879E-02 a       474     0    24     1    14
 -1.2159983410862753E-01 a       475     0    24     1    15
 -1.6389187596627824E-01 a       476     0    24     1    16
  4.3113621216743009E-01 a       477     0    24     1    17
 -2.5240280526098285E-01 a       478     0    24     1    18
 -1.6334028308137957E-01 a       479     0    24     1    19
  1.1409428195925110E-01 a       480     0    24     1    20
  1.3243981204867453E-01 a       481     0    25     1     1
  2.2343364112461547E-01 a       482     0    25     1     2
 -1.1543561737818524E-01 a       483     0    25     1     3
  3.4395655157454263E-01 a       484     0    25     1     4
 -1.9654217145551403E-01 a       485     0    25     1     5
 -3.9998254982988546E-01 a       486     0    25     1     6
  2.5866358470908757E-01 a       487     0    25     1     7
 -1.7978673936934295E-02 a       488     0    25     1     8
  6.7921224698386060E-02 a       489     0    25     1     9
 -2.4285809500105827E-02 a       490     0    25     1    10
 -6.1993161592554115E-02 a       491     0    25     1    11
  1.4840582614183703E-01 a       492     0    25     1    12
 -3.5511395089036513E-01 a       493     0    25     1    13
 -1.8211663047163434E-01 a       494     0    25     1    14
  3.5775266176953313E-02 a       495     0    25     1    15
  4.0535571815622388E-02 a       496     0    25     1    16
  2.8147948807064233E-01 a       497     0    25     1    17
  1.7522204360638530E-01 a       498     0    25     1    18
  2.6875630563118263E-01 a       499     0    25     1    19
  1.6905879869871207E-01 a       500     0    25     1    20
 -8.3103556642058457E-02 a       501     0    26     1     1
  1.4110843523414582E-01 a       502     0    26     1     2
 -2.3069934961880956E-01 a       503     0    26     1     3
  4.5573932703360748E-01 a       504     0    26     1     4
  3.5096039382700633E-01 a       505     0    26     1     5
 -8.1260840419701733E-02 a       506     0    26     1     6
 -2.0778186237758911E-01 a       507     0    26     1     7
  1.4704615896584303E-01 a       508     0    26     1     8
 -1.3642140700863964E-01 a       509     0    26     1     9
  1.8186020241522272E-02 a       510     0    26     1    10
  1.0042011581429103E-01 a       511     0    26     1    11
  1.7346385630023076E-01 a       512     0    26     1    12
  1.4895275045830042E-01 a       513     0    26     1    13
  4.1182034314518717E-01 a       514     0    26     1    14
 -2.2391391647266548E-01 a       515     0    26     1    15
 -2.6108462194214876E-01 a       516     0    26     1    16
 -1.6551647627453758E-01 a       517     0    26     1    17
 -1.5165215858649911E-01 a       518     0    26     1    18
  2.7836225205637138E-01 a       519     0    26     1    19
 -1.9477135307924363E-02 a       520     0    26     1    20
  2.5330097129718382E-01 a       521     0    27     1     1
  5.8509944761133914E-02 a       522     0    27     1     2
 -5.2130865952580230E-01 a       523     0    27     1     3
  1.7192510269122471E-01 a       524     0    27     1     4
  3.9738384786763264E-01 a       525     0    27     1     5
 -3.8818846500246668E-01 a       526     0    27     1     6
  6.6252301326141771E-01 a       527     0    27     1     7
 -3.9386685795205917E-01 a       528     0    27     1     8
 -3.3735920535613728E-01 a       529     0    27     1     9
 -4.1444921268350622E-02 a       530     0    27     1    10
 -1.6887753308723663E-02 a       531     0    27     1    11
 -8.8152715754482077E-03 a       532     0    27     1    12
  2.4041263470580160E-01 a       533     0    27     1    13
  4.3387817198995045E-02 a       534     0    27     1    14
  1.6837601663831520E-01 a       535     0    27     1    15
  3.8789969831376242E-01 a       536     0    27     1    16
 -3.3711286688897689E-02 a       537     0    27     1    17
  5.5915672083755463E-01 a       538     0    27     1    18
 -1.2984465678198348E-01 a       539     0    27     1    19
 -5.7691619050462162E-01 a       540     0    27     1    20
  7.6289755083642843E-02 a       541     0    28     1     1
  1.8932360367217949E-02 a       542     0    28     1     2
  1.7625753380255849E-02 a       543     0    28     1     3
  1.2610545854459848E-01 a       544     0    28     1     4
 -1.4490174980106238E-01 a       545     0    28     1     5
  6.7115046584819676E-02 a       546     0    28     1     6
 -1.3429338494484916E-01 a       547     0    28     1     7
  2.0874793201002897E-01 a       548     0    28     1     8
  1.3096154878880858E-01 a       549     0    28     1     9
  1.4836333178408526E-01 a       550     0    28     1    10
  1.4618334736104860E-01 a       551     0    28     1    11
  2.0482628802436534E-01 a       552     0    28     1    12
  4.2923535540019736E-01 a       553     0    28     1    13
 -2.4374495557711143E-01 a       554     0    28     1    14
  5.6538763541973826E-02 a       555     0    28     1    15
 -1.1570602207528648E-01 a       556     0    28     1    16
 -2.1278323651396595E-02 a       557     0    28     1    17
 -1.4990484563717385E-01 a       558     0    28     1    18
 -1.2553537779916957E-02 a       559     0    28     1    19
  3.1352004303818715E-01 a       560     0    28     1    20
 -4.6629934295776038E-01 a       561     0    29     1     1
  3.3878371453496114E-01 a       562     0    29     1     2
 -2.2789975103717208E-01 a       563     0    29     1     3
 -2.4789240485939740E-01 a       564     0    29     1     4
 -2.4926183312302638E-01 a       565     0    29     1     5
  3.0027242706321983E-01 a       566     0    29     1     6
 -2.5595049877409633E-02 a       567     0    29     1     7
 -7.6309444409097399E-02 a       568     0    29     1     8
  1.3738179808605502E-01 a       569     0    29     1     9
 -1.9170845404055606E-01 a       570     0    29     1    10
  2.2402632256261173E-01 a       571     0    29     1    11
 -1.6322363568409623E-01 a       572     0    29     1    12
  1.6039753326503070E-01 a       573     0    29     1    13
  4.4546602328504459E-01 a       574     0    29     1    14
 -4.4495681854381636E-01 a       575     0    29     1    15
 -2.9545835449830599E-01 a       576     0    29     1    16
  1.7529763878586674E-01 a       577     0    29     1    17
 -4.8955125133533534E-02 a       578     0    29     1    18
 -3.4061141346580293E-01 a       579     0    29     1    19
 -3.8577598632191973E-01 a       580     0    29     1    20
 -2.4273041367747772E-01 a       581     0    30     1     1
 -3.4166655783070382E-01 a       582     0    30     1     2
  1.0826563128937437E-01 a       583     0    30     1     3
 -3.7530397964033629E-01 a       584     0    30     1     4
 -3.3991413342732485E-01 a       585     0    30     1     5
  7.6884274037814060E-02 a       586     0    30     1     6
 -1.5382976194327933E-01 a       587     0    30     1     7
 -2.3162257192099822E-01 a       588     0    30     1     8
 -1.2307592673687843E-03 a       589     0    30     1     9
 -1.0042690966906062E-01 a       590     0    30     1    10
 -2.0952707692452086E-01 a       591     0    30     1    11
  2.5846982660966450E-01 a       592     0    30     1    12
  3.9280809905348385E-01 a       593     0    30     1    13
 -2.4651602731271910E-01 a       594     0    30     1    14
 -1.0396981247782497E-01 a       595     0    30     1    15
  1.1833227845532973E-01 a       596     0    30     1    16
  1.4972456537460524E-01 a       597     0    30     1    17
 -2.2362989541888734E-01 a       598     0    30     1    18
 -3.1339736901377357E-01 a       599     0    30     1    19
  5.9139296255613052E-02 a       600     0    30     1    20
  3.0853869363482694E-01 b       601     1     1
 -1.7016130822678823E+00 b       602     1     2
 -1.3643994504512480E+00 b       603     1     3
  1.1069778594854309E+00 b       604     1     4
 -1.0061657834404307E+00 b       605     1     5
 -1.2752186644243652E-01 b       606     1     6
  6.8579141331147384E-02 b       607     1     7
 -5.8506282963331735E-01 b       608     1     8
  1.6996272359730102E-01 b       609     1     9
  2.4224947646877157E-01 b       610     1    10
 -1.1882454506083373E+00 b       611     1    11
  1.0180016546721304E+00 b       612     1    12
  1.4998278799309475E+00 b       613     1    13
  7.4439641558911018E-01 b       614     1    14
  7.1546129860351707E-02 b       615     1    15
 -4.2692552949184459E-01 b       616     1    16
  6.2660573334414837E-01 b       617     1    17
 -8.4673604195363950E-01 b       618     1    18
  2.2823092306038675E-01 b       619     1    19
  3.5533848511651639E-01 b       620     1    20
 -9.6017797216785741E-03 a       621     1     1     2     1
  1.3920709497654010E-01 a       622     1     1     2     2
 -4.7074224520428221E-01 a       623     1     1     2     3
 -1.6281407543573848E-01 a       624     1     1     2     4
  4.8498821047037469E-02 a       625     1     1     2     5
 -1.6800661775229989E-01 a       626     1     1     2     6
 -6.9018482533200498E-01 a       627     1     1     2     7
 -7.6656350782557323E-02 a       628     1     1     2     8
 -4.1249245986381210E-02 a       629     1     1     2     9
 -1.8338334411801835E-01 a       630     1     1     2    10
  6.9005197645382321E-01 a       631     1     1     2    11
 -4.5307478358757430E-01 a       632     1     1     2    12
  6.9403722630870496E-02 a       633     1     1     2    13
  4.9721298965785005E-01 a       634     1     1     2    14
 -1.9714732136203722E-01 a       635     1     1     2    15
  2.0832626441322910E-01 a       636     1     1     2    16
 -4.2232329705845106E-01 a       637     1     1     2    17
 -2.5316773364442807E-01 a       638     1     1     2    18
  1.6449338145165598E-01 a       639     1     1     2    19
 -4.0245457272341395E-01 a       640     1     1     2    20
 -1.9740483863825639E-01 a       641     1     2     2     1
 -5.4409821258552860E-01 a       642     1     2     2     2
 -3.8693725457624395E-01 a       643     1     2     2     3
 -1.9378025368890056E-01 a       644     1     2     2     4
 -2.1191668262294669E-01 a       645     1     2     2     5
  5.5145122190999529E-01 a       646     1     2     2     6
  3.0912284782596910E-01 a       647     1     2     2     7
  3.7977553480832443E-01 a       648     1     2     2     8
  4.2520784886539142E-01 a       649     1     2     2     9
  4.9864611708998652E-01 a       650     1     2     2    10
  6.8365960516634028E-01 a       651     1     2     2    11
 -3.6197329888194607E-01 a       652     1     2     2    12
  3.3983834565429877E-01 a       653     1     2     2    13
  5.6673894009335957E-01 a       654     1     2     2    14
 -3.0064491576120855E-01 a       655     1     2     2    15
  1.6895726663955102E-01 a       656     1     2     2    16
 -2.5354679171802375E-01 a       657     1     2     2    17
 -5.1298716984516914E-02 a       658     1     2     2    18
  3.8824261368338658E-01 a       659     1     2     2    19
  7.2054215815014033E-01 a       660     1     2     2    20
 -2.0498586443559128E-01 a       661     1     3     2     1
 -1.3920935112343433E-01 a       662     1     3     2     2
  6.3746458855468557E-01 a       663     1     3     2     3
  2.2905603009728567E-01 a       664     1     3     2     4
 -3.2246747646577961E-01 a       665     1     3     2     5
 -1.0779236317842384E-02 a       666     1     3     2     6
 -1.7133958980741404E-01 a       667     1     3     2     7
  3.5711014661219603E-01 a       668     1     3     2     8
  3.8771191817191845E-02 a       669     1     3     2     9
 -1.5959482966202354E-01 a       670     1     3     2    10
  8.5193448895923979E-02 a       671     1     3     2    11
 -6.3481445948526782E-01 a       672     1     3     2    12
 -4.1390721892112231E-01 a       673     1     3     2    13
  3.8454680560687593E-01 a       674     1     3     2    14
  2.4084615241026133E-01 a       675     1     3     2    15
 -2.0105766565981925E-01 a       676     1     3     2    16
  4.7879653113928014E-02 a       677     1     3     2    17
  1.8761982818252837E-01 a       678     1     3     2    18
 -2.0755173177929198E-01 a       679     1     3     2    19
  3.8803204330741164E-01 a       680     1     3     2    20
 -1.8113953103892400E-01 a       681     1     4     2     1
  4.8301762440785341E-04 a       682     1     4     2     2
  2.0075899036900974E-01 a       683     1     4     2     3
 -1.5228688747598310E-01 a       684     1     4     2     4
 -5.1712168056646712E-01 a       685     1     4     2     5
  5.3361937991388364E-01 a       686     1     4     2     6
  3.1708420474041099E-01 a       687     1     4     2     7
  2.6179770065542984E-01 a       688     1     4     2     8
  2.0088922024682998E-01 a       689     1     4     2     9
  4.0620863013208958E-01 a       690     1     4     2    10
 -1.2966952215679539E-01 a       691     1     4     2    11
 -2.8788277484396330E-01 a       692     1     4     2    12
 -5.2448242667794198E-01 a       693     1     4     2    13
 -4.2177185669262834E-01 a       694     1     4     2    14
  3.7982215409420167E-01 a       695     1     4     2    15
 -5.5349217355308300E-01 a       696     1     4     2    16
 -3.1952740019729547E-01 a       697     1     4     2    17
 -4.9184066755401601E-01 a       698     1     4     2    18
 -2.0921695188142511E-01 a       699     1     4     2    19
  5.4303604007751671E-01 a       700     1     4     2    20
  7.1589379141994272E-02 a       701     1     5     2     1
 -7.1713752407430886E-02 a       702     1     5     2     2
  4.6636955514812206E-01 a       703     1     5     2     3
  5.2415059819788379E-01 a       704     1     5     2     4
  3.3093855006123385E-01 a       705     1     5     2     5
 -1.2352583967259931E-01 a       706     1     5     2     6
 -2.9985855925603155E-01 a       707     1     5     2     7
  5.9358354157425197E-01 a       708     1     5     2     8
  3.9819969570282060E-01 a       709     1     5     2     9
 -2.3832003154348702E-01 a       710     1     5     2    10
 -1.8131376936409985E-01 a       711     1     5     2    11
 -2.7154926987615482E-02 a       712     1     5     2    12
  5.3525654548639923E-01 a       713     1     5     2    13
 -2.6752444710397560E-01 a       714     1     5     2    14
  7.1460577913889864E-02 a       715     1     5     2    15
  3.0141347366570853E-01 a       716     1     5     2    16
 -1.3696956786612632E-01 a       717     1     5     2    17
 -5.3326542714856640E-01 a       718     1     5     2    18
  2.6315926149249574E-01 a       719     1     5     2    19
  1.0261915385086873E-01 a       720     1     5     2    20
 -7.2876952609115531E-01 a       721     1     6     2     1
 -6.0830764598881504E-01 a       722     1     6     2     2
 -2.8866071770530122E-01 a       723     1     6     2     3
 -4.5869218564243275E-01 a       724     1     6     2     4
  4.8222392924866031E-01 a       725     1     6     2     5
  8.7734627764516210E-02 a       726     1     6     2     6
  5.5977321991960871E-01 a       727     1     6     2     7
  4.9352215416662415E-01 a       728     1     6     2     8
  1.0409076976443703E-01 a       729     1     6     2     9
  3.6965901861399253E-01 a       730     1     6     2    10
 -4.1802732079836791E-01 a       731     1     6     2    11
  1.0515771799955262E-01 a       732     1     6     2    12
 -2.5762945687557205E-02 a       733     1     6     2    13
 -1.8873226815765154E-01 a       734     1     6     2    14
 -2.2344791288145807E-01 a       735     1     6     2    15
  1.8932710338579942E-01 a       736     1     6     2    16
  4.1600728222951022E-01 a       737     1     6     2    17
 -4.8881047037983300E-01 a       738     1     6     2    18
 -5.1611801173470195E-01 a       739     1     6     2    19
  2.7758765763822318E-01 a       740     1     6     2    20
  3.1005254111698185E-02 a       741     1     7     2     1
  2.1053783693692890E-01 a       742     1     7     2     2
 -1.7237596687298268E-01 a       743     1     7     2     3
  5.0181618033947051E-01 a       744     1     7     2     4
  3.1664549169017647E-01 a       745     1     7     2     5
  7.0198230067620590E-02 a       746     1     7     2     6
  4.0736101822925713E-01 a       747     1     7     2     7
  2.9694221036283275E-01 a       748     1     7     2     8
  7.4564343456188550E-02 a       749     1     7     2     9
  5.7177617112888719E-02 a       750     1     7     2    10
 -4.2405046761293175E-01 a       751     1     7     2    11
  4.3892298274949459E-01 a       752     1     7     2    12
 -3.4958406151734672E-01 a       753     1     7     2    13
  1.3917831455864085E-01 a       754     1     7     2    14
  1.9635241872956566E-01 a       755     1     7     2    15
 -3.3803128951381690E-02 a       756     1     7     2    16
 -5.6462281678857784E-01 a       757     1     7     2    17
 -2.0693913495448357E-01 a       758     1     7     2    18
 -5.7813210346112553E-01 a       759     1     7     2    19
  8.6682959469327511E-02 a       760     1     7     2    20
  6.2740886446090816E-01 a       761     1     8     2     1
  5.8482538235285586E-01 a       762     1     8     2     2
  1.2201933669600905E-01 a       763     1     8     2     3
 -9.5878687441382046E-02 a       764     1     8     2     4
  2.1865071979976927E-01 a       765     1     8     2     5
  4.8157650864536349E-02 a       766     1     8     2     6
  1.1721775878155548E-01 a       767     1     8     2     7
 -5.3448313384533645E-02 a       768     1     8     2     8
  3.0132977168965058E-01 a       769     1     8     2     9
  4.0482930468256667E-01 a       770     1     8     2    10
 -1.3644565535448833E-01 a       771     1     8     2    11
  3.7540641326081775E-01 a       772     1     8     2    12
 -5.7398794194807279E-01 a       773     1     8     2    13
  2.7639235683676222E-01 a       774     1     8     2    14
  5.3102549394300269E-01 a       775     1     8     2    15
 -3.4245216579619386E-01 a       776     1     8     2    16
 -3.7191173461686011E-01 a       777     1     8     2    17
  9.4045173071308413E-02 a       778     1     8     2    18
  6.7301643678195647E-02 a       779     1     8     2    19
 -2.8005700275135542E-01 a       780     1     8     2    20
 -5.0985062261941727E-01 a       781     1     9     2     1
  4.9742123901236118E-01 a       782     1     9     2     2
  5.5801357391309325E-01 a       783     1     9     2     3
 -2.3946432861984771E-01 a       784     1     9     2     4
  5.7038263623098429E-01 a       785     1     9     2     5
  2.5661757542386221E-01 a       786     1     9     2     6
 -5.2115706868512635E-01 a       787     1     9     2     7
  3.9546724120765259E-01 a       788     1     9     2     8
 -4.4572553144896576E-01 a       789     1     9     2     9
 -2.4928545052929069E-01 a       790     1     9     2    10
 -1.4035566222256590E-01 a       791     1     9     2    11
  3.4330634458689918E-01 a       792     1     9     2    12
  4.5524353922645544E-01 a       793     1     9     2    13
  2.8709786763251019E-02 a       794     1     9     2    14
  6.5312180618764315E-01 a       795     1     9     2    15
  5.9368873437872860E-01 a       796     1     9     2    16
 -1.5101824489178289E-01 a       797     1     9     2    17
  4.1971543589013383E-01 a       798     1     9     2    18
  3.5294865198930170E-01 a       799     1     9     2    19
  1.8784220203878360E-01 a       800     1     9     2    20
 -1.6284856800110203E-01 a       801     1    10     2     1
 -3.3306065656655803E-01 a       802     1    10     2     2
 -4.9506870539828174E-01 a       803     1    10     2     3
 -5.1319287574404493E-01 a       804     1    10     2     4
 -1.1443909223942306E-01 a       805     1    10     2     5
  5.1869331722298651E-01 a       806     1    10     2     6
  3.0905895975056452E-01 a       807     1    10     2     7
 -4.8296892630397542E-01 a       808     1    10     2     8
 -5.8993862699206989E-01 a       809     1    10     2     9
  1.9893123092868031E-01 a       810     1    10     2    10
  4.0414681840529743E-01 a       811     1    10     2    11
 -6.9401330571022823E-01 a       812     1    10     2    12
 -5.7406394383176629E-02 a       813     1    10     2    13
  4.7041935154529457E-01 a       814     1    10     2    14
 -3.1239840916349326E-01 a       815     1    10     2    15
 -1.4122462864921712E-01 a       816     1    10     2    16
  2.0149325688308930E-02 a       817     1    10     2    17
  1.9163659814679421E-01 a       818     1    10     2    18
  3.8869142104402776E-01 a       819     1    10     2    19
 -1.0074820265028046E-01 a       820     1    10     2    20
  4.8936288098451169E-01 a       821     1    11     2     1
  8.9083885906985974E-02 a       822     1    11     2     2
 -2.5836537213400573E-01 a       823     1    11     2     3
  3.5845431122131449E-01 a       824     1    11     2     4
 -4.2940522827210598E-01 a       825     1    11     2     5
 -4.8833860302796700E-01 a       826     1    11     2     6
 -5.8685684614943570E-02 a       827     1    11     2     7
 -1.0432854620468583E-01 a       828     1    11     2     8
 -1.0917369666108806E-01 a       829     1    11     2     9
 -2.2961249819223503E-01 a       830     1    11     2    10
  1.7357200487669081E-01 a       831     1    11     2    11
  7.2063713313836070E-02 a       832     1    11     2    12
  2.3526065680218641E-01 a       833     1    11     2    13
 -1.1360963880173158E-02 a       834     1    11     2    14
 -5.4041839541365333E-01 a       835     1    11     2    15
 -2.0627841807753372E-01 a       836     1    11     2    16
  2.5878247056634002E-01 a       837     1    11     2    17
 -4.9058769298955851E-01 a       838     1    11     2    18
  3.6576389214650784E-01 a       839     1    11     2    19
 -2.9607572513307295E-01 a       840     1    11     2    20
 -3.5032222059975471E-01 a       841     1    12     2     1
  4.9153930640223203E-01 a       842     1    12     2     2
 -2.9696046259787195E-01 a       843     1    12     2     3
 -4.9189476902486629E-01 a       844     1    12     2     4
 -2.5815086868179732E-01 a       845     1    12     2     5
  6.3372614126046800E-01 a       846     1    12     2     6
  2.2748257533389385E-01 a       847     1    12     2     7
  9.2517578428596599E-03 a       848     1    12     2     8
 -3.4315795038406260E-01 a       849     1    12     2     9
  3.8314664736027415E-01 a       850     1    12     2    10
 -1.8564267969978671E-01 a       851     1    12     2    11
  3.9672281989899788E-01 a       852     1    12     2    12
  3.5405440698418333E-01 a       853     1    12     2    13
  6.9176218565611706E-03 a       854     1    12     2    14
  4.9985853223975807E-01 a       855     1    12     2    15
 -3.2852683039900688E-01 a       856     1    12     2    16
 -6.1231996263164468E-01 a       857     1    12     2    17
 -5.8574822795709003E-01 a       858     1    12     2    18
 -5.4349120534390805E-01 a       859     1    12     2    19
  8.3443991984934629E-02 a       860     1    12     2    20
  4.1486876751063950E-01 a       861     1    13     2     1
 -2.4981917587385485E-01 a       862     1    13     2     2
  3.2731376857391187E-01 a       863     1    13     2     3
 -2.8581431082435560E-01 a       864     1    13     2     4
  4.0587873078894432E-01 a       865     1    13     2     5
 -2.2390798628614466E-02 a       866     1    13     2     6
 -5.2999736797160857E-02 a       867     1    13     2     7
 -1.0787749687214676E-01 a       868     1    13     2     8
  4.4171758934871580E-01 a       869     1    13     2     9
  4.2288653250691838E-02 a       870     1    13     2    10
  1.7109347894139082E-01 a       871     1    13     2    11
 -3.8621332910281209E-01 a       872     1    13     2    12
  1.5687244869099218E-01 a       873     1    13     2    13
  2.4943579573745886E-01 a       874     1    13     2    14
  3.3375103829980418E-01 a       875     1    13     2    15
  2.8653000291513370E-01 a       876     1    13     2    16
 -3.8669223656103752E-01 a       877     1    13     2    17
 -4.3420076504353389E-01 a       878     1    13     2    18
 -2.4772638399626221E-01 a       879     1    13     2    19
  1.6006048353712726E-01 a       880     1    13     2    20
 -2.2730163793470773E-01 a       881     1    14     2     1
  5.8357076140251007E-01 a       882     1    14     2     2
  4.2148937298505884E-01 a       883     1    14     2     3
 -5.6340500652435588E-01 a       884     1    14     2     4
 -2.1385919956914085E-01 a       885     1    14     2     5
  4.1407388464355044E-01 a       886     1    14     2     6
  6.0150798030650585E-02 a       887     1    14     2     7
  2.8890932910442796E-01 a       888     1    14     2     8
 -7.2133252294212713E-01 a       889     1    14     2     9
  1.8235896564852155E-01 a       890     1    14     2    10
 -3.9268336620660527E-01 a       891     1    14     2    11
  2.7675886221297780E-01 a       892     1    14     2    12
 -9.9851740899557923E-02 a       893     1    14     2    13
  1.8527567856687899E-01 a       894     1    14     2    14
 -1.9912772285762570E-01 a       895     1    14     2    15
  2.2885083109786727E-01 a       896     1    14     2    16
  2.6045547240248346E-01 a       897     1    14     2    17
  1.6785291143772241E-01 a       898     1    14     2    18
 -8.7975371216552786E-02 a       899     1    14     2    19
  4.1817705006431616E-01 a       900     1    14     2    20
 -1.9457774434387848E-01 a       901     1    15     2     1
  1.3889771426361761E-01 a       902     1    15     2     2
 -3.0936286957755521E-01 a       903     1    15     2     3
  2.0605275300073604E-02 a       904     1    15     2     4
 -2.3439606573672600E-01 a       905     1    15     2     5
  1.9340744355117517E-01 a       906     1    15     2     6
  6.6107354052009154E-02 a       907     1    15     2     7
  1.8282800650247874E-01 a       908     1    15     2     8
 -4.8953929402648400E-01 a       909     1    15     2     9
 -4.2109275579592464E-01 a       910     1    15     2    10
 -1.0263472451148950E-01 a       911     1    15     2    11
 -1.5780413016679509E-01 a       912     1    15     2    12
  7.4362695859618222E-01 a       913     1    15     2    13
 -6.1884567744382413E-01 a       914     1    15     2    14
  1.0169095892495103E-01 a       915     1    15     2    15
  2.6253194678677205E-01 a       916     1    15     2    16
 -9.5816937297151447E-02 a       917     1    15     2    17
 -5.4470457924325844E-01 a       918     1    15     2    18
  4.0243262439024091E-01 a       919     1    15     2    19
  1.2306797446323658E-01 a       920     1    15     2    20
  1.2926138256508785E-01 a       921     1    16     2     1
  2.9610086172232669E-01 a       922     1    16     2     2
  5.3500832559515166E-01 a       923     1    16     2     3
  6.1253018727354759E-02 a       924     1    16     2     4
  4.9611146881368856E-01 a       925     1    16     2     5
 -2.3977836220583648E-01 a       926     1    16     2     6
  3.7038499419745530E-01 a       927     1    16     2     7
 -2.1517303739328711E-01 a       928     1    16     2     8
  1.4213088621692258E-01 a       929     1    16     2     9
  2.4539343507285052E-01 a       930     1    16     2    10
 -5.4746975709670986E-01 a       931     1    16     2    11
 -5.1875669704224603E-01 a       932     1    16     2    12
 -5.4801810946849694E-01 a       933     1    16     2    13
  6.8032723197778755E-01 a       934     1    16     2    14
  5.3820673923173801E-01 a       935     1    16     2    15
 -3.0561749014819894E-01 a       936     1    16     2    16
  4.0948153121511172E-01 a       937     1    16     2    17
  3.8941703386250487E-01 a       938     1    16     2    18
 -1.0307769836721176E-01 a       939     1    16     2    19
 -4.3536383251152982E-01 a       940     1    16     2    20
  5.4712295211892614E-01 a       941     1    17     2     1
  6.7093762311705163E-02 a       942     1    17     2     2
 -7.5249214894559449E-02 a       943     1    17     2     3
 -3.1984314454397433E-01 a       944     1    17     2     4
  1.4995581541823999E-01 a       945     1    17     2     5
  5.2477092956034321E-01 a       946     1    17     2     6
  2.6336293410441042E-01 a       947     1    17     2     7
  5.3817347204658705E-01 a       948     1    17     2     8
  3.9298646276268528E-01 a       949     1    17     2     9
 -3.6119667968170049E-01 a       950     1    17     2    10
 -4.7789264066481846E-01 a       951     1    17     2    11
 -3.5296890662041330E-01 a       952     1    17     2    12
  4.1786321946744426E-01 a       953     1    17     2    13
 -4.7319842621937114E-01 a       954     1    17     2    14
  2.9861988758211059E-02 a       955     1    17     2    15
  1.7175935605322923E-01 a       956     1    17     2    16
  2.1354752243415109E-02 a       957     1    17     2    17
 -2.0328706985493689E-01 a       958     1    17     2    18
  3.8241516141736279E-02 a       959     1    17     2    19
 -1.0435139675942100E-01 a       960     1    17     2    20
 -3.5767579975457398E-01 a       961     1    18     2     1
 -3.0523540218281225E-01 a       962     1    18     2     2
 -7.2048532876038490E-02 a       963     1    18     2     3
 -4.2434297471894011E-01 a       964     1    18     2     4
  2.0932108699374424E-01 a       965     1    18     2     5
 -4.6766765064664917E-01 a       966     1    18     2     6
  3.5649210332729098E-01 a       967     1    18     2     7
  6.8768420783095296E-01 a       968     1    18     2     8
  4.5089270278382015E-01 a       969     1    18     2     9
 -3.6480198103748357E-01 a       970     1    18     2    10
  5.3507198184221776E-02 a       971     1    18     2    11
 -2.5418578964981797E-01 a       972     1    18     2    12
  2.5918330804573875E-01 a       973     1    18     2    13
  2.5339198159975962E-01 a       974     1    18     2    14
  2.6300775327547382E-01 a       975     1    18     2    15
 -3.8512982592156797E-01 a       976     1    18     2    16
 -3.0333927909044078E-01 a       977     1    18     2    17
 -4.8649875643423446E-01 a       978     1    18     2    18
  5.4399343665618594E-01 a       979     1    18     2    19
 -3.5124200064480270E-02 a       980     1    18     2    20
 -4.7626519850926541E-01 a       981     1    19     2     1
 -2.0193193709257184E-01 a       982     1    19     2     2
 -4.3645241553391875E-02 a       983     1    19     2     3
  3.4313508774246565E-01 a       984     1    19     2     4
  5.0016357342465623E-01 a       985     1    19     2     5
  3.4769368922019978E-01 a       986     1    19     2     6
  9.8869438302431001E-02 a       987     1    19     2     7
  2.8698504495405808E-01 a       988     1    19     2     8
  1.5491424248662804E-02 a       989     1    19     2     9
  1.7118039147507511E-02 a       990     1    19     2    10
 -1.8279913869311751E-01 a       991     1    19     2    11
  3.6011434482689036E-01 a       992     1    19     2    12
  1.3972016691141922E-01 a       993     1    19     2    13
  1.8433197879027893E-01 a       994     1    19     2    14
 -4.4088065909603166E-02 a       995     1    19     2    15
  4.4328071924288709E-01 a       996     1    19     2    16
 -2.5450868943011140E-01 a       997     1    19     2    17
 -3.2362328075578639E-01 a       998     1    19     2    18
 -4.1413685708484238E-01 a       999     1    19     2    19
  2.1394313256579886E-01 a      1000     1    19     2    20
 -3.7140271162360383E-01 a      1001     1    20     2     1
 -3.9507018721404719E-01 a      1002     1    20     2     2
  3.9054305412989287E-01 a      1003     1    20     2     3
 -6.6232036013026546E-02 a      1004     1    20     2     4
  1.3486119039408589E-01 a      1005     1    20     2     5
  2.1879868626573812E-01 a      1006     1    20     2     6
  4.8830887462035955E-01 a      1007     1    20     2     7
  4.2914856335183177E-01 a      1008     1    20     2     8
  1.4757462302358865E-01 a      1009     1    20     2     9
 -2.4704929342653525E-01 a      1010     1    20     2    10
 -3.2315218596343476E-01 a      1011     1    20     2    11
  2.1304468963789017E-01 a      1012     1    20     2    12
 -4.9667189708238640E-01 a      1013     1    20     2    13
 -2.4547976670349952E-01 a      1014     1    20     2    14
 -7.2485741408128468E-01 a      1015     1    20     2    15
  2.3162648125316865E-02 a      1016     1    20     2    16
  5.8996263867796539E-01 a      1017     1    20     2    17
 -4.1469813936024641E-02 a      1018     1    20     2    18
 -5.4635357201572810E-01 a      1019     1    20     2    19
 -1.6781656507188961E-01 a      1020     1    20     2    20
  1.1697354726271143E+00 b      1021     2     1
  7.6645635562671033E-01 b      1022     2     2
 -1.4041157957189863E+00 b      1023     2     3
  1.4084528959172002E+00 b      1024     2     4
 -1.8054202415796644E-01 b      1025     2     5
  1.1112621850929459E-01 b      1026     2     6
 -6.9018633450480060E-01 b      1027     2     7
 -1.4550665641107920E+00 b      1028     2     8
 -1.2527900938948127E+00 b      1029     2     9
  1.9495483555296275E-01 b      1030     2    10
  1.4338093220612869E+00 b      1031     2    11
  1.3432607738201510E+00 b      1032     2    12
  5.7319403636641952E-01 b      1033     2    13
 -1.7581236606392145E-01 b      1034     2    14
 -1.6258198971310156E+00 b      1035     2    15
 -5.8776943367254597E-01 b      1036     2    16
 -1.1922955487002318E+00 b      1037     2    17
  2.5780467759247727E-01 b      1038     2    18
 -1.1890735066375733E+00 b      1039     2    19
 -3.8737177730646812E-02 b      1040     2    20
  4.2773470683051561E-02 a      1041     2     1     3     1
 -7.2711065797816299E-01 a      1042     2     2     3     1
  1.0963546493890897E+00 a      1043     2     3     3     1
  3.3774555625587732E-01 a      1044     2     4     3     1
 -6.1042808351753419E-01 a      1045     2     5     3     1
  7.6325646547007520E-01 a      1046     2     6     3     1
  1.2826900967618908E+00 a      1047     2     7     3     1
  8.6878326300945108E-01 a      1048     2     8     3     1
  1.1659878995192183E+00 a      1049     2     9     3     1
  8.1763889531260325E-01 a      1050     2    10     3     1
  6.7409230458101488E-01 a      1051     2    11     3     1
 -1.0568975609566766E+00 a      1052     2    12     3     1
  3.9924531691537851E-01 a      1053     2    13     3     1
  3.1030915562249300E-01 a      1054     2    14     3     1
  8.1065138256234770E-01 a      1055     2    15     3     1
  8.8528391404999918E-01 a      1056     2    16     3     1
 -6.2250938975439063E-01 a      1057     2    17     3     1
  3.9712269661095151E-01 a      1058     2    18     3     1
  1.0526034437680527E+00 a      1059     2    19     3     1
 -5.7094942264709092E-01 a      1060     2    20     3     1
  2.7614767746272006E-01 b      1061     3     1
