################################################################################
# Neural network connection values (weights and biases).
################################################################################
# Col  Name       Description
################################################################################
# 1    connection Neural network connection value.
# 2    t          Connection type (a = weight, b = bias).
# 3    index      Index enumerating weights.
# 4    l_s        Starting point layer (end point layer for biases).
# 5    n_s        Starting point neuron in starting layer (end point neuron for biases).
# 6    l_e        End point layer.
# 7    n_e        End point neuron in end layer.
################################################################################
#                      1 2         3     4     5     6     7
#             connection t     index   l_s   n_s   l_e   n_e
############################################################
  1.3582463773188411E-01 a         1     0     1     1     1
  2.0411882888596411E-01 a         2     0     1     1     2
  2.0017622857981016E-01 a         3     0     1     1     3
  1.0900749791970894E-01 a         4     0     1     1     4
 -2.5386416478336055E-01 a         5     0     1     1     5
 -3.6838086412009349E-02 a         6     0     1     1     6
  5.0623459320434050E-02 a         7     0     1     1     7
  1.5677804713034732E-01 a         8     0     1     1     8
 -1.7874577224532778E-01 a         9     0     1     1     9
  2.0114620938785110E-01 a        10     0     1     1    10
 -1.5762027837681053E-01 a        11     0     1     1    11
  1.9995184398141796E-01 a        12     0     1     1    12
  4.0017966011238068E-02 a        13     0     1     1    13
 -4.0602542355121035E-01 a        14     0     1     1    14
  2.6433046416409950E-01 a        15     0     1     1    15
 -3.1775713562769292E-01 a        16     0     1     1    16
 -3.7931674682556654E-01 a        17     0     1     1    17
  1.2850657676500613E-01 a        18     0     1     1    18
  1.5122161791084545E-02 a        19     0     1     1    19
 -3.9357191118572527E-01 a        20     0     1     1    20
 -3.3950379671075268E-02 a        21     0     2     1     1
 -1.3166005392706612E-02 a        22     0     2     1     2
  7.0899074175406709E-02 a        23     0     2     1     3
 -3.5012778716694469E-02 a        24     0     2     1     4
  4.2591559167275563E-02 a        25     0     2     1     5
 -1.1118621562051111E-01 a        26     0     2     1     6
  3.1970672173603158E-02 a        27     0     2     1     7
 -4.4797402525394631E-01 a        28     0     2     1     8
 -3.1083939099265739E-01 a        29     0     2     1     9
 -5.3948033248192129E-01 a        30     0     2     1    10
  3.4959807553257359E-02 a        31     0     2     1    11
 -1.9022229146897524E-01 a        32     0     2     1    12
 -2.1469838208366204E-01 a        33     0     2     1    13
  2.6105281062235070E-01 a        34     0     2     1    14
 -7.5717652056255663E-02 a        35     0     2     1    15
  3.5555845445115732E-02 a        36     0     2     1    16
  6.1509753957095105E-02 a        37     0     2     1    17
 -3.5713357580930513E-02 a        38     0     2     1    18
  3.5931698209454216E-02 a        39     0     2     1    19
  1.6799833329270104E-02 a        40     0     2     1    20
 -1.7250880988938502E-01 a        41     0     3     1     1
  5.6534015063320731E-02 a        42     0     3     1     2
 -2.2047171024036236E-01 a        43     0     3     1     3
  3.6377079342266666E-02 a        44     0     3     1     4
  1.4334120898439573E-01 a        45     0     3     1     5
 -1.6529163602618645E-02 a        46     0     3     1     6
 -2.2687704752024201E-01 a        47     0     3     1     7
  1.5762657315649198E-01 a        48     0     3     1     8
  4.3205281178248128E-01 a        49     0     3     1     9
  6.1011546704454404E-02 a        50     0     3     1    10
 -1.0069424973218302E-01 a        51     0     3     1    11
  2.6609083477794065E-01 a        52     0     3     1    12
  1.0785470351595670E-01 a        53     0     3     1    13
  2.4754072711821095E-03 a        54     0     3     1    14
 -3.6375996151498641E-01 a        55     0     3     1    15
  3.4617184305851845E-01 a        56     0     3     1    16
  4.1786929721261523E-01 a        57     0     3     1    17
 -3.7822815710557850E-01 a        58     0     3     1    18
  1.7774084545512320E-01 a        59     0     3     1    19
  2.0730250445805498E-01 a        60     0     3     1    20
  1.0883969642116934E-01 a        61     0     4     1     1
  2.8097243547134745E-04 a        62     0     4     1     2
  1.7199517170992823E-01 a        63     0     4     1     3
  5.0416499087083774E-02 a        64     0     4     1     4
 -5.9414024402555082E-02 a        65     0     4     1     5
 -6.7425718087398195E-02 a        66     0     4     1     6
  1.8976917033402946E-03 a        67     0     4     1     7
 -7.3934738997850371E-04 a        68     0     4     1     8
 -2.8196272262747729E-01 a        69     0     4     1     9
  4.4893502411607628E-01 a        70     0     4     1    10
  2.8474525480784335E-01 a        71     0     4     1    11
 -3.6784558207182828E-02 a        72     0     4     1    12
 -1.9332804134784123E-01 a        73     0     4     1    13
  3.1629127967665077E-01 a        74     0     4     1    14
  1.0003705986571207E-01 a        75     0     4     1    15
  2.0002951985495465E-01 a        76     0     4     1    16
 -5.1850955967621859E-01 a        77     0     4     1    17
  3.4466763107928888E-01 a        78     0     4     1    18
 -5.0813148997985988E-02 a        79     0     4     1    19
  1.6480132038165302E-01 a        80     0     4     1    20
 -3.4878241107634939E-01 a        81     0     5     1     1
 -2.5806979797523882E-01 a        82     0     5     1     2
 -8.4764053692205688E-02 a        83     0     5     1     3
 -2.5488287442197799E-01 a        84     0     5     1     4
  1.9642613478837073E-01 a        85     0     5     1     5
  1.0246780172710587E-01 a        86     0     5     1     6
  2.3207272609087867E-01 a        87     0     5     1     7
  1.4692776730819784E-01 a        88     0     5     1     8
 -9.1900410592428428E-02 a        89     0     5     1     9
  3.1747010869070597E-01 a        90     0     5     1    10
  1.7586880100143656E-01 a        91     0     5     1    11
 -3.0984559467106365E-01 a        92     0     5     1    12
  2.3024195070911108E-01 a        93     0     5     1    13
  1.3907945534772009E-01 a        94     0     5     1    14
  1.1915140081529074E-01 a        95     0     5     1    15
 -2.4409645089966331E-01 a        96     0     5     1    16
  2.5558024347302061E-01 a        97     0     5     1    17
  6.5941959851201035E-02 a        98     0     5     1    18
 -3.8743496227127733E-01 a        99     0     5     1    19
  1.3050227695298172E-01 a       100     0     5     1    20
  2.8051056883338127E-01 a       101     0     6     1     1
  3.1004564596884426E-01 a       102     0     6     1     2
 -8.3653710311092158E-03 a       103     0     6     1     3
 -6.1267211634502501E-02 a       104     0     6     1     4
 -1.0743561989399118E-01 a       105     0     6     1     5
 -2.5305389063372929E-02 a       106     0     6     1     6
  2.0539510978050224E-01 a       107     0     6     1     7
 -2.4272558189222165E-01 a       108     0     6     1     8
  2.0213409527936049E-01 a       109     0     6     1     9
 -2.2734255129108899E-01 a       110     0     6     1    10
 -4.1256925271014983E-01 a       111     0     6     1    11
  9.1903200112100070E-02 a       112     0     6     1    12
  1.2089077419328592E-01 a       113     0     6     1    13
 -6.0441077937365584E-01 a       114     0     6     1    14
 -1.0530401833602424E-01 a       115     0     6     1    15
 -3.9750546164176020E-01 a       116     0     6     1    16
 -8.1964349950540728E-03 a       117     0     6     1    17
 -1.4136820071611492E-01 a       118     0     6     1    18
 -3.1259498226472759E-01 a       119     0     6     1    19
 -1.8632380735556009E-01 a       120     0     6     1    20
  1.6354778669878678E-01 a       121     0     7     1     1
 -4.2494723163724046E-01 a       122     0     7     1     2
 -2.7686711251106716E-01 a       123     0     7     1     3
 -2.4474642091418281E-02 a       124     0     7     1     4
  3.5115573409098232E-02 a       125     0     7     1     5
  5.5649989095748253E-02 a       126     0     7     1     6
 -1.0231180671270924E-01 a       127     0     7     1     7
  2.1183025901172728E-02 a       128     0     7     1     8
 -2.9569630531433466E-01 a       129     0     7     1     9
 -1.5893473606320233E-01 a       130     0     7     1    10
 -3.1303192839538313E-01 a       131     0     7     1    11
 -1.1777606984591765E-01 a       132     0     7     1    12
 -1.3940223061292677E-02 a       133     0     7     1    13
  3.8655213822494774E-02 a       134     0     7     1    14
  3.8797855886616783E-01 a       135     0     7     1    15
  3.5089175724446409E-01 a       136     0     7     1    16
  2.5322113642008987E-01 a       137     0     7     1    17
 -3.5813796651854068E-01 a       138     0     7     1    18
  4.4096040502704842E-01 a       139     0     7     1    19
  1.7669548252368949E-02 a       140     0     7     1    20
 -3.8914661375499776E-01 a       141     0     8     1     1
 -3.5887377043089847E-03 a       142     0     8     1     2
 -6.5896768637379685E-02 a       143     0     8     1     3
  7.2663188737011841E-01 a       144     0     8     1     4
 -2.9832849953401208E-01 a       145     0     8     1     5
 -4.5223217207494740E-02 a       146     0     8     1     6
 -2.3914247729142915E-01 a       147     0     8     1     7
  3.7087970327862158E-01 a       148     0     8     1     8
  3.7771338953342637E-01 a       149     0     8     1     9
 -2.5155458363596100E-02 a       150     0     8     1    10
 -3.5924190370775244E-01 a       151     0     8     1    11
  3.0272241877243355E-01 a       152     0     8     1    12
 -3.4513455658211040E-01 a       153     0     8     1    13
  3.5233361914414058E-01 a       154     0     8     1    14
 -2.7228471112812064E-01 a       155     0     8     1    15
  1.1518675674222172E-01 a       156     0     8     1    16
 -7.5120539579153392E-02 a       157     0     8     1    17
 -1.5113457647991529E-01 a       158     0     8     1    18
  6.0779956439332962E-02 a       159     0     8     1    19
  2.9840586163649130E-01 a       160     0     8     1    20
  1.5251650602296113E-01 a       161     0     9     1     1
  1.4768017626529048E-01 a       162     0     9     1     2
  2.5430367804433013E-01 a       163     0     9     1     3
 -1.5732430892685983E-01 a       164     0     9     1     4
 -1.4639453029642802E-01 a       165     0     9     1     5
 -3.8629769220352328E-02 a       166     0     9     1     6
 -2.7634457305917759E-01 a       167     0     9     1     7
 -2.4089339393354511E-01 a       168     0     9     1     8
 -3.0568640689653459E-01 a       169     0     9     1     9
 -8.5051396178794966E-02 a       170     0     9     1    10
  9.1661387840391323E-02 a       171     0     9     1    11
  2.1847547547074506E-01 a       172     0     9     1    12
  2.8255996704667380E-01 a       173     0     9     1    13
 -1.6382900800497757E-01 a       174     0     9     1    14
  8.5698845526698784E-03 a       175     0     9     1    15
 -1.5948863060253282E-01 a       176     0     9     1    16
 -4.9499638045345538E-02 a       177     0     9     1    17
 -2.4873484885624345E-01 a       178     0     9     1    18
  2.1370658526521663E-01 a       179     0     9     1    19
  4.1366686411467811E-02 a       180     0     9     1    20
 -6.4993312624996843E-02 a       181     0    10     1     1
 -3.0345450798793448E-02 a       182     0    10     1     2
  8.4628219251171907E-02 a       183     0    10     1     3
  6.5037006139573916E-02 a       184     0    10     1     4
  3.4512660354297281E-01 a       185     0    10     1     5
  3.2109563214425890E-01 a       186     0    10     1     6
  1.1466283030308788E-01 a       187     0    10     1     7
  2.9244499689286130E-01 a       188     0    10     1     8
 -3.4425983604908280E-03 a       189     0    10     1     9
  2.4786585773224934E-01 a       190     0    10     1    10
  2.2613256876378454E-01 a       191     0    10     1    11
  7.3169652310116975E-02 a       192     0    10     1    12
  4.1904567001481804E-02 a       193     0    10     1    13
 -2.3607668207967930E-01 a       194     0    10     1    14
  1.0079885740903646E-01 a       195     0    10     1    15
 -2.0117212303269291E-01 a       196     0    10     1    16
  7.6119684542779981E-02 a       197     0    10     1    17
  3.0576587139442268E-01 a       198     0    10     1    18
 -1.9238752551806668E-02 a       199     0    10     1    19
 -4.9688781469458954E-01 a       200     0    10     1    20
 -1.4297992926201963E-01 a       201     0    11     1     1
  9.8023304738421288E-02 a       202     0    11     1     2
 -1.8332224369154426E-01 a       203     0    11     1     3
 -4.5846168569699926E-02 a       204     0    11     1     4
 -1.1150904067134926E-01 a       205     0    11     1     5
 -4.0958985238001028E-01 a       206     0    11     1     6
  1.0211902960550800E-01 a       207     0    11     1     7
  3.8762906066536568E-01 a       208     0    11     1     8
 -2.7561763163670830E-02 a       209     0    11     1     9
 -6.7940200680719473E-02 a       210     0    11     1    10
 -3.8063171192165363E-01 a       211     0    11     1    11
  9.2719093761950672E-02 a       212     0    11     1    12
 -1.6796730960695935E-01 a       213     0    11     1    13
 -2.4408105180200021E-01 a       214     0    11     1    14
  1.1518755212800016E-01 a       215     0    11     1    15
 -1.8266648607815758E-01 a       216     0    11     1    16
 -8.3150810923156598E-02 a       217     0    11     1    17
  5.9043008647087267E-02 a       218     0    11     1    18
  5.2249544857362216E-03 a       219     0    11     1    19
 -1.8273464418063079E-01 a       220     0    11     1    20
 -1.2796996353052334E-01 a       221     0    12     1     1
  2.3531745945826274E-01 a       222     0    12     1     2
  6.6035502951049402E-02 a       223     0    12     1     3
  1.5550619369607599E-01 a       224     0    12     1     4
 -3.0094613168066275E-01 a       225     0    12     1     5
 -1.9746715990590491E-01 a       226     0    12     1     6
  2.4308625761564930E-02 a       227     0    12     1     7
 -9.9184614146352698E-02 a       228     0    12     1     8
 -1.0651507227162513E-01 a       229     0    12     1     9
  3.5349347652550889E-01 a       230     0    12     1    10
 -4.7305652847383656E-01 a       231     0    12     1    11
  3.3001230983818214E-01 a       232     0    12     1    12
  2.4962850861184677E-01 a       233     0    12     1    13
 -9.9195028685281419E-02 a       234     0    12     1    14
  8.0887451122602580E-02 a       235     0    12     1    15
  1.0680412528501795E-02 a       236     0    12     1    16
 -4.5681043205145155E-01 a       237     0    12     1    17
 -2.3590268636130104E-01 a       238     0    12     1    18
 -5.1198067604085484E-01 a       239     0    12     1    19
  2.7451437641209886E-01 a       240     0    12     1    20
 -5.1291132293058615E-02 a       241     0    13     1     1
 -3.2973643338695152E-01 a       242     0    13     1     2
  2.9859891375210396E-01 a       243     0    13     1     3
 -8.7090499589907264E-02 a       244     0    13     1     4
  2.6672512316403074E-01 a       245     0    13     1     5
 -1.8892128905507852E-01 a       246     0    13     1     6
 -2.5655140491748909E-02 a       247     0    13     1     7
 -1.3856563008756395E-01 a       248     0    13     1     8
  7.6120606343959243E-02 a       249     0    13     1     9
  3.0701119425821854E-01 a       250     0    13     1    10
 -2.8073783353078907E-01 a       251     0    13     1    11
  3.1296659370128049E-01 a       252     0    13     1    12
  7.4304879121440792E-02 a       253     0    13     1    13
  6.7458469081624645E-02 a       254     0    13     1    14
  5.0533038876851399E-02 a       255     0    13     1    15
 -3.5229414094247807E-01 a       256     0    13     1    16
 -6.1887472254243278E-02 a       257     0    13     1    17
 -3.3617492950418321E-01 a       258     0    13     1    18
  3.0769528823406767E-01 a       259     0    13     1    19
 -2.7691633796532211E-01 a       260     0    13     1    20
 -9.0767421858232444E-02 a       261     0    14     1     1
 -1.3757574144672524E-01 a       262     0    14     1     2
 -2.0613640217423171E-01 a       263     0    14     1     3
 -1.6104429171468967E-01 a       264     0    14     1     4
  9.1774248555710800E-02 a       265     0    14     1     5
  6.5206213327287849E-02 a       266     0    14     1     6
  5.8757102205758180E-02 a       267     0    14     1     7
  4.6018841154933776E-01 a       268     0    14     1     8
 -1.1938992288007376E-01 a       269     0    14     1     9
  8.1733580732852265E-02 a       270     0    14     1    10
 -2.9704022279325371E-01 a       271     0    14     1    11
  4.3576619711006806E-02 a       272     0    14     1    12
 -3.3493171537550626E-01 a       273     0    14     1    13
 -1.5837401869025816E-01 a       274     0    14     1    14
  1.8829939510866308E-02 a       275     0    14     1    15
 -3.2929949704980443E-01 a       276     0    14     1    16
  2.2445523497232003E-01 a       277     0    14     1    17
 -3.9605398197633063E-01 a       278     0    14     1    18
  1.8954914198518394E-01 a       279     0    14     1    19
 -2.3215834410882780E-01 a       280     0    14     1    20
 -1.3580821062589454E-01 a       281     0    15     1     1
  3.3701522462498434E-01 a       282     0    15     1     2
 -2.0333158541406915E-01 a       283     0    15     1     3
 -1.4356575278834929E-01 a       284     0    15     1     4
 -2.8906720750451892E-01 a       285     0    15     1     5
 -4.1979164155625048E-01 a       286     0    15     1     6
  2.0523495593535643E-01 a       287     0    15     1     7
  3.4240225212842107E-01 a       288     0    15     1     8
  1.4076361372206281E-01 a       289     0    15     1     9
  2.3123872889089503E-01 a       290     0    15     1    10
  1.5036422810980363E-01 a       291     0    15     1    11
 -1.4198619725027628E-01 a       292     0    15     1    12
 -3.6901252278257174E-01 a       293     0    15     1    13
 -1.9750598286945625E-01 a       294     0    15     1    14
 -1.2284132680233610E-01 a       295     0    15     1    15
  1.9094330582969085E-01 a       296     0    15     1    16
 -1.4945172757683370E-01 a       297     0    15     1    17
 -5.2923376361427937E-02 a       298     0    15     1    18
 -2.5326756327828637E-01 a       299     0    15     1    19
  5.9532638198760028E-02 a       300     0    15     1    20
 -1.8169439530552840E-02 a       301     0    16     1     1
  1.9611739066360695E-01 a       302     0    16     1     2
  3.1036292767310619E-01 a       303     0    16     1     3
 -1.8778102882931674E-02 a       304     0    16     1     4
 -2.2261885507349552E-01 a       305     0    16     1     5
 -2.4498066067447737E-02 a       306     0    16     1     6
  1.0749354783154426E-01 a       307     0    16     1     7
 -2.3718124753863448E-01 a       308     0    16     1     8
  5.2068962499064086E-01 a       309     0    16     1     9
  1.1913732976085027E-01 a       310     0    16     1    10
 -1.7529597378051126E-01 a       311     0    16     1    11
  9.4433856429985016E-02 a       312     0    16     1    12
 -9.3950064947736403E-02 a       313     0    16     1    13
 -2.2459308490380475E-01 a       314     0    16     1    14
 -1.2434287607749196E-01 a       315     0    16     1    15
 -1.1324449272307008E-01 a       316     0    16     1    16
  3.8278374872000372E-02 a       317     0    16     1    17
 -6.6469304830803558E-02 a       318     0    16     1    18
 -2.4986244566763552E-01 a       319     0    16     1    19
 -2.5150604207056565E-01 a       320     0    16     1    20
 -1.2390986420159904E-01 a       321     0    17     1     1
 -5.9805792570367118E-02 a       322     0    17     1     2
 -3.2452294554706596E-01 a       323     0    17     1     3
 -9.0197205741303646E-02 a       324     0    17     1     4
  7.9890985375620782E-02 a       325     0    17     1     5
 -3.1777096607146554E-01 a       326     0    17     1     6
  6.3934276636003123E-02 a       327     0    17     1     7
  2.5665005856116108E-01 a       328     0    17     1     8
 -7.0298187371023335E-02 a       329     0    17     1     9
  2.0755598276971413E-01 a       330     0    17     1    10
 -2.3853430949524268E-01 a       331     0    17     1    11
 -1.6903215209468372E-01 a       332     0    17     1    12
 -1.7385976678815657E-01 a       333     0    17     1    13
  2.1621513186987773E-01 a       334     0    17     1    14
 -5.5345563764146732E-02 a       335     0    17     1    15
 -1.2270704922566506E-02 a       336     0    17     1    16
 -3.3767223459529531E-02 a       337     0    17     1    17
 -2.9644363709309351E-01 a       338     0    17     1    18
 -6.7349215132658624E-02 a       339     0    17     1    19
  2.8814257398897586E-01 a       340     0    17     1    20
  2.5599378429532482E-01 a       341     0    18     1     1
  5.8065836150090339E-02 a       342     0    18     1     2
  3.0013040053672790E-01 a       343     0    18     1     3
  2.6725378894837787E-01 a       344     0    18     1     4
 -2.9526128752269593E-01 a       345     0    18     1     5
  1.2132312670702813E-01 a       346     0    18     1     6
  9.6371879814671404E-03 a       347     0    18     1     7
 -9.4950926598397212E-02 a       348     0    18     1     8
  3.1067211778087599E-02 a       349     0    18     1     9
 -2.3329199289263719E-01 a       350     0    18     1    10
 -6.9255575900848756E-02 a       351     0    18     1    11
 -7.8445994902133304E-02 a       352     0    18     1    12
 -3.4708679750937797E-02 a       353     0    18     1    13
 -1.4742759336755631E-01 a       354     0    18     1    14
 -2.9347059080267757E-01 a       355     0    18     1    15
  2.7234648462288064E-01 a       356     0    18     1    16
  3.0767586622417579E-02 a       357     0    18     1    17
  2.7465084469773765E-01 a       358     0    18     1    18
  1.3511738581317770E-01 a       359     0    18     1    19
 -2.3107979519103763E-01 a       360     0    18     1    20
 -2.2776226595544813E-01 a       361     0    19     1     1
  5.2035440637982960E-02 a       362     0    19     1     2
 -1.7766609189987864E-01 a       363     0    19     1     3
  1.6807078368308700E-03 a       364     0    19     1     4
  9.0264799122047934E-02 a       365     0    19     1     5
 -1.7989252520847754E-01 a       366     0    19     1     6
 -3.5186329627701345E-02 a       367     0    19     1     7
  2.6452097825069698E-01 a       368     0    19     1     8
 -5.8723753808249644E-03 a       369     0    19     1     9
 -1.7277608421453799E-01 a       370     0    19     1    10
  1.6172045957822101E-01 a       371     0    19     1    11
  8.8973410929591448E-02 a       372     0    19     1    12
  1.7057112924956699E-01 a       373     0    19     1    13
  7.8882944682832953E-02 a       374     0    19     1    14
 -6.9804664334972927E-02 a       375     0    19     1    15
 -5.7382731050283055E-02 a       376     0    19     1    16
 -1.4127137095691150E-01 a       377     0    19     1    17
 -1.9156955451599880E-01 a       378     0    19     1    18
  1.1260601720372004E-01 a       379     0    19     1    19
  2.3101962956185837E-01 a       380     0    19     1    20
 -1.4947322847739594E-01 a       381     0    20     1     1
 -2.0513632378988847E-01 a       382     0    20     1     2
 -2.3965034653055259E-01 a       383     0    20     1     3
 -3.3381020477952661E-01 a       384     0    20     1     4
  3.2851490729659150E-01 a       385     0    20     1     5
  2.3669973903376665E-01 a       386     0    20     1     6
 -9.9621340769309813E-02 a       387     0    20     1     7
 -4.4244725284224717E-01 a       388     0    20     1     8
  1.6882694858839448E-01 a       389     0    20     1     9
  3.2286769361741929E-01 a       390     0    20     1    10
  9.7837427769197544E-02 a       391     0    20     1    11
  2.0034376677920784E-01 a       392     0    20     1    12
  6.1936942183428691E-02 a       393     0    20     1    13
  2.0214528666861242E-01 a       394     0    20     1    14
  2.9586763220779416E-01 a       395     0    20     1    15
 -4.7333896299552564E-01 a       396     0    20     1    16
  1.3179195762586249E-01 a       397     0    20     1    17
 -2.0450871910952384E-01 a       398     0    20     1    18
 -1.2549185448954944E-01 a       399     0    20     1    19
  1.7131074459678031E-01 a       400     0    20     1    20
 -2.6294733719482799E-01 a       401     0    21     1     1
  2.2695828200045209E-01 a       402     0    21     1     2
  2.6339590731031098E-01 a       403     0    21     1     3
 -8.1180440503561629E-02 a       404     0    21     1     4
 -1.3437083154727042E-01 a       405     0    21     1     5
 -2.7704245938617728E-01 a       406     0    21     1     6
  1.9096359158639731E-01 a       407     0    21     1     7
 -4.2805952571244482E-01 a       408     0    21     1     8
 -8.8690322347200631E-02 a       409     0    21     1     9
 -6.1000818371515786E-01 a       410     0    21     1    10
  4.2766232062619108E-01 a       411     0    21     1    11
 -2.6019033538097719E-01 a       412     0    21     1    12
  1.6603976120425379E-01 a       413     0    21     1    13
 -6.5423793438876929E-02 a       414     0    21     1    14
 -1.5914082153111989E-01 a       415     0    21     1    15
  2.4049975757950770E-01 a       416     0    21     1    16
  2.7152763160880311E-01 a       417     0    21     1    17
 -2.9604620812049651E-02 a       418     0    21     1    18
 -4.2224566054164769E-01 a       419     0    21     1    19
 -3.7461474779800975E-02 a       420     0    21     1    20
  3.5076904121969688E-01 a       421     0    22     1     1
 -1.9515958314259996E-01 a       422     0    22     1     2
  2.2543071017339550E-01 a       423     0    22     1     3
 -1.5330469745797354E-01 a       424     0    22     1     4
 -1.9755296008241122E-01 a       425     0    22     1     5
  3.5920723712558844E-01 a       426     0    22     1     6
  1.8287127888085372E-01 a       427     0    22     1     7
 -2.2019447947739543E-01 a       428     0    22     1     8
  3.0384837542627696E-01 a       429     0    22     1     9
 -7.2526323874590307E-02 a       430     0    22     1    10
  3.9297873091885815E-01 a       431     0    22     1    11
 -1.9028081586089086E-04 a       432     0    22     1    12
 -1.1010176857167456E-01 a       433     0    22     1    13
 -1.2704624152950381E-01 a       434     0    22     1    14
 -3.6199410884634370E-01 a       435     0    22     1    15
 -6.1522707914656229E-02 a       436     0    22     1    16
 -1.8282352411280842E-01 a       437     0    22     1    17
  3.6165595419973900E-01 a       438     0    22     1    18
  1.6276585027721552E-01 a       439     0    22     1    19
 -4.0076031692656683E-01 a       440     0    22     1    20
  4.3309182592170770E-01 a       441     0    23     1     1
 -6.0665104010785481E-02 a       442     0    23     1     2
  3.0681397545932720E-01 a       443     0    23     1     3
  1.5601787000342116E-01 a       444     0    23     1     4
 -2.1438755143256751E-02 a       445     0    23     1     5
  1.6613725902657370E-01 a       446     0    23     1     6
  1.9371399935978795E-02 a       447     0    23     1     7
  4.2751025599730513E-01 a       448     0    23     1     8
  1.8112135200397525E-01 a       449     0    23     1     9
 -2.4512258737311467E-02 a       450     0    23     1    10
 -4.4121078864977226E-01 a       451     0    23     1    11
 -6.0837854707910512E-02 a       452     0    23     1    12
 -7.9139348432300943E-02 a       453     0    23     1    13
 -9.4712616478786954E-02 a       454     0    23     1    14
  1.9876982256764600E-01 a       455     0    23     1    15
  1.4058129389927643E-01 a       456     0    23     1    16
 -3.4791415485995419E-01 a       457     0    23     1    17
  5.2820860324571409E-02 a       458     0    23     1    18
 -1.5417751107595784E-01 a       459     0    23     1    19
 -1.4285359017644145E-01 a       460     0    23     1    20
 -8.7694844168907743E-02 a       461     0    24     1     1
  3.5587877905237331E-01 a       462     0    24     1     2
  1.7717692557657466E-01 a       463     0    24     1     3
 -2.8907795103658745E-01 a       464     0    24     1     4
 -2.5194839609321638E-02 a       465     0    24     1     5
  9.1786985611349431E-02 a       466     0    24     1     6
 -5.1860787934765791E-02 a       467     0    24     1     7
 -4.1906332883741548E-01 a       468     0    24     1     8
 -2.4565070667212305E-01 a       469     0    24     1     9
  4.5540405246379201E-02 a       470     0    24     1    10
  4.3185055611046724E-01 a       471     0    24     1    11
 -1.0948927746364286E-01 a       472     0    24     1    12
 -2.0110472935707208E-01 a       473     0    24     1    13
 -2.0169365696596324E-02 a       474     0    24     1    14
 -2.7860438715078674E-03 a       475     0    24     1    15
 -6.9016045404402412E-02 a       476     0    24     1    16
  2.0404439737031899E-01 a       477     0    24     1    17
  3.7752705582856011E-01 a       478     0    24     1    18
  4.6420760569356528E-01 a       479     0    24     1    19
 -2.4473874984664074E-01 a       480     0    24     1    20
 -1.3914064601669787E-02 a       481     0    25     1     1
 -2.3386462262144150E-01 a       482     0    25     1     2
 -2.7795571113911072E-01 a       483     0    25     1     3
  2.6534551385933036E-01 a       484     0    25     1     4
  2.8267430490553208E-01 a       485     0    25     1     5
 -3.9691345672854828E-01 a       486     0    25     1     6
  8.9121880301915469E-03 a       487     0    25     1     7
  2.7562797700070446E-01 a       488     0    25     1     8
 -4.3351122444720731E-02 a       489     0    25     1     9
  1.0252896478466365E-01 a       490     0    25     1    10
 -1.0407657129727388E-01 a       491     0    25     1    11
 -9.8079396793013168E-02 a       492     0    25     1    12
  5.6189728441064991E-02 a       493     0    25     1    13
  1.7189106913502714E-01 a       494     0    25     1    14
  1.8356316089209165E-01 a       495     0    25     1    15
  2.0785762013833857E-02 a       496     0    25     1    16
 -1.8366440405370796E-01 a       497     0    25     1    17
 -3.9656358457705425E-03 a       498     0    25     1    18
 -1.4944485663650361E-01 a       499     0    25     1    19
  7.3298063357366869E-02 a       500     0    25     1    20
  2.1137389157429617E-01 a       501     0    26     1     1
 -1.3366624489904724E-01 a       502     0    26     1     2
 -1.3222137749062871E-01 a       503     0    26     1     3
 -5.6182300059005777E-02 a       504     0    26     1     4
 -4.8696551587580857E-02 a       505     0    26     1     5
 -3.6223616867668275E-04 a       506     0    26     1     6
 -6.8935521825183685E-02 a       507     0    26     1     7
 -3.4217692900843970E-02 a       508     0    26     1     8
  6.3178703381212217E-02 a       509     0    26     1     9
 -1.3196462960438635E-01 a       510     0    26     1    10
 -6.1948843500217537E-02 a       511     0    26     1    11
 -1.4582807687329549E-01 a       512     0    26     1    12
 -1.1881995744385386E-02 a       513     0    26     1    13
  2.2401127500817694E-01 a       514     0    26     1    14
 -2.3755705856193030E-01 a       515     0    26     1    15
  3.0195889606319215E-01 a       516     0    26     1    16
  3.2793192795179366E-01 a       517     0    26     1    17
  3.0623860862706100E-02 a       518     0    26     1    18
  1.1953506916224328E-01 a       519     0    26     1    19
  2.9636614623377822E-01 a       520     0    26     1    20
  1.1096225067627395E-01 a       521     0    27     1     1
 -1.7515252942883469E-01 a       522     0    27     1     2
 -4.5172631680063896E-01 a       523     0    27     1     3
 -5.0293131920868310E-02 a       524     0    27     1     4
  1.4776787231741872E-01 a       525     0    27     1     5
  1.4564783129725475E-01 a       526     0    27     1     6
 -1.4236155696472100E-01 a       527     0    27     1     7
  3.8568479509058610E-02 a       528     0    27     1     8
 -2.7742302983146311E-01 a       529     0    27     1     9
 -2.2787726798822810E-01 a       530     0    27     1    10
  4.7355294372123091E-01 a       531     0    27     1    11
 -3.1749757007548191E-01 a       532     0    27     1    12
  3.4277438935978194E-01 a       533     0    27     1    13
  5.7563583865943367E-02 a       534     0    27     1    14
 -3.3730796150296666E-01 a       535     0    27     1    15
  2.4958403319575193E-01 a       536     0    27     1    16
  1.3402704236412014E-01 a       537     0    27     1    17
  3.3792050571156346E-01 a       538     0    27     1    18
  3.3428322805583682E-01 a       539     0    27     1    19
  2.8211149019918330E-01 a       540     0    27     1    20
 -1.0704583315036400E+00 b       541     1     1
  7.9032275700041996E-02 b       542     1     2
  3.8132030641426312E-01 b       543     1     3
  1.4463591963046039E+00 b       544     1     4
 -6.4532128673981692E-01 b       545     1     5
 -1.3741921477557456E-01 b       546     1     6
 -1.3668024996356283E+00 b       547     1     7
  2.0115130396911571E-01 b       548     1     8
  1.4286759754848462E+00 b       549     1     9
  1.3676174065278599E+00 b       550     1    10
 -1.1095767591732617E+00 b       551     1    11
 -7.3838135327212540E-01 b       552     1    12
  3.2295048307722463E-01 b       553     1    13
 -2.6249317298818015E-01 b       554     1    14
 -9.2293043768208216E-01 b       555     1    15
  4.0759972548929946E-01 b       556     1    16
  5.9794192742552610E-01 b       557     1    17
 -7.0947767399755945E-01 b       558     1    18
  1.3816696594242874E+00 b       559     1    19
 -7.8866974065978102E-01 b       560     1    20
  4.9323056812751100E-02 a       561     1     1     2     1
  2.0111055528013883E-01 a       562     1     1     2     2
  4.1167913959017050E-01 a       563     1     1     2     3
  6.4773366608005456E-01 a       564     1     1     2     4
 -5.9773931791008028E-01 a       565     1     1     2     5
 -3.8605495217061364E-01 a       566     1     1     2     6
 -6.7218671214650205E-01 a       567     1     1     2     7
 -1.6991832388261269E-01 a       568     1     1     2     8
  2.6711521708900410E-01 a       569     1     1     2     9
  1.7952131899476434E-01 a       570     1     1     2    10
  2.0535592908492970E-02 a       571     1     1     2    11
  2.1032662132109312E-01 a       572     1     1     2    12
  1.2420836449184543E-01 a       573     1     1     2    13
  3.7071070019886060E-01 a       574     1     1     2    14
 -4.4267830170447764E-01 a       575     1     1     2    15
  4.8472885211122063E-01 a       576     1     1     2    16
 -2.2469865314890503E-01 a       577     1     1     2    17
  2.6599064009781376E-01 a       578     1     1     2    18
  3.7688275795279835E-01 a       579     1     1     2    19
  6.6413893377506572E-01 a       580     1     1     2    20
 -1.5036283240283266E-01 a       581     1     2     2     1
  1.6624096306547975E-01 a       582     1     2     2     2
  1.7108281829377381E-01 a       583     1     2     2     3
 -2.9750267787664730E-01 a       584     1     2     2     4
 -2.2801342578289585E-01 a       585     1     2     2     5
  3.5572650894306340E-01 a       586     1     2     2     6
 -3.3294861682686339E-01 a       587     1     2     2     7
 -7.8202634124031528E-02 a       588     1     2     2     8
  4.4499116532552063E-01 a       589     1     2     2     9
  2.4853617992086688E-01 a       590     1     2     2    10
 -3.6512252606891332E-01 a       591     1     2     2    11
 -3.6772760415396677E-01 a       592     1     2     2    12
  1.3203439881184312E-01 a       593     1     2     2    13
  4.8399218798755045E-01 a       594     1     2     2    14
 -6.3398217926741651E-01 a       595     1     2     2    15
  2.1274680373369975E-01 a       596     1     2     2    16
 -4.9548907821589755E-01 a       597     1     2     2    17
 -5.8875506572457430E-02 a       598     1     2     2    18
  2.5581936019492918E-01 a       599     1     2     2    19
 -3.2283242340059376E-01 a       600     1     2     2    20
  5.1181259780470660E-02 a       601     1     3     2     1
 -1.6895980066335325E-01 a       602     1     3     2     2
 -2.0301417700843211E-01 a       603     1     3     2     3
 -3.5901427804726732E-01 a       604     1     3     2     4
 -6.0171208150357003E-01 a       605     1     3     2     5
 -4.8115772655013472E-01 a       606     1     3     2     6
  1.4013608427148466E-01 a       607     1     3     2     7
 -2.6951441376293728E-01 a       608     1     3     2     8
 -5.1046671570811532E-02 a       609     1     3     2     9
  2.8148197505753231E-01 a       610     1     3     2    10
  1.2594248468698538E-01 a       611     1     3     2    11
  2.8824770848803000E-02 a       612     1     3     2    12
 -5.2414216952725734E-01 a       613     1     3     2    13
  2.3173290491189141E-01 a       614     1     3     2    14
 -2.5822789656031405E-02 a       615     1     3     2    15
 -5.8310744056015951E-01 a       616     1     3     2    16
 -3.4048872328729907E-01 a       617     1     3     2    17
  3.3490867671711844E-01 a       618     1     3     2    18
 -2.1393117916312895E-01 a       619     1     3     2    19
 -1.8639321260791109E-01 a       620     1     3     2    20
 -3.7784372574220865E-01 a       621     1     4     2     1
 -3.2972043135364759E-01 a       622     1     4     2     2
 -9.5960411723474789E-02 a       623     1     4     2     3
 -1.0889503091547790E-02 a       624     1     4     2     4
  4.0661937001207193E-01 a       625     1     4     2     5
  3.4642160278235573E-01 a       626     1     4     2     6
 -1.8665031832041204E-01 a       627     1     4     2     7
  6.9077300909844055E-02 a       628     1     4     2     8
  3.4572115851695917E-01 a       629     1     4     2     9
  6.4420664073231748E-01 a       630     1     4     2    10
  3.7789770148100954E-01 a       631     1     4     2    11
  3.7715288359941407E-01 a       632     1     4     2    12
 -7.4817385604419973E-02 a       633     1     4     2    13
  2.0927564830428624E-01 a       634     1     4     2    14
 -3.5069024687210076E-01 a       635     1     4     2    15
 -5.3263635677891685E-01 a       636     1     4     2    16
 -2.6813232434229828E-01 a       637     1     4     2    17
  2.4560246874953745E-01 a       638     1     4     2    18
 -6.6999760504707107E-01 a       639     1     4     2    19
 -3.3316252957780917E-01 a       640     1     4     2    20
  4.0731889236584740E-01 a       641     1     5     2     1
  5.0287387700081798E-01 a       642     1     5     2     2
 -4.7559771522399164E-01 a       643     1     5     2     3
 -1.0020371838933943E-02 a       644     1     5     2     4
  2.3335080567943853E-01 a       645     1     5     2     5
  5.4680757628114884E-01 a       646     1     5     2     6
 -7.9019764119108271E-01 a       647     1     5     2     7
 -7.4381179033797995E-01 a       648     1     5     2     8
 -6.8713291260876247E-02 a       649     1     5     2     9
  4.7825563922640757E-01 a       650     1     5     2    10
  3.4471347042467204E-01 a       651     1     5     2    11
  3.0100257690040283E-01 a       652     1     5     2    12
  1.8798225743357744E-01 a       653     1     5     2    13
  4.9580929155463399E-01 a       654     1     5     2    14
 -4.5871651331624969E-01 a       655     1     5     2    15
 -1.7711599851449275E-01 a       656     1     5     2    16
 -4.9690760365145825E-01 a       657     1     5     2    17
 -6.4383555837821427E-01 a       658     1     5     2    18
 -4.6853039109350997E-01 a       659     1     5     2    19
 -1.6546241019193289E-01 a       660     1     5     2    20
  1.1659965859375006E-01 a       661     1     6     2     1
  6.5816137097050281E-02 a       662     1     6     2     2
  3.3283955912297264E-01 a       663     1     6     2     3
  7.0993581213158921E-02 a       664     1     6     2     4
 -9.4904298216585831E-03 a       665     1     6     2     5
  2.3865214804591356E-01 a       666     1     6     2     6
  2.8318157488104345E-01 a       667     1     6     2     7
  1.8207628452019053E-01 a       668     1     6     2     8
  1.1830082120728817E-01 a       669     1     6     2     9
 -3.1185643057103740E-01 a       670     1     6     2    10
  4.0813365363249660E-01 a       671     1     6     2    11
  3.2490582851371719E-01 a       672     1     6     2    12
  3.0347419681857191E-01 a       673     1     6     2    13
  1.2862140049308252E-01 a       674     1     6     2    14
  2.0765787312463585E-01 a       675     1     6     2    15
  6.7298595592823904E-02 a       676     1     6     2    16
 -3.4224351258899270E-02 a       677     1     6     2    17
 -2.0085303668298823E-01 a       678     1     6     2    18
 -5.5211843861384902E-01 a       679     1     6     2    19
  2.5080418722792130E-01 a       680     1     6     2    20
  2.6651514840996603E-02 a       681     1     7     2     1
  5.1693179263762112E-01 a       682     1     7     2     2
  3.4617197794182908E-01 a       683     1     7     2     3
 -4.1710811007047410E-01 a       684     1     7     2     4
  4.1427172865294076E-01 a       685     1     7     2     5
 -1.5638390332206833E-01 a       686     1     7     2     6
 -9.5069781712315005E-02 a       687     1     7     2     7
  9.3292386526968407E-01 a       688     1     7     2     8
  5.4677205589126643E-01 a       689     1     7     2     9
  1.8585349569832110E-01 a       690     1     7     2    10
  1.0400979704133502E-01 a       691     1     7     2    11
 -1.9897941588517024E-01 a       692     1     7     2    12
  2.8136382168513185E-01 a       693     1     7     2    13
  2.0873199068184445E-01 a       694     1     7     2    14
  2.3223556405560324E-02 a       695     1     7     2    15
 -1.7482359629995972E-01 a       696     1     7     2    16
  5.3985112121371033E-02 a       697     1     7     2    17
  1.3421266806850859E-01 a       698     1     7     2    18
  7.4354305425351219E-01 a       699     1     7     2    19
  6.6070122439069859E-02 a       700     1     7     2    20
  4.9462284437035209E-01 a       701     1     8     2     1
  9.5867513606453320E-02 a       702     1     8     2     2
  1.0621235178459598E-01 a       703     1     8     2     3
  2.1313051877730990E-01 a       704     1     8     2     4
  4.3385965566482210E-01 a       705     1     8     2     5
 -4.8769455699172126E-01 a       706     1     8     2     6
  3.8708814444900963E-01 a       707     1     8     2     7
  8.3686367615121340E-02 a       708     1     8     2     8
  6.3066184559910998E-01 a       709     1     8     2     9
 -3.1909815733914798E-01 a       710     1     8     2    10
  7.7177815587010101E-01 a       711     1     8     2    11
  2.4220337224051560E-02 a       712     1     8     2    12
 -3.7313529018202507E-02 a       713     1     8     2    13
 -2.3143081877393928E-01 a       714     1     8     2    14
  2.7302185068893531E-01 a       715     1     8     2    15
 -6.4262892139482031E-01 a       716     1     8     2    16
 -5.7690879353154700E-01 a       717     1     8     2    17
 -2.8080395441300865E-01 a       718     1     8     2    18
 -3.7102899220503821E-01 a       719     1     8     2    19
  5.1645597117688802E-01 a       720     1     8     2    20
  5.1952642175866859E-01 a       721     1     9     2     1
 -3.9825605385896898E-02 a       722     1     9     2     2
 -4.1559113680622206E-01 a       723     1     9     2     3
  1.4240807014608181E-01 a       724     1     9     2     4
  2.6053240863021104E-01 a       725     1     9     2     5
  2.8476707659305300E-01 a       726     1     9     2     6
 -4.1864563615269196E-01 a       727     1     9     2     7
  3.3514957416844143E-01 a       728     1     9     2     8
  1.5447682808382981E-01 a       729     1     9     2     9
  4.4006253774632625E-01 a       730     1     9     2    10
 -3.6846600331313545E-01 a       731     1     9     2    11
  5.8801733259805178E-01 a       732     1     9     2    12
 -1.0881802961676552E-01 a       733     1     9     2    13
 -1.0601893267949289E-01 a       734     1     9     2    14
 -4.4912107456875194E-01 a       735     1     9     2    15
 -3.7196804052749788E-01 a       736     1     9     2    16
  1.5431948723191560E-01 a       737     1     9     2    17
 -3.9083557061601182E-01 a       738     1     9     2    18
 -5.0702768379840828E-02 a       739     1     9     2    19
  1.1528546731395434E-01 a       740     1     9     2    20
  3.7512882597308073E-01 a       741     1    10     2     1
  1.6957279804363956E-02 a       742     1    10     2     2
 -2.1104893778264355E-01 a       743     1    10     2     3
  5.5400797209557839E-01 a       744     1    10     2     4
  3.8743017920507655E-01 a       745     1    10     2     5
 -3.3345220774127898E-01 a       746     1    10     2     6
 -1.5994203633164106E-01 a       747     1    10     2     7
 -1.5411620714854835E-01 a       748     1    10     2     8
  4.8745659389313695E-01 a       749     1    10     2     9
  1.6169578341109220E-01 a       750     1    10     2    10
 -1.1740640539022690E-01 a       751     1    10     2    11
  8.4607421864012455E-01 a       752     1    10     2    12
 -5.9580960549387763E-01 a       753     1    10     2    13
  4.9146033478074791E-01 a       754     1    10     2    14
 -2.8624254184407061E-01 a       755     1    10     2    15
 -5.3289256105600669E-01 a       756     1    10     2    16
 -2.0783901394867099E-01 a       757     1    10     2    17
 -2.9333127042023716E-01 a       758     1    10     2    18
 -1.4485742137254026E-01 a       759     1    10     2    19
 -4.0517456667154617E-01 a       760     1    10     2    20
  4.6756327063651193E-01 a       761     1    11     2     1
 -4.6666164785667874E-01 a       762     1    11     2     2
  5.7245966015333560E-01 a       763     1    11     2     3
  4.7468240725117911E-01 a       764     1    11     2     4
  1.3400783653301926E-02 a       765     1    11     2     5
  2.1255569429471913E-01 a       766     1    11     2     6
  2.0081370411470140E-01 a       767     1    11     2     7
  4.3038527045817637E-01 a       768     1    11     2     8
 -1.6411253297587379E-02 a       769     1    11     2     9
  1.4091607397292594E-01 a       770     1    11     2    10
  9.5301287219337769E-02 a       771     1    11     2    11
 -4.0063288561945387E-01 a       772     1    11     2    12
  5.3238703897971762E-01 a       773     1    11     2    13
  3.8131031015408878E-01 a       774     1    11     2    14
  4.5477335036777693E-02 a       775     1    11     2    15
 -1.2861984654866754E-01 a       776     1    11     2    16
  1.0632166065931993E-01 a       777     1    11     2    17
  4.2043335509796098E-01 a       778     1    11     2    18
 -1.1690241161223719E-01 a       779     1    11     2    19
 -2.7804816157721296E-01 a       780     1    11     2    20
 -2.8998771857191735E-01 a       781     1    12     2     1
  1.7683636188484780E-01 a       782     1    12     2     2
  6.8354103903788233E-01 a       783     1    12     2     3
  3.2561494291297394E-01 a       784     1    12     2     4
 -3.8622745844050488E-01 a       785     1    12     2     5
  4.6776169707147860E-02 a       786     1    12     2     6
 -9.7718070156648351E-02 a       787     1    12     2     7
  3.9944063458077639E-01 a       788     1    12     2     8
 -2.5094487521276404E-01 a       789     1    12     2     9
 -4.4051417282153560E-01 a       790     1    12     2    10
 -4.5667157345861925E-01 a       791     1    12     2    11
  9.9107966397440732E-03 a       792     1    12     2    12
  5.2445631028576210E-02 a       793     1    12     2    13
 -2.6380570417370192E-01 a       794     1    12     2    14
 -3.2614784286772247E-01 a       795     1    12     2    15
 -1.3127060715198996E-01 a       796     1    12     2    16
  4.0635039596223038E-01 a       797     1    12     2    17
  5.2336418141542485E-01 a       798     1    12     2    18
  7.5364531819907643E-01 a       799     1    12     2    19
 -2.8137658761532341E-01 a       800     1    12     2    20
 -8.1066063510186151E-02 a       801     1    13     2     1
  2.8630185095184689E-02 a       802     1    13     2     2
  2.3898413466796897E-01 a       803     1    13     2     3
 -4.8646998560525767E-01 a       804     1    13     2     4
 -5.5237698948225189E-01 a       805     1    13     2     5
 -4.0163448344855179E-01 a       806     1    13     2     6
 -1.8245154978804440E-01 a       807     1    13     2     7
 -1.3564280002673604E-01 a       808     1    13     2     8
 -9.2711827383367321E-02 a       809     1    13     2     9
 -3.0105928942663490E-01 a       810     1    13     2    10
 -6.8709675316563013E-01 a       811     1    13     2    11
 -4.7295225151538733E-01 a       812     1    13     2    12
  2.5131404707906224E-01 a       813     1    13     2    13
  1.4118020596329597E-01 a       814     1    13     2    14
 -4.6195904154298262E-01 a       815     1    13     2    15
 -2.7239257996561356E-01 a       816     1    13     2    16
  5.9032545254280677E-01 a       817     1    13     2    17
 -1.2967908770510439E-01 a       818     1    13     2    18
  4.0652536134082323E-01 a       819     1    13     2    19
 -5.1315593794204251E-01 a       820     1    13     2    20
 -7.8569781939309274E-02 a       821     1    14     2     1
  4.6379177737516886E-01 a       822     1    14     2     2
 -4.4245255704627379E-01 a       823     1    14     2     3
 -2.9070722544687921E-01 a       824     1    14     2     4
 -6.5084763964044889E-01 a       825     1    14     2     5
  1.6603626074295505E-01 a       826     1    14     2     6
  5.7841768764496260E-01 a       827     1    14     2     7
  7.0093638182391060E-01 a       828     1    14     2     8
 -1.6720402556551608E-01 a       829     1    14     2     9
 -4.3973551902589070E-01 a       830     1    14     2    10
  1.5017754133942637E-01 a       831     1    14     2    11
 -1.5131169281882226E-01 a       832     1    14     2    12
 -3.9959557842715676E-01 a       833     1    14     2    13
  2.0552933893000441E-01 a       834     1    14     2    14
 -4.2093280918421344E-01 a       835     1    14     2    15
  1.5517797456240759E-01 a       836     1    14     2    16
 -3.6642395503093611E-01 a       837     1    14     2    17
 -7.0718582606833957E-01 a       838     1    14     2    18
  4.6171400317693928E-01 a       839     1    14     2    19
 -1.2263251668867425E-01 a       840     1    14     2    20
  1.5504213397019481E-01 a       841     1    15     2     1
  1.0226931031203026E-01 a       842     1    15     2     2
  2.7396627893840203E-01 a       843     1    15     2     3
  2.8261796179381404E-01 a       844     1    15     2     4
  3.0374508695792402E-01 a       845     1    15     2     5
  3.0944234623843320E-01 a       846     1    15     2     6
  5.1321773106447910E-01 a       847     1    15     2     7
  5.8718971426662214E-01 a       848     1    15     2     8
  6.2019266060384504E-01 a       849     1    15     2     9
  2.7849887009127171E-02 a       850     1    15     2    10
  3.6930978362919087E-01 a       851     1    15     2    11
  1.6453112947316162E-01 a       852     1    15     2    12
 -1.5403230119501976E-01 a       853     1    15     2    13
 -2.1165261001875699E-02 a       854     1    15     2    14
 -1.9768954277138839E-01 a       855     1    15     2    15
  1.6107660267903737E-01 a       856     1    15     2    16
  4.2702857337940248E-01 a       857     1    15     2    17
 -2.0202766476062603E-01 a       858     1    15     2    18
  4.5615467092717293E-01 a       859     1    15     2    19
 -4.0077434123010292E-01 a       860     1    15     2    20
  5.9355111280866790E-01 a       861     1    16     2     1
  2.3089119807671912E-01 a       862     1    16     2     2
 -5.7427876344085615E-01 a       863     1    16     2     3
  2.5656207488517502E-01 a       864     1    16     2     4
  2.5508533558647667E-01 a       865     1    16     2     5
  3.1266849752478537E-01 a       866     1    16     2     6
 -3.4931445689178359E-02 a       867     1    16     2     7
  3.9554421433212633E-01 a       868     1    16     2     8
  2.1434432057361938E-01 a       869     1    16     2     9
 -3.3061333994093622E-01 a       870     1    16     2    10
  1.1496605734220773E-01 a       871     1    16     2    11
  7.6417997245185210E-01 a       872     1    16     2    12
  6.0015375302640972E-01 a       873     1    16     2    13
 -4.1212896320732245E-01 a       874     1    16     2    14
 -1.4121206267161299E-01 a       875     1    16     2    15
 -1.5715193958118592E-01 a       876     1    16     2    16
  6.3041457815414248E-01 a       877     1    16     2    17
  1.2166007438092977E-01 a       878     1    16     2    18
 -1.1906165246342407E-01 a       879     1    16     2    19
  3.3674430710363669E-02 a       880     1    16     2    20
 -5.4584984097639766E-01 a       881     1    17     2     1
  7.4622198563500030E-03 a       882     1    17     2     2
  5.2600559836910088E-01 a       883     1    17     2     3
  2.0656600422378604E-01 a       884     1    17     2     4
  2.8825743808277099E-01 a       885     1    17     2     5
  1.5386051149876316E-02 a       886     1    17     2     6
 -3.0676900422007852E-01 a       887     1    17     2     7
 -3.3133281715917740E-01 a       888     1    17     2     8
 -1.1660666366784496E-01 a       889     1    17     2     9
 -2.1534596861211083E-01 a       890     1    17     2    10
 -7.8939756962119545E-01 a       891     1    17     2    11
 -4.8972991867926030E-01 a       892     1    17     2    12
  4.6729215458431778E-01 a       893     1    17     2    13
  2.1647495752065671E-01 a       894     1    17     2    14
  3.7672517003503081E-01 a       895     1    17     2    15
 -1.8423065175108264E-01 a       896     1    17     2    16
  4.9461358522134147E-01 a       897     1    17     2    17
  1.7975393308453111E-01 a       898     1    17     2    18
  2.5142474296962591E-01 a       899     1    17     2    19
  6.9550127707719622E-01 a       900     1    17     2    20
  2.6854712283597676E-01 a       901     1    18     2     1
 -3.8553031656874226E-01 a       902     1    18     2     2
  3.6149162293054538E-01 a       903     1    18     2     3
 -1.4610090625501809E-01 a       904     1    18     2     4
  1.1565443670726397E-01 a       905     1    18     2     5
 -4.5584608530823148E-02 a       906     1    18     2     6
  6.8925172530245749E-01 a       907     1    18     2     7
 -6.1798160971263554E-02 a       908     1    18     2     8
  5.2266925107437467E-01 a       909     1    18     2     9
 -5.0259348329969900E-01 a       910     1    18     2    10
 -4.7449192804242313E-01 a       911     1    18     2    11
  2.6260755140603370E-01 a       912     1    18     2    12
  4.1588530021701681E-01 a       913     1    18     2    13
  3.3511192615876001E-01 a       914     1    18     2    14
  3.3790715156590373E-01 a       915     1    18     2    15
 -1.6300752899619561E-01 a       916     1    18     2    16
 -4.7182554735785635E-02 a       917     1    18     2    17
  5.2995707281465916E-02 a       918     1    18     2    18
  3.5065542171546021E-01 a       919     1    18     2    19
 -2.6376195643387640E-02 a       920     1    18     2    20
  4.5267207148074456E-01 a       921     1    19     2     1
  3.5923585209424691E-01 a       922     1    19     2     2
 -1.8987528119853356E-01 a       923     1    19     2     3
  6.3452393163450405E-01 a       924     1    19     2     4
 -3.5045901286086178E-01 a       925     1    19     2     5
 -3.2296970902158217E-01 a       926     1    19     2     6
  1.3546735919695943E-01 a       927     1    19     2     7
  5.5216735128828376E-01 a       928     1    19     2     8
  2.8153732673519852E-02 a       929     1    19     2     9
  6.2507936116516072E-01 a       930     1    19     2    10
  2.4807153083997935E-01 a       931     1    19     2    11
 -2.8907214473921944E-01 a       932     1    19     2    12
 -2.6775346016270968E-01 a       933     1    19     2    13
 -4.2164911484072926E-01 a       934     1    19     2    14
 -1.6007376245922264E-01 a       935     1    19     2    15
 -8.3847199495356772E-01 a       936     1    19     2    16
 -3.0101337277085105E-01 a       937     1    19     2    17
  2.0075114048443465E-01 a       938     1    19     2    18
 -3.6814738732259940E-02 a       939     1    19     2    19
  4.2905232425920126E-01 a       940     1    19     2    20
 -4.1158963914860175E-01 a       941     1    20     2     1
 -3.7697490793280486E-01 a       942     1    20     2     2
  3.1647803038838801E-01 a       943     1    20     2     3
 -7.0078220935424484E-01 a       944     1    20     2     4
  2.8026767405206077E-01 a       945     1    20     2     5
 -5.9454568357097759E-01 a       946     1    20     2     6
  4.3158533240140801E-01 a       947     1    20     2     7
 -4.0262492618894802E-01 a       948     1    20     2     8
  6.2426862340175904E-01 a       949     1    20     2     9
 -4.0453995210365606E-01 a       950     1    20     2    10
 -3.3908259295171335E-02 a       951     1    20     2    11
  2.2909935507057594E-01 a       952     1    20     2    12
  6.0361050429859953E-01 a       953     1    20     2    13
 -2.7960823536181084E-01 a       954     1    20     2    14
 -2.9575038995337022E-01 a       955     1    20     2    15
  7.0824342184993050E-01 a       956     1    20     2    16
  4.6202958780698444E-01 a       957     1    20     2    17
  3.3176672300062600E-03 a       958     1    20     2    18
  2.4222021615283526E-01 a       959     1    20     2    19
  5.9231987740053982E-01 a       960     1    20     2    20
 -3.0834780679688095E-01 b       961     2     1
  7.1069638843183958E-01 b       962     2     2
  2.7768307921328422E-01 b       963     2     3
 -4.3355856872796056E-01 b       964     2     4
  6.2262215660744447E-01 b       965     2     5
 -5.8878293736809706E-01 b       966     2     6
  1.3889213323078561E-01 b       967     2     7
 -3.3729433493103589E-01 b       968     2     8
 -1.4170965417610524E+00 b       969     2     9
  9.9924630775370182E-01 b       970     2    10
  1.7090651252837216E-01 b       971     2    11
 -1.3010308903845920E+00 b       972     2    12
 -1.1286779535552436E+00 b       973     2    13
 -5.7485702705851800E-02 b       974     2    14
  2.9335962299502366E-01 b       975     2    15
  1.0094161163773359E+00 b       976     2    16
 -1.4501313388998798E+00 b       977     2    17
 -4.1709575025612816E-01 b       978     2    18
  7.0547310655272955E-01 b       979     2    19
 -1.0812289236052284E+00 b       980     2    20
  1.1385714226601190E-01 a       981     2     1     3     1
  6.7084128106248753E-01 a       982     2     2     3     1
  1.0426817212574091E+00 a       983     2     3     3     1
 -3.5864441378744905E-01 a       984     2     4     3     1
  2.1016467699536398E-01 a       985     2     5     3     1
 -2.8278070489177470E-01 a       986     2     6     3     1
 -5.5683791593038257E-01 a       987     2     7     3     1
  1.2259678974942534E+00 a       988     2     8     3     1
  1.3497519029648695E+00 a       989     2     9     3     1
 -1.1545565671965856E+00 a       990     2    10     3     1
 -7.2788465173087735E-02 a       991     2    11     3     1
 -9.0981666000135922E-02 a       992     2    12     3     1
  3.7831736906027286E-01 a       993     2    13     3     1
  3.0802267149789186E-01 a       994     2    14     3     1
  4.3366109708343065E-01 a       995     2    15     3     1
  8.7564388528849024E-01 a       996     2    16     3     1
  4.4043354069273299E-01 a       997     2    17     3     1
  2.8246754204232905E-01 a       998     2    18     3     1
  1.2885191432485563E+00 a       999     2    19     3     1
 -1.1489450504643278E-01 a      1000     2    20     3     1
 -5.9207226871090202E-02 b      1001     3     1
