################################################################################
# Neural network connection values (weights and biases).
################################################################################
# Col  Name       Description
################################################################################
# 1    connection Neural network connection value.
# 2    t          Connection type (a = weight, b = bias).
# 3    index      Index enumerating weights.
# 4    l_s        Starting point layer (end point layer for biases).
# 5    n_s        Starting point neuron in starting layer (end point neuron for biases).
# 6    l_e        End point layer.
# 7    n_e        End point neuron in end layer.
################################################################################
#                      1 2         3     4     5     6     7
#             connection t     index   l_s   n_s   l_e   n_e
############################################################
  3.3722682547546901E-01 a         1     0     1     1     1
 -2.8499152654184329E-01 a         2     0     1     1     2
  3.0071596801754721E-02 a         3     0     1     1     3
 -3.0613600168922085E-03 a         4     0     1     1     4
 -7.3830924203558773E-02 a         5     0     1     1     5
 -2.2266209505347925E-02 a         6     0     1     1     6
 -9.2163632657107947E-02 a         7     0     1     1     7
 -4.3752259913970104E-01 a         8     0     1     1     8
  1.2054851337370870E-01 a         9     0     1     1     9
  1.4130720172891251E-01 a        10     0     1     1    10
 -1.2285725694034486E-01 a        11     0     1     1    11
  1.4355295990210881E-01 a        12     0     1     1    12
 -2.5468021167247734E-01 a        13     0     1     1    13
 -2.9537170588318062E-01 a        14     0     1     1    14
  3.7970367874774404E-02 a        15     0     1     1    15
  3.0058755245966151E-01 a        16     0     1     1    16
  2.2044771632377971E-01 a        17     0     1     1    17
  2.8639276504851580E-01 a        18     0     1     1    18
  2.0551274578701209E-01 a        19     0     1     1    19
 -1.9094059306287017E-01 a        20     0     1     1    20
 -2.5760173834071469E-02 a        21     0     2     1     1
 -1.6303797841087200E-01 a        22     0     2     1     2
  3.3836574987507467E-01 a        23     0     2     1     3
  6.9453457652111611E-02 a        24     0     2     1     4
 -3.5694115267755205E-01 a        25     0     2     1     5
 -4.1250904027904295E-01 a        26     0     2     1     6
 -1.9790029463285047E-01 a        27     0     2     1     7
  4.0937804141294487E-01 a        28     0     2     1     8
 -2.5883255203640255E-02 a        29     0     2     1     9
  1.1623205679442038E-01 a        30     0     2     1    10
 -1.8789999991541406E-01 a        31     0     2     1    11
 -5.7811714298373250E-02 a        32     0     2     1    12
  2.3579022370006875E-01 a        33     0     2     1    13
  2.2446227482333267E-01 a        34     0     2     1    14
  2.0047001269704801E-01 a        35     0     2     1    15
  1.3587650796712245E-01 a        36     0     2     1    16
 -2.9281484347423786E-01 a        37     0     2     1    17
 -3.1803753810667601E-01 a        38     0     2     1    18
 -2.4111968579635829E-01 a        39     0     2     1    19
  3.3543882939453951E-01 a        40     0     2     1    20
 -4.8089539066022141E-01 a        41     0     3     1     1
  1.5256931825376172E-01 a        42     0     3     1     2
 -4.6523469644935755E-01 a        43     0     3     1     3
 -1.9090254717524058E-01 a        44     0     3     1     4
 -2.2198104430993179E-01 a        45     0     3     1     5
  2.1175520385208119E-01 a        46     0     3     1     6
 -1.3121419131521750E-01 a        47     0     3     1     7
  2.7947404355758245E-03 a        48     0     3     1     8
 -3.1963196580693659E-01 a        49     0     3     1     9
 -1.8803716239000185E-03 a        50     0     3     1    10
 -7.3522930657489216E-02 a        51     0     3     1    11
 -4.4446419356430643E-02 a        52     0     3     1    12
  3.0051642909433945E-01 a        53     0     3     1    13
  1.1982898912612676E-01 a        54     0     3     1    14
  2.5570323538634593E-01 a        55     0     3     1    15
 -2.8421681091364359E-01 a        56     0     3     1    16
 -4.0840179130015902E-01 a        57     0     3     1    17
  2.1038495541416166E-01 a        58     0     3     1    18
  7.5547805211079413E-02 a        59     0     3     1    19
  4.2616767639198766E-01 a        60     0     3     1    20
 -3.3562000716184970E-01 a        61     0     4     1     1
  1.1493880767086646E-01 a        62     0     4     1     2
 -9.1846445590021641E-02 a        63     0     4     1     3
  2.9575673763031279E-01 a        64     0     4     1     4
  2.9613689814539357E-01 a        65     0     4     1     5
  4.6680836093206468E-01 a        66     0     4     1     6
 -1.5556636770202605E-02 a        67     0     4     1     7
  4.4672449965359790E-01 a        68     0     4     1     8
  3.2205838569737300E-01 a        69     0     4     1     9
  4.4527575431227269E-02 a        70     0     4     1    10
  9.8532261625617332E-02 a        71     0     4     1    11
  2.9606956384096411E-01 a        72     0     4     1    12
  1.6653235660676832E-01 a        73     0     4     1    13
  1.0503487883480871E-01 a        74     0     4     1    14
 -1.7475538367638438E-01 a        75     0     4     1    15
 -3.8260168737313571E-01 a        76     0     4     1    16
 -4.1615033143581649E-02 a        77     0     4     1    17
 -3.0132232754510863E-01 a        78     0     4     1    18
  9.2478308799594774E-02 a        79     0     4     1    19
 -4.0323896314677964E-03 a        80     0     4     1    20
  4.7192092738288915E-01 a        81     0     5     1     1
 -3.8710405511380436E-01 a        82     0     5     1     2
 -1.5754670431861531E-02 a        83     0     5     1     3
  3.3646252366430963E-02 a        84     0     5     1     4
 -6.3867311400247220E-02 a        85     0     5     1     5
  1.8476369417033421E-02 a        86     0     5     1     6
  3.3932817432611291E-02 a        87     0     5     1     7
 -1.1207693788845854E-04 a        88     0     5     1     8
  5.0946777230692941E-01 a        89     0     5     1     9
  2.8619378069146822E-01 a        90     0     5     1    10
 -4.6425857891992933E-01 a        91     0     5     1    11
  2.3958482803285630E-01 a        92     0     5     1    12
  1.0827672864582617E-01 a        93     0     5     1    13
 -2.3600608011709979E-02 a        94     0     5     1    14
  1.5963445100468898E-01 a        95     0     5     1    15
  3.7818532532160465E-01 a        96     0     5     1    16
 -8.8482293798770213E-03 a        97     0     5     1    17
 -3.4987775474305316E-01 a        98     0     5     1    18
  2.1161168221086080E-01 a        99     0     5     1    19
 -3.2475573545652564E-01 a       100     0     5     1    20
  4.2560157959340245E-01 a       101     0     6     1     1
 -2.7941366826594088E-01 a       102     0     6     1     2
  4.3112852344096009E-01 a       103     0     6     1     3
 -1.3464819020782129E-01 a       104     0     6     1     4
 -1.9352569966969391E-01 a       105     0     6     1     5
 -1.4319230487176351E-01 a       106     0     6     1     6
 -3.8468717090123711E-01 a       107     0     6     1     7
  1.7082726249056188E-02 a       108     0     6     1     8
  3.0403727941137444E-02 a       109     0     6     1     9
  2.9091087136956068E-01 a       110     0     6     1    10
  3.7992493440465597E-01 a       111     0     6     1    11
 -2.4766082523911229E-01 a       112     0     6     1    12
 -1.1593085693116181E-01 a       113     0     6     1    13
 -1.0091744600112776E-01 a       114     0     6     1    14
  2.7809502051537882E-01 a       115     0     6     1    15
  3.3548651054026962E-01 a       116     0     6     1    16
 -2.8244162682444618E-01 a       117     0     6     1    17
 -1.3762446511966198E-02 a       118     0     6     1    18
 -1.5351766318533630E-01 a       119     0     6     1    19
  1.6131739862774472E-01 a       120     0     6     1    20
  7.6044822339335016E-02 a       121     0     7     1     1
 -6.7421220021677067E-02 a       122     0     7     1     2
  1.5975027447053555E-01 a       123     0     7     1     3
 -4.2379532391323485E-02 a       124     0     7     1     4
 -3.5146450114052569E-02 a       125     0     7     1     5
 -4.6712359474096138E-01 a       126     0     7     1     6
  3.7351511078845889E-01 a       127     0     7     1     7
 -3.4709971614287412E-02 a       128     0     7     1     8
 -9.6360499574336247E-02 a       129     0     7     1     9
 -2.0655565524376365E-01 a       130     0     7     1    10
 -2.6531753721044804E-01 a       131     0     7     1    11
  3.0691319411232304E-01 a       132     0     7     1    12
 -3.7100676105533642E-01 a       133     0     7     1    13
 -4.2816804159606603E-01 a       134     0     7     1    14
 -1.3770591127348636E-01 a       135     0     7     1    15
 -1.9032624403088735E-01 a       136     0     7     1    16
  9.3223537924953123E-02 a       137     0     7     1    17
  2.9436140493624717E-02 a       138     0     7     1    18
 -3.4327070745966454E-01 a       139     0     7     1    19
 -2.9610953624804465E-01 a       140     0     7     1    20
 -3.1689819198571229E-01 a       141     0     8     1     1
 -2.5699327196197086E-01 a       142     0     8     1     2
  1.6868283243678431E-01 a       143     0     8     1     3
  1.2812373664485355E-01 a       144     0     8     1     4
  5.3314127439647141E-02 a       145     0     8     1     5
 -8.9373862832821255E-02 a       146     0     8     1     6
  2.5654682160789788E-01 a       147     0     8     1     7
 -8.2455904478781705E-02 a       148     0     8     1     8
 -2.7991122803667567E-01 a       149     0     8     1     9
 -3.0189301426540155E-01 a       150     0     8     1    10
 -9.4183662113310446E-02 a       151     0     8     1    11
  1.5882836947013065E-01 a       152     0     8     1    12
  2.2206057002227159E-01 a       153     0     8     1    13
 -3.4531093088756827E-02 a       154     0     8     1    14
 -7.6615564604308753E-02 a       155     0     8     1    15
 -2.0733537654298589E-01 a       156     0     8     1    16
  3.3141296662793246E-01 a       157     0     8     1    17
  2.4411112217040579E-01 a       158     0     8     1    18
 -2.9871139149002962E-01 a       159     0     8     1    19
 -2.3265462574543178E-01 a       160     0     8     1    20
  9.5737336056948355E-02 a       161     0     9     1     1
  2.3090244328919668E-01 a       162     0     9     1     2
  3.0011324644044754E-02 a       163     0     9     1     3
 -1.5624598760244607E-02 a       164     0     9     1     4
 -1.2530800962985875E-01 a       165     0     9     1     5
  2.6545837528829208E-01 a       166     0     9     1     6
 -1.4065073300448769E-01 a       167     0     9     1     7
 -1.5376941749956111E-01 a       168     0     9     1     8
  4.8406268303494648E-02 a       169     0     9     1     9
  2.4251809430654311E-01 a       170     0     9     1    10
  3.5123909727417463E-01 a       171     0     9     1    11
  1.8549119026804259E-01 a       172     0     9     1    12
 -2.8286674195576517E-01 a       173     0     9     1    13
 -9.4192310153416534E-03 a       174     0     9     1    14
  2.6352895047296987E-01 a       175     0     9     1    15
  3.2582720596926878E-01 a       176     0     9     1    16
 -7.5888598676243021E-02 a       177     0     9     1    17
 -6.1946660680680765E-01 a       178     0     9     1    18
 -1.5040896375294444E-01 a       179     0     9     1    19
  4.1016068829708063E-01 a       180     0     9     1    20
 -2.7198105897806174E-01 a       181     0    10     1     1
 -4.2134237274692005E-01 a       182     0    10     1     2
  1.2634843057206938E-01 a       183     0    10     1     3
 -8.1776861682687385E-02 a       184     0    10     1     4
 -5.4443672376695756E-02 a       185     0    10     1     5
  4.5893164962644056E-01 a       186     0    10     1     6
 -2.0796257799771292E-01 a       187     0    10     1     7
 -1.3283080118003643E-01 a       188     0    10     1     8
  2.2516325892518213E-01 a       189     0    10     1     9
 -1.1961035774798241E-01 a       190     0    10     1    10
  4.1719404300502683E-01 a       191     0    10     1    11
  7.2760225186449395E-02 a       192     0    10     1    12
 -2.4702706055572762E-01 a       193     0    10     1    13
  2.9686111959087164E-01 a       194     0    10     1    14
 -2.5484322837863255E-01 a       195     0    10     1    15
  8.1362145455307316E-02 a       196     0    10     1    16
 -3.0621373954423825E-01 a       197     0    10     1    17
  2.2677460623483711E-01 a       198     0    10     1    18
 -3.5637843906498340E-01 a       199     0    10     1    19
  2.4490523586863133E-01 a       200     0    10     1    20
  1.2097984543182365E-01 a       201     0    11     1     1
  5.8549710467770411E-02 a       202     0    11     1     2
 -1.7792288479468579E-01 a       203     0    11     1     3
 -3.5551091895854231E-01 a       204     0    11     1     4
  3.1163356250837326E-01 a       205     0    11     1     5
 -2.2503656662030951E-02 a       206     0    11     1     6
 -3.9507805216450871E-02 a       207     0    11     1     7
  5.2266064995342387E-01 a       208     0    11     1     8
  2.7540935711694731E-01 a       209     0    11     1     9
 -2.5938263168410713E-01 a       210     0    11     1    10
 -1.6781884005922998E-01 a       211     0    11     1    11
  4.8739204506170508E-01 a       212     0    11     1    12
  2.1081526977317472E-01 a       213     0    11     1    13
  1.4663974546223080E-01 a       214     0    11     1    14
  1.8375519608381402E-01 a       215     0    11     1    15
  4.9931642479043067E-02 a       216     0    11     1    16
 -4.8105290374513793E-01 a       217     0    11     1    17
  3.1218687451272920E-01 a       218     0    11     1    18
 -2.4615456675074218E-01 a       219     0    11     1    19
  1.0145873910955877E-01 a       220     0    11     1    20
 -3.0306815051760066E-02 a       221     0    12     1     1
  1.9080925737207738E-01 a       222     0    12     1     2
 -2.1711889474307292E-01 a       223     0    12     1     3
  2.1575470423862370E-01 a       224     0    12     1     4
  2.3285202926591925E-01 a       225     0    12     1     5
 -1.1913091227732760E-01 a       226     0    12     1     6
 -2.9680734587415791E-01 a       227     0    12     1     7
 -3.1345470038201773E-01 a       228     0    12     1     8
  2.2854039853581520E-01 a       229     0    12     1     9
  8.6353545015119396E-02 a       230     0    12     1    10
 -1.3201211585465186E-01 a       231     0    12     1    11
  7.4301360325312676E-02 a       232     0    12     1    12
  1.2028370127785927E-01 a       233     0    12     1    13
  2.0110482656649865E-02 a       234     0    12     1    14
 -2.9952261455921780E-01 a       235     0    12     1    15
 -1.1972698925866945E-01 a       236     0    12     1    16
 -2.2727196550820558E-01 a       237     0    12     1    17
  2.2491831744449034E-01 a       238     0    12     1    18
  1.9401752534140265E-01 a       239     0    12     1    19
 -4.0301309873017288E-01 a       240     0    12     1    20
  5.0502502091908825E-03 a       241     0    13     1     1
 -3.1079479301913843E-01 a       242     0    13     1     2
  2.1807638008771013E-01 a       243     0    13     1     3
  3.9588653312566402E-01 a       244     0    13     1     4
 -3.9600291692499573E-01 a       245     0    13     1     5
  1.4139031728481311E-01 a       246     0    13     1     6
 -1.7235063791651425E-01 a       247     0    13     1     7
 -5.4223069254146383E-01 a       248     0    13     1     8
  1.2768803401202614E-01 a       249     0    13     1     9
  3.7510165346733643E-01 a       250     0    13     1    10
 -2.3418418392354784E-01 a       251     0    13     1    11
  2.0644858222697426E-01 a       252     0    13     1    12
  2.0734661563757362E-01 a       253     0    13     1    13
  4.6238121757603701E-01 a       254     0    13     1    14
 -2.1725014062508013E-01 a       255     0    13     1    15
 -2.9804342061118738E-01 a       256     0    13     1    16
 -2.8825899322464010E-01 a       257     0    13     1    17
 -3.2328717544438634E-01 a       258     0    13     1    18
 -1.3744471226533886E-01 a       259     0    13     1    19
  2.5552695607966835E-01 a       260     0    13     1    20
 -2.5086737396461578E-01 a       261     0    14     1     1
 -3.0056564695840221E-01 a       262     0    14     1     2
  2.5528194522255404E-01 a       263     0    14     1     3
 -5.1071985295627502E-02 a       264     0    14     1     4
 -4.2966154847974525E-01 a       265     0    14     1     5
 -7.9143094486458143E-01 a       266     0    14     1     6
 -1.1373868445260857E-01 a       267     0    14     1     7
  1.8523872762445323E-01 a       268     0    14     1     8
  4.7331698179820171E-02 a       269     0    14     1     9
  2.2270749156109115E-01 a       270     0    14     1    10
 -3.1981428942132778E-01 a       271     0    14     1    11
 -8.9982767810025996E-02 a       272     0    14     1    12
 -8.8119200965482512E-03 a       273     0    14     1    13
 -2.7025059545319396E-01 a       274     0    14     1    14
 -4.0079495101913554E-01 a       275     0    14     1    15
  4.0704713075393134E-01 a       276     0    14     1    16
 -4.4801386611676066E-03 a       277     0    14     1    17
 -3.1069423377226728E-02 a       278     0    14     1    18
  5.1566432084546754E-01 a       279     0    14     1    19
  1.3981299491723617E-01 a       280     0    14     1    20
  2.8634091227757225E-01 a       281     0    15     1     1
 -3.7827502467228213E-02 a       282     0    15     1     2
  8.2085593506401179E-04 a       283     0    15     1     3
  3.1822208726279666E-01 a       284     0    15     1     4
  2.9905008390324633E-01 a       285     0    15     1     5
 -1.2631441489179704E-01 a       286     0    15     1     6
 -2.5772510264125342E-01 a       287     0    15     1     7
  2.5590155943043436E-01 a       288     0    15     1     8
 -5.5269794682572537E-02 a       289     0    15     1     9
 -1.8267052332439934E-01 a       290     0    15     1    10
  3.0295088600380593E-01 a       291     0    15     1    11
 -3.5467050748575851E-01 a       292     0    15     1    12
 -2.2837081659420458E-01 a       293     0    15     1    13
  2.4081184365121441E-01 a       294     0    15     1    14
 -1.4318680157319533E-01 a       295     0    15     1    15
 -2.2863084208731577E-01 a       296     0    15     1    16
 -4.5190954126093565E-02 a       297     0    15     1    17
  3.4940916589072923E-01 a       298     0    15     1    18
  4.2992407784179743E-01 a       299     0    15     1    19
 -3.4612466552562809E-01 a       300     0    15     1    20
 -6.4683338060320361E-01 a       301     0    16     1     1
 -5.4111530611245427E-02 a       302     0    16     1     2
  2.7852193796309344E-01 a       303     0    16     1     3
 -2.1896775602985097E-01 a       304     0    16     1     4
 -1.5049168927124673E-01 a       305     0    16     1     5
 -5.3816901107927785E-02 a       306     0    16     1     6
  8.6279309395936574E-02 a       307     0    16     1     7
  2.0377609027569212E-02 a       308     0    16     1     8
 -1.0044028846120381E-01 a       309     0    16     1     9
 -3.0105908538278264E-01 a       310     0    16     1    10
  2.8404406844360419E-01 a       311     0    16     1    11
 -2.2171436563393479E-01 a       312     0    16     1    12
 -2.3625619244633153E-01 a       313     0    16     1    13
 -4.2731714020511852E-01 a       314     0    16     1    14
 -1.9256439041336837E-01 a       315     0    16     1    15
  1.4233823658324113E-01 a       316     0    16     1    16
  3.6856649230507482E-01 a       317     0    16     1    17
  2.4320158227172586E-01 a       318     0    16     1    18
  1.8209351754071915E-01 a       319     0    16     1    19
 -3.4614568911875565E-01 a       320     0    16     1    20
 -1.6655633490074620E-01 a       321     0    17     1     1
  2.8292167320113800E-02 a       322     0    17     1     2
  2.9389365909786774E-02 a       323     0    17     1     3
 -1.0897867708506466E-01 a       324     0    17     1     4
 -2.3844093955035500E-01 a       325     0    17     1     5
  1.5386759641620010E-01 a       326     0    17     1     6
 -9.3732473546999914E-02 a       327     0    17     1     7
  2.1722058651809331E-01 a       328     0    17     1     8
  1.4506109944677525E-01 a       329     0    17     1     9
  2.0870608054806947E-01 a       330     0    17     1    10
 -2.1690086320040980E-01 a       331     0    17     1    11
  8.9447983603179737E-02 a       332     0    17     1    12
  4.1231605059398872E-02 a       333     0    17     1    13
  1.4559231133979703E-01 a       334     0    17     1    14
  1.7333092666098943E-01 a       335     0    17     1    15
  3.7924986814846164E-02 a       336     0    17     1    16
 -3.5098217423673889E-01 a       337     0    17     1    17
  3.2389719308086873E-02 a       338     0    17     1    18
 -2.0284782962558490E-01 a       339     0    17     1    19
 -3.1571382261861257E-02 a       340     0    17     1    20
  8.3931219572913204E-02 a       341     0    18     1     1
  1.8797356682025332E-01 a       342     0    18     1     2
  1.4407341435795751E-01 a       343     0    18     1     3
  1.4766635697505689E-01 a       344     0    18     1     4
  4.7983144542897573E-02 a       345     0    18     1     5
 -4.1589654996426632E-02 a       346     0    18     1     6
  2.0515753487523428E-01 a       347     0    18     1     7
  4.3205235149105905E-03 a       348     0    18     1     8
  2.3811919045481611E-03 a       349     0    18     1     9
 -1.8136493234440770E-01 a       350     0    18     1    10
  1.8832692879601082E-01 a       351     0    18     1    11
 -5.4384835702628642E-02 a       352     0    18     1    12
 -1.5676425188511794E-01 a       353     0    18     1    13
  2.0167550428238573E-01 a       354     0    18     1    14
  2.0381397844773180E-01 a       355     0    18     1    15
 -5.1583843076231338E-02 a       356     0    18     1    16
  1.4124205807040249E-01 a       357     0    18     1    17
 -9.6478354157254947E-02 a       358     0    18     1    18
 -1.5081365857519141E-01 a       359     0    18     1    19
 -2.0523890492413666E-01 a       360     0    18     1    20
  1.2865456723399747E-02 a       361     0    19     1     1
  1.6283993542940203E-01 a       362     0    19     1     2
  1.1195652191604361E-02 a       363     0    19     1     3
  1.9586922103584212E-01 a       364     0    19     1     4
  1.3650390301371876E-01 a       365     0    19     1     5
  3.0976914437718595E-01 a       366     0    19     1     6
 -1.5182887508759053E-02 a       367     0    19     1     7
  1.7092359797825540E-01 a       368     0    19     1     8
 -1.5719264503328864E-01 a       369     0    19     1     9
 -9.8076357506632489E-02 a       370     0    19     1    10
  1.5258482882055607E-01 a       371     0    19     1    11
 -1.5332156223533080E-01 a       372     0    19     1    12
 -9.0009509695412090E-02 a       373     0    19     1    13
  3.9037511263278601E-01 a       374     0    19     1    14
 -1.3627308651276926E-01 a       375     0    19     1    15
 -5.0046424097035726E-02 a       376     0    19     1    16
  5.3551982077685252E-02 a       377     0    19     1    17
 -1.7902644677682777E-01 a       378     0    19     1    18
 -8.6223140240425628E-02 a       379     0    19     1    19
  2.5664708817730081E-01 a       380     0    19     1    20
 -1.5601571413181756E-01 a       381     0    20     1     1
 -1.9865411041861053E-01 a       382     0    20     1     2
 -4.7440992598510712E-01 a       383     0    20     1     3
 -2.3719598364591560E-01 a       384     0    20     1     4
  1.2197275580156489E-01 a       385     0    20     1     5
  1.9546189187405941E-01 a       386     0    20     1     6
  1.0331300171777333E-01 a       387     0    20     1     7
  2.5698700007622149E-01 a       388     0    20     1     8
 -2.9451883957921161E-02 a       389     0    20     1     9
 -6.3502365868215005E-02 a       390     0    20     1    10
  5.2356240338586692E-02 a       391     0    20     1    11
 -7.3433292707737949E-02 a       392     0    20     1    12
  6.8818619375017120E-01 a       393     0    20     1    13
 -3.0242304571898326E-01 a       394     0    20     1    14
 -1.9172323000244676E-01 a       395     0    20     1    15
 -3.0798369476093684E-01 a       396     0    20     1    16
  7.0208222900371136E-03 a       397     0    20     1    17
  2.5006233644751308E-01 a       398     0    20     1    18
 -2.0375354435894200E-01 a       399     0    20     1    19
  8.2740462652027863E-02 a       400     0    20     1    20
  7.6694248710511004E-02 a       401     0    21     1     1
  1.3895561816677199E-01 a       402     0    21     1     2
 -7.0231506120398655E-03 a       403     0    21     1     3
 -1.8559781648821155E-01 a       404     0    21     1     4
  1.9148953968566365E-01 a       405     0    21     1     5
 -3.2405475009300017E-01 a       406     0    21     1     6
 -5.1422996446695360E-02 a       407     0    21     1     7
  1.3628522445153221E-01 a       408     0    21     1     8
 -1.7886057524609533E-01 a       409     0    21     1     9
 -6.6247937112837121E-02 a       410     0    21     1    10
 -8.6105018940483780E-02 a       411     0    21     1    11
 -2.3748830690009615E-01 a       412     0    21     1    12
 -2.8824408658056782E-02 a       413     0    21     1    13
  2.2975692071865994E-01 a       414     0    21     1    14
  3.9016381959967722E-01 a       415     0    21     1    15
  1.7773737157990738E-01 a       416     0    21     1    16
  3.8759124994148220E-01 a       417     0    21     1    17
 -1.3237517694294404E-01 a       418     0    21     1    18
  6.0379862715312330E-02 a       419     0    21     1    19
  1.8691835857299782E-01 a       420     0    21     1    20
 -7.7212599383048211E-02 a       421     0    22     1     1
 -6.8619364155268059E-01 a       422     0    22     1     2
 -3.9489136159492011E-02 a       423     0    22     1     3
  3.5010226751738843E-01 a       424     0    22     1     4
 -1.6950037925376130E-01 a       425     0    22     1     5
 -2.7642964761802169E-01 a       426     0    22     1     6
 -1.2253344948686755E-01 a       427     0    22     1     7
  2.2321059809311120E-01 a       428     0    22     1     8
  3.9275647635033711E-01 a       429     0    22     1     9
 -2.7841314472537598E-01 a       430     0    22     1    10
  8.7290854892741659E-02 a       431     0    22     1    11
 -1.3882161398498399E-01 a       432     0    22     1    12
  1.3228547955401002E-01 a       433     0    22     1    13
  1.1718437894130666E-01 a       434     0    22     1    14
  1.7346804832971754E-01 a       435     0    22     1    15
 -3.2240753492364166E-01 a       436     0    22     1    16
  8.1373040187771278E-02 a       437     0    22     1    17
  4.3581566768146923E-01 a       438     0    22     1    18
  1.7166152289269557E-01 a       439     0    22     1    19
 -1.5173629766632374E-01 a       440     0    22     1    20
 -3.4958785987399454E-01 a       441     0    23     1     1
  2.6381133658300965E-01 a       442     0    23     1     2
  1.5268531843900168E-01 a       443     0    23     1     3
  4.9685013772706829E-02 a       444     0    23     1     4
 -4.8507922604248488E-01 a       445     0    23     1     5
  1.2688507978129560E-01 a       446     0    23     1     6
 -3.0950316372670261E-01 a       447     0    23     1     7
  2.5276748602341753E-01 a       448     0    23     1     8
  1.0927359021547516E-01 a       449     0    23     1     9
  4.6777574632876684E-01 a       450     0    23     1    10
 -2.3850743463494636E-01 a       451     0    23     1    11
 -3.0762081778213903E-02 a       452     0    23     1    12
  2.5924948930590763E-01 a       453     0    23     1    13
 -2.6414158101169000E-01 a       454     0    23     1    14
  2.0333337345655678E-01 a       455     0    23     1    15
 -4.0786463292830838E-02 a       456     0    23     1    16
  2.1701303628823240E-01 a       457     0    23     1    17
  1.5967208039002204E-01 a       458     0    23     1    18
  5.1610767452296236E-01 a       459     0    23     1    19
 -2.2687412911248495E-01 a       460     0    23     1    20
 -9.9942575489690447E-02 a       461     0    24     1     1
 -1.6283904111534950E-01 a       462     0    24     1     2
  1.6926807882855287E-02 a       463     0    24     1     3
  2.7349198080631199E-01 a       464     0    24     1     4
 -6.2044958928038754E-02 a       465     0    24     1     5
 -1.6088831268154372E-01 a       466     0    24     1     6
 -8.2427899923469036E-02 a       467     0    24     1     7
  1.4493227186308497E-01 a       468     0    24     1     8
  1.7761263330747262E-01 a       469     0    24     1     9
 -1.4068191695449678E-01 a       470     0    24     1    10
  6.0277921678056949E-02 a       471     0    24     1    11
  1.1795987065661154E-02 a       472     0    24     1    12
 -5.9149497397458936E-02 a       473     0    24     1    13
  3.2464942226403759E-01 a       474     0    24     1    14
 -1.2898880269841640E-02 a       475     0    24     1    15
  3.0860053664258226E-03 a       476     0    24     1    16
 -4.2804154770156339E-02 a       477     0    24     1    17
  2.9947945396066981E-02 a       478     0    24     1    18
 -1.2782421688019752E-01 a       479     0    24     1    19
 -1.5105329004669038E-01 a       480     0    24     1    20
  5.2514913912005079E-01 a       481     0    25     1     1
  5.2373923596281374E-02 a       482     0    25     1     2
  2.2509848270565372E-01 a       483     0    25     1     3
  4.6302649827368370E-02 a       484     0    25     1     4
  5.0278967104737525E-02 a       485     0    25     1     5
 -3.4194023103944665E-01 a       486     0    25     1     6
  1.2265254834600044E-01 a       487     0    25     1     7
 -1.1093623225986610E-01 a       488     0    25     1     8
 -2.6130829625416357E-01 a       489     0    25     1     9
  2.2152518181545410E-02 a       490     0    25     1    10
  1.8034178159922676E-01 a       491     0    25     1    11
  1.5519014318278676E-01 a       492     0    25     1    12
 -1.2592357763746206E-01 a       493     0    25     1    13
 -3.0469789408629128E-01 a       494     0    25     1    14
 -3.3574110301534321E-01 a       495     0    25     1    15
 -2.5844381099089733E-02 a       496     0    25     1    16
  1.8687701425341405E-01 a       497     0    25     1    17
  2.8729228317144480E-02 a       498     0    25     1    18
 -2.6456696126846372E-02 a       499     0    25     1    19
  5.6302678785858395E-01 a       500     0    25     1    20
  2.9877707241432995E-02 a       501     0    26     1     1
  1.2896193779955709E-01 a       502     0    26     1     2
 -1.6854952584955289E-02 a       503     0    26     1     3
  1.3913252911381091E-01 a       504     0    26     1     4
  2.3880435575751932E-01 a       505     0    26     1     5
  1.4227638950520666E-01 a       506     0    26     1     6
  1.7159838228222642E-02 a       507     0    26     1     7
  1.8560484776761152E-01 a       508     0    26     1     8
 -3.9585330627963822E-01 a       509     0    26     1     9
 -2.6207086082692127E-01 a       510     0    26     1    10
  1.5138124640023981E-01 a       511     0    26     1    11
 -3.6728944545821701E-01 a       512     0    26     1    12
 -1.3047167680723484E-01 a       513     0    26     1    13
 -2.0411341673400063E-01 a       514     0    26     1    14
  3.8715884345292800E-01 a       515     0    26     1    15
  2.0819354493703929E-01 a       516     0    26     1    16
  2.2061239869117835E-01 a       517     0    26     1    17
  1.4322321503262769E-01 a       518     0    26     1    18
  2.3690237173619486E-01 a       519     0    26     1    19
 -3.7486084252375029E-01 a       520     0    26     1    20
 -3.3620833373102371E-01 a       521     0    27     1     1
 -9.1288199112288304E-02 a       522     0    27     1     2
 -1.2878363784977487E-01 a       523     0    27     1     3
  1.0628298596498510E-01 a       524     0    27     1     4
 -1.8335920615204221E-01 a       525     0    27     1     5
 -2.4290334412579714E-01 a       526     0    27     1     6
  2.0505752917645070E-02 a       527     0    27     1     7
 -3.3166127748870877E-01 a       528     0    27     1     8
  1.2519821242822277E-01 a       529     0    27     1     9
 -6.2530731259594047E-02 a       530     0    27     1    10
 -5.9948494389520844E-02 a       531     0    27     1    11
  9.9470576947022646E-02 a       532     0    27     1    12
  3.2517233162696152E-01 a       533     0    27     1    13
 -3.8665174945902447E-01 a       534     0    27     1    14
  3.4045329479043479E-01 a       535     0    27     1    15
  2.8402627497190652E-01 a       536     0    27     1    16
  3.9194368877091934E-01 a       537     0    27     1    17
  2.4752427969079666E-01 a       538     0    27     1    18
 -5.4020764110540187E-02 a       539     0    27     1    19
 -6.2756526494217391E-03 a       540     0    27     1    20
 -2.6785807267059414E-01 b       541     1     1
  1.3903873553037116E+00 b       542     1     2
  1.3644363042204410E+00 b       543     1     3
  8.7240230311856937E-01 b       544     1     4
 -1.3464831961578363E+00 b       545     1     5
 -9.7564718484254365E-01 b       546     1     6
 -1.1213256679543326E+00 b       547     1     7
 -7.7299474878811378E-02 b       548     1     8
 -5.0680518674143171E-01 b       549     1     9
  1.1851076269236582E+00 b       550     1    10
 -1.5529283691964879E+00 b       551     1    11
 -9.4196505563430885E-02 b       552     1    12
 -1.1193410546770531E-02 b       553     1    13
  9.7250479503456555E-02 b       554     1    14
  1.3878862787153756E+00 b       555     1    15
 -3.0134894923536271E-01 b       556     1    16
  1.0014908203027437E+00 b       557     1    17
  1.5248662277435698E+00 b       558     1    18
 -8.8096523142646832E-01 b       559     1    19
 -7.9405563837550297E-01 b       560     1    20
 -3.1467999166239896E-01 a       561     1     1     2     1
 -1.7140621439468848E-01 a       562     1     1     2     2
  5.1094049080036986E-02 a       563     1     1     2     3
 -5.2330545650358040E-01 a       564     1     1     2     4
 -2.6280681288839719E-01 a       565     1     1     2     5
  3.0219582366060221E-01 a       566     1     1     2     6
 -4.0948374879144817E-01 a       567     1     1     2     7
  3.6236223310200216E-01 a       568     1     1     2     8
 -1.4553751692590250E-01 a       569     1     1     2     9
 -3.7300241985698812E-01 a       570     1     1     2    10
  5.3999081101045210E-01 a       571     1     1     2    11
 -1.7760018395325375E-01 a       572     1     1     2    12
  7.7795269273729456E-02 a       573     1     1     2    13
  3.2655194621123140E-01 a       574     1     1     2    14
  3.0002842516277484E-01 a       575     1     1     2    15
 -4.5438231310353022E-01 a       576     1     1     2    16
  3.4639899625439741E-01 a       577     1     1     2    17
  4.9774629737480419E-01 a       578     1     1     2    18
  4.8011607709081605E-01 a       579     1     1     2    19
  1.6067533786221730E-01 a       580     1     1     2    20
 -1.9934079580738709E-01 a       581     1     2     2     1
 -2.8689774105129739E-01 a       582     1     2     2     2
 -2.3546656176768690E-01 a       583     1     2     2     3
 -1.8932304154651845E-03 a       584     1     2     2     4
 -1.5125711653358220E-01 a       585     1     2     2     5
 -6.3998783559980066E-01 a       586     1     2     2     6
 -1.8483217419421788E-01 a       587     1     2     2     7
  6.4111240236697642E-01 a       588     1     2     2     8
  1.3303203944821820E-01 a       589     1     2     2     9
 -1.3602128873576189E-01 a       590     1     2     2    10
 -1.3662342320257834E-01 a       591     1     2     2    11
  2.1240928611230009E-01 a       592     1     2     2    12
  2.4121423285103149E-02 a       593     1     2     2    13
 -2.5899939935593069E-01 a       594     1     2     2    14
 -6.4090808317331563E-02 a       595     1     2     2    15
  5.5173602280675271E-01 a       596     1     2     2    16
 -9.6868705009383483E-03 a       597     1     2     2    17
 -5.3873826722299167E-01 a       598     1     2     2    18
  2.1521481492561922E-01 a       599     1     2     2    19
 -3.5723139420525615E-02 a       600     1     2     2    20
 -3.3592497229883422E-01 a       601     1     3     2     1
  5.0306635597275118E-01 a       602     1     3     2     2
 -4.6170504766019665E-02 a       603     1     3     2     3
  1.8286342886283583E-01 a       604     1     3     2     4
 -4.4681669707800509E-01 a       605     1     3     2     5
 -2.5541555982747999E-01 a       606     1     3     2     6
  2.6434424311753174E-01 a       607     1     3     2     7
 -2.5271125554343676E-01 a       608     1     3     2     8
  2.1119949833726309E-01 a       609     1     3     2     9
  2.8040949160073486E-01 a       610     1     3     2    10
 -9.4512423800584625E-02 a       611     1     3     2    11
 -5.5918485905285809E-01 a       612     1     3     2    12
 -2.0644918299907536E-01 a       613     1     3     2    13
 -5.0424658487171170E-01 a       614     1     3     2    14
  3.0376416796898004E-01 a       615     1     3     2    15
  1.3516289878348545E-01 a       616     1     3     2    16
 -6.0145993954419985E-01 a       617     1     3     2    17
  5.7606902509141034E-01 a       618     1     3     2    18
  5.6107295708353921E-01 a       619     1     3     2    19
 -2.4495422523224886E-01 a       620     1     3     2    20
  5.1337926857116400E-01 a       621     1     4     2     1
  2.1177039663877537E-01 a       622     1     4     2     2
 -4.1902609690516396E-01 a       623     1     4     2     3
  5.0873367599902297E-01 a       624     1     4     2     4
  1.1160008120067261E-01 a       625     1     4     2     5
 -4.0729579379559461E-01 a       626     1     4     2     6
 -1.2292310764101469E-01 a       627     1     4     2     7
  9.2822468827153046E-02 a       628     1     4     2     8
 -1.1822435537030027E-01 a       629     1     4     2     9
 -3.2348309146401510E-01 a       630     1     4     2    10
  2.3804122600135983E-02 a       631     1     4     2    11
  3.1178997420940174E-01 a       632     1     4     2    12
  4.2685910812923422E-01 a       633     1     4     2    13
  5.3570277962484614E-01 a       634     1     4     2    14
 -2.8070572343007033E-01 a       635     1     4     2    15
  4.1782471616550709E-01 a       636     1     4     2    16
  1.2838237264280708E-01 a       637     1     4     2    17
  1.5511026129468239E-01 a       638     1     4     2    18
  2.4687490996166522E-01 a       639     1     4     2    19
 -1.7328609151025698E-01 a       640     1     4     2    20
 -2.7958477344819845E-02 a       641     1     5     2     1
  5.4730541965137824E-02 a       642     1     5     2     2
  2.8536927123387423E-01 a       643     1     5     2     3
 -3.6460944037605789E-02 a       644     1     5     2     4
 -3.9525737535697475E-01 a       645     1     5     2     5
  3.1391652845294375E-03 a       646     1     5     2     6
  1.1905258735962887E-01 a       647     1     5     2     7
 -1.7504596351800303E-01 a       648     1     5     2     8
  5.8547949573105729E-01 a       649     1     5     2     9
  5.9984978442105485E-01 a       650     1     5     2    10
  4.8444591028780770E-01 a       651     1     5     2    11
  3.3463924700713604E-01 a       652     1     5     2    12
 -4.1169946200580926E-01 a       653     1     5     2    13
  3.7579729008964785E-01 a       654     1     5     2    14
  5.2264152479492265E-01 a       655     1     5     2    15
 -5.3609808292567995E-01 a       656     1     5     2    16
 -4.3841870900975216E-01 a       657     1     5     2    17
 -4.6590947157730928E-01 a       658     1     5     2    18
 -5.7477451377074044E-02 a       659     1     5     2    19
  5.4940223272938793E-01 a       660     1     5     2    20
  4.5950475754389142E-01 a       661     1     6     2     1
  2.4666640341873580E-01 a       662     1     6     2     2
  1.2471736294439331E-01 a       663     1     6     2     3
  3.0154306956686877E-01 a       664     1     6     2     4
 -1.9913325538469398E-01 a       665     1     6     2     5
  6.5817066127787505E-01 a       666     1     6     2     6
 -1.8941147519209608E-01 a       667     1     6     2     7
  4.4509346530095584E-01 a       668     1     6     2     8
 -5.0010700697588306E-01 a       669     1     6     2     9
 -2.6988140530042515E-01 a       670     1     6     2    10
 -2.0597177289522076E-01 a       671     1     6     2    11
  3.0632921556909926E-01 a       672     1     6     2    12
  2.6260160079455286E-01 a       673     1     6     2    13
  5.5542587153169942E-01 a       674     1     6     2    14
 -1.0896397476546808E-02 a       675     1     6     2    15
 -3.9141231246538599E-01 a       676     1     6     2    16
  2.9293904688380934E-01 a       677     1     6     2    17
  2.9300355787478660E-01 a       678     1     6     2    18
  3.4619976709834749E-01 a       679     1     6     2    19
 -4.7198925652422653E-02 a       680     1     6     2    20
  2.4917847177980565E-01 a       681     1     7     2     1
 -7.4909972025936522E-02 a       682     1     7     2     2
 -5.4002921010627161E-02 a       683     1     7     2     3
 -3.9298931159546352E-01 a       684     1     7     2     4
  1.5141149018645511E-01 a       685     1     7     2     5
 -2.2630006341891890E-01 a       686     1     7     2     6
  9.4606205181303096E-02 a       687     1     7     2     7
  3.3180636578052780E-01 a       688     1     7     2     8
  2.6685001722853652E-01 a       689     1     7     2     9
 -1.8464860808847280E-01 a       690     1     7     2    10
 -6.7794558343951217E-01 a       691     1     7     2    11
  2.5625553173987659E-01 a       692     1     7     2    12
 -3.1499178948180689E-01 a       693     1     7     2    13
 -3.6267941555073416E-02 a       694     1     7     2    14
  4.2195846766846075E-02 a       695     1     7     2    15
 -5.5751186563082700E-01 a       696     1     7     2    16
 -3.8288612199020994E-01 a       697     1     7     2    17
 -2.1677945350878400E-01 a       698     1     7     2    18
  5.0188349008089617E-01 a       699     1     7     2    19
  3.5477414866275014E-01 a       700     1     7     2    20
  3.9562616806828027E-01 a       701     1     8     2     1
  5.1090225003638537E-02 a       702     1     8     2     2
 -1.6317551596453556E-01 a       703     1     8     2     3
 -1.9077156038104151E-01 a       704     1     8     2     4
  2.0130476803053760E-02 a       705     1     8     2     5
  3.4783733217982826E-01 a       706     1     8     2     6
  3.5636130282053743E-02 a       707     1     8     2     7
 -5.2772882977856106E-01 a       708     1     8     2     8
  3.9202631452531522E-01 a       709     1     8     2     9
 -2.8721360701669852E-02 a       710     1     8     2    10
  4.5071117511049516E-02 a       711     1     8     2    11
  3.9586093831377239E-01 a       712     1     8     2    12
  2.9370676676332558E-01 a       713     1     8     2    13
  4.3176342562124115E-01 a       714     1     8     2    14
  2.3675656353221827E-01 a       715     1     8     2    15
  5.0301330549325139E-02 a       716     1     8     2    16
  9.3598275335346232E-02 a       717     1     8     2    17
 -1.2089133008458973E-01 a       718     1     8     2    18
  3.7262961185303983E-01 a       719     1     8     2    19
  2.2552990240500140E-01 a       720     1     8     2    20
  4.2669392568517561E-01 a       721     1     9     2     1
  4.3938919189838688E-01 a       722     1     9     2     2
  5.2314789850136634E-01 a       723     1     9     2     3
 -5.0590564619988110E-01 a       724     1     9     2     4
 -4.4628860301293377E-01 a       725     1     9     2     5
  5.2115314949195302E-01 a       726     1     9     2     6
 -4.6434889924214501E-01 a       727     1     9     2     7
 -6.1813111297718726E-01 a       728     1     9     2     8
 -1.7322971950205196E-01 a       729     1     9     2     9
  2.7408068315350925E-01 a       730     1     9     2    10
 -4.7524262948556928E-01 a       731     1     9     2    11
 -2.6057523824247880E-01 a       732     1     9     2    12
  2.2131663029574092E-01 a       733     1     9     2    13
 -3.6525162039400032E-02 a       734     1     9     2    14
 -4.0150940117317940E-01 a       735     1     9     2    15
 -4.5902599377442355E-01 a       736     1     9     2    16
  3.8938922665823023E-01 a       737     1     9     2    17
  1.4637672245171279E-01 a       738     1     9     2    18
  4.7607559257858445E-01 a       739     1     9     2    19
 -4.0350935442976071E-01 a       740     1     9     2    20
 -4.4266479846479895E-01 a       741     1    10     2     1
  1.5954394913040928E-01 a       742     1    10     2     2
  1.8172337716940776E-01 a       743     1    10     2     3
 -3.3007530845617583E-01 a       744     1    10     2     4
 -3.5426507023319542E-01 a       745     1    10     2     5
 -1.3142265453802621E-01 a       746     1    10     2     6
 -1.5012662319721079E-01 a       747     1    10     2     7
 -9.1698207294358708E-02 a       748     1    10     2     8
  2.6231293357519309E-01 a       749     1    10     2     9
 -3.4773941882115927E-01 a       750     1    10     2    10
 -3.8042812260937287E-01 a       751     1    10     2    11
 -3.5095610336406452E-01 a       752     1    10     2    12
 -1.5760456056502145E-01 a       753     1    10     2    13
 -5.0820969245653103E-01 a       754     1    10     2    14
 -6.0651758645400633E-01 a       755     1    10     2    15
  1.5474012068556570E-01 a       756     1    10     2    16
 -1.7416739574977486E-01 a       757     1    10     2    17
 -4.4412256796458649E-01 a       758     1    10     2    18
  2.7713511458742862E-01 a       759     1    10     2    19
  5.2041401698367096E-01 a       760     1    10     2    20
 -2.6661252000676816E-01 a       761     1    11     2     1
 -4.5763940290982708E-01 a       762     1    11     2     2
 -3.2469009224171791E-01 a       763     1    11     2     3
  3.2557846894812337E-01 a       764     1    11     2     4
 -1.4477954858458952E-01 a       765     1    11     2     5
 -3.8537237491989867E-01 a       766     1    11     2     6
  4.9477633075217453E-01 a       767     1    11     2     7
  2.5659697854751368E-01 a       768     1    11     2     8
 -3.9097502493702652E-01 a       769     1    11     2     9
  5.2869916789380333E-01 a       770     1    11     2    10
  1.4660214848159295E-01 a       771     1    11     2    11
  5.9686705035619747E-01 a       772     1    11     2    12
 -4.5926603334236737E-01 a       773     1    11     2    13
  3.2262776377105717E-01 a       774     1    11     2    14
 -4.4934113806523596E-01 a       775     1    11     2    15
 -8.7656988148341247E-02 a       776     1    11     2    16
  4.1437699626856467E-01 a       777     1    11     2    17
 -6.7563843423755293E-02 a       778     1    11     2    18
  6.4189817480986433E-01 a       779     1    11     2    19
 -3.8266359426568149E-02 a       780     1    11     2    20
 -5.0084895106042926E-01 a       781     1    12     2     1
  5.1335666867554941E-01 a       782     1    12     2     2
 -3.0948873756966827E-01 a       783     1    12     2     3
  2.1334084947816317E-01 a       784     1    12     2     4
  4.2886744519227299E-01 a       785     1    12     2     5
  3.0730246724545014E-02 a       786     1    12     2     6
  3.7513939615875125E-01 a       787     1    12     2     7
 -4.8963383479535122E-01 a       788     1    12     2     8
 -3.6100462137993716E-01 a       789     1    12     2     9
 -6.3354211611262279E-01 a       790     1    12     2    10
 -1.4786396649502265E-01 a       791     1    12     2    11
  1.9334732485266254E-01 a       792     1    12     2    12
  1.2924354032461369E-01 a       793     1    12     2    13
 -2.6663356428669582E-01 a       794     1    12     2    14
  1.3948458810209166E-01 a       795     1    12     2    15
  4.6375041296902142E-01 a       796     1    12     2    16
 -5.7962219674324256E-01 a       797     1    12     2    17
 -6.1797579980776618E-01 a       798     1    12     2    18
 -1.1493567584358882E-01 a       799     1    12     2    19
  2.4661734293814255E-01 a       800     1    12     2    20
 -1.9344370352770885E-02 a       801     1    13     2     1
  6.3106051248753148E-01 a       802     1    13     2     2
 -5.3379829374568566E-01 a       803     1    13     2     3
  3.5549911015843934E-02 a       804     1    13     2     4
  8.5883950873187672E-03 a       805     1    13     2     5
 -4.2485138998543205E-02 a       806     1    13     2     6
  1.3184236924638984E-01 a       807     1    13     2     7
 -4.7877076844590549E-01 a       808     1    13     2     8
 -1.3170275684552765E-01 a       809     1    13     2     9
  2.4051458711611862E-01 a       810     1    13     2    10
 -5.1642321752885179E-01 a       811     1    13     2    11
 -4.2625454675670445E-03 a       812     1    13     2    12
 -6.1388777208613375E-02 a       813     1    13     2    13
  9.0490863288352361E-02 a       814     1    13     2    14
  2.8556288578771627E-01 a       815     1    13     2    15
 -5.0434217340346610E-01 a       816     1    13     2    16
 -2.5717955573752260E-01 a       817     1    13     2    17
  4.8411076457105284E-01 a       818     1    13     2    18
  1.2633951638925611E-01 a       819     1    13     2    19
  1.7075723949633839E-01 a       820     1    13     2    20
 -2.7037797109386386E-01 a       821     1    14     2     1
 -5.1339149507053616E-01 a       822     1    14     2     2
  4.8431734780853181E-01 a       823     1    14     2     3
  5.2494850837444280E-03 a       824     1    14     2     4
 -4.4490205310135401E-02 a       825     1    14     2     5
 -1.1536065918373886E-01 a       826     1    14     2     6
 -6.2814999615716710E-02 a       827     1    14     2     7
 -1.1792299816622821E-01 a       828     1    14     2     8
 -5.2961167994700253E-01 a       829     1    14     2     9
  9.6861261275341934E-02 a       830     1    14     2    10
  3.9080968487233558E-01 a       831     1    14     2    11
  3.4824461999014060E-02 a       832     1    14     2    12
  1.4550656561156561E-01 a       833     1    14     2    13
  3.5378877628955396E-01 a       834     1    14     2    14
  1.4374706337645612E-01 a       835     1    14     2    15
  7.3812760983163792E-02 a       836     1    14     2    16
 -9.8696092075337694E-02 a       837     1    14     2    17
  2.2633574434367240E-01 a       838     1    14     2    18
  1.1690477210731626E-01 a       839     1    14     2    19
 -8.8231831931292970E-02 a       840     1    14     2    20
  1.1034057950189019E-01 a       841     1    15     2     1
 -4.1258226683330962E-01 a       842     1    15     2     2
  4.6434919701766042E-01 a       843     1    15     2     3
  6.3814176394639477E-01 a       844     1    15     2     4
 -3.6525220673099983E-02 a       845     1    15     2     5
  3.7757543959715589E-01 a       846     1    15     2     6
 -2.6751397356684048E-01 a       847     1    15     2     7
 -6.1347573373119846E-01 a       848     1    15     2     8
  4.7242638851027796E-01 a       849     1    15     2     9
 -2.3370300960428225E-01 a       850     1    15     2    10
  2.0084505994709861E-01 a       851     1    15     2    11
 -4.2930620757301236E-01 a       852     1    15     2    12
  2.8696443091434115E-01 a       853     1    15     2    13
  1.6183033976813699E-01 a       854     1    15     2    14
 -2.0103181359084354E-01 a       855     1    15     2    15
 -1.4042583589334629E-02 a       856     1    15     2    16
  8.3707698674369918E-02 a       857     1    15     2    17
  7.2772483746074604E-02 a       858     1    15     2    18
 -3.4690450743243378E-01 a       859     1    15     2    19
 -1.7065277969046122E-01 a       860     1    15     2    20
  6.7892498215903083E-02 a       861     1    16     2     1
 -2.0455565861144673E-01 a       862     1    16     2     2
 -1.0106678683249179E-02 a       863     1    16     2     3
 -5.2037645597646831E-01 a       864     1    16     2     4
  2.9334321341949371E-01 a       865     1    16     2     5
 -1.0003785230083902E-01 a       866     1    16     2     6
  5.6580062563609243E-02 a       867     1    16     2     7
  1.9598144427221947E-01 a       868     1    16     2     8
 -5.1270242053332837E-01 a       869     1    16     2     9
 -2.9882968310545655E-01 a       870     1    16     2    10
 -4.6442679183676727E-01 a       871     1    16     2    11
 -2.8979557624357605E-01 a       872     1    16     2    12
 -3.9449563464253790E-01 a       873     1    16     2    13
  5.7367372884188694E-01 a       874     1    16     2    14
  3.0278662200086837E-01 a       875     1    16     2    15
  2.5875752423888031E-02 a       876     1    16     2    16
 -4.6818453872183591E-01 a       877     1    16     2    17
 -8.2051454725864503E-02 a       878     1    16     2    18
 -7.3595039515964022E-02 a       879     1    16     2    19
  4.8565951987836176E-01 a       880     1    16     2    20
  4.3603243413206588E-01 a       881     1    17     2     1
 -4.1063927759533009E-01 a       882     1    17     2     2
  3.0022658977005839E-01 a       883     1    17     2     3
  2.5615270634576659E-01 a       884     1    17     2     4
 -7.5495440895465463E-02 a       885     1    17     2     5
  3.0946496789469446E-01 a       886     1    17     2     6
 -2.0836236258672702E-01 a       887     1    17     2     7
  4.5805639346408356E-01 a       888     1    17     2     8
  4.9735919419576996E-01 a       889     1    17     2     9
 -5.8795197617737260E-01 a       890     1    17     2    10
  3.8404098680831134E-01 a       891     1    17     2    11
  3.0024785656003988E-01 a       892     1    17     2    12
 -2.8214318034601144E-01 a       893     1    17     2    13
  4.3760237163357246E-01 a       894     1    17     2    14
 -4.0731242042998106E-01 a       895     1    17     2    15
  1.9456068146110286E-01 a       896     1    17     2    16
  1.5768767219740554E-01 a       897     1    17     2    17
 -5.4938063080668731E-01 a       898     1    17     2    18
 -1.3008095794072766E-01 a       899     1    17     2    19
 -7.2412348325230491E-01 a       900     1    17     2    20
 -5.2795154449826742E-01 a       901     1    18     2     1
 -7.1202059238064286E-01 a       902     1    18     2     2
 -4.0737240853990653E-01 a       903     1    18     2     3
 -2.8089581444986000E-01 a       904     1    18     2     4
 -5.3773620973700309E-01 a       905     1    18     2     5
 -5.0563919408052860E-01 a       906     1    18     2     6
  2.6734280450526743E-01 a       907     1    18     2     7
  2.5989809118881285E-01 a       908     1    18     2     8
  6.7915888562668364E-02 a       909     1    18     2     9
  2.5800317318071014E-01 a       910     1    18     2    10
  1.6499957915566416E-01 a       911     1    18     2    11
 -5.9126916016262931E-01 a       912     1    18     2    12
 -7.7838912974987240E-02 a       913     1    18     2    13
  2.6134212361702119E-01 a       914     1    18     2    14
 -3.3135555661379684E-02 a       915     1    18     2    15
 -5.4519397013419257E-01 a       916     1    18     2    16
 -3.3539178233554917E-01 a       917     1    18     2    17
 -4.4207955994121267E-01 a       918     1    18     2    18
 -1.8335571419814897E-02 a       919     1    18     2    19
 -3.9919380071242344E-01 a       920     1    18     2    20
  4.1348619168485229E-01 a       921     1    19     2     1
 -1.6713604870325871E-01 a       922     1    19     2     2
  5.0156077473152627E-01 a       923     1    19     2     3
 -3.4837653246538436E-01 a       924     1    19     2     4
  1.4730115786039766E-01 a       925     1    19     2     5
  3.1907303942491649E-01 a       926     1    19     2     6
  9.7699745854930117E-02 a       927     1    19     2     7
  2.7235767053547461E-01 a       928     1    19     2     8
  3.0756944585312485E-01 a       929     1    19     2     9
  1.9556379785948894E-01 a       930     1    19     2    10
 -5.1625161132060705E-02 a       931     1    19     2    11
 -2.9205277613010155E-01 a       932     1    19     2    12
  5.4248735600314479E-01 a       933     1    19     2    13
  3.4403904576201255E-01 a       934     1    19     2    14
  3.0399288201797603E-02 a       935     1    19     2    15
 -1.7082141712736129E-01 a       936     1    19     2    16
 -2.5059427982760429E-01 a       937     1    19     2    17
  6.2867414431253521E-01 a       938     1    19     2    18
 -3.1973479502277680E-01 a       939     1    19     2    19
  2.0558287481694315E-01 a       940     1    19     2    20
  1.6922173951576255E-01 a       941     1    20     2     1
 -1.6866542941291317E-02 a       942     1    20     2     2
 -2.1840394839056584E-01 a       943     1    20     2     3
  2.9441753086397310E-01 a       944     1    20     2     4
 -3.7679675698770781E-01 a       945     1    20     2     5
 -5.4740487404846017E-01 a       946     1    20     2     6
 -4.0554153632362755E-01 a       947     1    20     2     7
 -1.4708616811681038E-01 a       948     1    20     2     8
  2.6103374492815196E-01 a       949     1    20     2     9
 -2.6709255158371170E-01 a       950     1    20     2    10
 -1.8888587605034615E-01 a       951     1    20     2    11
 -9.9634619609002412E-02 a       952     1    20     2    12
 -3.6854291763895008E-01 a       953     1    20     2    13
 -4.3483073648251303E-01 a       954     1    20     2    14
  1.8638669358441237E-01 a       955     1    20     2    15
  2.9567324095029773E-01 a       956     1    20     2    16
 -1.2181892582991281E-01 a       957     1    20     2    17
 -5.1707396293182906E-01 a       958     1    20     2    18
 -9.5112822588617169E-02 a       959     1    20     2    19
  1.4878041376374115E-01 a       960     1    20     2    20
 -1.3806486859249774E+00 b       961     2     1
 -1.1007538035957172E+00 b       962     2     2
 -1.5207703495246161E+00 b       963     2     3
 -6.7721221716708113E-01 b       964     2     4
  3.9122378406880909E-01 b       965     2     5
 -1.4564594317105954E+00 b       966     2     6
 -7.7129917134353476E-01 b       967     2     7
  1.6168297970767298E+00 b       968     2     8
  4.9097192305331366E-01 b       969     2     9
 -8.2700559104451710E-01 b       970     2    10
  5.9707889478872567E-01 b       971     2    11
 -4.6842856269074667E-01 b       972     2    12
 -1.5142313431486292E+00 b       973     2    13
  6.5194195266062671E-01 b       974     2    14
  1.7013604345428097E-02 b       975     2    15
  1.0385023757299792E+00 b       976     2    16
 -1.3658609175136132E+00 b       977     2    17
 -2.4144877862008265E-02 b       978     2    18
 -3.0076426282405511E-01 b       979     2    19
  1.1735451129882035E+00 b       980     2    20
  7.9083783591522128E-01 a       981     2     1     3     1
 -7.9133822295795062E-02 a       982     2     2     3     1
  5.1178276452464222E-01 a       983     2     3     3     1
 -1.1667442614365246E-01 a       984     2     4     3     1
  3.9971933731421172E-01 a       985     2     5     3     1
  3.3772722338677003E-01 a       986     2     6     3     1
 -6.7317485985489323E-01 a       987     2     7     3     1
 -4.4554348055171229E-03 a       988     2     8     3     1
 -1.3457197371644025E-01 a       989     2     9     3     1
  9.8584938428581714E-01 a       990     2    10     3     1
 -7.7406211341974493E-02 a       991     2    11     3     1
  9.1855315433623019E-01 a       992     2    12     3     1
  2.0845146521688782E-01 a       993     2    13     3     1
 -1.3083203903488597E-01 a       994     2    14     3     1
  1.0943786217638176E+00 a       995     2    15     3     1
 -3.6063928288395752E-01 a       996     2    16     3     1
  1.5640787165373513E+00 a       997     2    17     3     1
 -7.4256885737016123E-02 a       998     2    18     3     1
 -2.2322778812865610E-01 a       999     2    19     3     1
 -4.9465581346274273E-01 a      1000     2    20     3     1
 -7.4943034381832885E-01 b      1001     3     1
