################################################################################
# Neural network connection values (weights and biases).
################################################################################
# Col  Name       Description
################################################################################
# 1    connection Neural network connection value.
# 2    t          Connection type (a = weight, b = bias).
# 3    index      Index enumerating weights.
# 4    l_s        Starting point layer (end point layer for biases).
# 5    n_s        Starting point neuron in starting layer (end point neuron for biases).
# 6    l_e        End point layer.
# 7    n_e        End point neuron in end layer.
################################################################################
#                      1 2         3     4     5     6     7
#             connection t     index   l_s   n_s   l_e   n_e
############################################################
  1.6336118435934618E-01 a         1     0     1     1     1
  3.5537889921332655E-01 a         2     0     1     1     2
  2.2062046844352229E-01 a         3     0     1     1     3
 -1.4535254924457425E-01 a         4     0     1     1     4
  1.4121113318884380E-02 a         5     0     1     1     5
 -1.3158237949869303E-01 a         6     0     1     1     6
  1.2444887427678988E-01 a         7     0     1     1     7
  1.8008095918301786E-01 a         8     0     1     1     8
 -4.1726438253798875E-02 a         9     0     1     1     9
 -3.0169005044874142E-01 a        10     0     1     1    10
 -7.2608592211298006E-02 a        11     0     1     1    11
  4.3636747611252547E-01 a        12     0     1     1    12
 -3.3486501496116183E-01 a        13     0     1     1    13
  1.1135238999845582E-03 a        14     0     1     1    14
  2.6529575727094828E-01 a        15     0     1     1    15
 -1.3523248407437033E-01 a        16     0     1     1    16
  2.4160251033327934E-01 a        17     0     1     1    17
 -2.9498662817455568E-01 a        18     0     1     1    18
 -3.0878510703171974E-01 a        19     0     1     1    19
 -3.3283362314872011E-01 a        20     0     1     1    20
  3.5498897041057681E-01 a        21     0     2     1     1
 -3.0913987907376084E-01 a        22     0     2     1     2
 -1.8902892244775388E-01 a        23     0     2     1     3
  4.0831102917026235E-01 a        24     0     2     1     4
 -2.5125447857923977E-01 a        25     0     2     1     5
  2.7157961722245427E-01 a        26     0     2     1     6
 -1.7560752509647790E-01 a        27     0     2     1     7
  1.2621851725750133E-01 a        28     0     2     1     8
  1.5333230290772917E-01 a        29     0     2     1     9
  3.1999283571974868E-01 a        30     0     2     1    10
  3.2237578741458472E-01 a        31     0     2     1    11
 -8.8775698085279159E-02 a        32     0     2     1    12
  3.7127403553656707E-01 a        33     0     2     1    13
 -1.7169523970308040E-01 a        34     0     2     1    14
 -2.9967490102833233E-01 a        35     0     2     1    15
  4.2951839972557765E-01 a        36     0     2     1    16
 -3.7684921510645353E-01 a        37     0     2     1    17
  3.8586179706327944E-01 a        38     0     2     1    18
  5.5229454416526003E-01 a        39     0     2     1    19
  1.0999173245890709E-01 a        40     0     2     1    20
 -6.1492647407775151E-02 a        41     0     3     1     1
 -1.3194767508007310E-01 a        42     0     3     1     2
  1.4841636063969157E-01 a        43     0     3     1     3
  1.4789423591442424E-01 a        44     0     3     1     4
  3.4314943324957009E-01 a        45     0     3     1     5
  2.9038211559750682E-01 a        46     0     3     1     6
 -9.5450089761649030E-03 a        47     0     3     1     7
 -2.2217549544761336E-01 a        48     0     3     1     8
 -2.4831315390440473E-01 a        49     0     3     1     9
 -2.9572750823563659E-01 a        50     0     3     1    10
  2.7685417664797110E-02 a        51     0     3     1    11
 -4.5136232902541557E-01 a        52     0     3     1    12
  2.0126628614705408E-01 a        53     0     3     1    13
  3.5075412375842924E-01 a        54     0     3     1    14
  3.8380047843178244E-01 a        55     0     3     1    15
 -7.0247798983284149E-02 a        56     0     3     1    16
  3.8823428664339521E-01 a        57     0     3     1    17
 -1.9144811719500962E-01 a        58     0     3     1    18
  7.9226643925526322E-02 a        59     0     3     1    19
 -1.8417152368834785E-01 a        60     0     3     1    20
 -4.4635658173484521E-01 a        61     0     4     1     1
 -7.6146102823561407E-02 a        62     0     4     1     2
 -3.3932002087665315E-02 a        63     0     4     1     3
 -3.8771986731059865E-01 a        64     0     4     1     4
 -4.6004488574802727E-01 a        65     0     4     1     5
  3.1476219968943764E-01 a        66     0     4     1     6
  7.4791182056976158E-02 a        67     0     4     1     7
 -1.7113641973625424E-01 a        68     0     4     1     8
  2.4985794566972841E-01 a        69     0     4     1     9
  3.8063212493486570E-01 a        70     0     4     1    10
 -1.1187740185748649E-01 a        71     0     4     1    11
 -1.7729067011714356E-01 a        72     0     4     1    12
  2.5479213437901022E-01 a        73     0     4     1    13
 -2.5440666010764212E-01 a        74     0     4     1    14
  3.7236504657197850E-01 a        75     0     4     1    15
 -3.4680201252744869E-01 a        76     0     4     1    16
 -1.8197564806892530E-01 a        77     0     4     1    17
 -9.1844446105423208E-02 a        78     0     4     1    18
 -3.8736778579968029E-01 a        79     0     4     1    19
  4.2100875503236185E-01 a        80     0     4     1    20
  3.0497395603064947E-01 a        81     0     5     1     1
 -2.6373101654924008E-01 a        82     0     5     1     2
 -2.4047975500692140E-01 a        83     0     5     1     3
  2.8914376734606567E-01 a        84     0     5     1     4
 -1.0522082262558162E-01 a        85     0     5     1     5
 -3.4352862382711313E-01 a        86     0     5     1     6
  2.2225201580789369E-01 a        87     0     5     1     7
 -2.4414479802495098E-01 a        88     0     5     1     8
  3.8522409117054690E-01 a        89     0     5     1     9
  1.6554059436157559E-01 a        90     0     5     1    10
 -2.3029949058623722E-01 a        91     0     5     1    11
  2.9606667421385752E-01 a        92     0     5     1    12
 -2.7283098931744271E-01 a        93     0     5     1    13
 -3.4847122728218755E-01 a        94     0     5     1    14
  1.3432091203250425E-02 a        95     0     5     1    15
  3.7895175878931087E-01 a        96     0     5     1    16
 -3.5663277557162959E-01 a        97     0     5     1    17
  2.7752130815472775E-01 a        98     0     5     1    18
  1.5277455024917033E-01 a        99     0     5     1    19
  2.7603331261509106E-01 a       100     0     5     1    20
  4.4162083147055908E-01 a       101     0     6     1     1
 -3.1436742108910776E-01 a       102     0     6     1     2
 -1.0777197075372749E-01 a       103     0     6     1     3
 -1.9367390432711587E-01 a       104     0     6     1     4
 -1.3829877710307353E-01 a       105     0     6     1     5
 -1.6250169664700764E-01 a       106     0     6     1     6
 -4.9974613178846501E-02 a       107     0     6     1     7
 -2.1900607311952081E-02 a       108     0     6     1     8
 -3.4369750106546887E-01 a       109     0     6     1     9
  2.7735756005787421E-01 a       110     0     6     1    10
  1.8452998847429986E-01 a       111     0     6     1    11
  7.7639097234993265E-02 a       112     0     6     1    12
  4.2365494633065964E-02 a       113     0     6     1    13
  1.3568749094842006E-01 a       114     0     6     1    14
  1.4769049320452504E-01 a       115     0     6     1    15
  2.8200253551759341E-01 a       116     0     6     1    16
 -1.5205254381044658E-01 a       117     0     6     1    17
 -3.7339676069056477E-01 a       118     0     6     1    18
  1.8911559203249334E-01 a       119     0     6     1    19
 -1.5738262082349383E-01 a       120     0     6     1    20
 -4.7177583488004560E-01 a       121     0     7     1     1
  3.2450026946092553E-01 a       122     0     7     1     2
  1.8167950772390942E-02 a       123     0     7     1     3
  6.2154875265347895E-02 a       124     0     7     1     4
 -2.3627925548645859E-01 a       125     0     7     1     5
  1.9823181703469367E-01 a       126     0     7     1     6
  1.9564667442918104E-01 a       127     0     7     1     7
  2.3597040836701413E-01 a       128     0     7     1     8
 -2.6543334784534700E-01 a       129     0     7     1     9
  5.7644276600611534E-02 a       130     0     7     1    10
  1.4083626603780836E-01 a       131     0     7     1    11
 -3.7825831212995081E-01 a       132     0     7     1    12
  1.7799870015287289E-01 a       133     0     7     1    13
 -2.6917223079313018E-01 a       134     0     7     1    14
 -4.9010009731606247E-01 a       135     0     7     1    15
 -3.1880703793436782E-01 a       136     0     7     1    16
  2.7066274097749699E-01 a       137     0     7     1    17
 -2.1588190288025613E-01 a       138     0     7     1    18
 -3.3061949479695596E-01 a       139     0     7     1    19
  2.0116828554752211E-01 a       140     0     7     1    20
  2.3837073312734303E-01 a       141     0     8     1     1
  5.7402039922100107E-02 a       142     0     8     1     2
  1.5237858274525104E-01 a       143     0     8     1     3
  1.2691208685947492E-01 a       144     0     8     1     4
 -1.7095446894516184E-01 a       145     0     8     1     5
 -1.8391409230517999E-01 a       146     0     8     1     6
 -7.2112639208885776E-02 a       147     0     8     1     7
  1.6845101233084181E-01 a       148     0     8     1     8
  2.2890074614612749E-01 a       149     0     8     1     9
 -1.6409398650688570E-01 a       150     0     8     1    10
  8.3460507451421584E-02 a       151     0     8     1    11
 -7.5323443724100492E-02 a       152     0     8     1    12
  9.3860976232630830E-02 a       153     0     8     1    13
 -3.1790861886364008E-01 a       154     0     8     1    14
 -2.1351006595485564E-01 a       155     0     8     1    15
 -1.0469952387720992E-01 a       156     0     8     1    16
  2.3787235089242106E-01 a       157     0     8     1    17
  3.7567215948017429E-01 a       158     0     8     1    18
  2.3603574822074072E-01 a       159     0     8     1    19
 -2.0570505214381260E-01 a       160     0     8     1    20
 -7.7358303172108872E-02 a       161     0     9     1     1
 -5.2370942133442533E-01 a       162     0     9     1     2
  2.1655453588138995E-01 a       163     0     9     1     3
  3.2072987578507345E-01 a       164     0     9     1     4
 -4.8141308705903219E-02 a       165     0     9     1     5
 -1.2578252639452001E-01 a       166     0     9     1     6
 -1.0700825042607130E-03 a       167     0     9     1     7
  8.0525789684090382E-02 a       168     0     9     1     8
  8.3641110087929751E-02 a       169     0     9     1     9
  2.6551114150282290E-01 a       170     0     9     1    10
  1.4090172922875338E-01 a       171     0     9     1    11
 -2.0005185434856307E-01 a       172     0     9     1    12
  9.3726584166562172E-03 a       173     0     9     1    13
  1.7975445924585415E-01 a       174     0     9     1    14
  2.9337038318229119E-01 a       175     0     9     1    15
  7.7870239093702956E-02 a       176     0     9     1    16
 -2.2959018611275003E-01 a       177     0     9     1    17
 -4.3534793038624420E-01 a       178     0     9     1    18
 -3.5182660828073026E-01 a       179     0     9     1    19
  2.9764951329533901E-01 a       180     0     9     1    20
  1.0469494486313487E-01 a       181     0    10     1     1
  3.2767648514586594E-03 a       182     0    10     1     2
 -5.3125422568241520E-01 a       183     0    10     1     3
 -2.9253473149443016E-01 a       184     0    10     1     4
 -3.5896495935094247E-01 a       185     0    10     1     5
 -1.1105524594345829E-01 a       186     0    10     1     6
 -1.3154002707052306E-01 a       187     0    10     1     7
 -1.8519946908213553E-01 a       188     0    10     1     8
 -8.8148441507789679E-02 a       189     0    10     1     9
 -2.9924473438041099E-01 a       190     0    10     1    10
  1.9439508740745161E-02 a       191     0    10     1    11
  4.3332002367080785E-01 a       192     0    10     1    12
  2.6012184526250409E-01 a       193     0    10     1    13
  6.6339889403436236E-01 a       194     0    10     1    14
 -1.2499781218158373E-01 a       195     0    10     1    15
 -8.4338922484732140E-02 a       196     0    10     1    16
  1.6799304330763634E-01 a       197     0    10     1    17
  2.4194945928535255E-02 a       198     0    10     1    18
  1.8400762556725869E-01 a       199     0    10     1    19
 -6.9301369169761540E-02 a       200     0    10     1    20
 -1.7344563526117668E-01 a       201     0    11     1     1
 -3.7035728983133814E-01 a       202     0    11     1     2
 -3.4198512931714137E-01 a       203     0    11     1     3
 -3.6209969479233405E-02 a       204     0    11     1     4
  3.7811309089039874E-01 a       205     0    11     1     5
  1.9047900835664874E-01 a       206     0    11     1     6
  2.7922267729486688E-01 a       207     0    11     1     7
 -8.9519517264263659E-02 a       208     0    11     1     8
 -5.5292872853511948E-03 a       209     0    11     1     9
 -2.8704111759551615E-01 a       210     0    11     1    10
 -3.8672961230641748E-02 a       211     0    11     1    11
 -2.7200677850315363E-01 a       212     0    11     1    12
 -1.0875261943945237E-01 a       213     0    11     1    13
 -1.6429965114255235E-01 a       214     0    11     1    14
  1.8336444381343719E-01 a       215     0    11     1    15
  7.4660890797133284E-04 a       216     0    11     1    16
  3.3847892814351332E-01 a       217     0    11     1    17
 -3.3611709186756217E-01 a       218     0    11     1    18
  4.3828705996073219E-01 a       219     0    11     1    19
  2.5798466707440026E-01 a       220     0    11     1    20
 -5.4870053246097041E-02 a       221     0    12     1     1
  1.0897766657097761E-01 a       222     0    12     1     2
 -3.0955604675443005E-01 a       223     0    12     1     3
 -3.0260988694839530E-01 a       224     0    12     1     4
  4.7833479315429188E-02 a       225     0    12     1     5
  3.2228182891779583E-01 a       226     0    12     1     6
  3.2444739210809689E-02 a       227     0    12     1     7
 -2.9602825984097578E-03 a       228     0    12     1     8
 -1.8779437885557010E-01 a       229     0    12     1     9
  3.5147603995523657E-01 a       230     0    12     1    10
 -2.4912865223013972E-01 a       231     0    12     1    11
  3.6733296870538534E-01 a       232     0    12     1    12
 -1.8922390497084640E-01 a       233     0    12     1    13
 -1.3611980473528813E-02 a       234     0    12     1    14
  4.8438708674638863E-02 a       235     0    12     1    15
 -1.4444827849757294E-02 a       236     0    12     1    16
 -8.1957966312138295E-02 a       237     0    12     1    17
 -1.1698733479290356E-01 a       238     0    12     1    18
  8.7247339565542106E-02 a       239     0    12     1    19
 -2.1164564196517516E-01 a       240     0    12     1    20
 -2.1127224864077793E-01 a       241     0    13     1     1
  3.1243788511073017E-01 a       242     0    13     1     2
 -2.2110234162202053E-02 a       243     0    13     1     3
  2.3420885924282239E-01 a       244     0    13     1     4
  1.6902176382767986E-01 a       245     0    13     1     5
 -1.2726715159120350E-01 a       246     0    13     1     6
 -3.2850319129118249E-01 a       247     0    13     1     7
 -3.2376575466019020E-01 a       248     0    13     1     8
 -2.4409925086622233E-02 a       249     0    13     1     9
  3.5758571451078593E-03 a       250     0    13     1    10
  3.4263379024082226E-02 a       251     0    13     1    11
 -5.6018158197913177E-02 a       252     0    13     1    12
 -1.3630465202411584E-02 a       253     0    13     1    13
  4.0607590855772514E-02 a       254     0    13     1    14
 -1.8840046801097610E-01 a       255     0    13     1    15
 -1.1357937011344224E-01 a       256     0    13     1    16
 -5.0525962452965055E-02 a       257     0    13     1    17
  5.1936615019483090E-01 a       258     0    13     1    18
 -2.5852582879323766E-01 a       259     0    13     1    19
 -8.8309033804580966E-02 a       260     0    13     1    20
 -6.6418370204673435E-02 a       261     0    14     1     1
  3.1594815062700365E-01 a       262     0    14     1     2
 -1.8296312780037929E-01 a       263     0    14     1     3
  1.9319911761654479E-01 a       264     0    14     1     4
 -5.1993943035351509E-01 a       265     0    14     1     5
  7.7859600440162796E-02 a       266     0    14     1     6
  8.3361688240149112E-02 a       267     0    14     1     7
 -2.6769233828505895E-01 a       268     0    14     1     8
 -2.4961291876805644E-03 a       269     0    14     1     9
 -3.3909528908601644E-01 a       270     0    14     1    10
  8.8818330996239647E-02 a       271     0    14     1    11
 -4.0101482122578125E-01 a       272     0    14     1    12
  3.7724796375803477E-01 a       273     0    14     1    13
  2.2938489004223073E-01 a       274     0    14     1    14
  2.0003379038276864E-01 a       275     0    14     1    15
 -2.3736052981471090E-01 a       276     0    14     1    16
  4.7041707390984822E-01 a       277     0    14     1    17
 -1.0579858780546238E-01 a       278     0    14     1    18
 -7.0093318707014282E-02 a       279     0    14     1    19
 -3.7796560237884677E-02 a       280     0    14     1    20
  5.9902957770712716E-02 a       281     0    15     1     1
  1.2822439517219980E-01 a       282     0    15     1     2
 -3.2623360035070254E-01 a       283     0    15     1     3
  1.6952345695328411E-01 a       284     0    15     1     4
 -7.4124363531896956E-02 a       285     0    15     1     5
 -2.1393979197300270E-01 a       286     0    15     1     6
  4.0064115382788416E-02 a       287     0    15     1     7
 -2.2039517554229926E-01 a       288     0    15     1     8
  1.6876789261815889E-01 a       289     0    15     1     9
 -4.2410831325670023E-01 a       290     0    15     1    10
 -2.2439602870657352E-01 a       291     0    15     1    11
 -1.7851701058086887E-02 a       292     0    15     1    12
 -1.9338091533650770E-01 a       293     0    15     1    13
  2.0358355504294820E-01 a       294     0    15     1    14
 -2.2543875003633937E-01 a       295     0    15     1    15
  1.7235556533057320E-01 a       296     0    15     1    16
  4.8401459585555257E-01 a       297     0    15     1    17
 -3.6907463729689938E-01 a       298     0    15     1    18
 -2.8847458929245057E-01 a       299     0    15     1    19
 -3.8006353212762339E-01 a       300     0    15     1    20
 -9.1042862981303083E-03 a       301     0    16     1     1
 -5.2998266750851369E-02 a       302     0    16     1     2
 -7.6718463580596558E-02 a       303     0    16     1     3
 -1.2908013170248758E-01 a       304     0    16     1     4
 -2.4783862344189618E-02 a       305     0    16     1     5
  2.9430211552719804E-01 a       306     0    16     1     6
 -1.3420364409375102E-02 a       307     0    16     1     7
 -3.2016333547292046E-02 a       308     0    16     1     8
 -3.5740327922174622E-03 a       309     0    16     1     9
  2.7793722436627610E-01 a       310     0    16     1    10
 -2.6223705801841163E-01 a       311     0    16     1    11
 -1.2672502805187013E-02 a       312     0    16     1    12
  1.8627851787040711E-02 a       313     0    16     1    13
 -2.3652438813604412E-01 a       314     0    16     1    14
  3.4662616380567629E-01 a       315     0    16     1    15
  9.1857727740399853E-02 a       316     0    16     1    16
 -1.9453207800022093E-01 a       317     0    16     1    17
  2.4915414654334314E-01 a       318     0    16     1    18
  8.1967371117531246E-02 a       319     0    16     1    19
  4.7144146490395028E-02 a       320     0    16     1    20
  6.5284074263990036E-02 a       321     0    17     1     1
 -6.7099597247700510E-02 a       322     0    17     1     2
 -1.5500338828380442E-01 a       323     0    17     1     3
 -1.6756213262539760E-01 a       324     0    17     1     4
 -3.4328861658538617E-01 a       325     0    17     1     5
 -1.6322516028803796E-01 a       326     0    17     1     6
  7.9868622796241559E-02 a       327     0    17     1     7
  1.1644318135023946E-02 a       328     0    17     1     8
  4.1714068038535244E-02 a       329     0    17     1     9
  3.8588162261827502E-01 a       330     0    17     1    10
 -2.4200448995803586E-01 a       331     0    17     1    11
  3.5171964569598807E-01 a       332     0    17     1    12
 -8.4685083393423594E-02 a       333     0    17     1    13
  1.4610975888457747E-01 a       334     0    17     1    14
 -3.0910995074013931E-01 a       335     0    17     1    15
  2.6554161404412235E-01 a       336     0    17     1    16
 -1.3649723088512500E-01 a       337     0    17     1    17
 -2.4902859714890452E-01 a       338     0    17     1    18
 -5.5283114133308088E-02 a       339     0    17     1    19
  1.1853176693609074E-01 a       340     0    17     1    20
 -2.7364675936414917E-01 a       341     0    18     1     1
  1.7453509534333952E-01 a       342     0    18     1     2
  6.4678164376404002E-02 a       343     0    18     1     3
  1.6493834508296693E-01 a       344     0    18     1     4
  3.7307951066311829E-01 a       345     0    18     1     5
 -2.1213072177865441E-02 a       346     0    18     1     6
  9.1889947082625975E-02 a       347     0    18     1     7
 -1.0612655557745093E-01 a       348     0    18     1     8
  6.3559146735740896E-02 a       349     0    18     1     9
  1.2257293007989200E-04 a       350     0    18     1    10
 -2.8817872174880710E-01 a       351     0    18     1    11
 -1.3267953917949105E-01 a       352     0    18     1    12
 -8.8383169025522831E-02 a       353     0    18     1    13
 -4.4080630397282439E-02 a       354     0    18     1    14
 -5.4334409217574868E-02 a       355     0    18     1    15
  5.6882005709196097E-02 a       356     0    18     1    16
  1.1124904175239581E-01 a       357     0    18     1    17
  7.1026829995290794E-02 a       358     0    18     1    18
 -2.1860874668336164E-01 a       359     0    18     1    19
  2.0585368735188489E-01 a       360     0    18     1    20
  2.0275059111538760E-01 a       361     0    19     1     1
  1.1451690237402204E-03 a       362     0    19     1     2
  1.1948553069351836E-01 a       363     0    19     1     3
 -2.1985056485034640E-01 a       364     0    19     1     4
  3.3567504992326902E-01 a       365     0    19     1     5
 -4.8420826340831925E-02 a       366     0    19     1     6
  2.3603685293970000E-02 a       367     0    19     1     7
  3.6326306261659572E-02 a       368     0    19     1     8
 -2.1237977381376069E-01 a       369     0    19     1     9
  1.1883328967020300E-01 a       370     0    19     1    10
  5.6662813373364851E-01 a       371     0    19     1    11
 -4.3231273767354350E-01 a       372     0    19     1    12
  7.9894136437690430E-02 a       373     0    19     1    13
  2.8020100006826608E-02 a       374     0    19     1    14
 -6.7149626555655456E-02 a       375     0    19     1    15
 -1.2920546351134707E-01 a       376     0    19     1    16
  5.5361812697889708E-02 a       377     0    19     1    17
 -5.8395777493517709E-02 a       378     0    19     1    18
  3.0796208477985720E-01 a       379     0    19     1    19
 -1.1634481443735954E-01 a       380     0    19     1    20
  5.3263803130238895E-02 a       381     0    20     1     1
  1.0570650914509502E-01 a       382     0    20     1     2
  1.9330711390606331E-01 a       383     0    20     1     3
 -4.2194866126119551E-01 a       384     0    20     1     4
 -8.2786654113119734E-03 a       385     0    20     1     5
  2.1716202143005522E-01 a       386     0    20     1     6
 -4.3800288531886494E-01 a       387     0    20     1     7
  2.2344118126958162E-01 a       388     0    20     1     8
 -6.5778975407147861E-02 a       389     0    20     1     9
 -4.0086828454353524E-01 a       390     0    20     1    10
  1.5437713812137729E-01 a       391     0    20     1    11
  2.9631123528409620E-01 a       392     0    20     1    12
  2.9323193290078656E-02 a       393     0    20     1    13
  4.7120506555720976E-02 a       394     0    20     1    14
  3.4699937139194847E-01 a       395     0    20     1    15
 -3.9944845757910974E-01 a       396     0    20     1    16
 -2.8871196127921411E-01 a       397     0    20     1    17
  3.7549077167267225E-01 a       398     0    20     1    18
  3.1847589167854806E-01 a       399     0    20     1    19
 -6.3688167392010464E-01 a       400     0    20     1    20
 -2.8459512589574371E-02 a       401     0    21     1     1
 -4.2374733920343785E-02 a       402     0    21     1     2
  3.3381510546529275E-01 a       403     0    21     1     3
  2.5831005492705789E-01 a       404     0    21     1     4
  1.1411270421415155E-01 a       405     0    21     1     5
  1.5737808592486688E-01 a       406     0    21     1     6
 -3.0136931431961445E-01 a       407     0    21     1     7
  3.3171591002671491E-01 a       408     0    21     1     8
  6.4165798052128131E-02 a       409     0    21     1     9
 -1.2116842959552458E-01 a       410     0    21     1    10
  3.5606670349192932E-01 a       411     0    21     1    11
 -6.7239267312345211E-02 a       412     0    21     1    12
  2.0062226447292666E-01 a       413     0    21     1    13
 -2.9818695090437653E-02 a       414     0    21     1    14
 -1.9108248155620855E-01 a       415     0    21     1    15
 -1.2133834635875887E-01 a       416     0    21     1    16
  1.3542100570012267E-01 a       417     0    21     1    17
  3.5524836223456863E-01 a       418     0    21     1    18
  1.0120502244763840E-01 a       419     0    21     1    19
  2.5558914146111789E-01 a       420     0    21     1    20
  3.5680256520936332E-01 a       421     0    22     1     1
  1.0797747870127204E-01 a       422     0    22     1     2
 -5.6258436839607844E-02 a       423     0    22     1     3
  1.4739664176237091E-01 a       424     0    22     1     4
  1.0089782337570498E-01 a       425     0    22     1     5
  1.6708010912024962E-01 a       426     0    22     1     6
  2.2977889772170459E-01 a       427     0    22     1     7
 -2.2778940618254687E-01 a       428     0    22     1     8
  8.7315996802083563E-03 a       429     0    22     1     9
 -4.6131030017762631E-01 a       430     0    22     1    10
  9.5353672348677143E-02 a       431     0    22     1    11
 -5.8489628293599194E-03 a       432     0    22     1    12
 -1.5727088074288775E-01 a       433     0    22     1    13
  6.3356062350738932E-03 a       434     0    22     1    14
 -1.2978080070472206E-01 a       435     0    22     1    15
  6.8673438014500141E-02 a       436     0    22     1    16
 -2.7024479031078796E-01 a       437     0    22     1    17
 -1.9090046580583103E-01 a       438     0    22     1    18
 -1.6299804820568764E-01 a       439     0    22     1    19
  3.3516392898982811E-02 a       440     0    22     1    20
  1.0874479196988530E-01 a       441     0    23     1     1
 -2.0345564277863229E-01 a       442     0    23     1     2
 -2.9137989693176286E-01 a       443     0    23     1     3
  2.2730615051817357E-01 a       444     0    23     1     4
 -4.3317820281690922E-01 a       445     0    23     1     5
  4.6946582041882796E-02 a       446     0    23     1     6
  2.5419894610696941E-01 a       447     0    23     1     7
 -3.0870733435208544E-02 a       448     0    23     1     8
 -7.4318759813341267E-02 a       449     0    23     1     9
  1.7927301246109120E-01 a       450     0    23     1    10
  5.3880834244435971E-01 a       451     0    23     1    11
 -1.4242528895214554E-03 a       452     0    23     1    12
  1.9235680758303200E-01 a       453     0    23     1    13
 -1.0258452561073038E-02 a       454     0    23     1    14
 -1.3935528852702378E-01 a       455     0    23     1    15
  7.9312417551239925E-02 a       456     0    23     1    16
 -2.3365946947657584E-01 a       457     0    23     1    17
 -2.4787524720306839E-01 a       458     0    23     1    18
 -1.0460237909251872E-01 a       459     0    23     1    19
  5.1675659046093614E-02 a       460     0    23     1    20
 -3.7210888021565852E-01 a       461     0    24     1     1
  2.4357387046455475E-01 a       462     0    24     1     2
  1.4647801579899780E-01 a       463     0    24     1     3
  1.0748717338691922E-01 a       464     0    24     1     4
 -2.8028871388455251E-02 a       465     0    24     1     5
  6.1801294838383147E-02 a       466     0    24     1     6
  5.1568315593685639E-02 a       467     0    24     1     7
 -1.1526500527768246E-01 a       468     0    24     1     8
  9.8636393055674551E-02 a       469     0    24     1     9
  1.8999450222626883E-02 a       470     0    24     1    10
 -5.2341562114124052E-01 a       471     0    24     1    11
 -6.2402290495353854E-02 a       472     0    24     1    12
 -6.2597969468072640E-02 a       473     0    24     1    13
  7.0357928722732652E-02 a       474     0    24     1    14
  2.8399453686813417E-02 a       475     0    24     1    15
  6.0784550625986013E-02 a       476     0    24     1    16
  4.4284470694326511E-01 a       477     0    24     1    17
 -1.1301163892042941E-01 a       478     0    24     1    18
 -1.5101929251807342E-01 a       479     0    24     1    19
 -8.3366756176971021E-02 a       480     0    24     1    20
  3.2134101523123668E-02 a       481     0    25     1     1
  2.3015907835177216E-04 a       482     0    25     1     2
  3.9042135392054034E-01 a       483     0    25     1     3
  1.0743776131514396E-01 a       484     0    25     1     4
 -1.9911987848989524E-01 a       485     0    25     1     5
  4.5054752352921973E-01 a       486     0    25     1     6
 -2.3456255198799448E-02 a       487     0    25     1     7
  4.2055786864661431E-02 a       488     0    25     1     8
  3.9149761432052371E-01 a       489     0    25     1     9
  2.0734495150095564E-01 a       490     0    25     1    10
 -3.1638034095402018E-01 a       491     0    25     1    11
 -2.2269521906598250E-01 a       492     0    25     1    12
  2.7991988613273289E-01 a       493     0    25     1    13
 -2.2674274853636336E-01 a       494     0    25     1    14
  1.9392605265944604E-01 a       495     0    25     1    15
  3.2717771079007041E-01 a       496     0    25     1    16
 -1.0192909649464259E-01 a       497     0    25     1    17
 -7.0044509502740229E-02 a       498     0    25     1    18
 -9.3459126924506503E-02 a       499     0    25     1    19
 -2.2161239464339233E-01 a       500     0    25     1    20
  1.8390285109783508E-01 a       501     0    26     1     1
  4.9352810571175194E-02 a       502     0    26     1     2
  2.7465520880505284E-01 a       503     0    26     1     3
 -9.1051480177735539E-02 a       504     0    26     1     4
  6.3596234043592312E-02 a       505     0    26     1     5
  2.1496285060995463E-01 a       506     0    26     1     6
 -7.2135840232705306E-02 a       507     0    26     1     7
  9.9608652917163518E-03 a       508     0    26     1     8
 -5.4474964707740971E-02 a       509     0    26     1     9
  1.5716065663481216E-01 a       510     0    26     1    10
 -1.0235607509414484E-01 a       511     0    26     1    11
  4.2962721800493037E-01 a       512     0    26     1    12
  1.7448883068582519E-01 a       513     0    26     1    13
 -3.1013669498251456E-01 a       514     0    26     1    14
  2.9161709576991968E-01 a       515     0    26     1    15
  9.5109202563207956E-02 a       516     0    26     1    16
  8.9074493044855776E-02 a       517     0    26     1    17
  3.2475924046089966E-01 a       518     0    26     1    18
  1.1350318033078498E-01 a       519     0    26     1    19
  1.6184641358332238E-01 a       520     0    26     1    20
  1.3837898448562430E-01 a       521     0    27     1     1
 -1.2829276561154943E-01 a       522     0    27     1     2
 -2.0636959252872664E-02 a       523     0    27     1     3
 -2.4546069557853320E-01 a       524     0    27     1     4
  1.2896082105012982E-01 a       525     0    27     1     5
  1.3819936876374042E-01 a       526     0    27     1     6
  3.7956486420397179E-01 a       527     0    27     1     7
  4.1025370911083692E-01 a       528     0    27     1     8
  5.6649997826138714E-02 a       529     0    27     1     9
  2.7216788343786252E-01 a       530     0    27     1    10
  1.4307069887397375E-01 a       531     0    27     1    11
 -3.6345130960292987E-01 a       532     0    27     1    12
  8.4968389619380233E-02 a       533     0    27     1    13
  2.8647914175303379E-01 a       534     0    27     1    14
 -2.1766583209490606E-01 a       535     0    27     1    15
  5.4943375087721402E-02 a       536     0    27     1    16
 -2.8759709397416933E-01 a       537     0    27     1    17
 -4.5775758447532161E-01 a       538     0    27     1    18
  2.2531453819363102E-02 a       539     0    27     1    19
 -1.9668943687775546E-02 a       540     0    27     1    20
  6.9082388865363065E-01 b       541     1     1
  6.9757721215059720E-01 b       542     1     2
  1.6733074531948553E+00 b       543     1     3
  3.4814942789793363E-01 b       544     1     4
 -7.5704262148708079E-01 b       545     1     5
 -2.3059497382299288E-01 b       546     1     6
 -1.2985192922507005E+00 b       547     1     7
 -1.5170660819559325E+00 b       548     1     8
  1.5320257168989410E-01 b       549     1     9
  1.0277004542886714E-01 b       550     1    10
 -8.8954614008770738E-01 b       551     1    11
 -1.0217841537067764E+00 b       552     1    12
  2.7841835034317164E-01 b       553     1    13
  3.8726372544522381E-01 b       554     1    14
 -8.6772151090209526E-01 b       555     1    15
  2.8314910492672044E-02 b       556     1    16
 -6.0195105358360701E-01 b       557     1    17
  1.1710508709587459E+00 b       558     1    18
 -3.1931395389430423E-01 b       559     1    19
  1.4600732837680110E+00 b       560     1    20
 -3.2848690722065099E-01 a       561     1     1     2     1
  4.0530164708519262E-01 a       562     1     1     2     2
 -1.3255081110182804E-01 a       563     1     1     2     3
  2.5388022754451378E-01 a       564     1     1     2     4
 -3.8683999079634102E-01 a       565     1     1     2     5
  5.5692825689886930E-03 a       566     1     1     2     6
 -6.2648728047462254E-01 a       567     1     1     2     7
  2.8879860778092853E-01 a       568     1     1     2     8
 -4.1328057634914372E-01 a       569     1     1     2     9
 -6.2356552816817033E-02 a       570     1     1     2    10
  5.5905107628971418E-01 a       571     1     1     2    11
 -1.5885057442396816E-01 a       572     1     1     2    12
  3.0462136831916403E-01 a       573     1     1     2    13
  1.4886828901230331E-01 a       574     1     1     2    14
 -3.6913054330415590E-01 a       575     1     1     2    15
  1.0970250959018581E-02 a       576     1     1     2    16
 -4.3843313674239215E-01 a       577     1     1     2    17
  1.8952258545766615E-01 a       578     1     1     2    18
  1.1142156210141353E-02 a       579     1     1     2    19
 -4.4168440708386297E-01 a       580     1     1     2    20
 -3.7503443674333709E-01 a       581     1     2     2     1
 -2.4086945425746467E-01 a       582     1     2     2     2
 -3.2542801693037188E-01 a       583     1     2     2     3
  4.2068901224526656E-01 a       584     1     2     2     4
  1.8267846156919310E-01 a       585     1     2     2     5
  4.4908539572921652E-01 a       586     1     2     2     6
 -1.1807646944947191E-02 a       587     1     2     2     7
  3.7534833439894638E-01 a       588     1     2     2     8
  4.0128191282520098E-01 a       589     1     2     2     9
 -3.3864934259806506E-01 a       590     1     2     2    10
 -4.6900414090748399E-01 a       591     1     2     2    11
 -1.8228483379985613E-01 a       592     1     2     2    12
 -4.0901006875244184E-01 a       593     1     2     2    13
 -3.9640783901144877E-01 a       594     1     2     2    14
 -4.3876661916875509E-01 a       595     1     2     2    15
 -7.0757040559967704E-02 a       596     1     2     2    16
  1.8616510222134813E-02 a       597     1     2     2    17
 -2.3755027650818719E-01 a       598     1     2     2    18
 -5.6866228512276285E-01 a       599     1     2     2    19
  4.4699101600811647E-01 a       600     1     2     2    20
 -2.5006241149566000E-01 a       601     1     3     2     1
 -7.2589408673781483E-02 a       602     1     3     2     2
  5.5149375217611063E-01 a       603     1     3     2     3
 -5.8508981151780981E-01 a       604     1     3     2     4
 -2.9165962791499744E-01 a       605     1     3     2     5
 -3.8335509985587674E-01 a       606     1     3     2     6
 -4.9723540300556163E-01 a       607     1     3     2     7
  4.6316072613261611E-01 a       608     1     3     2     8
 -9.5581799711294754E-02 a       609     1     3     2     9
  2.7747726587918248E-01 a       610     1     3     2    10
 -5.3509395041026593E-02 a       611     1     3     2    11
  2.6916576120823510E-01 a       612     1     3     2    12
  5.2728675737017139E-01 a       613     1     3     2    13
  3.1153869208620177E-01 a       614     1     3     2    14
  7.0563385952520888E-02 a       615     1     3     2    15
  5.7481869758694504E-01 a       616     1     3     2    16
 -3.6733666025104023E-01 a       617     1     3     2    17
 -3.3187530902256651E-02 a       618     1     3     2    18
 -2.3095667353351787E-01 a       619     1     3     2    19
 -6.1417304514003057E-01 a       620     1     3     2    20
  1.3742525021570844E-02 a       621     1     4     2     1
  4.3957998588933456E-01 a       622     1     4     2     2
 -4.2550810608412509E-01 a       623     1     4     2     3
  5.5009534669198346E-01 a       624     1     4     2     4
  5.1894938057079654E-01 a       625     1     4     2     5
 -4.8744567280261601E-02 a       626     1     4     2     6
 -1.4569737481181935E-01 a       627     1     4     2     7
 -5.8121316161459835E-01 a       628     1     4     2     8
  2.2558888285471360E-01 a       629     1     4     2     9
 -6.3864870626688719E-02 a       630     1     4     2    10
  3.7004970728791609E-01 a       631     1     4     2    11
 -1.6073203654951471E-01 a       632     1     4     2    12
  3.3233676472085832E-01 a       633     1     4     2    13
 -3.7815582075532578E-01 a       634     1     4     2    14
 -6.1412709885373484E-01 a       635     1     4     2    15
 -6.0612433733729676E-01 a       636     1     4     2    16
 -5.9116770382242201E-01 a       637     1     4     2    17
 -4.9400384138278519E-01 a       638     1     4     2    18
  1.8088672787438059E-01 a       639     1     4     2    19
 -2.3167232129898180E-01 a       640     1     4     2    20
  8.8062973976653549E-03 a       641     1     5     2     1
 -1.6020249701162934E-01 a       642     1     5     2     2
 -2.6830677171648859E-01 a       643     1     5     2     3
 -3.6179379062004067E-03 a       644     1     5     2     4
 -1.5056914551665557E-01 a       645     1     5     2     5
 -3.9911016017244189E-01 a       646     1     5     2     6
 -4.5573376013370609E-01 a       647     1     5     2     7
 -2.0490129894693765E-01 a       648     1     5     2     8
  4.3424675343739916E-01 a       649     1     5     2     9
  4.9352018559663102E-01 a       650     1     5     2    10
 -3.4108852694903824E-01 a       651     1     5     2    11
  2.3292035578370593E-01 a       652     1     5     2    12
 -3.1170385490103319E-01 a       653     1     5     2    13
  4.9864329077689440E-01 a       654     1     5     2    14
 -1.7694240352389756E-01 a       655     1     5     2    15
  1.6857635994100131E-01 a       656     1     5     2    16
  4.7758076496166324E-01 a       657     1     5     2    17
  9.3576357871586937E-03 a       658     1     5     2    18
  3.4874547420967204E-02 a       659     1     5     2    19
 -2.1554359242405441E-01 a       660     1     5     2    20
  4.3803071024150086E-01 a       661     1     6     2     1
  4.1766907404267861E-01 a       662     1     6     2     2
 -1.4296868146410163E-01 a       663     1     6     2     3
 -1.4076461860617943E-02 a       664     1     6     2     4
 -2.2184917653760491E-01 a       665     1     6     2     5
  6.8305077883815651E-02 a       666     1     6     2     6
  1.5705970028387864E-01 a       667     1     6     2     7
  5.4148343788788444E-01 a       668     1     6     2     8
  5.4747429469475813E-02 a       669     1     6     2     9
 -7.3332258966117808E-02 a       670     1     6     2    10
  2.5801407602131854E-01 a       671     1     6     2    11
 -6.9240453728896298E-02 a       672     1     6     2    12
 -5.8707104123706255E-01 a       673     1     6     2    13
 -2.4301202715359277E-01 a       674     1     6     2    14
  8.6654713114449888E-02 a       675     1     6     2    15
  1.6460103924935926E-01 a       676     1     6     2    16
 -1.4562567372030438E-01 a       677     1     6     2    17
  1.9193268167381508E-01 a       678     1     6     2    18
 -3.8692964822417591E-01 a       679     1     6     2    19
 -1.0908374538197421E-01 a       680     1     6     2    20
  3.6954854368871920E-01 a       681     1     7     2     1
 -4.6160129905519826E-01 a       682     1     7     2     2
  1.0459401116286979E-01 a       683     1     7     2     3
  5.4273115886640533E-01 a       684     1     7     2     4
  7.6572014548653131E-02 a       685     1     7     2     5
 -3.1779350428153746E-02 a       686     1     7     2     6
 -4.4671234501784546E-01 a       687     1     7     2     7
  2.7681586407495112E-02 a       688     1     7     2     8
  1.6651387048033114E-01 a       689     1     7     2     9
  4.2157949637822406E-01 a       690     1     7     2    10
  5.2660019285623645E-02 a       691     1     7     2    11
 -4.3838499388010177E-01 a       692     1     7     2    12
 -5.7494784175212033E-01 a       693     1     7     2    13
 -3.2055024900647494E-01 a       694     1     7     2    14
  2.5944545551916687E-01 a       695     1     7     2    15
 -1.1137189528606315E-02 a       696     1     7     2    16
  2.9425010694083670E-01 a       697     1     7     2    17
  4.4687503955076280E-01 a       698     1     7     2    18
  1.2075299936619563E-01 a       699     1     7     2    19
  6.9061923030179551E-01 a       700     1     7     2    20
  3.0732034039386075E-01 a       701     1     8     2     1
  2.3533131517537603E-01 a       702     1     8     2     2
  1.6227915504021653E-01 a       703     1     8     2     3
  5.0086024433172815E-01 a       704     1     8     2     4
  4.7094193342714363E-01 a       705     1     8     2     5
 -2.0315060076657232E-01 a       706     1     8     2     6
 -6.2103221797012456E-02 a       707     1     8     2     7
 -2.5269177028474915E-01 a       708     1     8     2     8
 -1.4154185591637303E-01 a       709     1     8     2     9
  2.3507294096001649E-01 a       710     1     8     2    10
 -4.9529115467550772E-01 a       711     1     8     2    11
  3.1286864786799506E-01 a       712     1     8     2    12
 -1.6397676475920070E-01 a       713     1     8     2    13
  2.4811082233807394E-01 a       714     1     8     2    14
 -2.0411388092738988E-01 a       715     1     8     2    15
 -1.1160223593169011E-01 a       716     1     8     2    16
 -5.1643073043763765E-01 a       717     1     8     2    17
 -6.0104418697157158E-01 a       718     1     8     2    18
 -4.3494377526687855E-01 a       719     1     8     2    19
  6.1816836865855918E-01 a       720     1     8     2    20
  2.9595353594506563E-01 a       721     1     9     2     1
 -5.8946127854742181E-01 a       722     1     9     2     2
  3.2358133945521395E-01 a       723     1     9     2     3
 -2.6884989473571391E-01 a       724     1     9     2     4
 -7.2803734736094661E-01 a       725     1     9     2     5
 -3.8143430930989708E-01 a       726     1     9     2     6
 -1.2869437288213983E-01 a       727     1     9     2     7
  3.0053387137199000E-01 a       728     1     9     2     8
 -2.5099201597060805E-01 a       729     1     9     2     9
  2.6409716332412547E-01 a       730     1     9     2    10
  2.0536212043635266E-01 a       731     1     9     2    11
  1.3256081718643226E-02 a       732     1     9     2    12
  2.6373230311393514E-01 a       733     1     9     2    13
 -1.5328509146059799E-01 a       734     1     9     2    14
 -4.3011782131623150E-01 a       735     1     9     2    15
  5.0755578951814406E-01 a       736     1     9     2    16
 -3.4984838930840945E-01 a       737     1     9     2    17
 -6.1183761580442135E-02 a       738     1     9     2    18
  6.2924586741423683E-01 a       739     1     9     2    19
 -2.8473042097521545E-01 a       740     1     9     2    20
 -9.8686045012684173E-02 a       741     1    10     2     1
 -5.1438474461433925E-01 a       742     1    10     2     2
 -3.4611872992177883E-01 a       743     1    10     2     3
  1.3057651956862551E-01 a       744     1    10     2     4
  3.7412306318991367E-01 a       745     1    10     2     5
 -3.3371902064518516E-01 a       746     1    10     2     6
  5.3610311387006893E-01 a       747     1    10     2     7
 -2.3083999246354493E-02 a       748     1    10     2     8
  1.3476164287236168E-03 a       749     1    10     2     9
 -2.6843764552341692E-01 a       750     1    10     2    10
 -1.9490737762960103E-01 a       751     1    10     2    11
  2.9919308034266512E-01 a       752     1    10     2    12
  3.1156882953227272E-01 a       753     1    10     2    13
 -9.4489763091675213E-02 a       754     1    10     2    14
 -7.9149950657642798E-02 a       755     1    10     2    15
  3.2399209093037884E-01 a       756     1    10     2    16
 -5.5449703275206430E-01 a       757     1    10     2    17
 -2.4998330572335745E-01 a       758     1    10     2    18
  3.3467101689633783E-01 a       759     1    10     2    19
  2.9316313478547351E-01 a       760     1    10     2    20
  1.0172233998831171E-01 a       761     1    11     2     1
 -4.9120340912706434E-01 a       762     1    11     2     2
 -1.3776673743299350E-01 a       763     1    11     2     3
  9.9780110665741370E-02 a       764     1    11     2     4
 -4.1793780740303106E-02 a       765     1    11     2     5
  2.2213171398010854E-02 a       766     1    11     2     6
 -1.3229930721356933E-01 a       767     1    11     2     7
 -4.0880407986700396E-01 a       768     1    11     2     8
  5.7250558280922514E-01 a       769     1    11     2     9
 -5.1659314023231129E-01 a       770     1    11     2    10
  3.5676131466992539E-01 a       771     1    11     2    11
 -5.3883071961513385E-01 a       772     1    11     2    12
 -3.2504620796543926E-01 a       773     1    11     2    13
  2.3456613021477241E-01 a       774     1    11     2    14
  3.1735288008785351E-01 a       775     1    11     2    15
  1.3321912871000560E-01 a       776     1    11     2    16
  5.2447357543293582E-01 a       777     1    11     2    17
  3.2344541380847652E-01 a       778     1    11     2    18
  4.6040477584906964E-01 a       779     1    11     2    19
  1.8842907959897875E-01 a       780     1    11     2    20
 -1.2015037327504299E-01 a       781     1    12     2     1
  8.0373748473439977E-02 a       782     1    12     2     2
  1.9540064738404436E-01 a       783     1    12     2     3
 -4.9318549572897587E-02 a       784     1    12     2     4
  5.7535170943859406E-03 a       785     1    12     2     5
 -3.4928027948097801E-01 a       786     1    12     2     6
  2.6283932853688469E-01 a       787     1    12     2     7
 -2.8852534130203084E-01 a       788     1    12     2     8
 -4.8164385868345283E-01 a       789     1    12     2     9
 -4.1484030322348153E-01 a       790     1    12     2    10
 -6.5995466825567162E-01 a       791     1    12     2    11
 -2.1110785068669291E-01 a       792     1    12     2    12
  3.0965796901893911E-01 a       793     1    12     2    13
 -1.4080484561165929E-01 a       794     1    12     2    14
  5.1172190455980848E-01 a       795     1    12     2    15
 -4.1054461907414119E-01 a       796     1    12     2    16
  1.7063125963032294E-01 a       797     1    12     2    17
  1.1376234990421588E-01 a       798     1    12     2    18
  5.3502446792273006E-01 a       799     1    12     2    19
  3.8675252146233718E-01 a       800     1    12     2    20
  4.5351267181760957E-01 a       801     1    13     2     1
  3.3584444717973150E-01 a       802     1    13     2     2
 -6.1511367574645670E-01 a       803     1    13     2     3
 -3.2826742909885809E-01 a       804     1    13     2     4
  4.3435291272602894E-01 a       805     1    13     2     5
  6.0268249972075116E-01 a       806     1    13     2     6
  2.1265551603660449E-01 a       807     1    13     2     7
 -3.2724724396507365E-01 a       808     1    13     2     8
 -3.3787493992428735E-01 a       809     1    13     2     9
  6.5707484031653940E-01 a       810     1    13     2    10
  3.4005015480238593E-01 a       811     1    13     2    11
  4.6630446089544431E-01 a       812     1    13     2    12
 -2.9011640659210203E-01 a       813     1    13     2    13
 -9.9673232403557868E-02 a       814     1    13     2    14
  5.4191456978805674E-02 a       815     1    13     2    15
 -4.5133578694602822E-01 a       816     1    13     2    16
  1.1954552093577392E-01 a       817     1    13     2    17
 -2.3934086415562122E-01 a       818     1    13     2    18
 -4.7818688460985020E-01 a       819     1    13     2    19
  5.2141542755365522E-01 a       820     1    13     2    20
  9.5574178101558133E-02 a       821     1    14     2     1
  4.0143776564770739E-01 a       822     1    14     2     2
  4.1491639033585181E-01 a       823     1    14     2     3
 -6.8805635018982336E-01 a       824     1    14     2     4
  3.8745875425266446E-01 a       825     1    14     2     5
  3.7915348272963906E-01 a       826     1    14     2     6
  5.4354094986258081E-02 a       827     1    14     2     7
 -7.7431111531867033E-02 a       828     1    14     2     8
 -1.7605173601217011E-01 a       829     1    14     2     9
  2.6270659862589590E-01 a       830     1    14     2    10
 -7.2892301011251798E-02 a       831     1    14     2    11
  4.8169585214093324E-01 a       832     1    14     2    12
  2.6218687449661082E-01 a       833     1    14     2    13
 -6.2631890673658552E-01 a       834     1    14     2    14
  2.9835990105904620E-01 a       835     1    14     2    15
  1.0206214847963048E-01 a       836     1    14     2    16
 -4.2133233328588310E-01 a       837     1    14     2    17
 -4.2569084363755422E-01 a       838     1    14     2    18
  2.1355603340653739E-01 a       839     1    14     2    19
 -4.7224738170508940E-01 a       840     1    14     2    20
 -4.6784418214386381E-01 a       841     1    15     2     1
  3.5180027335581687E-01 a       842     1    15     2     2
  3.1203487570586041E-01 a       843     1    15     2     3
 -3.4573191244532930E-01 a       844     1    15     2     4
  3.4289857094806320E-01 a       845     1    15     2     5
 -3.8978104258075680E-01 a       846     1    15     2     6
 -6.2299332179598721E-01 a       847     1    15     2     7
  4.2698424913166388E-02 a       848     1    15     2     8
 -1.7860255088967597E-01 a       849     1    15     2     9
 -3.4318765159205245E-01 a       850     1    15     2    10
 -4.6079915132170102E-01 a       851     1    15     2    11
  2.3078030260497670E-01 a       852     1    15     2    12
  6.6902265276962580E-01 a       853     1    15     2    13
 -5.4038400159043237E-02 a       854     1    15     2    14
  3.6329194562586326E-01 a       855     1    15     2    15
  3.1259596865873224E-01 a       856     1    15     2    16
 -4.6885313964417979E-01 a       857     1    15     2    17
 -2.4479530112125031E-01 a       858     1    15     2    18
 -1.5407055015381346E-01 a       859     1    15     2    19
 -6.8495174737259995E-02 a       860     1    15     2    20
 -4.0285050821059648E-01 a       861     1    16     2     1
 -3.7774999195437770E-01 a       862     1    16     2     2
  7.9202576770476640E-01 a       863     1    16     2     3
  1.1743810902270684E-01 a       864     1    16     2     4
  3.1643474938416466E-01 a       865     1    16     2     5
  4.2652149225432523E-01 a       866     1    16     2     6
  1.2768113338962667E-01 a       867     1    16     2     7
 -6.5869869693918870E-01 a       868     1    16     2     8
  5.4164748226365222E-01 a       869     1    16     2     9
  3.8270133520057037E-01 a       870     1    16     2    10
 -8.2742225905751143E-02 a       871     1    16     2    11
 -6.4630398685922308E-01 a       872     1    16     2    12
 -7.2349008217023489E-02 a       873     1    16     2    13
  5.1433240983729467E-01 a       874     1    16     2    14
  7.1369578707734560E-01 a       875     1    16     2    15
 -3.8227911150240679E-01 a       876     1    16     2    16
 -1.0252616946140020E-01 a       877     1    16     2    17
  1.6295904459717861E-01 a       878     1    16     2    18
 -1.1570239174429489E-01 a       879     1    16     2    19
 -1.2619157995433580E-01 a       880     1    16     2    20
 -5.3989580996737574E-01 a       881     1    17     2     1
 -1.7945125384410721E-01 a       882     1    17     2     2
  8.5937656121879574E-04 a       883     1    17     2     3
  2.5215481583198812E-01 a       884     1    17     2     4
 -2.3868394398089288E-01 a       885     1    17     2     5
  3.8327012981002512E-01 a       886     1    17     2     6
 -5.2358888162419759E-01 a       887     1    17     2     7
  3.8747887732166297E-01 a       888     1    17     2     8
  1.5780258507896808E-01 a       889     1    17     2     9
  2.5085529546783575E-01 a       890     1    17     2    10
 -4.0928137193560959E-01 a       891     1    17     2    11
  1.7827783198579955E-01 a       892     1    17     2    12
 -4.9850526930844385E-01 a       893     1    17     2    13
  4.8094895929636655E-01 a       894     1    17     2    14
 -6.0917536827041940E-01 a       895     1    17     2    15
  1.6365734060502155E-01 a       896     1    17     2    16
 -1.0684565574296680E-01 a       897     1    17     2    17
  1.0481439389985286E-01 a       898     1    17     2    18
  1.6894466799358471E-01 a       899     1    17     2    19
 -1.3480748663801560E-02 a       900     1    17     2    20
  3.6605994722420432E-01 a       901     1    18     2     1
  5.1039499791365073E-01 a       902     1    18     2     2
  4.9097067196352162E-01 a       903     1    18     2     3
  2.2847680382120494E-01 a       904     1    18     2     4
  9.4154882234375445E-02 a       905     1    18     2     5
  5.9352942362942140E-01 a       906     1    18     2     6
  1.9930758448417177E-01 a       907     1    18     2     7
 -2.3861449840962440E-01 a       908     1    18     2     8
 -6.3781191041105112E-01 a       909     1    18     2     9
  3.3312107485430198E-01 a       910     1    18     2    10
 -3.4535783544694076E-01 a       911     1    18     2    11
 -4.7033453576254969E-01 a       912     1    18     2    12
  2.0856882562214854E-01 a       913     1    18     2    13
  7.9645235977869724E-02 a       914     1    18     2    14
  1.2265831011275381E-01 a       915     1    18     2    15
  4.3838748948374473E-01 a       916     1    18     2    16
 -8.8379174227649585E-02 a       917     1    18     2    17
  5.0824726709262835E-01 a       918     1    18     2    18
  4.7715484379535156E-01 a       919     1    18     2    19
 -4.2474542258663783E-01 a       920     1    18     2    20
  1.7821097316638529E-01 a       921     1    19     2     1
 -5.4938144679373990E-01 a       922     1    19     2     2
  5.0905450519084094E-01 a       923     1    19     2     3
 -1.4438937094510254E-01 a       924     1    19     2     4
 -4.1711752609538372E-01 a       925     1    19     2     5
 -4.6645383310653815E-01 a       926     1    19     2     6
 -5.3155773469898093E-01 a       927     1    19     2     7
 -5.2798140520460568E-01 a       928     1    19     2     8
  5.0796181779665539E-01 a       929     1    19     2     9
  3.7815128095667055E-01 a       930     1    19     2    10
 -4.0359581551093165E-01 a       931     1    19     2    11
  1.2296490155917134E-01 a       932     1    19     2    12
 -9.2649773307887068E-02 a       933     1    19     2    13
 -3.1386032677245740E-01 a       934     1    19     2    14
 -1.6721593739538335E-01 a       935     1    19     2    15
 -4.3347005870643252E-01 a       936     1    19     2    16
  1.2919959049010865E-01 a       937     1    19     2    17
 -5.5117998473478269E-01 a       938     1    19     2    18
  4.8255236020555742E-01 a       939     1    19     2    19
 -7.2397355989925180E-02 a       940     1    19     2    20
 -2.0945354667836119E-01 a       941     1    20     2     1
  3.3294507394489059E-01 a       942     1    20     2     2
  2.9712362370500756E-01 a       943     1    20     2     3
  5.8680435603281889E-01 a       944     1    20     2     4
 -5.5931221811288045E-01 a       945     1    20     2     5
 -4.1887626223393171E-01 a       946     1    20     2     6
 -2.8038829027406897E-01 a       947     1    20     2     7
  4.7833744916163773E-01 a       948     1    20     2     8
 -6.2123142599989767E-01 a       949     1    20     2     9
 -4.9899328299842444E-01 a       950     1    20     2    10
  4.4267383467732113E-01 a       951     1    20     2    11
 -4.0314104552417918E-01 a       952     1    20     2    12
 -1.8349819787860114E-01 a       953     1    20     2    13
  4.7194847548570468E-01 a       954     1    20     2    14
  4.9104524257934468E-01 a       955     1    20     2    15
  6.1145869483289472E-01 a       956     1    20     2    16
  3.9765790714788973E-01 a       957     1    20     2    17
  3.9884939398404418E-01 a       958     1    20     2    18
  3.9783851434144590E-01 a       959     1    20     2    19
  1.6199879995409505E-01 a       960     1    20     2    20
 -3.4878414061454066E-01 b       961     2     1
  1.2136144502557913E+00 b       962     2     2
 -4.3932279316417155E-01 b       963     2     3
 -5.9502772880534616E-01 b       964     2     4
 -1.1945972889326939E+00 b       965     2     5
  1.5607650900502854E+00 b       966     2     6
  1.5933030165499524E+00 b       967     2     7
 -1.1273738054032354E+00 b       968     2     8
 -5.1490762590560790E-01 b       969     2     9
  1.5495975367844781E+00 b       970     2    10
  1.0426922424862564E+00 b       971     2    11
  5.2056268505545356E-01 b       972     2    12
 -1.8535916075656117E-01 b       973     2    13
 -1.0736535170000174E+00 b       974     2    14
 -5.9470366978868050E-01 b       975     2    15
  8.2967678175966542E-01 b       976     2    16
 -1.2592340271457487E+00 b       977     2    17
 -1.4859457121200592E+00 b       978     2    18
  1.2252783731447961E-01 b       979     2    19
 -1.1943367700397546E-01 b       980     2    20
  1.0488078145759883E-01 a       981     2     1     3     1
 -1.1243276960619091E+00 a       982     2     2     3     1
  2.8333164777978886E-01 a       983     2     3     3     1
  8.5248467803370032E-01 a       984     2     4     3     1
  1.0351216812684081E+00 a       985     2     5     3     1
 -8.5137083682129056E-01 a       986     2     6     3     1
 -2.9521761391071655E-01 a       987     2     7     3     1
 -2.8301797985327737E-01 a       988     2     8     3     1
  8.1941768734068532E-01 a       989     2     9     3     1
 -3.9591120496687826E-01 a       990     2    10     3     1
 -4.6527843937038832E-01 a       991     2    11     3     1
  4.9590033432033326E-01 a       992     2    12     3     1
 -8.4712171970584835E-04 a       993     2    13     3     1
 -5.5090150415288275E-01 a       994     2    14     3     1
 -2.1176205691902394E-01 a       995     2    15     3     1
 -1.1031997270228864E+00 a       996     2    16     3     1
 -5.9086251470547191E-02 a       997     2    17     3     1
  1.1564600432604981E+00 a       998     2    18     3     1
 -2.2857026432030808E-01 a       999     2    19     3     1
  7.0833732147507267E-01 a      1000     2    20     3     1
 -2.6430439594435107E-01 b      1001     3     1
