################################################################################
# Neural network connection values (weights and biases).
################################################################################
# Col  Name       Description
################################################################################
# 1    connection Neural network connection value.
# 2    t          Connection type (a = weight, b = bias).
# 3    index      Index enumerating weights.
# 4    l_s        Starting point layer (end point layer for biases).
# 5    n_s        Starting point neuron in starting layer (end point neuron for biases).
# 6    l_e        End point layer.
# 7    n_e        End point neuron in end layer.
################################################################################
#                      1 2         3     4     5     6     7
#             connection t     index   l_s   n_s   l_e   n_e
############################################################
 -2.4288930933697697E-01 a         1     0     1     1     1
 -2.2160594248275919E-01 a         2     0     1     1     2
 -3.6756166167838522E-01 a         3     0     1     1     3
  2.5843273053503237E-02 a         4     0     1     1     4
  3.2742086222226485E-01 a         5     0     1     1     5
 -2.1029484958069225E-01 a         6     0     1     1     6
 -1.3910146892078454E-02 a         7     0     1     1     7
  2.2970491993987091E-01 a         8     0     1     1     8
  2.5966429085104853E-01 a         9     0     1     1     9
 -1.6126720892937035E-01 a        10     0     1     1    10
 -9.3918992821337144E-02 a        11     0     1     1    11
 -2.1488537784416820E-01 a        12     0     1     1    12
 -4.6710362204843515E-02 a        13     0     1     1    13
  1.8123693949006028E-01 a        14     0     1     1    14
  8.2945300563803087E-02 a        15     0     1     1    15
  3.1605167792316197E-01 a        16     0     1     1    16
  7.3262341599050623E-02 a        17     0     1     1    17
 -3.0829441988138622E-02 a        18     0     1     1    18
 -1.6821180377655168E-01 a        19     0     1     1    19
 -2.5501064031787612E-01 a        20     0     1     1    20
  1.3346241018091520E-02 a        21     0     2     1     1
  8.3309664731496924E-02 a        22     0     2     1     2
  1.3681513997787065E-01 a        23     0     2     1     3
 -1.0815195775817277E-01 a        24     0     2     1     4
  1.0825710132102467E-01 a        25     0     2     1     5
 -5.9207483400738697E-02 a        26     0     2     1     6
  3.2420908873428406E-01 a        27     0     2     1     7
 -4.7291379996549476E-01 a        28     0     2     1     8
 -3.7747252958714686E-02 a        29     0     2     1     9
 -2.3979947890202047E-01 a        30     0     2     1    10
 -6.5263007182379235E-02 a        31     0     2     1    11
 -2.2749989209756172E-02 a        32     0     2     1    12
  3.5702976345987403E-01 a        33     0     2     1    13
 -9.3189992736205207E-02 a        34     0     2     1    14
 -1.3323545546549254E-01 a        35     0     2     1    15
  1.1014172114774240E-01 a        36     0     2     1    16
 -1.3805460752525597E-01 a        37     0     2     1    17
  3.3364316353801277E-01 a        38     0     2     1    18
 -2.0226016983345232E-01 a        39     0     2     1    19
 -3.1622779737048073E-01 a        40     0     2     1    20
 -1.9856377190700880E-01 a        41     0     3     1     1
 -3.9984502191054143E-02 a        42     0     3     1     2
  3.1880436585619489E-02 a        43     0     3     1     3
  4.9568945825031650E-02 a        44     0     3     1     4
 -2.9970150829772918E-01 a        45     0     3     1     5
  1.8952009831055366E-01 a        46     0     3     1     6
 -1.8839126755681604E-01 a        47     0     3     1     7
  1.8563744319734501E-01 a        48     0     3     1     8
 -6.4617505313646462E-02 a        49     0     3     1     9
  5.4357081344504191E-02 a        50     0     3     1    10
  1.5502789497589339E-01 a        51     0     3     1    11
 -2.2846745944353100E-01 a        52     0     3     1    12
 -2.5996692705315549E-01 a        53     0     3     1    13
 -3.4441833588171222E-01 a        54     0     3     1    14
 -9.0503615928500494E-02 a        55     0     3     1    15
  8.5483662549314193E-02 a        56     0     3     1    16
 -4.1496107807046068E-01 a        57     0     3     1    17
 -2.7208237886870079E-01 a        58     0     3     1    18
 -9.8676456194759482E-02 a        59     0     3     1    19
 -2.6947344964376857E-01 a        60     0     3     1    20
  4.2116117464795300E-01 a        61     0     4     1     1
 -1.0488019768865837E-01 a        62     0     4     1     2
  3.2035030068926817E-01 a        63     0     4     1     3
  6.9477253138279682E-01 a        64     0     4     1     4
  1.6108887414360762E-01 a        65     0     4     1     5
  2.7245802273586772E-01 a        66     0     4     1     6
 -2.8047894679615443E-01 a        67     0     4     1     7
  4.6589625114458966E-01 a        68     0     4     1     8
  4.9943228652406704E-02 a        69     0     4     1     9
 -3.5834657680502764E-02 a        70     0     4     1    10
 -1.0875844624038389E-01 a        71     0     4     1    11
  3.6777700361218962E-01 a        72     0     4     1    12
 -1.3810444054304885E-01 a        73     0     4     1    13
 -2.6044369519605554E-01 a        74     0     4     1    14
 -9.1416895837948181E-02 a        75     0     4     1    15
 -5.6238458209903053E-01 a        76     0     4     1    16
  2.7435682957282082E-01 a        77     0     4     1    17
 -4.3944410883289514E-01 a        78     0     4     1    18
  1.4056772513142293E-02 a        79     0     4     1    19
  4.1785221182329690E-01 a        80     0     4     1    20
 -3.6063486510933684E-01 a        81     0     5     1     1
 -2.3618742050944105E-01 a        82     0     5     1     2
 -1.4242371960828609E-01 a        83     0     5     1     3
 -6.8428746201181584E-02 a        84     0     5     1     4
  2.0388651095617372E-01 a        85     0     5     1     5
 -4.9815589041816188E-01 a        86     0     5     1     6
 -1.0806583741065270E-01 a        87     0     5     1     7
  2.3445126009550962E-01 a        88     0     5     1     8
  4.4225946028618884E-01 a        89     0     5     1     9
  2.7168364276355050E-01 a        90     0     5     1    10
  4.5882196613066771E-02 a        91     0     5     1    11
  2.2660178646102088E-02 a        92     0     5     1    12
 -6.9597262779800745E-02 a        93     0     5     1    13
  3.2241054505110123E-01 a        94     0     5     1    14
 -2.7463146058032867E-01 a        95     0     5     1    15
 -3.1183016549453685E-01 a        96     0     5     1    16
  1.9529579829083293E-01 a        97     0     5     1    17
 -2.1379284309956126E-01 a        98     0     5     1    18
  1.2118896996572383E-01 a        99     0     5     1    19
  2.8326036080829964E-01 a       100     0     5     1    20
  1.9162297950957297E-01 a       101     0     6     1     1
  3.2679977233771879E-01 a       102     0     6     1     2
 -1.4545476908320651E-01 a       103     0     6     1     3
 -4.9081461565392731E-01 a       104     0     6     1     4
  7.4128043417575659E-02 a       105     0     6     1     5
  1.1252876123712129E-01 a       106     0     6     1     6
  1.4302444644661441E-01 a       107     0     6     1     7
 -2.4150181865454637E-01 a       108     0     6     1     8
  8.1839136674136614E-02 a       109     0     6     1     9
  3.3642703804490587E-01 a       110     0     6     1    10
  1.6213990346094592E-01 a       111     0     6     1    11
 -2.6684109407009497E-02 a       112     0     6     1    12
 -9.6671089212069204E-03 a       113     0     6     1    13
  4.9907845685748645E-02 a       114     0     6     1    14
 -1.1831024934292822E-01 a       115     0     6     1    15
  1.0256044710069326E-01 a       116     0     6     1    16
  1.0985701516496732E-01 a       117     0     6     1    17
 -8.1335350259845493E-02 a       118     0     6     1    18
 -6.7097516155914180E-02 a       119     0     6     1    19
 -1.9292895208502628E-01 a       120     0     6     1    20
 -2.3656835225888292E-01 a       121     0     7     1     1
  3.8817744779436658E-01 a       122     0     7     1     2
 -9.7124940438140642E-02 a       123     0     7     1     3
 -4.0675651632551113E-01 a       124     0     7     1     4
  7.1545007653167944E-02 a       125     0     7     1     5
  2.0000241262410812E-01 a       126     0     7     1     6
 -3.0619205354314227E-01 a       127     0     7     1     7
  6.7109976204514296E-02 a       128     0     7     1     8
  1.9893396355743739E-01 a       129     0     7     1     9
 -5.1454777199331371E-02 a       130     0     7     1    10
  4.6638289109607434E-02 a       131     0     7     1    11
 -1.1354785467721577E-01 a       132     0     7     1    12
  4.5847425089674369E-03 a       133     0     7     1    13
 -3.8880723989096555E-01 a       134     0     7     1    14
  2.9728657458437741E-01 a       135     0     7     1    15
  1.0889573538363409E-01 a       136     0     7     1    16
  6.5744739063790511E-02 a       137     0     7     1    17
 -2.5530603296203480E-01 a       138     0     7     1    18
 -9.6870674672278778E-02 a       139     0     7     1    19
 -2.7967486115772855E-01 a       140     0     7     1    20
 -2.9388966130825012E-01 a       141     0     8     1     1
 -1.8415556898978580E-01 a       142     0     8     1     2
  1.1813488146187119E-01 a       143     0     8     1     3
  1.6327448142572001E-02 a       144     0     8     1     4
 -1.7807522856801627E-01 a       145     0     8     1     5
  3.5398261721483676E-01 a       146     0     8     1     6
  2.0165092391753545E-02 a       147     0     8     1     7
 -1.6095624841947886E-01 a       148     0     8     1     8
  1.3153457656705296E-02 a       149     0     8     1     9
 -2.4897713707722691E-01 a       150     0     8     1    10
 -4.0500617449310822E-01 a       151     0     8     1    11
 -8.0664994811471422E-02 a       152     0     8     1    12
  2.8942126158976320E-02 a       153     0     8     1    13
 -7.6143616615402407E-02 a       154     0     8     1    14
  3.7258029993766989E-01 a       155     0     8     1    15
  1.9878529068384604E-01 a       156     0     8     1    16
 -1.3568151300029063E-01 a       157     0     8     1    17
 -1.9224224316142298E-02 a       158     0     8     1    18
  1.4859682903934690E-01 a       159     0     8     1    19
  2.8773337622768652E-01 a       160     0     8     1    20
  3.4884071075258372E-01 a       161     0     9     1     1
 -4.1379660975857664E-02 a       162     0     9     1     2
 -3.6492778397251391E-01 a       163     0     9     1     3
  3.3678043283633302E-02 a       164     0     9     1     4
 -1.8029073119760017E-01 a       165     0     9     1     5
 -4.6996097638006429E-01 a       166     0     9     1     6
 -1.9242013958400744E-01 a       167     0     9     1     7
  3.1158670468528787E-01 a       168     0     9     1     8
  6.7016057492339048E-02 a       169     0     9     1     9
 -5.4520295491075600E-02 a       170     0     9     1    10
  7.8694651347474637E-02 a       171     0     9     1    11
  2.6217080032825534E-02 a       172     0     9     1    12
 -4.2295610094558289E-01 a       173     0     9     1    13
  2.6113272254088774E-02 a       174     0     9     1    14
 -2.3073699518695062E-01 a       175     0     9     1    15
  2.3384493058024794E-01 a       176     0     9     1    16
 -9.7122540645736263E-02 a       177     0     9     1    17
 -3.9246697966413890E-01 a       178     0     9     1    18
 -1.6098109510935968E-01 a       179     0     9     1    19
  2.9915371563403065E-01 a       180     0     9     1    20
  1.9224891770708294E-01 a       181     0    10     1     1
  6.5857959504399335E-02 a       182     0    10     1     2
  2.9195055064692471E-01 a       183     0    10     1     3
  2.0813717389386635E-01 a       184     0    10     1     4
 -2.6236360089418143E-01 a       185     0    10     1     5
 -3.6732458799710249E-01 a       186     0    10     1     6
  1.6539950392918001E-02 a       187     0    10     1     7
 -2.8524367806320439E-01 a       188     0    10     1     8
 -5.4858315761636389E-01 a       189     0    10     1     9
 -8.3543398806405975E-02 a       190     0    10     1    10
  4.7874565379422203E-02 a       191     0    10     1    11
 -1.2073622321566585E-01 a       192     0    10     1    12
  1.9890904228413655E-04 a       193     0    10     1    13
 -1.9806357269736705E-02 a       194     0    10     1    14
 -1.4951158811063837E-02 a       195     0    10     1    15
  4.9125848889164873E-02 a       196     0    10     1    16
 -3.6117457728444929E-01 a       197     0    10     1    17
  2.6051949547012943E-01 a       198     0    10     1    18
  4.8212122125489705E-02 a       199     0    10     1    19
  3.2790054929450368E-01 a       200     0    10     1    20
  4.2085752219850103E-01 a       201     0    11     1     1
  1.6578574698924411E-01 a       202     0    11     1     2
  3.0197921549128365E-01 a       203     0    11     1     3
  2.2804067888253510E-01 a       204     0    11     1     4
  3.1487335447937313E-03 a       205     0    11     1     5
  8.2035824104088426E-02 a       206     0    11     1     6
  3.3925774763312311E-01 a       207     0    11     1     7
 -3.6419318110104508E-02 a       208     0    11     1     8
 -2.1557221972629115E-01 a       209     0    11     1     9
 -1.7428378835068339E-01 a       210     0    11     1    10
 -1.0610969344962650E-02 a       211     0    11     1    11
 -2.7589516780824475E-01 a       212     0    11     1    12
  3.6911537575059888E-01 a       213     0    11     1    13
 -4.1839948339184246E-01 a       214     0    11     1    14
 -9.0027512447505759E-02 a       215     0    11     1    15
  1.2782045825552357E-01 a       216     0    11     1    16
  4.4231732788933199E-02 a       217     0    11     1    17
  2.4173622598466576E-01 a       218     0    11     1    18
 -1.1445988701018443E-01 a       219     0    11     1    19
 -1.7512886218438148E-01 a       220     0    11     1    20
 -1.9339802298452521E-01 a       221     0    12     1     1
 -1.3248610194234461E-01 a       222     0    12     1     2
  6.7047721010344133E-02 a       223     0    12     1     3
  1.5778426207450605E-01 a       224     0    12     1     4
 -8.9329072206390317E-02 a       225     0    12     1     5
  2.8193933136772120E-01 a       226     0    12     1     6
  6.5202060567997877E-02 a       227     0    12     1     7
 -2.3630831510051420E-01 a       228     0    12     1     8
 -9.0285582750662216E-02 a       229     0    12     1     9
 -3.5581798315256197E-01 a       230     0    12     1    10
  8.2335649152860138E-02 a       231     0    12     1    11
  2.7415929651358212E-02 a       232     0    12     1    12
 -2.4825513108103339E-01 a       233     0    12     1    13
 -2.6396151642135096E-01 a       234     0    12     1    14
  2.2436412959024124E-01 a       235     0    12     1    15
  9.5526720365313837E-03 a       236     0    12     1    16
  1.3361089000884668E-01 a       237     0    12     1    17
 -3.0281751605450874E-01 a       238     0    12     1    18
  1.6314106620055332E-02 a       239     0    12     1    19
 -3.8385421582240775E-01 a       240     0    12     1    20
  1.1020377001310365E-01 a       241     0    13     1     1
  4.2594350925346351E-02 a       242     0    13     1     2
  3.0171740239045269E-02 a       243     0    13     1     3
 -1.8755190528384508E-01 a       244     0    13     1     4
 -1.0431401787941817E-01 a       245     0    13     1     5
 -1.1155613194394796E-01 a       246     0    13     1     6
 -5.5200531723372040E-02 a       247     0    13     1     7
  2.1495234511615080E-01 a       248     0    13     1     8
 -1.1766942565058162E-01 a       249     0    13     1     9
 -2.2699655611175092E-02 a       250     0    13     1    10
 -5.4895291149168274E-02 a       251     0    13     1    11
  4.7903791702510945E-01 a       252     0    13     1    12
 -2.9043721620870383E-01 a       253     0    13     1    13
 -4.5405189535298485E-02 a       254     0    13     1    14
  1.0544978211618873E-01 a       255     0    13     1    15
 -2.5333311135737857E-01 a       256     0    13     1    16
 -4.2556089310361554E-02 a       257     0    13     1    17
 -6.2648837469270885E-02 a       258     0    13     1    18
  8.0286920531476194E-02 a       259     0    13     1    19
  1.3959782950545041E-01 a       260     0    13     1    20
 -3.2891972717463496E-03 a       261     0    14     1     1
 -5.7761025468147577E-02 a       262     0    14     1     2
 -6.9107260200750781E-02 a       263     0    14     1     3
  1.5634607592329991E-01 a       264     0    14     1     4
  5.9269415872899092E-02 a       265     0    14     1     5
 -1.5341332724043233E-01 a       266     0    14     1     6
  1.7356946265859846E-02 a       267     0    14     1     7
  1.9956518713328703E-01 a       268     0    14     1     8
  3.1077334443242090E-02 a       269     0    14     1     9
 -1.1453956726235743E-02 a       270     0    14     1    10
  1.7648803888015682E-01 a       271     0    14     1    11
 -3.0478985296273359E-01 a       272     0    14     1    12
 -9.6469850132127333E-02 a       273     0    14     1    13
 -1.1301254988437048E-01 a       274     0    14     1    14
 -2.9221610986687391E-01 a       275     0    14     1    15
 -3.5849704177922975E-01 a       276     0    14     1    16
 -1.1403926905431554E-01 a       277     0    14     1    17
 -2.2797110937141044E-02 a       278     0    14     1    18
 -2.6011866883139667E-01 a       279     0    14     1    19
  7.4799549695528947E-02 a       280     0    14     1    20
 -2.3857850268397737E-01 a       281     0    15     1     1
 -1.9307366997136718E-01 a       282     0    15     1     2
  1.1815838580261526E-01 a       283     0    15     1     3
 -1.0393258306369423E-01 a       284     0    15     1     4
 -2.3262190832243884E-01 a       285     0    15     1     5
  2.8439424256830020E-01 a       286     0    15     1     6
  2.0330112073334417E-01 a       287     0    15     1     7
 -1.9123367563737459E-01 a       288     0    15     1     8
 -2.5829696065160934E-01 a       289     0    15     1     9
 -4.9306516822316854E-01 a       290     0    15     1    10
  2.2550225112857071E-02 a       291     0    15     1    11
 -2.6789231013676307E-01 a       292     0    15     1    12
 -2.9118361842767737E-01 a       293     0    15     1    13
 -4.8764674530985308E-01 a       294     0    15     1    14
  3.3590006432742681E-01 a       295     0    15     1    15
  4.7997720418561518E-01 a       296     0    15     1    16
 -2.8695509539955344E-01 a       297     0    15     1    17
  3.0155141878038050E-01 a       298     0    15     1    18
  1.5364097517405975E-01 a       299     0    15     1    19
 -1.4539433956304984E-01 a       300     0    15     1    20
  8.1047657780203709E-04 a       301     0    16     1     1
  4.0387283468177722E-02 a       302     0    16     1     2
 -1.8569299890763193E-02 a       303     0    16     1     3
  1.3280552884329760E-01 a       304     0    16     1     4
  1.5521667127626165E-01 a       305     0    16     1     5
 -1.3682005081850820E-01 a       306     0    16     1     6
 -2.5723292301191050E-02 a       307     0    16     1     7
 -3.7286097674831251E-03 a       308     0    16     1     8
  1.0162623877773969E-01 a       309     0    16     1     9
  1.4752677800353353E-01 a       310     0    16     1    10
  1.2954587028905437E-01 a       311     0    16     1    11
 -1.7180681483104060E-02 a       312     0    16     1    12
 -1.5323209919267224E-02 a       313     0    16     1    13
  6.3010648632939634E-02 a       314     0    16     1    14
 -1.3437442095900176E-01 a       315     0    16     1    15
 -8.8307446229589664E-02 a       316     0    16     1    16
  2.3938444442929047E-01 a       317     0    16     1    17
 -1.2629818495283041E-01 a       318     0    16     1    18
 -1.0926026637014280E-01 a       319     0    16     1    19
 -3.5703231598765053E-02 a       320     0    16     1    20
 -6.9893704658861938E-02 a       321     0    17     1     1
 -9.8309211866898963E-02 a       322     0    17     1     2
 -9.3974305166936063E-03 a       323     0    17     1     3
  9.2025862676000325E-02 a       324     0    17     1     4
 -3.2986101462358863E-02 a       325     0    17     1     5
 -9.5915660213577628E-02 a       326     0    17     1     6
 -1.0210384737551356E-01 a       327     0    17     1     7
 -8.8883818355880356E-02 a       328     0    17     1     8
  8.6126936675261292E-02 a       329     0    17     1     9
 -3.0668905946806146E-01 a       330     0    17     1    10
  6.6528290045945460E-02 a       331     0    17     1    11
 -3.0205546937051947E-01 a       332     0    17     1    12
 -8.1517558087332631E-02 a       333     0    17     1    13
  2.7293459857615696E-02 a       334     0    17     1    14
  9.4424478620240421E-02 a       335     0    17     1    15
 -7.1317201405014102E-02 a       336     0    17     1    16
 -1.6093105107789463E-01 a       337     0    17     1    17
  8.0974707607882099E-02 a       338     0    17     1    18
 -3.0189111034009394E-02 a       339     0    17     1    19
  1.1059789832952982E-01 a       340     0    17     1    20
 -2.7874673628771396E-01 a       341     0    18     1     1
  3.2259820433331740E-02 a       342     0    18     1     2
 -5.9531128255901331E-02 a       343     0    18     1     3
 -2.6302095227941713E-01 a       344     0    18     1     4
 -1.3461959773541241E-01 a       345     0    18     1     5
 -1.7176706290359586E-01 a       346     0    18     1     6
 -2.1644193010088328E-01 a       347     0    18     1     7
 -1.7477913792333089E-01 a       348     0    18     1     8
 -1.4641368318752332E-01 a       349     0    18     1     9
  4.0771719940443513E-02 a       350     0    18     1    10
 -1.9922826951461453E-01 a       351     0    18     1    11
  1.1541128879525375E-01 a       352     0    18     1    12
 -1.9493891923500709E-01 a       353     0    18     1    13
 -2.6314796834630155E-02 a       354     0    18     1    14
  2.1459825699186191E-01 a       355     0    18     1    15
  1.9778504577840977E-01 a       356     0    18     1    16
 -1.7946152396172282E-01 a       357     0    18     1    17
 -1.7703491328544815E-01 a       358     0    18     1    18
  9.0625515231556791E-02 a       359     0    18     1    19
 -2.8659695319556054E-02 a       360     0    18     1    20
  1.3458792884083107E-01 a       361     0    19     1     1
 -1.4872256655683180E-01 a       362     0    19     1     2
 -2.5516315812901820E-02 a       363     0    19     1     3
 -9.0330321061799071E-02 a       364     0    19     1     4
  1.3264685463792039E-01 a       365     0    19     1     5
  7.7042788120022812E-02 a       366     0    19     1     6
  6.7161847377447431E-02 a       367     0    19     1     7
  2.7427505284370456E-02 a       368     0    19     1     8
  1.5561142962028815E-01 a       369     0    19     1     9
  1.2668076849480212E-01 a       370     0    19     1    10
 -1.6236813192996805E-01 a       371     0    19     1    11
  5.9421089908543105E-02 a       372     0    19     1    12
  1.6421348097225666E-01 a       373     0    19     1    13
 -1.3995286214590541E-01 a       374     0    19     1    14
 -1.4417978948290591E-01 a       375     0    19     1    15
  1.2043870010687352E-02 a       376     0    19     1    16
 -2.2051836444188368E-02 a       377     0    19     1    17
 -3.1681610565585827E-02 a       378     0    19     1    18
  1.5023878377415307E-02 a       379     0    19     1    19
 -2.5910182136470838E-01 a       380     0    19     1    20
  1.2467939602752948E-01 a       381     0    20     1     1
 -3.2188882445744255E-01 a       382     0    20     1     2
 -3.7332017049313682E-01 a       383     0    20     1     3
  1.0537998950772152E-01 a       384     0    20     1     4
 -2.6144094234244297E-01 a       385     0    20     1     5
  2.0947281591584446E-01 a       386     0    20     1     6
  2.6110534588114059E-01 a       387     0    20     1     7
  3.1243347744227606E-01 a       388     0    20     1     8
 -2.0046742191014763E-01 a       389     0    20     1     9
  1.6509631563759197E-01 a       390     0    20     1    10
  4.9579991071891705E-01 a       391     0    20     1    11
 -3.2882903601266156E-01 a       392     0    20     1    12
 -2.1339234688149178E-01 a       393     0    20     1    13
  4.0180365666537876E-01 a       394     0    20     1    14
  5.0098574333648289E-02 a       395     0    20     1    15
  3.1081724219342743E-01 a       396     0    20     1    16
  2.0275917789470646E-01 a       397     0    20     1    17
  5.8967981670303482E-01 a       398     0    20     1    18
  2.4671447635123037E-01 a       399     0    20     1    19
  4.0793814012323598E-01 a       400     0    20     1    20
  7.3628139845145546E-02 a       401     0    21     1     1
 -3.2686251322471116E-01 a       402     0    21     1     2
 -2.2660121953584453E-01 a       403     0    21     1     3
 -2.2957072149468089E-02 a       404     0    21     1     4
  1.7656810010115531E-01 a       405     0    21     1     5
 -8.3062172346603180E-02 a       406     0    21     1     6
 -2.9504981707612298E-02 a       407     0    21     1     7
 -3.6662420809673198E-02 a       408     0    21     1     8
 -3.2292268460253937E-01 a       409     0    21     1     9
  4.2907981808026519E-01 a       410     0    21     1    10
 -1.3483528126265790E-01 a       411     0    21     1    11
  6.4596581590849445E-01 a       412     0    21     1    12
 -4.1456243161385814E-01 a       413     0    21     1    13
 -1.4746084101039492E-01 a       414     0    21     1    14
 -1.1546414456900783E-01 a       415     0    21     1    15
  1.6418289233760520E-02 a       416     0    21     1    16
  1.9564217416337767E-01 a       417     0    21     1    17
  1.3244439522845902E-01 a       418     0    21     1    18
 -2.4221463486007653E-02 a       419     0    21     1    19
  2.4716074343962513E-01 a       420     0    21     1    20
 -5.5893038579084209E-01 a       421     0    22     1     1
  1.0928614319416795E-01 a       422     0    22     1     2
 -1.6696853323351149E-02 a       423     0    22     1     3
 -1.1124773587620870E-01 a       424     0    22     1     4
  8.6643475236465178E-02 a       425     0    22     1     5
 -8.3008779535421906E-02 a       426     0    22     1     6
 -1.6270834392735931E-01 a       427     0    22     1     7
 -1.5604825491959204E-01 a       428     0    22     1     8
  1.2117981028372658E-02 a       429     0    22     1     9
  3.8195246234494434E-01 a       430     0    22     1    10
  2.6125159506174661E-01 a       431     0    22     1    11
 -4.7013319185088753E-01 a       432     0    22     1    12
  1.7230212999736069E-01 a       433     0    22     1    13
  5.3787666252175692E-01 a       434     0    22     1    14
  1.1636532971973895E-01 a       435     0    22     1    15
 -6.1659087616963197E-02 a       436     0    22     1    16
  1.8393261459341401E-01 a       437     0    22     1    17
  2.0118995239661205E-01 a       438     0    22     1    18
  1.9244929660934235E-01 a       439     0    22     1    19
 -4.4928984071984790E-01 a       440     0    22     1    20
  2.0624058771440737E-01 a       441     0    23     1     1
 -6.8808644046012155E-02 a       442     0    23     1     2
 -1.5620535601316160E-01 a       443     0    23     1     3
  2.1635461662264080E-01 a       444     0    23     1     4
 -1.4236238329311926E-01 a       445     0    23     1     5
  1.5345643344978438E-01 a       446     0    23     1     6
  4.2832705878185179E-01 a       447     0    23     1     7
 -1.9619900363504791E-01 a       448     0    23     1     8
  2.2875282328193228E-01 a       449     0    23     1     9
 -4.9559388813104727E-01 a       450     0    23     1    10
 -2.7774815788948043E-01 a       451     0    23     1    11
 -2.5003400018124033E-01 a       452     0    23     1    12
  1.0709194900883227E-01 a       453     0    23     1    13
  4.6232354958035043E-01 a       454     0    23     1    14
 -1.8426111739313147E-02 a       455     0    23     1    15
 -1.6275768744992533E-01 a       456     0    23     1    16
 -1.3630111891207408E-01 a       457     0    23     1    17
 -7.9634359434824484E-02 a       458     0    23     1    18
 -2.0326567064430148E-01 a       459     0    23     1    19
 -4.3280980695381932E-01 a       460     0    23     1    20
  1.6121118427017925E-01 a       461     0    24     1     1
  1.3034158132390189E-01 a       462     0    24     1     2
  1.7389632607597760E-01 a       463     0    24     1     3
  1.6301376650077273E-02 a       464     0    24     1     4
  1.9884372611302525E-01 a       465     0    24     1     5
 -1.9152811676102349E-01 a       466     0    24     1     6
 -3.6132038880343657E-02 a       467     0    24     1     7
 -1.0362083537970385E-02 a       468     0    24     1     8
  3.0248802147875231E-02 a       469     0    24     1     9
  5.9952552754203532E-02 a       470     0    24     1    10
 -2.8810533416631350E-02 a       471     0    24     1    11
  1.2844725104379159E-01 a       472     0    24     1    12
  2.6842149847022428E-01 a       473     0    24     1    13
 -2.8578310559323450E-01 a       474     0    24     1    14
 -1.3644656834469790E-01 a       475     0    24     1    15
 -1.5782259890360681E-01 a       476     0    24     1    16
 -3.1743344930465406E-02 a       477     0    24     1    17
 -1.0373204412396073E-02 a       478     0    24     1    18
 -1.4769439186922292E-01 a       479     0    24     1    19
 -3.9057989886112296E-02 a       480     0    24     1    20
  1.0665728698824241E-02 a       481     0    25     1     1
  1.8135502307132556E-01 a       482     0    25     1     2
 -3.8708495976711776E-02 a       483     0    25     1     3
 -2.1248459159041916E-01 a       484     0    25     1     4
  2.4971281902858425E-01 a       485     0    25     1     5
 -7.7048557402539852E-02 a       486     0    25     1     6
 -9.3132215665824136E-02 a       487     0    25     1     7
  2.2892313760500566E-01 a       488     0    25     1     8
  3.1424760731186474E-01 a       489     0    25     1     9
  2.6241800165771134E-01 a       490     0    25     1    10
 -1.6857824671529603E-01 a       491     0    25     1    11
  7.3045279179617131E-02 a       492     0    25     1    12
  3.8404485035965175E-01 a       493     0    25     1    13
  4.5106193126489572E-02 a       494     0    25     1    14
 -1.1997960345152327E-01 a       495     0    25     1    15
  2.3964733910354730E-01 a       496     0    25     1    16
 -8.8985327413773477E-02 a       497     0    25     1    17
  7.4293703857893495E-02 a       498     0    25     1    18
  1.9120218256790965E-02 a       499     0    25     1    19
  4.1146161473780259E-02 a       500     0    25     1    20
  4.7757617353753869E-02 a       501     0    26     1     1
 -2.3607881504043948E-01 a       502     0    26     1     2
  1.8687573895475512E-01 a       503     0    26     1     3
 -2.1400873603550702E-01 a       504     0    26     1     4
 -5.6260843856412251E-02 a       505     0    26     1     5
  2.4436442786891027E-01 a       506     0    26     1     6
 -1.8278297519065304E-01 a       507     0    26     1     7
  3.5203147093377674E-01 a       508     0    26     1     8
  2.7480141723542817E-01 a       509     0    26     1     9
 -1.6983988479266995E-01 a       510     0    26     1    10
  1.7051597613898262E-01 a       511     0    26     1    11
 -1.3401992326751769E-01 a       512     0    26     1    12
 -1.6562541271390746E-01 a       513     0    26     1    13
 -1.7207875352308108E-01 a       514     0    26     1    14
 -6.8079964650825920E-04 a       515     0    26     1    15
 -2.4063996196567749E-02 a       516     0    26     1    16
 -1.3935263501677961E-01 a       517     0    26     1    17
 -7.6820785733631700E-02 a       518     0    26     1    18
  2.4569753710991549E-01 a       519     0    26     1    19
  2.1909107880292630E-01 a       520     0    26     1    20
 -2.3359443179782372E-01 a       521     0    27     1     1
 -8.9130410720694705E-02 a       522     0    27     1     2
 -4.0343703658446467E-01 a       523     0    27     1     3
  4.3953727806449010E-02 a       524     0    27     1     4
 -4.2931658588495819E-01 a       525     0    27     1     5
 -2.4603731450883981E-01 a       526     0    27     1     6
 -3.5547126717608574E-01 a       527     0    27     1     7
  1.6322338198696834E-01 a       528     0    27     1     8
  3.2035615343900342E-02 a       529     0    27     1     9
 -9.0338501641153562E-02 a       530     0    27     1    10
  1.9521869297106026E-01 a       531     0    27     1    11
 -7.0073350088311670E-02 a       532     0    27     1    12
  1.5466478569247842E-02 a       533     0    27     1    13
  4.5731671866527206E-03 a       534     0    27     1    14
  2.9780367696196471E-02 a       535     0    27     1    15
 -3.2982298596489218E-01 a       536     0    27     1    16
 -1.4985009153439166E-01 a       537     0    27     1    17
  1.4810179124531955E-01 a       538     0    27     1    18
  3.3954452994686435E-01 a       539     0    27     1    19
  1.1258696540967093E-01 a       540     0    27     1    20
  7.0229872352250022E-01 b       541     1     1
 -4.7209464606655133E-01 b       542     1     2
 -2.0676837183769367E-01 b       543     1     3
  8.3493796032916678E-01 b       544     1     4
 -7.9322095821846295E-03 b       545     1     5
 -6.4265883870566609E-01 b       546     1     6
  4.2716062986838443E-01 b       547     1     7
 -1.0705145885311504E+00 b       548     1     8
 -1.1380191571872698E+00 b       549     1     9
 -1.1410507178613503E+00 b       550     1    10
 -3.4209155977685574E-01 b       551     1    11
  7.3992056808252504E-01 b       552     1    12
 -3.8983362168571445E-01 b       553     1    13
 -3.8048596594762496E-01 b       554     1    14
 -2.5353348178882468E-01 b       555     1    15
 -9.0414515057122569E-01 b       556     1    16
 -4.7941222928083904E-01 b       557     1    17
  9.4295141722963793E-01 b       558     1    18
  2.4589559614330861E-02 b       559     1    19
  3.6763898778436038E-01 b       560     1    20
  5.2294124026796540E-01 a       561     1     1     2     1
 -2.5259169785894203E-01 a       562     1     1     2     2
 -2.1581169976330006E-01 a       563     1     1     2     3
 -2.1627633505412078E-01 a       564     1     1     2     4
 -1.9654353446552730E-01 a       565     1     1     2     5
 -1.5325020058791519E-01 a       566     1     1     2     6
  4.4868937803880038E-01 a       567     1     1     2     7
 -2.2228300282933991E-01 a       568     1     1     2     8
 -8.0867479805654369E-02 a       569     1     1     2     9
 -3.9699491343961690E-01 a       570     1     1     2    10
 -1.8043786095984704E-01 a       571     1     1     2    11
  3.1962089219166079E-01 a       572     1     1     2    12
 -2.7923902660321515E-01 a       573     1     1     2    13
 -1.2475081741043710E-01 a       574     1     1     2    14
 -1.6483601784130185E-02 a       575     1     1     2    15
  3.2472390749966640E-01 a       576     1     1     2    16
  8.2222863094951124E-03 a       577     1     1     2    17
 -2.5026193697282184E-01 a       578     1     1     2    18
 -2.0863278565907228E-01 a       579     1     1     2    19
  1.1837950708069316E-01 a       580     1     1     2    20
  3.8080849527747748E-02 a       581     1     2     2     1
 -6.8258153790277432E-01 a       582     1     2     2     2
 -3.9958251804468004E-01 a       583     1     2     2     3
 -4.4247797030105135E-01 a       584     1     2     2     4
  6.5649004458346050E-01 a       585     1     2     2     5
  1.0673105542094177E-01 a       586     1     2     2     6
 -2.6324622787694624E-01 a       587     1     2     2     7
 -3.5090693040170512E-01 a       588     1     2     2     8
 -4.0759539132631389E-01 a       589     1     2     2     9
 -4.3032370715583651E-01 a       590     1     2     2    10
  4.2951977867297408E-01 a       591     1     2     2    11
 -2.1893360444385562E-01 a       592     1     2     2    12
  4.6661239463724763E-01 a       593     1     2     2    13
 -2.8153704225838139E-01 a       594     1     2     2    14
  2.1665689205338118E-01 a       595     1     2     2    15
  4.6521737710312905E-01 a       596     1     2     2    16
 -2.2140470588182071E-02 a       597     1     2     2    17
  7.0076157678369055E-02 a       598     1     2     2    18
 -5.0515000081345840E-01 a       599     1     2     2    19
 -7.4849380728335080E-02 a       600     1     2     2    20
 -4.0521603376597576E-01 a       601     1     3     2     1
  4.4138376872719759E-01 a       602     1     3     2     2
  5.7252672414158545E-01 a       603     1     3     2     3
  5.1302574475446971E-01 a       604     1     3     2     4
  1.2299042029182400E-01 a       605     1     3     2     5
  3.8512091503902030E-01 a       606     1     3     2     6
  4.7678803385101670E-01 a       607     1     3     2     7
 -5.6501274553407421E-01 a       608     1     3     2     8
 -2.2648014388025212E-01 a       609     1     3     2     9
 -5.1833699791618826E-01 a       610     1     3     2    10
 -1.3367880989579770E-01 a       611     1     3     2    11
  3.0649653631339507E-01 a       612     1     3     2    12
  2.9907746894436876E-01 a       613     1     3     2    13
 -6.0592770200004165E-01 a       614     1     3     2    14
  5.9707818147208092E-01 a       615     1     3     2    15
 -3.1231695563667744E-01 a       616     1     3     2    16
  6.2871350014435168E-01 a       617     1     3     2    17
 -9.1802641033683643E-02 a       618     1     3     2    18
  4.4350556940497582E-01 a       619     1     3     2    19
  2.4256712067667716E-01 a       620     1     3     2    20
  1.3327054851547051E-02 a       621     1     4     2     1
 -5.2021349785014315E-01 a       622     1     4     2     2
  6.5810324243820474E-03 a       623     1     4     2     3
  5.7529719246812439E-01 a       624     1     4     2     4
  4.2158670621138200E-01 a       625     1     4     2     5
  3.7308897297896704E-01 a       626     1     4     2     6
 -8.2107807796583429E-02 a       627     1     4     2     7
 -2.6505338632393644E-01 a       628     1     4     2     8
  1.7186035219687534E-01 a       629     1     4     2     9
  5.2516970642606083E-02 a       630     1     4     2    10
 -7.2881899300018005E-01 a       631     1     4     2    11
 -1.2073829141858892E-01 a       632     1     4     2    12
  4.1123167450489589E-01 a       633     1     4     2    13
 -6.3601568843098777E-01 a       634     1     4     2    14
  5.6634743717232605E-01 a       635     1     4     2    15
 -1.5949572267758758E-01 a       636     1     4     2    16
  3.2277428535879582E-01 a       637     1     4     2    17
  6.2838708966537804E-01 a       638     1     4     2    18
 -3.8350165678251102E-01 a       639     1     4     2    19
  4.7923038409166663E-01 a       640     1     4     2    20
  3.7664041695879967E-02 a       641     1     5     2     1
  1.7462333481581827E-01 a       642     1     5     2     2
 -4.2891067815223105E-01 a       643     1     5     2     3
  5.4061747437696517E-01 a       644     1     5     2     4
 -6.4506415478403911E-01 a       645     1     5     2     5
 -5.3144056133717488E-01 a       646     1     5     2     6
 -1.7602148443733337E-01 a       647     1     5     2     7
 -1.9553373408746033E-01 a       648     1     5     2     8
  2.5924337238359052E-01 a       649     1     5     2     9
 -3.8461515098721166E-01 a       650     1     5     2    10
 -1.7340429451734163E-01 a       651     1     5     2    11
 -2.3549833441274606E-01 a       652     1     5     2    12
 -6.1511434325381975E-01 a       653     1     5     2    13
  2.1294333712861529E-02 a       654     1     5     2    14
 -1.4754289730785794E-01 a       655     1     5     2    15
  5.8343003736940721E-02 a       656     1     5     2    16
 -1.7114628031212625E-01 a       657     1     5     2    17
 -1.3018578331538602E-01 a       658     1     5     2    18
  4.6789197273645439E-01 a       659     1     5     2    19
 -8.6724389374263078E-02 a       660     1     5     2    20
  6.0972877703293971E-01 a       661     1     6     2     1
 -5.2799910631494873E-01 a       662     1     6     2     2
 -1.5539786366373554E-01 a       663     1     6     2     3
 -3.7825121288814789E-01 a       664     1     6     2     4
 -2.1291836937744354E-01 a       665     1     6     2     5
  6.5032739206177859E-01 a       666     1     6     2     6
 -4.8933519718296992E-01 a       667     1     6     2     7
  6.0714038000546833E-01 a       668     1     6     2     8
  5.3060041435632876E-01 a       669     1     6     2     9
  8.2453137811760533E-03 a       670     1     6     2    10
  2.3413034377541170E-01 a       671     1     6     2    11
  2.3205588737719279E-01 a       672     1     6     2    12
  2.8354959287336989E-01 a       673     1     6     2    13
  3.9297194757920995E-01 a       674     1     6     2    14
 -3.9240429617135086E-01 a       675     1     6     2    15
 -5.7330315869631698E-01 a       676     1     6     2    16
  7.6690211752050141E-01 a       677     1     6     2    17
 -1.4654896500069370E-01 a       678     1     6     2    18
  1.8693161598442928E-01 a       679     1     6     2    19
 -4.3725565732741001E-01 a       680     1     6     2    20
 -5.9840239269930295E-01 a       681     1     7     2     1
 -1.2548140346176594E-02 a       682     1     7     2     2
  3.2166983020301507E-02 a       683     1     7     2     3
  2.9868778917640665E-01 a       684     1     7     2     4
 -4.8483912840754251E-01 a       685     1     7     2     5
  4.5412703032064039E-01 a       686     1     7     2     6
 -2.6942133129475677E-02 a       687     1     7     2     7
  9.4624537363397182E-02 a       688     1     7     2     8
 -1.9602000393871838E-01 a       689     1     7     2     9
  4.8917554938234237E-01 a       690     1     7     2    10
  5.9314367963228432E-01 a       691     1     7     2    11
 -4.1200259899112218E-01 a       692     1     7     2    12
  1.5861627894536348E-01 a       693     1     7     2    13
 -3.5328375086657637E-01 a       694     1     7     2    14
 -4.0999362108933168E-01 a       695     1     7     2    15
  6.3050938267737533E-01 a       696     1     7     2    16
 -1.0986785844743223E-01 a       697     1     7     2    17
  2.6124543552614482E-01 a       698     1     7     2    18
 -2.6204610500289260E-01 a       699     1     7     2    19
  5.7686629962945768E-01 a       700     1     7     2    20
  4.0122658973836384E-01 a       701     1     8     2     1
 -8.4473568521364195E-01 a       702     1     8     2     2
  5.3794857975788168E-01 a       703     1     8     2     3
  4.3971648434119542E-01 a       704     1     8     2     4
 -6.0453786188810588E-02 a       705     1     8     2     5
 -5.2287582984711679E-02 a       706     1     8     2     6
 -7.0536948231482322E-02 a       707     1     8     2     7
 -1.4199417058014949E-01 a       708     1     8     2     8
 -2.9631970860705509E-01 a       709     1     8     2     9
 -3.5298794792168664E-01 a       710     1     8     2    10
 -3.6105826085947035E-01 a       711     1     8     2    11
  1.5830466396383341E-01 a       712     1     8     2    12
 -5.8620651580707639E-01 a       713     1     8     2    13
 -4.2616758810125355E-01 a       714     1     8     2    14
  4.1429231449900272E-01 a       715     1     8     2    15
  3.4955051358073463E-01 a       716     1     8     2    16
  6.7472020319336112E-01 a       717     1     8     2    17
  5.5166477065814179E-01 a       718     1     8     2    18
  2.0830099227190018E-02 a       719     1     8     2    19
  7.7289492466630383E-01 a       720     1     8     2    20
 -3.6687184079293261E-01 a       721     1     9     2     1
  1.9844932836827162E-01 a       722     1     9     2     2
 -2.8222082586779565E-02 a       723     1     9     2     3
  7.7016907042518262E-02 a       724     1     9     2     4
  4.8103885762815551E-01 a       725     1     9     2     5
  5.1313227438365761E-01 a       726     1     9     2     6
  4.0958322712668110E-01 a       727     1     9     2     7
  3.0816676389382885E-02 a       728     1     9     2     8
  2.6792204680410908E-01 a       729     1     9     2     9
  5.5041286740692985E-01 a       730     1     9     2    10
  5.1518801625198940E-01 a       731     1     9     2    11
 -1.6816183308683530E-01 a       732     1     9     2    12
 -2.0297578604815122E-01 a       733     1     9     2    13
  7.1294086372556478E-02 a       734     1     9     2    14
 -2.9511927194239518E-01 a       735     1     9     2    15
 -3.2825368382051895E-01 a       736     1     9     2    16
  5.1031015340106323E-01 a       737     1     9     2    17
 -6.7057478627390765E-01 a       738     1     9     2    18
 -2.9288986122545979E-01 a       739     1     9     2    19
 -6.9810861018882797E-01 a       740     1     9     2    20
 -3.8148346159384899E-01 a       741     1    10     2     1
  2.0308961921680208E-01 a       742     1    10     2     2
  4.9213868858806625E-01 a       743     1    10     2     3
  2.7421686138677520E-01 a       744     1    10     2     4
 -5.2478270139069616E-01 a       745     1    10     2     5
  2.4621775984942623E-01 a       746     1    10     2     6
  6.9778324147564430E-01 a       747     1    10     2     7
 -5.6239371868875332E-01 a       748     1    10     2     8
  1.9231523140345044E-01 a       749     1    10     2     9
 -5.2323139002214447E-01 a       750     1    10     2    10
  4.4189060784776064E-04 a       751     1    10     2    11
 -2.6554271455074746E-01 a       752     1    10     2    12
  8.0603011540329256E-02 a       753     1    10     2    13
  2.7634736558992806E-01 a       754     1    10     2    14
 -2.5348723362171643E-02 a       755     1    10     2    15
 -6.5732496381425920E-01 a       756     1    10     2    16
  2.9052395981158741E-01 a       757     1    10     2    17
  5.3294487931916712E-01 a       758     1    10     2    18
  5.7134718690307462E-01 a       759     1    10     2    19
  2.3305752137737207E-01 a       760     1    10     2    20
  4.9831573800180523E-01 a       761     1    11     2     1
  2.2401877640599963E-01 a       762     1    11     2     2
  4.2564808509056090E-01 a       763     1    11     2     3
  2.1398357321431238E-01 a       764     1    11     2     4
  3.3655518851736571E-01 a       765     1    11     2     5
  1.8397651942402884E-01 a       766     1    11     2     6
 -9.4683433830294525E-02 a       767     1    11     2     7
  2.9144563318067002E-01 a       768     1    11     2     8
  6.0292833121569023E-01 a       769     1    11     2     9
 -3.9966389535536617E-01 a       770     1    11     2    10
  7.4326568393720671E-01 a       771     1    11     2    11
  4.7071143914733493E-01 a       772     1    11     2    12
 -6.1440570455887833E-01 a       773     1    11     2    13
 -4.3125944293988205E-01 a       774     1    11     2    14
 -5.2307467086944603E-01 a       775     1    11     2    15
 -1.9915160192383232E-02 a       776     1    11     2    16
  4.2682484132921278E-01 a       777     1    11     2    17
 -8.2041748809833420E-02 a       778     1    11     2    18
  7.7282452729438089E-01 a       779     1    11     2    19
  5.7299849285666538E-01 a       780     1    11     2    20
  3.9180359738430995E-02 a       781     1    12     2     1
 -8.8261701230362088E-02 a       782     1    12     2     2
  4.0736167418099933E-01 a       783     1    12     2     3
 -1.7617086728504266E-01 a       784     1    12     2     4
 -1.0267287414741856E-01 a       785     1    12     2     5
  7.5772357922542652E-02 a       786     1    12     2     6
 -3.1676421475355587E-01 a       787     1    12     2     7
  3.2183163759803673E-01 a       788     1    12     2     8
  3.7727706094321145E-01 a       789     1    12     2     9
 -1.1560387006779524E-01 a       790     1    12     2    10
 -1.3223263440235722E-01 a       791     1    12     2    11
  3.4423378977825886E-01 a       792     1    12     2    12
  3.2346901154715135E-01 a       793     1    12     2    13
  2.3448144081508809E-01 a       794     1    12     2    14
  3.4774917971578861E-01 a       795     1    12     2    15
 -9.9715033704285583E-02 a       796     1    12     2    16
 -3.5042845166498438E-01 a       797     1    12     2    17
 -2.9837444470587043E-02 a       798     1    12     2    18
  6.6002567683039484E-02 a       799     1    12     2    19
 -2.1983483858970576E-01 a       800     1    12     2    20
  1.6354150513756860E-01 a       801     1    13     2     1
  4.6479441619601908E-01 a       802     1    13     2     2
  5.3140229746716638E-01 a       803     1    13     2     3
  4.0953648636610923E-01 a       804     1    13     2     4
 -5.3654299076160128E-01 a       805     1    13     2     5
  1.1891303567351025E-01 a       806     1    13     2     6
 -4.7518149802978110E-01 a       807     1    13     2     7
  1.9946221699683540E-02 a       808     1    13     2     8
 -1.1955008600186708E-01 a       809     1    13     2     9
  5.7700941980824272E-01 a       810     1    13     2    10
 -1.9963454206013187E-01 a       811     1    13     2    11
 -1.1916750945802741E-01 a       812     1    13     2    12
  6.4744628352053846E-01 a       813     1    13     2    13
  3.1293318863101510E-01 a       814     1    13     2    14
 -3.6388205979792732E-01 a       815     1    13     2    15
 -1.1637294121008673E-01 a       816     1    13     2    16
 -2.9372814718960215E-02 a       817     1    13     2    17
  2.1012493478630384E-01 a       818     1    13     2    18
 -3.2831517969660412E-01 a       819     1    13     2    19
  3.4107982309737084E-01 a       820     1    13     2    20
  2.2550229857256027E-01 a       821     1    14     2     1
 -2.3912444260085203E-01 a       822     1    14     2     2
  2.7146593620223475E-01 a       823     1    14     2     3
 -1.8954995543662209E-01 a       824     1    14     2     4
 -2.1427710617976389E-01 a       825     1    14     2     5
 -3.2371586864276292E-01 a       826     1    14     2     6
 -7.7806150212253837E-03 a       827     1    14     2     7
  6.8996840057154327E-02 a       828     1    14     2     8
 -1.1358989929836799E-01 a       829     1    14     2     9
 -9.5362718842668837E-02 a       830     1    14     2    10
 -8.6070723271023906E-03 a       831     1    14     2    11
 -9.8189103808612552E-02 a       832     1    14     2    12
 -3.3365805788847364E-01 a       833     1    14     2    13
 -2.3314496121854159E-01 a       834     1    14     2    14
 -4.0625963070981888E-03 a       835     1    14     2    15
  2.0097014228684487E-01 a       836     1    14     2    16
 -1.6178919162238331E-01 a       837     1    14     2    17
  5.4746985282938165E-01 a       838     1    14     2    18
 -3.7168368374539645E-01 a       839     1    14     2    19
 -4.5129573274716994E-01 a       840     1    14     2    20
  6.4461872745732118E-01 a       841     1    15     2     1
  8.4731513608538492E-02 a       842     1    15     2     2
  2.0474365056313970E-01 a       843     1    15     2     3
  6.3289280179078686E-02 a       844     1    15     2     4
  4.5460533867333691E-01 a       845     1    15     2     5
 -3.0239764887437914E-01 a       846     1    15     2     6
 -1.8432177410506947E-01 a       847     1    15     2     7
  3.8324768197924675E-01 a       848     1    15     2     8
  4.2852081524120583E-01 a       849     1    15     2     9
  4.9591641501461975E-01 a       850     1    15     2    10
  4.7248399340181502E-01 a       851     1    15     2    11
  3.9036452798151133E-01 a       852     1    15     2    12
  3.2401358257588275E-01 a       853     1    15     2    13
  5.1293906331887851E-01 a       854     1    15     2    14
  2.9408256294859947E-01 a       855     1    15     2    15
  3.3825542067918873E-01 a       856     1    15     2    16
  5.1964981778662922E-01 a       857     1    15     2    17
  5.4816412371672674E-02 a       858     1    15     2    18
 -1.7990081541168376E-01 a       859     1    15     2    19
  1.3236168425095078E-02 a       860     1    15     2    20
  2.2031689112667444E-01 a       861     1    16     2     1
  2.1505750663844489E-01 a       862     1    16     2     2
  4.3087262528720005E-01 a       863     1    16     2     3
  5.9246650343228680E-01 a       864     1    16     2     4
  4.6797128907952185E-01 a       865     1    16     2     5
  7.5565785581919745E-02 a       866     1    16     2     6
  3.0569584655793462E-02 a       867     1    16     2     7
 -3.2854669215939647E-01 a       868     1    16     2     8
  2.4726299939835128E-01 a       869     1    16     2     9
 -4.9166265814647975E-01 a       870     1    16     2    10
 -3.4031030053790401E-01 a       871     1    16     2    11
 -9.8778622420689199E-03 a       872     1    16     2    12
  5.5413169460425205E-01 a       873     1    16     2    13
  2.0028310985455602E-01 a       874     1    16     2    14
 -9.2592766701779100E-03 a       875     1    16     2    15
 -6.0108757735549323E-01 a       876     1    16     2    16
 -3.2427635477086802E-01 a       877     1    16     2    17
  1.6028431742683238E-01 a       878     1    16     2    18
  2.4444464123702581E-01 a       879     1    16     2    19
  9.8604718674838360E-02 a       880     1    16     2    20
  2.4662015238248652E-01 a       881     1    17     2     1
  1.7420898460146880E-01 a       882     1    17     2     2
 -4.0053396320959628E-01 a       883     1    17     2     3
 -9.4014698193304255E-02 a       884     1    17     2     4
  2.0016876089525018E-01 a       885     1    17     2     5
 -5.3888012478675062E-01 a       886     1    17     2     6
  2.6649573049157899E-01 a       887     1    17     2     7
 -3.4846193224693778E-01 a       888     1    17     2     8
 -6.1135686048755677E-01 a       889     1    17     2     9
 -3.5463545270584451E-01 a       890     1    17     2    10
  3.0086477535340472E-01 a       891     1    17     2    11
 -9.1955861283897614E-02 a       892     1    17     2    12
  8.1617979150953146E-02 a       893     1    17     2    13
 -6.8480345644601892E-01 a       894     1    17     2    14
  2.6594689746079225E-01 a       895     1    17     2    15
 -2.2580548505831341E-01 a       896     1    17     2    16
 -2.4094818896440912E-02 a       897     1    17     2    17
 -4.6530771678873978E-01 a       898     1    17     2    18
 -1.4793955290971297E-01 a       899     1    17     2    19
  2.4200909294613676E-01 a       900     1    17     2    20
 -8.0459804824757578E-02 a       901     1    18     2     1
  1.3694416168550305E-01 a       902     1    18     2     2
 -5.6597004174659515E-01 a       903     1    18     2     3
  3.3797430680127699E-01 a       904     1    18     2     4
  2.9136830523530671E-01 a       905     1    18     2     5
 -4.9732275890314631E-01 a       906     1    18     2     6
 -5.7282161540328247E-01 a       907     1    18     2     7
 -6.9685394434481351E-01 a       908     1    18     2     8
 -7.3378550150654531E-02 a       909     1    18     2     9
  5.3457519709659521E-02 a       910     1    18     2    10
 -5.3064073115543176E-01 a       911     1    18     2    11
  4.4551822768339834E-02 a       912     1    18     2    12
  1.4092475987626138E-01 a       913     1    18     2    13
  5.2380356902417678E-02 a       914     1    18     2    14
  3.1707785865723448E-01 a       915     1    18     2    15
 -4.0248624505391806E-01 a       916     1    18     2    16
  3.9748818256692592E-01 a       917     1    18     2    17
  5.2464700380695284E-01 a       918     1    18     2    18
  4.2260457451756822E-01 a       919     1    18     2    19
 -3.0882601870890858E-01 a       920     1    18     2    20
 -7.2618518503016816E-01 a       921     1    19     2     1
 -1.8484683403067603E-01 a       922     1    19     2     2
 -3.2598018426864123E-01 a       923     1    19     2     3
 -1.9117908914400206E-01 a       924     1    19     2     4
  6.3861888095554181E-02 a       925     1    19     2     5
 -3.9645063057658753E-01 a       926     1    19     2     6
  5.6667644483041446E-01 a       927     1    19     2     7
  4.3195688322590842E-01 a       928     1    19     2     8
  4.5128200655008310E-01 a       929     1    19     2     9
 -1.8380480006521033E-01 a       930     1    19     2    10
 -1.8878953378837898E-01 a       931     1    19     2    11
 -6.4890148032446804E-01 a       932     1    19     2    12
 -3.3957081900612829E-01 a       933     1    19     2    13
  3.9070638490467807E-01 a       934     1    19     2    14
 -1.0329928431750775E-01 a       935     1    19     2    15
  4.6064197059279227E-01 a       936     1    19     2    16
  3.9937270658840190E-01 a       937     1    19     2    17
  1.3509373775327813E-01 a       938     1    19     2    18
  1.9082998334971094E-01 a       939     1    19     2    19
 -3.5934813937605670E-02 a       940     1    19     2    20
 -3.4387289030374291E-01 a       941     1    20     2     1
  4.9398475970405864E-01 a       942     1    20     2     2
  2.1374530465247160E-01 a       943     1    20     2     3
  6.0185877762627904E-01 a       944     1    20     2     4
  1.6430588436029903E-01 a       945     1    20     2     5
  1.1971975291585163E-02 a       946     1    20     2     6
  4.3901586903726267E-02 a       947     1    20     2     7
 -2.1927258654069498E-01 a       948     1    20     2     8
 -1.3096281494596168E-01 a       949     1    20     2     9
  2.7936185643419242E-01 a       950     1    20     2    10
 -6.2988812375461867E-01 a       951     1    20     2    11
 -2.8333282868043946E-01 a       952     1    20     2    12
 -6.3167582077899986E-01 a       953     1    20     2    13
  2.6385002627316406E-01 a       954     1    20     2    14
 -1.6776269491223353E-01 a       955     1    20     2    15
 -4.6275059257762877E-03 a       956     1    20     2    16
 -3.9598009654069505E-01 a       957     1    20     2    17
 -1.3322019876050480E-02 a       958     1    20     2    18
 -8.6731802277552519E-02 a       959     1    20     2    19
 -4.8708127246553455E-02 a       960     1    20     2    20
  1.0120971589643477E+00 b       961     2     1
  1.2865921033731615E+00 b       962     2     2
 -4.7081162154399991E-01 b       963     2     3
 -1.3496453044812116E+00 b       964     2     4
 -1.0461658518391889E-01 b       965     2     5
  7.9748937115277485E-01 b       966     2     6
 -1.4512003332429453E+00 b       967     2     7
  8.6646184456894848E-01 b       968     2     8
  9.6670136137922880E-01 b       969     2     9
  4.5810192326722859E-01 b       970     2    10
 -1.4147318498808789E-01 b       971     2    11
  1.9432154565016967E-02 b       972     2    12
 -6.0951476382616443E-01 b       973     2    13
  1.0139138382875896E+00 b       974     2    14
 -1.9051557984806045E-01 b       975     2    15
 -1.1750331759217114E+00 b       976     2    16
  1.4702806464015310E+00 b       977     2    17
 -1.2718738569309007E+00 b       978     2    18
 -5.5803654593014639E-02 b       979     2    19
 -1.5380373897399033E+00 b       980     2    20
 -4.3808330067249163E-01 a       981     2     1     3     1
 -3.1322782038860314E-01 a       982     2     2     3     1
  1.2085615640428553E+00 a       983     2     3     3     1
  1.0180663762135180E+00 a       984     2     4     3     1
 -1.8309315791723665E-02 a       985     2     5     3     1
 -4.5560728644434118E-01 a       986     2     6     3     1
  1.0843670798073990E+00 a       987     2     7     3     1
  5.3470540713505765E-01 a       988     2     8     3     1
 -8.9259376544665725E-01 a       989     2     9     3     1
 -6.9149227131749580E-01 a       990     2    10     3     1
  1.5703168119341833E+00 a       991     2    11     3     1
  9.9573111409148096E-01 a       992     2    12     3     1
 -4.9461671693811216E-02 a       993     2    13     3     1
  3.6028611803539745E-01 a       994     2    14     3     1
 -3.8853081795684591E-01 a       995     2    15     3     1
 -4.1162987245841043E-01 a       996     2    16     3     1
  6.8281529111606246E-02 a       997     2    17     3     1
  1.1056132225409131E-01 a       998     2    18     3     1
 -3.8857568934120856E-01 a       999     2    19     3     1
  4.9399074518733777E-01 a      1000     2    20     3     1
 -4.7617509890797294E-01 b      1001     3     1
