################################################################################
# Neural network connection values (weights and biases).
################################################################################
# Col  Name       Description
################################################################################
# 1    connection Neural network connection value.
# 2    t          Connection type (a = weight, b = bias).
# 3    index      Index enumerating weights.
# 4    l_s        Starting point layer (end point layer for biases).
# 5    n_s        Starting point neuron in starting layer (end point neuron for biases).
# 6    l_e        End point layer.
# 7    n_e        End point neuron in end layer.
################################################################################
#                      1 2         3     4     5     6     7
#             connection t     index   l_s   n_s   l_e   n_e
############################################################
  3.6790483077966396E-01 a         1     0     1     1     1
  3.6123909912394825E-01 a         2     0     1     1     2
 -6.5755159760059245E-01 a         3     0     1     1     3
 -8.7885794826776317E-02 a         4     0     1     1     4
 -3.2778094284988651E-01 a         5     0     1     1     5
 -3.0544538025637874E-01 a         6     0     1     1     6
 -2.1935815630285549E-01 a         7     0     1     1     7
  3.9538520662893933E-01 a         8     0     1     1     8
 -3.1341117177112315E-01 a         9     0     1     1     9
  2.6675667299249604E-02 a        10     0     1     1    10
  1.2593700276369182E-01 a        11     0     1     1    11
  1.3483937218336739E-01 a        12     0     1     1    12
  1.7526735451191397E-01 a        13     0     1     1    13
  7.9859436786586923E-03 a        14     0     1     1    14
  1.9517365918642812E-01 a        15     0     1     1    15
  2.8771546031494311E-01 a        16     0     1     1    16
 -2.4599107125808445E-01 a        17     0     1     1    17
  7.1776776729229122E-02 a        18     0     1     1    18
  1.1288570829842787E-01 a        19     0     1     1    19
 -2.0069989511023964E-01 a        20     0     1     1    20
 -5.2965726177920600E-02 a        21     0     2     1     1
 -1.7023284503350267E-01 a        22     0     2     1     2
  3.2157217180707703E-01 a        23     0     2     1     3
 -1.6907305245105787E-02 a        24     0     2     1     4
  1.3677210124258110E-01 a        25     0     2     1     5
  1.1300198375173044E-01 a        26     0     2     1     6
  1.2227254450994797E-01 a        27     0     2     1     7
 -8.2996728263420860E-02 a        28     0     2     1     8
  6.5282100160409279E-02 a        29     0     2     1     9
 -8.6626386847944589E-02 a        30     0     2     1    10
 -3.6722596681532593E-01 a        31     0     2     1    11
  2.9202985005848975E-01 a        32     0     2     1    12
 -4.7581836367907387E-01 a        33     0     2     1    13
  3.6420837368002684E-01 a        34     0     2     1    14
 -3.2349430719336388E-02 a        35     0     2     1    15
 -2.6920023318386382E-01 a        36     0     2     1    16
  3.0626559667254200E-01 a        37     0     2     1    17
 -2.5972536015042957E-01 a        38     0     2     1    18
 -1.6691452705584467E-01 a        39     0     2     1    19
 -3.2345554871737847E-01 a        40     0     2     1    20
  2.4471543358627873E-01 a        41     0     3     1     1
 -4.0601311344934998E-01 a        42     0     3     1     2
  1.7754410481797639E-01 a        43     0     3     1     3
  2.5640289537035826E-01 a        44     0     3     1     4
  4.9030490809797857E-02 a        45     0     3     1     5
  1.5742440648473585E-01 a        46     0     3     1     6
  3.3873316792738856E-01 a        47     0     3     1     7
 -1.0391815572096516E-01 a        48     0     3     1     8
  2.0340916047718946E-01 a        49     0     3     1     9
  2.4783799146654176E-01 a        50     0     3     1    10
  1.4228914956494892E-01 a        51     0     3     1    11
 -3.1231882656947035E-01 a        52     0     3     1    12
  1.8503901161999065E-01 a        53     0     3     1    13
 -2.2746465476308930E-02 a        54     0     3     1    14
 -2.9589058359283354E-01 a        55     0     3     1    15
  1.6436027430837580E-01 a        56     0     3     1    16
 -1.4292833428061019E-02 a        57     0     3     1    17
 -9.1965181447911895E-02 a        58     0     3     1    18
  2.8623290894578046E-01 a        59     0     3     1    19
 -1.9421346043795074E-02 a        60     0     3     1    20
 -3.0507381787230037E-01 a        61     0     4     1     1
  2.3068381169279753E-01 a        62     0     4     1     2
  1.0579189749063331E-01 a        63     0     4     1     3
 -3.5158845762806791E-02 a        64     0     4     1     4
 -2.2340151326111976E-01 a        65     0     4     1     5
  3.7630908469544211E-01 a        66     0     4     1     6
 -1.5233362444404877E-01 a        67     0     4     1     7
 -6.0146084183009246E-03 a        68     0     4     1     8
 -7.1879181458987279E-02 a        69     0     4     1     9
 -1.2179216648876459E-01 a        70     0     4     1    10
 -3.0315963090809472E-01 a        71     0     4     1    11
 -4.9376803173135092E-01 a        72     0     4     1    12
  4.1772905428704771E-01 a        73     0     4     1    13
 -1.9229287490493316E-01 a        74     0     4     1    14
  8.9653540375186691E-02 a        75     0     4     1    15
 -3.5297058273807724E-01 a        76     0     4     1    16
 -2.0985548801951890E-02 a        77     0     4     1    17
 -5.6535302751020023E-03 a        78     0     4     1    18
  3.8178260439807465E-01 a        79     0     4     1    19
  3.2515368163959124E-01 a        80     0     4     1    20
  2.0104474221828056E-01 a        81     0     5     1     1
 -2.4803742949223664E-01 a        82     0     5     1     2
  1.3623413745442839E-01 a        83     0     5     1     3
 -2.5733152519025271E-01 a        84     0     5     1     4
  2.7521555231743855E-01 a        85     0     5     1     5
 -4.3863251341468186E-02 a        86     0     5     1     6
  2.6569997803676648E-01 a        87     0     5     1     7
 -1.1141137975767032E-01 a        88     0     5     1     8
  4.0039450513578417E-01 a        89     0     5     1     9
  2.8204889266767597E-01 a        90     0     5     1    10
  1.5141596121096010E-01 a        91     0     5     1    11
  2.6443540633549667E-01 a        92     0     5     1    12
 -2.6259957819676077E-02 a        93     0     5     1    13
 -3.8340886377420191E-01 a        94     0     5     1    14
  1.9159122284021596E-01 a        95     0     5     1    15
  1.2203037697416427E-01 a        96     0     5     1    16
  5.5027826272098346E-01 a        97     0     5     1    17
 -8.5715681142687156E-02 a        98     0     5     1    18
 -1.8875816204537005E-01 a        99     0     5     1    19
  1.6603678615753409E-01 a       100     0     5     1    20
 -2.8013549213227551E-01 a       101     0     6     1     1
 -1.6598810645861781E-01 a       102     0     6     1     2
  2.4204823023639971E-01 a       103     0     6     1     3
  3.9855411361833681E-01 a       104     0     6     1     4
  2.6139653742559171E-01 a       105     0     6     1     5
 -2.9818055217499329E-01 a       106     0     6     1     6
  6.9809432275560274E-02 a       107     0     6     1     7
 -2.6164206908177001E-01 a       108     0     6     1     8
  8.4595693767122240E-02 a       109     0     6     1     9
 -1.8375440980003116E-01 a       110     0     6     1    10
  2.3689989356193814E-01 a       111     0     6     1    11
  2.1584664389744110E-01 a       112     0     6     1    12
 -3.4470221591309280E-01 a       113     0     6     1    13
 -2.0065324592298669E-01 a       114     0     6     1    14
 -6.4340434809066260E-02 a       115     0     6     1    15
  3.1454129993245628E-01 a       116     0     6     1    16
 -4.7599787424975337E-01 a       117     0     6     1    17
  3.4729958978721565E-01 a       118     0     6     1    18
 -1.3640593881077254E-01 a       119     0     6     1    19
  4.3142161103209281E-01 a       120     0     6     1    20
 -2.0434371339943738E-01 a       121     0     7     1     1
  6.8672623285003939E-02 a       122     0     7     1     2
  2.9572699007313602E-02 a       123     0     7     1     3
  3.2069804087388876E-01 a       124     0     7     1     4
 -2.0374263599305104E-01 a       125     0     7     1     5
 -2.0739946596170972E-02 a       126     0     7     1     6
 -4.4786673519947784E-01 a       127     0     7     1     7
  1.7108222280271584E-01 a       128     0     7     1     8
 -5.2838994525718086E-01 a       129     0     7     1     9
 -5.2572611017817195E-01 a       130     0     7     1    10
 -3.3570787125761981E-01 a       131     0     7     1    11
  2.1132825129002462E-02 a       132     0     7     1    12
  9.4786746456060389E-02 a       133     0     7     1    13
  4.1541213615008149E-01 a       134     0     7     1    14
 -4.3838962573882735E-02 a       135     0     7     1    15
  2.7215581587027537E-01 a       136     0     7     1    16
 -7.4067962684208843E-02 a       137     0     7     1    17
 -4.0513526826576707E-01 a       138     0     7     1    18
  1.7163484047660518E-01 a       139     0     7     1    19
  5.0212746504179596E-02 a       140     0     7     1    20
 -5.1065679241097961E-01 a       141     0     8     1     1
  2.5496037905105984E-01 a       142     0     8     1     2
 -2.0411922692440906E-01 a       143     0     8     1     3
 -4.2961964763794996E-01 a       144     0     8     1     4
  1.2224277684709073E-01 a       145     0     8     1     5
  1.0487221230978830E-01 a       146     0     8     1     6
 -2.2338570012866960E-01 a       147     0     8     1     7
  2.0566967216282725E-01 a       148     0     8     1     8
 -1.6927831790553810E-01 a       149     0     8     1     9
 -1.1339358583847592E-01 a       150     0     8     1    10
  3.7573961870625627E-01 a       151     0     8     1    11
 -1.4067487723838857E-02 a       152     0     8     1    12
 -7.0441292796077229E-03 a       153     0     8     1    13
 -1.0326700427075534E-01 a       154     0     8     1    14
  2.3692684500863775E-01 a       155     0     8     1    15
 -3.2134472771104738E-01 a       156     0     8     1    16
  3.9061257446331425E-02 a       157     0     8     1    17
 -4.2230708341245371E-01 a       158     0     8     1    18
 -3.5763998924565749E-01 a       159     0     8     1    19
 -3.7561888140103089E-01 a       160     0     8     1    20
 -1.3663337119874072E-01 a       161     0     9     1     1
  4.7484742498653698E-02 a       162     0     9     1     2
  9.4802717191198288E-02 a       163     0     9     1     3
  2.2698770503777801E-01 a       164     0     9     1     4
  4.9621841465059130E-01 a       165     0     9     1     5
  2.1450922400277853E-02 a       166     0     9     1     6
  2.6282081446647626E-01 a       167     0     9     1     7
 -2.3006053542200430E-01 a       168     0     9     1     8
  2.5889242936158785E-01 a       169     0     9     1     9
 -3.9251546841155505E-02 a       170     0     9     1    10
 -4.0253962678524235E-01 a       171     0     9     1    11
  2.1165993350820975E-01 a       172     0     9     1    12
 -3.7558585302840619E-01 a       173     0     9     1    13
  1.2614948935974876E-01 a       174     0     9     1    14
 -3.5245755270186130E-01 a       175     0     9     1    15
  3.6891016832584639E-02 a       176     0     9     1    16
  1.1781506113492921E-01 a       177     0     9     1    17
 -3.3582725814467851E-01 a       178     0     9     1    18
 -5.8473903399384547E-02 a       179     0     9     1    19
 -3.9893038927023827E-01 a       180     0     9     1    20
  3.7415491820143115E-01 a       181     0    10     1     1
  3.3214519410474869E-01 a       182     0    10     1     2
  2.5310029009073165E-01 a       183     0    10     1     3
  6.6756394011357592E-02 a       184     0    10     1     4
  2.0603642358030627E-01 a       185     0    10     1     5
 -2.9381076674885065E-01 a       186     0    10     1     6
  5.4556821474677545E-04 a       187     0    10     1     7
  4.7465904761535027E-01 a       188     0    10     1     8
  1.2930578517176647E-01 a       189     0    10     1     9
  2.5880716061897235E-01 a       190     0    10     1    10
  3.9590094007996603E-02 a       191     0    10     1    11
 -1.6943118563307363E-01 a       192     0    10     1    12
  4.8050671814845336E-01 a       193     0    10     1    13
 -2.9541260375339412E-01 a       194     0    10     1    14
  2.0374719062146069E-02 a       195     0    10     1    15
  5.1543360463016365E-02 a       196     0    10     1    16
 -3.4094531364650232E-01 a       197     0    10     1    17
  4.9277111332948836E-01 a       198     0    10     1    18
  3.2325063846477625E-01 a       199     0    10     1    19
 -1.2671272677190196E-01 a       200     0    10     1    20
  6.4094315204738628E-02 a       201     0    11     1     1
 -9.5757269437688142E-02 a       202     0    11     1     2
  2.1598783971913352E-01 a       203     0    11     1     3
  9.7890097845886703E-02 a       204     0    11     1     4
  8.4003908434123198E-02 a       205     0    11     1     5
 -4.6123270243123776E-01 a       206     0    11     1     6
 -2.8025476034908392E-01 a       207     0    11     1     7
 -5.4723156096294329E-02 a       208     0    11     1     8
 -7.2350492945022674E-02 a       209     0    11     1     9
  1.5473732334667829E-02 a       210     0    11     1    10
 -2.3378270983146193E-01 a       211     0    11     1    11
 -1.6727463514036481E-01 a       212     0    11     1    12
 -2.4385186832171668E-01 a       213     0    11     1    13
 -4.9364997910943946E-02 a       214     0    11     1    14
 -2.8227351765598738E-02 a       215     0    11     1    15
 -4.0772768401830299E-02 a       216     0    11     1    16
  5.3303069304461914E-01 a       217     0    11     1    17
  3.1697966928846200E-01 a       218     0    11     1    18
  4.1844660714022536E-01 a       219     0    11     1    19
  3.8321107840895652E-01 a       220     0    11     1    20
 -6.2062303293750232E-02 a       221     0    12     1     1
 -3.0326090917807813E-01 a       222     0    12     1     2
 -1.8165664482487756E-01 a       223     0    12     1     3
 -3.6493482491187945E-02 a       224     0    12     1     4
 -2.9023520135302305E-01 a       225     0    12     1     5
  6.5255474538688088E-02 a       226     0    12     1     6
  3.8599456843760782E-01 a       227     0    12     1     7
 -3.2233386281995080E-01 a       228     0    12     1     8
  5.2021965957883076E-01 a       229     0    12     1     9
  2.0258280302224477E-01 a       230     0    12     1    10
 -2.4790723428915359E-01 a       231     0    12     1    11
 -1.4950689497125846E-01 a       232     0    12     1    12
 -1.2662113762459221E-01 a       233     0    12     1    13
  9.0636387622040959E-02 a       234     0    12     1    14
 -1.3180112136223965E-01 a       235     0    12     1    15
  2.5100655795725652E-01 a       236     0    12     1    16
  4.1164495937278961E-01 a       237     0    12     1    17
 -1.3778476631898673E-01 a       238     0    12     1    18
 -2.6049535065523023E-02 a       239     0    12     1    19
 -2.0358456915318604E-01 a       240     0    12     1    20
 -9.1542211651214192E-02 a       241     0    13     1     1
  2.1909981183557595E-01 a       242     0    13     1     2
 -3.9207144074568767E-02 a       243     0    13     1     3
  3.7882247891136045E-01 a       244     0    13     1     4
 -5.9174389976150632E-01 a       245     0    13     1     5
 -2.7716594803897127E-01 a       246     0    13     1     6
  5.2114171755313028E-02 a       247     0    13     1     7
 -1.9517523078776625E-01 a       248     0    13     1     8
  9.3510564534047283E-02 a       249     0    13     1     9
  3.0329178358500553E-01 a       250     0    13     1    10
 -3.1407247098374685E-01 a       251     0    13     1    11
 -1.6924082797115625E-01 a       252     0    13     1    12
 -1.3222054967558367E-01 a       253     0    13     1    13
  4.5463649144627788E-01 a       254     0    13     1    14
  4.2956955116287276E-03 a       255     0    13     1    15
  3.1327675271947453E-01 a       256     0    13     1    16
  2.5617130745282596E-01 a       257     0    13     1    17
 -1.0014753199665063E-01 a       258     0    13     1    18
 -6.1468493771236296E-02 a       259     0    13     1    19
 -1.6221547395451411E-01 a       260     0    13     1    20
 -4.0969022033141200E-01 a       261     0    14     1     1
 -4.6283926158654665E-01 a       262     0    14     1     2
  4.4803286615950233E-01 a       263     0    14     1     3
  1.3475098100947741E-01 a       264     0    14     1     4
 -2.8373922108197341E-01 a       265     0    14     1     5
 -9.4501837745573108E-02 a       266     0    14     1     6
 -3.5398133133080378E-01 a       267     0    14     1     7
  2.2416786831725588E-01 a       268     0    14     1     8
  1.8210652174969515E-02 a       269     0    14     1     9
 -4.2392287353465408E-01 a       270     0    14     1    10
 -1.4997707894783655E-01 a       271     0    14     1    11
 -2.7859456663018695E-01 a       272     0    14     1    12
  3.3120187993582226E-02 a       273     0    14     1    13
  1.2528077062710774E-01 a       274     0    14     1    14
  1.5105831233378879E-02 a       275     0    14     1    15
 -5.1642742396986874E-01 a       276     0    14     1    16
 -1.2765680992715606E-01 a       277     0    14     1    17
 -7.2964552881164213E-02 a       278     0    14     1    18
 -5.6557051577228512E-01 a       279     0    14     1    19
  9.1661307052412801E-03 a       280     0    14     1    20
 -9.2634349604460986E-02 a       281     0    15     1     1
  2.1769991237878139E-01 a       282     0    15     1     2
  2.5211996541215569E-02 a       283     0    15     1     3
  2.7129604740910380E-02 a       284     0    15     1     4
 -7.8360743782160056E-02 a       285     0    15     1     5
  3.3586436564993205E-01 a       286     0    15     1     6
 -4.1877273175272213E-02 a       287     0    15     1     7
  4.0187386499513766E-01 a       288     0    15     1     8
  6.9223472293147167E-02 a       289     0    15     1     9
 -4.3739780729685240E-01 a       290     0    15     1    10
 -4.1181833035070448E-01 a       291     0    15     1    11
 -2.5286852088391543E-01 a       292     0    15     1    12
  1.7383440719245100E-01 a       293     0    15     1    13
 -1.7590570598078826E-02 a       294     0    15     1    14
  1.8441427319550824E-01 a       295     0    15     1    15
  6.2358812542606161E-02 a       296     0    15     1    16
  1.5563974620984888E-02 a       297     0    15     1    17
 -1.0414993510939771E-02 a       298     0    15     1    18
  2.7728298119944139E-01 a       299     0    15     1    19
 -2.7160065510579523E-01 a       300     0    15     1    20
  2.8359987044457008E-01 a       301     0    16     1     1
 -9.7211693683707481E-02 a       302     0    16     1     2
 -1.6558078251305608E-01 a       303     0    16     1     3
 -2.5245598316439699E-01 a       304     0    16     1     4
  3.2500218640479850E-01 a       305     0    16     1     5
  3.4200515818827626E-01 a       306     0    16     1     6
 -2.5505454865357352E-01 a       307     0    16     1     7
 -2.2663168438331852E-01 a       308     0    16     1     8
  3.1724782031840143E-01 a       309     0    16     1     9
 -1.9498582493676944E-01 a       310     0    16     1    10
  2.8169957706995419E-01 a       311     0    16     1    11
 -3.9910773568499633E-02 a       312     0    16     1    12
  3.8810110094710215E-01 a       313     0    16     1    13
 -2.6307223421320375E-01 a       314     0    16     1    14
 -1.6455171989864412E-01 a       315     0    16     1    15
  9.5988648000914362E-02 a       316     0    16     1    16
 -1.7934612495410437E-01 a       317     0    16     1    17
  3.3116479782195354E-02 a       318     0    16     1    18
 -2.1634862759330428E-01 a       319     0    16     1    19
 -1.8889343661081170E-01 a       320     0    16     1    20
  5.3618164846504857E-03 a       321     0    17     1     1
 -4.9513961514483879E-01 a       322     0    17     1     2
  3.6028637688776663E-02 a       323     0    17     1     3
  7.9394544428662103E-02 a       324     0    17     1     4
 -4.5710498616766432E-01 a       325     0    17     1     5
 -7.8961559067455972E-02 a       326     0    17     1     6
  2.3684890775299214E-01 a       327     0    17     1     7
 -3.5167088614766312E-01 a       328     0    17     1     8
  3.2604947910734150E-01 a       329     0    17     1     9
  2.9191347221340744E-02 a       330     0    17     1    10
 -3.5829474930896799E-01 a       331     0    17     1    11
 -2.4825037017698398E-01 a       332     0    17     1    12
 -2.4428699876866758E-01 a       333     0    17     1    13
  9.9073584088746322E-02 a       334     0    17     1    14
  1.7262635846954960E-01 a       335     0    17     1    15
  1.6565207936652715E-01 a       336     0    17     1    16
 -1.0363274884527724E-02 a       337     0    17     1    17
  5.1785175689044183E-01 a       338     0    17     1    18
 -1.0157371914702762E-02 a       339     0    17     1    19
 -3.2673035963786817E-01 a       340     0    17     1    20
 -2.2707171219050171E-01 a       341     0    18     1     1
 -1.8619446373567758E-01 a       342     0    18     1     2
  1.1993129687864830E-01 a       343     0    18     1     3
  8.8108245127251558E-02 a       344     0    18     1     4
  2.2040267242705347E-01 a       345     0    18     1     5
 -1.9179587642597765E-01 a       346     0    18     1     6
 -3.1403245934247742E-01 a       347     0    18     1     7
 -4.0051560441227185E-01 a       348     0    18     1     8
  8.7714907357582431E-02 a       349     0    18     1     9
  4.6837743554307455E-02 a       350     0    18     1    10
 -1.5160015500926224E-01 a       351     0    18     1    11
 -1.6706542171133884E-01 a       352     0    18     1    12
  3.2553922697457376E-02 a       353     0    18     1    13
 -8.5305730833082780E-02 a       354     0    18     1    14
  5.1416806513579862E-02 a       355     0    18     1    15
 -1.7714731550190882E-03 a       356     0    18     1    16
 -1.1321839146239102E-01 a       357     0    18     1    17
  2.2526120813193459E-01 a       358     0    18     1    18
 -1.1510773006462335E-01 a       359     0    18     1    19
  7.1334102310594394E-02 a       360     0    18     1    20
  3.2393748823990565E-01 a       361     0    19     1     1
 -1.1898452041242796E-01 a       362     0    19     1     2
  1.3855683915238795E-01 a       363     0    19     1     3
  2.1631781740204283E-02 a       364     0    19     1     4
  1.2156159810959558E-01 a       365     0    19     1     5
 -4.3295514365870855E-02 a       366     0    19     1     6
  2.5937203892968480E-01 a       367     0    19     1     7
 -2.1294725239545086E-02 a       368     0    19     1     8
 -1.1985379351245688E-01 a       369     0    19     1     9
 -6.0768365329741765E-03 a       370     0    19     1    10
  2.0113383763395823E-01 a       371     0    19     1    11
  1.3768747274307030E-01 a       372     0    19     1    12
 -6.0813347259167537E-03 a       373     0    19     1    13
 -1.1369832187677124E-01 a       374     0    19     1    14
  2.5103292928881308E-02 a       375     0    19     1    15
 -4.0803976687055943E-01 a       376     0    19     1    16
  2.0061074911973276E-01 a       377     0    19     1    17
  2.9606015585046164E-01 a       378     0    19     1    18
 -1.1687704401636455E-01 a       379     0    19     1    19
  3.1331926780611502E-01 a       380     0    19     1    20
 -1.4125770575959137E-01 a       381     0    20     1     1
  2.3429237408536074E-01 a       382     0    20     1     2
  2.3079956569330992E-01 a       383     0    20     1     3
 -3.5214154315570190E-01 a       384     0    20     1     4
 -6.5014304362316380E-02 a       385     0    20     1     5
 -1.2519607149637239E-02 a       386     0    20     1     6
  1.2958398607351939E-02 a       387     0    20     1     7
  6.8711368107057991E-01 a       388     0    20     1     8
 -3.4038643491217307E-01 a       389     0    20     1     9
  4.9470435242072192E-01 a       390     0    20     1    10
  5.3784317870950804E-01 a       391     0    20     1    11
  3.3562584178130977E-01 a       392     0    20     1    12
  2.1067738143047263E-01 a       393     0    20     1    13
  1.8679965079474770E-01 a       394     0    20     1    14
 -2.2744899585938097E-01 a       395     0    20     1    15
 -4.3283838633219114E-02 a       396     0    20     1    16
 -1.0569713465153943E-01 a       397     0    20     1    17
 -2.0288433605797473E-01 a       398     0    20     1    18
  1.8466322228214951E-01 a       399     0    20     1    19
 -3.0925552269191942E-01 a       400     0    20     1    20
 -1.6815111502997920E-01 a       401     0    21     1     1
 -1.4855180933463805E-01 a       402     0    21     1     2
  8.0259335998850836E-02 a       403     0    21     1     3
  9.2951219870474680E-02 a       404     0    21     1     4
 -2.7070456021931411E-01 a       405     0    21     1     5
  1.3485350920017128E-01 a       406     0    21     1     6
 -1.7857218059041061E-01 a       407     0    21     1     7
 -5.2998620468039215E-01 a       408     0    21     1     8
 -3.1648913770412423E-01 a       409     0    21     1     9
 -1.3863644431474664E-01 a       410     0    21     1    10
 -1.3017410041846775E-01 a       411     0    21     1    11
  1.4256713586498079E-01 a       412     0    21     1    12
 -3.3442898407717081E-02 a       413     0    21     1    13
  3.1284632463412387E-01 a       414     0    21     1    14
  1.1535533714118459E-01 a       415     0    21     1    15
 -3.3114140303014761E-01 a       416     0    21     1    16
 -1.9225246897795220E-01 a       417     0    21     1    17
 -5.1652873315006986E-01 a       418     0    21     1    18
  3.3860439233183337E-01 a       419     0    21     1    19
 -3.8420152866370916E-01 a       420     0    21     1    20
  5.2826066304925229E-02 a       421     0    22     1     1
  1.1617819814376916E-01 a       422     0    22     1     2
  4.2868912074455162E-01 a       423     0    22     1     3
  5.1596944078478611E-02 a       424     0    22     1     4
 -3.3818561670523339E-01 a       425     0    22     1     5
  7.5655148094470812E-02 a       426     0    22     1     6
 -3.0558056248554077E-01 a       427     0    22     1     7
  2.0615184620930627E-01 a       428     0    22     1     8
  2.2192275628820174E-02 a       429     0    22     1     9
  1.4141979179945147E-01 a       430     0    22     1    10
  1.5710682284311506E-01 a       431     0    22     1    11
 -3.0321052914837360E-01 a       432     0    22     1    12
  1.0328742411473261E-01 a       433     0    22     1    13
 -6.9354734572136631E-02 a       434     0    22     1    14
 -1.8908535773206581E-01 a       435     0    22     1    15
  3.6532008024593216E-01 a       436     0    22     1    16
 -3.5761665066588366E-01 a       437     0    22     1    17
  3.0449439386292515E-01 a       438     0    22     1    18
 -4.4900596666036803E-02 a       439     0    22     1    19
  2.4869375403348956E-01 a       440     0    22     1    20
  1.4072043683533061E-01 a       441     0    23     1     1
  1.1825375776797087E-01 a       442     0    23     1     2
 -1.1361831073462647E-01 a       443     0    23     1     3
  1.9242496458715605E-02 a       444     0    23     1     4
  2.2492623693590130E-01 a       445     0    23     1     5
 -2.6547440674093176E-01 a       446     0    23     1     6
 -1.9543947699918962E-01 a       447     0    23     1     7
  4.0895596436563936E-01 a       448     0    23     1     8
 -1.6450704664077914E-01 a       449     0    23     1     9
  1.6861011906788542E-01 a       450     0    23     1    10
  2.8395247402724672E-01 a       451     0    23     1    11
 -2.0233543628134393E-01 a       452     0    23     1    12
  3.9774325368986069E-01 a       453     0    23     1    13
 -3.9587424217966405E-03 a       454     0    23     1    14
  4.0878260189651593E-02 a       455     0    23     1    15
  1.1009562508973814E-01 a       456     0    23     1    16
  6.3285115125296762E-02 a       457     0    23     1    17
  3.1341401935764797E-02 a       458     0    23     1    18
  2.0970759429142688E-01 a       459     0    23     1    19
  4.5851273386558278E-01 a       460     0    23     1    20
  4.0656587636018687E-01 a       461     0    24     1     1
 -9.6987065777914161E-02 a       462     0    24     1     2
 -1.6227931525221287E-01 a       463     0    24     1     3
  6.7164660643209218E-04 a       464     0    24     1     4
  4.2020085294752303E-03 a       465     0    24     1     5
  2.4492788466589982E-04 a       466     0    24     1     6
  2.3162836703697348E-01 a       467     0    24     1     7
 -3.1108453092058203E-01 a       468     0    24     1     8
  2.3992869672404875E-02 a       469     0    24     1     9
 -8.9633150444427545E-02 a       470     0    24     1    10
  7.3480573855271101E-03 a       471     0    24     1    11
  1.5271325634575059E-01 a       472     0    24     1    12
 -1.6885703898455803E-01 a       473     0    24     1    13
  7.5648877923176925E-03 a       474     0    24     1    14
 -1.1664922925123439E-01 a       475     0    24     1    15
  2.2215068540471158E-01 a       476     0    24     1    16
  3.3188594814001765E-01 a       477     0    24     1    17
  1.7544907993596880E-02 a       478     0    24     1    18
  4.6345333890712458E-02 a       479     0    24     1    19
 -2.3865573034549037E-01 a       480     0    24     1    20
  3.8532555650541145E-01 a       481     0    25     1     1
  1.3288623464539775E-01 a       482     0    25     1     2
 -1.5957899093292599E-01 a       483     0    25     1     3
 -9.0057732604617483E-02 a       484     0    25     1     4
  1.6558229931097604E-01 a       485     0    25     1     5
  9.7088581337840207E-04 a       486     0    25     1     6
 -2.8876881713912325E-02 a       487     0    25     1     7
  1.1726867142375176E-01 a       488     0    25     1     8
 -4.7518710710056544E-01 a       489     0    25     1     9
  4.3323302541259517E-01 a       490     0    25     1    10
  2.8579888871427089E-01 a       491     0    25     1    11
  1.2313319034502349E-01 a       492     0    25     1    12
 -3.5380521717231844E-01 a       493     0    25     1    13
 -1.7721353111919663E-01 a       494     0    25     1    14
  2.2604102153304320E-01 a       495     0    25     1    15
 -1.6396405595204880E-01 a       496     0    25     1    16
  2.6371346977329489E-02 a       497     0    25     1    17
  1.9328714227864957E-01 a       498     0    25     1    18
 -2.8967894995584938E-02 a       499     0    25     1    19
  4.4059516591779152E-01 a       500     0    25     1    20
 -1.1570002863581430E-01 a       501     0    26     1     1
  2.6139801376972267E-02 a       502     0    26     1     2
 -1.8347640908431406E-01 a       503     0    26     1     3
  2.7704006130220161E-02 a       504     0    26     1     4
 -2.1786301225748705E-01 a       505     0    26     1     5
 -3.3225159368728896E-01 a       506     0    26     1     6
  4.1091918019809673E-02 a       507     0    26     1     7
  9.8958357304341701E-02 a       508     0    26     1     8
  4.7379057243567319E-01 a       509     0    26     1     9
  1.3368760888217793E-01 a       510     0    26     1    10
 -2.5991767952147626E-01 a       511     0    26     1    11
 -1.6699382913716795E-02 a       512     0    26     1    12
  3.1390468090586138E-01 a       513     0    26     1    13
 -3.8593439430711765E-02 a       514     0    26     1    14
  6.8186944397236535E-02 a       515     0    26     1    15
 -9.1389755235378359E-02 a       516     0    26     1    16
 -9.5479322821577214E-02 a       517     0    26     1    17
 -2.6719205161970599E-01 a       518     0    26     1    18
 -3.7401257903155377E-01 a       519     0    26     1    19
 -3.4147346056379380E-01 a       520     0    26     1    20
  2.4626410779252639E-02 a       521     0    27     1     1
 -2.5508715148508498E-01 a       522     0    27     1     2
 -2.9808961164132269E-01 a       523     0    27     1     3
 -9.8830581199850720E-02 a       524     0    27     1     4
  4.3764627898481734E-02 a       525     0    27     1     5
  3.6498776000535071E-01 a       526     0    27     1     6
  2.5989352550195727E-01 a       527     0    27     1     7
  1.5314478795841566E-03 a       528     0    27     1     8
 -1.1425137965096105E-01 a       529     0    27     1     9
 -1.6043585268421731E-01 a       530     0    27     1    10
 -1.6816027617360854E-01 a       531     0    27     1    11
 -3.0904498285459811E-02 a       532     0    27     1    12
 -4.9696594048143744E-01 a       533     0    27     1    13
 -4.0020839920404239E-01 a       534     0    27     1    14
 -2.5695274058762896E-01 a       535     0    27     1    15
  1.9315633214088887E-01 a       536     0    27     1    16
 -1.4259602320798839E-01 a       537     0    27     1    17
 -2.4408070220405942E-01 a       538     0    27     1    18
  3.4699696463943575E-01 a       539     0    27     1    19
  4.1772855193920372E-01 a       540     0    27     1    20
  1.4321367295075833E+00 b       541     1     1
  3.3901970788358840E-02 b       542     1     2
  1.0585968601486393E+00 b       543     1     3
  1.6702412781330964E-01 b       544     1     4
  3.4173191072617370E-01 b       545     1     5
 -4.9718390776566412E-01 b       546     1     6
  9.3629919188542021E-02 b       547     1     7
  1.1926271115918454E+00 b       548     1     8
  1.4294076763886514E+00 b       549     1     9
  7.2075512495688832E-01 b       550     1    10
 -1.2459938194262770E+00 b       551     1    11
 -2.7661711041638593E-01 b       552     1    12
  1.4121506308150205E+00 b       553     1    13
  5.2724627795967849E-01 b       554     1    14
  1.7901093699897574E+00 b       555     1    15
  1.0783625066167963E+00 b       556     1    16
 -1.5094322225618357E+00 b       557     1    17
 -1.4020487943154121E+00 b       558     1    18
  5.6688624658275355E-01 b       559     1    19
  1.1931961428229185E+00 b       560     1    20
 -5.3109448256147562E-01 a       561     1     1     2     1
  2.8619296447365877E-01 a       562     1     1     2     2
  3.1220706375420398E-01 a       563     1     1     2     3
  5.7747083441422187E-01 a       564     1     1     2     4
 -5.2475245161780903E-01 a       565     1     1     2     5
 -4.2221592784008488E-01 a       566     1     1     2     6
 -3.1682927416155604E-01 a       567     1     1     2     7
  2.4070059388111159E-01 a       568     1     1     2     8
  4.0276387509077627E-01 a       569     1     1     2     9
  5.0223983085407686E-01 a       570     1     1     2    10
 -5.8836335128608763E-01 a       571     1     1     2    11
 -1.6840687679032129E-01 a       572     1     1     2    12
  6.7166135515294478E-01 a       573     1     1     2    13
  3.5876483257944330E-01 a       574     1     1     2    14
 -2.1872809660195924E-01 a       575     1     1     2    15
 -6.9487453604623703E-02 a       576     1     1     2    16
  1.7628546917778729E-01 a       577     1     1     2    17
 -1.7913861378105475E-01 a       578     1     1     2    18
  2.4780849216882878E-01 a       579     1     1     2    19
  5.7439967496594413E-01 a       580     1     1     2    20
 -3.9512064323602109E-01 a       581     1     2     2     1
 -1.3369046403574053E-01 a       582     1     2     2     2
  3.9270723933625212E-01 a       583     1     2     2     3
  5.1717412799083751E-01 a       584     1     2     2     4
 -4.2057062296181696E-01 a       585     1     2     2     5
  4.0375317331379244E-02 a       586     1     2     2     6
 -4.4151717875970953E-01 a       587     1     2     2     7
  6.9586784508967958E-01 a       588     1     2     2     8
  5.4305072820889914E-02 a       589     1     2     2     9
 -5.1072593044372372E-01 a       590     1     2     2    10
  4.3481994545210167E-01 a       591     1     2     2    11
  1.7476331909416393E-01 a       592     1     2     2    12
  2.1490788901564870E-01 a       593     1     2     2    13
 -5.1297354828491137E-01 a       594     1     2     2    14
  2.5122417895361521E-01 a       595     1     2     2    15
 -6.0193265528159745E-01 a       596     1     2     2    16
  3.7093420155777307E-01 a       597     1     2     2    17
  5.1825663211246453E-01 a       598     1     2     2    18
  2.3401615827172190E-01 a       599     1     2     2    19
  4.9277227995487602E-02 a       600     1     2     2    20
 -2.0517323673284205E-01 a       601     1     3     2     1
  2.1805823085063633E-01 a       602     1     3     2     2
 -3.6563565001533349E-01 a       603     1     3     2     3
  5.3547800937155908E-02 a       604     1     3     2     4
 -3.2336056612002007E-01 a       605     1     3     2     5
 -2.2168677178347401E-01 a       606     1     3     2     6
  3.0555886024201095E-01 a       607     1     3     2     7
  2.3829748989307009E-01 a       608     1     3     2     8
  6.6632703128071402E-01 a       609     1     3     2     9
  1.4690130453885322E-01 a       610     1     3     2    10
 -5.0990386467923765E-01 a       611     1     3     2    11
 -2.7054209338950874E-02 a       612     1     3     2    12
  3.2301498026483466E-01 a       613     1     3     2    13
 -1.6382350684737378E-02 a       614     1     3     2    14
 -1.7847476774378129E-01 a       615     1     3     2    15
 -2.3932967847877498E-01 a       616     1     3     2    16
 -4.6638614010880464E-01 a       617     1     3     2    17
 -3.6756550801059723E-01 a       618     1     3     2    18
  7.2741845680221251E-01 a       619     1     3     2    19
 -2.5358499009330659E-01 a       620     1     3     2    20
  2.3334769586089940E-01 a       621     1     4     2     1
  2.7326906162085746E-01 a       622     1     4     2     2
 -2.6386169266001630E-01 a       623     1     4     2     3
 -6.4911483008130266E-01 a       624     1     4     2     4
  5.0314228257121052E-01 a       625     1     4     2     5
  4.6823550930983920E-01 a       626     1     4     2     6
  6.5227769427539761E-01 a       627     1     4     2     7
 -3.9421487018147511E-01 a       628     1     4     2     8
 -6.8746521007544428E-02 a       629     1     4     2     9
  8.1826709423738153E-02 a       630     1     4     2    10
  5.0039738117644256E-02 a       631     1     4     2    11
  3.1481435170305566E-01 a       632     1     4     2    12
 -2.6876417169343053E-01 a       633     1     4     2    13
 -5.4794725952359857E-01 a       634     1     4     2    14
 -1.7427761471177322E-01 a       635     1     4     2    15
 -4.5162803430263493E-01 a       636     1     4     2    16
  4.7656186564174136E-01 a       637     1     4     2    17
 -2.6214693948769752E-01 a       638     1     4     2    18
  5.8488451585358314E-01 a       639     1     4     2    19
 -3.3765688523750964E-01 a       640     1     4     2    20
 -1.7125235501729813E-01 a       641     1     5     2     1
  5.1843619035990740E-01 a       642     1     5     2     2
  2.1775466156362308E-01 a       643     1     5     2     3
  1.4763029357579531E-02 a       644     1     5     2     4
  1.0947761917542315E-01 a       645     1     5     2     5
 -3.4876284866496227E-01 a       646     1     5     2     6
 -2.3181547182288040E-01 a       647     1     5     2     7
 -4.1152354781976846E-01 a       648     1     5     2     8
  6.7561073004159011E-01 a       649     1     5     2     9
 -1.5160962651815124E-01 a       650     1     5     2    10
  2.8507854571258845E-01 a       651     1     5     2    11
  3.2462551962680070E-01 a       652     1     5     2    12
  4.0097915534970996E-01 a       653     1     5     2    13
  3.4250105186379037E-01 a       654     1     5     2    14
 -5.6010016717542022E-01 a       655     1     5     2    15
  3.6559181425206133E-01 a       656     1     5     2    16
 -9.6094216722668338E-02 a       657     1     5     2    17
  3.3745448722712729E-01 a       658     1     5     2    18
 -7.6784390671757341E-01 a       659     1     5     2    19
 -2.9558964385278269E-01 a       660     1     5     2    20
 -1.8608262610481696E-01 a       661     1     6     2     1
 -4.6668685151434763E-01 a       662     1     6     2     2
  3.4381088597243015E-01 a       663     1     6     2     3
 -4.8219525986014550E-01 a       664     1     6     2     4
  4.4438953551027971E-01 a       665     1     6     2     5
  6.3104544112994287E-01 a       666     1     6     2     6
 -1.2933164705411770E-01 a       667     1     6     2     7
 -3.7398779901313622E-01 a       668     1     6     2     8
  6.0480856407958017E-01 a       669     1     6     2     9
 -4.7594292169735347E-01 a       670     1     6     2    10
  3.8330053990766350E-01 a       671     1     6     2    11
 -4.5215934386657365E-02 a       672     1     6     2    12
 -4.2884209270471857E-01 a       673     1     6     2    13
 -2.0547463871516655E-01 a       674     1     6     2    14
  1.1520891894760221E-01 a       675     1     6     2    15
  4.2805504270458999E-01 a       676     1     6     2    16
 -8.6047939720665413E-03 a       677     1     6     2    17
 -9.0982112505914384E-03 a       678     1     6     2    18
 -1.5329153553596203E-01 a       679     1     6     2    19
  3.7344585739308617E-01 a       680     1     6     2    20
 -3.9687046573658702E-01 a       681     1     7     2     1
  5.7670854082469380E-01 a       682     1     7     2     2
  5.5199234902143113E-01 a       683     1     7     2     3
 -3.6475867261906930E-01 a       684     1     7     2     4
  1.1739224757869263E-02 a       685     1     7     2     5
 -2.8517917833589845E-01 a       686     1     7     2     6
  4.1734669370394839E-01 a       687     1     7     2     7
  6.7012126401632635E-02 a       688     1     7     2     8
  5.2324541984470474E-01 a       689     1     7     2     9
 -6.0779626902505109E-02 a       690     1     7     2    10
  5.9600504448663016E-01 a       691     1     7     2    11
  6.2766427989330464E-01 a       692     1     7     2    12
 -4.5605955689501834E-02 a       693     1     7     2    13
  1.1235352018400788E-01 a       694     1     7     2    14
 -5.0184159910330350E-01 a       695     1     7     2    15
 -6.4299269202327847E-01 a       696     1     7     2    16
 -4.1807826712912483E-01 a       697     1     7     2    17
 -2.3201302687589059E-01 a       698     1     7     2    18
 -3.3176051158928221E-01 a       699     1     7     2    19
  5.3089556414661165E-01 a       700     1     7     2    20
  6.3828007635895867E-01 a       701     1     8     2     1
  2.4956041891280428E-01 a       702     1     8     2     2
 -5.2239509866967826E-01 a       703     1     8     2     3
  5.0145632809499374E-01 a       704     1     8     2     4
  2.8252045651705804E-01 a       705     1     8     2     5
 -4.3270674916860546E-01 a       706     1     8     2     6
  3.3025810749874684E-01 a       707     1     8     2     7
 -4.1199285324183160E-01 a       708     1     8     2     8
  4.5693489790651254E-01 a       709     1     8     2     9
 -5.8981608331506299E-02 a       710     1     8     2    10
 -1.2941444250522241E-01 a       711     1     8     2    11
 -2.8324851616043439E-01 a       712     1     8     2    12
 -3.7143922995654616E-01 a       713     1     8     2    13
  1.7243505181310395E-01 a       714     1     8     2    14
 -5.9765516082780956E-01 a       715     1     8     2    15
  2.2889796127104046E-02 a       716     1     8     2    16
 -4.2372945455173655E-01 a       717     1     8     2    17
 -1.9125319713615652E-01 a       718     1     8     2    18
  4.5995232656083435E-02 a       719     1     8     2    19
  5.6039705992952138E-01 a       720     1     8     2    20
 -3.5248842782243822E-01 a       721     1     9     2     1
  1.7119867745347050E-01 a       722     1     9     2     2
  2.7427473678646730E-01 a       723     1     9     2     3
 -1.8838535490383554E-01 a       724     1     9     2     4
  9.1152385322025894E-02 a       725     1     9     2     5
  8.2382929896384807E-02 a       726     1     9     2     6
 -3.8442746711998688E-01 a       727     1     9     2     7
  2.4729443152365882E-01 a       728     1     9     2     8
  2.0345288050022342E-01 a       729     1     9     2     9
  6.4333266198618011E-01 a       730     1     9     2    10
 -4.3462934792014823E-01 a       731     1     9     2    11
  5.0929579655526036E-01 a       732     1     9     2    12
  4.0199273987768142E-01 a       733     1     9     2    13
 -1.3084978394240315E-01 a       734     1     9     2    14
 -2.8619903158011079E-01 a       735     1     9     2    15
 -2.3831431502010797E-01 a       736     1     9     2    16
 -2.3102715364128670E-01 a       737     1     9     2    17
  4.8416187161874819E-01 a       738     1     9     2    18
 -4.0712694091989010E-01 a       739     1     9     2    19
  4.1631663794809060E-01 a       740     1     9     2    20
 -3.3946475864122511E-01 a       741     1    10     2     1
 -3.4745759265758902E-01 a       742     1    10     2     2
 -3.5368809264602186E-01 a       743     1    10     2     3
 -5.2520217023781257E-01 a       744     1    10     2     4
  6.5036667004537613E-02 a       745     1    10     2     5
  3.9996786969881681E-01 a       746     1    10     2     6
  1.4588036971287658E-02 a       747     1    10     2     7
  4.3230439958096500E-01 a       748     1    10     2     8
  3.6367159755076350E-01 a       749     1    10     2     9
  5.5812316476993762E-01 a       750     1    10     2    10
 -1.1341359521891069E-02 a       751     1    10     2    11
  5.7549386833574823E-01 a       752     1    10     2    12
 -3.5888233102787864E-01 a       753     1    10     2    13
 -5.5150815290516353E-01 a       754     1    10     2    14
  2.4457929552393159E-01 a       755     1    10     2    15
 -7.9381920105534173E-02 a       756     1    10     2    16
  2.2053013779961883E-01 a       757     1    10     2    17
  1.3872666939177866E-01 a       758     1    10     2    18
 -7.3761136213761971E-02 a       759     1    10     2    19
  2.3731706428058547E-01 a       760     1    10     2    20
 -3.2529504784732344E-01 a       761     1    11     2     1
 -4.5156743374787295E-01 a       762     1    11     2     2
  3.3902436578133310E-01 a       763     1    11     2     3
  2.9621787296795915E-01 a       764     1    11     2     4
  8.7089035406219997E-02 a       765     1    11     2     5
  4.1428920514595652E-01 a       766     1    11     2     6
  4.7661604813174840E-01 a       767     1    11     2     7
 -4.6485373289139509E-01 a       768     1    11     2     8
  7.1260210244809594E-02 a       769     1    11     2     9
 -9.4119126033338302E-02 a       770     1    11     2    10
  2.5511301204801912E-01 a       771     1    11     2    11
  1.1709066440372951E-01 a       772     1    11     2    12
  9.5896331365171953E-03 a       773     1    11     2    13
 -3.0621854103347702E-02 a       774     1    11     2    14
  2.0474748343854157E-01 a       775     1    11     2    15
 -2.5182023695885630E-01 a       776     1    11     2    16
 -4.3598185475846575E-02 a       777     1    11     2    17
 -6.6874456467652299E-01 a       778     1    11     2    18
 -3.3209737634896169E-01 a       779     1    11     2    19
 -4.7611704883904010E-01 a       780     1    11     2    20
 -5.4425891706318043E-02 a       781     1    12     2     1
 -6.1665350879781100E-01 a       782     1    12     2     2
  2.9279529960290590E-01 a       783     1    12     2     3
  2.7281695047529803E-01 a       784     1    12     2     4
  2.2880884407333124E-01 a       785     1    12     2     5
  4.2549969801924842E-01 a       786     1    12     2     6
  8.6593398381675332E-02 a       787     1    12     2     7
 -1.9097075189969279E-01 a       788     1    12     2     8
 -7.2088447899636166E-01 a       789     1    12     2     9
 -5.5139257772102634E-01 a       790     1    12     2    10
  9.4372177217403375E-02 a       791     1    12     2    11
  5.2620809058635620E-01 a       792     1    12     2    12
  3.4045452329933001E-01 a       793     1    12     2    13
  2.0445696241784075E-01 a       794     1    12     2    14
  2.2600090019124244E-01 a       795     1    12     2    15
  4.4382397193685097E-01 a       796     1    12     2    16
  5.3746674145091977E-01 a       797     1    12     2    17
 -6.8261626613785287E-01 a       798     1    12     2    18
  4.9948324591132109E-01 a       799     1    12     2    19
 -4.6480091873774382E-01 a       800     1    12     2    20
  7.6617565179038965E-03 a       801     1    13     2     1
  2.9753388526920493E-01 a       802     1    13     2     2
  2.7050165105233798E-01 a       803     1    13     2     3
 -5.1652989704114871E-01 a       804     1    13     2     4
  2.8339945000002448E-01 a       805     1    13     2     5
  2.0464528738923088E-01 a       806     1    13     2     6
 -1.9881747906454081E-01 a       807     1    13     2     7
 -4.2455593356912225E-01 a       808     1    13     2     8
  6.7070241394118413E-01 a       809     1    13     2     9
 -3.5655804888348247E-01 a       810     1    13     2    10
  3.7216556320695870E-01 a       811     1    13     2    11
 -5.7830698457930263E-01 a       812     1    13     2    12
 -3.5224475603876459E-01 a       813     1    13     2    13
 -3.1623427385938335E-01 a       814     1    13     2    14
 -2.1497730250836705E-01 a       815     1    13     2    15
 -6.3752772489279450E-02 a       816     1    13     2    16
  4.6626053404149881E-01 a       817     1    13     2    17
  4.6588830730547975E-01 a       818     1    13     2    18
  4.7056881160323183E-01 a       819     1    13     2    19
 -3.4203095778396064E-01 a       820     1    13     2    20
 -7.6662044534630180E-01 a       821     1    14     2     1
  5.1079904706377272E-02 a       822     1    14     2     2
  4.3717954749892574E-01 a       823     1    14     2     3
 -2.0497127954129105E-01 a       824     1    14     2     4
 -3.9042553211852515E-01 a       825     1    14     2     5
 -5.8540972699645144E-01 a       826     1    14     2     6
 -4.0658038171115896E-01 a       827     1    14     2     7
 -3.9897944194220980E-01 a       828     1    14     2     8
  6.6138994631769710E-01 a       829     1    14     2     9
 -2.1376585824237795E-01 a       830     1    14     2    10
 -3.3938156458542684E-01 a       831     1    14     2    11
  3.1593791488776990E-01 a       832     1    14     2    12
 -4.9554040637214047E-01 a       833     1    14     2    13
  6.9653436692586168E-01 a       834     1    14     2    14
 -6.4362631157093564E-01 a       835     1    14     2    15
 -6.4140670117129472E-01 a       836     1    14     2    16
 -6.7087331972210473E-01 a       837     1    14     2    17
  3.3207920075921143E-01 a       838     1    14     2    18
 -9.3030651527873653E-02 a       839     1    14     2    19
 -1.7044124934236751E-01 a       840     1    14     2    20
 -5.0906107376698839E-01 a       841     1    15     2     1
  4.3375667208367541E-01 a       842     1    15     2     2
 -4.6339442639920786E-01 a       843     1    15     2     3
 -1.0280689538125248E-01 a       844     1    15     2     4
  2.4700672376521307E-02 a       845     1    15     2     5
 -3.7988663266292177E-01 a       846     1    15     2     6
 -1.7611470277258473E-01 a       847     1    15     2     7
  3.6319976317613722E-01 a       848     1    15     2     8
 -2.4211016689709031E-02 a       849     1    15     2     9
  6.3138537144415185E-01 a       850     1    15     2    10
  4.2130894000182034E-01 a       851     1    15     2    11
  4.6590619090195845E-01 a       852     1    15     2    12
 -2.7762742987128358E-01 a       853     1    15     2    13
 -5.2633635934317309E-03 a       854     1    15     2    14
  4.5447754149065317E-01 a       855     1    15     2    15
 -1.1263632395303073E-01 a       856     1    15     2    16
 -2.1777635410239374E-01 a       857     1    15     2    17
  3.4642082256443651E-01 a       858     1    15     2    18
  4.0006033828177308E-02 a       859     1    15     2    19
 -2.8769235880959265E-01 a       860     1    15     2    20
  1.1446606815917708E-01 a       861     1    16     2     1
  3.2745502525668524E-01 a       862     1    16     2     2
  1.9218844402733182E-01 a       863     1    16     2     3
  3.8987059985985055E-02 a       864     1    16     2     4
  4.2451060391523321E-01 a       865     1    16     2     5
  3.1277009209981210E-01 a       866     1    16     2     6
 -2.1704395157792548E-02 a       867     1    16     2     7
 -1.2107171026054500E-01 a       868     1    16     2     8
  3.9104051002855084E-01 a       869     1    16     2     9
 -1.4805662202108463E-01 a       870     1    16     2    10
 -4.8410107308986539E-02 a       871     1    16     2    11
  2.6433542856784253E-01 a       872     1    16     2    12
  4.3388969994241466E-01 a       873     1    16     2    13
 -3.9853780821116158E-01 a       874     1    16     2    14
  7.4951266629616847E-02 a       875     1    16     2    15
 -5.0235018724424430E-01 a       876     1    16     2    16
 -2.4454981504543974E-01 a       877     1    16     2    17
 -8.2689786849908020E-02 a       878     1    16     2    18
  1.1192549123754605E-01 a       879     1    16     2    19
 -4.8236479307811203E-01 a       880     1    16     2    20
  4.8852598220877792E-02 a       881     1    17     2     1
 -6.2049772540161481E-02 a       882     1    17     2     2
 -1.5998016123568998E-01 a       883     1    17     2     3
  7.2033137241307221E-02 a       884     1    17     2     4
 -6.3901817752528423E-01 a       885     1    17     2     5
  3.3536693742460660E-01 a       886     1    17     2     6
  5.1191156542763128E-01 a       887     1    17     2     7
  3.3623794975135368E-01 a       888     1    17     2     8
 -1.2094316192821984E-01 a       889     1    17     2     9
  3.1589876082083812E-01 a       890     1    17     2    10
  2.7736312520346978E-01 a       891     1    17     2    11
 -5.6029524234628969E-01 a       892     1    17     2    12
 -3.5701618071095226E-01 a       893     1    17     2    13
 -9.4519238598344643E-02 a       894     1    17     2    14
  3.8821561458215706E-02 a       895     1    17     2    15
  2.4505100417276957E-01 a       896     1    17     2    16
 -1.9301145344406578E-01 a       897     1    17     2    17
  3.0531671987714626E-01 a       898     1    17     2    18
 -2.5339259334852243E-01 a       899     1    17     2    19
 -2.9869289200762711E-01 a       900     1    17     2    20
 -1.7355372450775219E-01 a       901     1    18     2     1
 -1.0737621084021091E-01 a       902     1    18     2     2
  1.9552591118534646E-01 a       903     1    18     2     3
  9.1066759335033901E-02 a       904     1    18     2     4
 -5.5451755462063587E-02 a       905     1    18     2     5
 -1.6458291824313306E-01 a       906     1    18     2     6
  7.6643132060563626E-02 a       907     1    18     2     7
  3.6745020540203038E-01 a       908     1    18     2     8
 -1.2898598378220530E-01 a       909     1    18     2     9
 -2.0708563748247305E-01 a       910     1    18     2    10
  4.6233497210094975E-02 a       911     1    18     2    11
  3.0386900046921695E-03 a       912     1    18     2    12
  1.5026071359317794E-01 a       913     1    18     2    13
 -5.1649632493099806E-01 a       914     1    18     2    14
  1.4257776911360481E-01 a       915     1    18     2    15
  9.4219718076110723E-02 a       916     1    18     2    16
  6.5780400526790062E-01 a       917     1    18     2    17
 -4.0969689619804406E-01 a       918     1    18     2    18
  5.8281654731074595E-01 a       919     1    18     2    19
 -2.5748473203370442E-01 a       920     1    18     2    20
 -2.7477259804496224E-01 a       921     1    19     2     1
 -3.4311921168687270E-01 a       922     1    19     2     2
  3.8352630941355814E-01 a       923     1    19     2     3
  3.1860588439916476E-01 a       924     1    19     2     4
 -2.8306355878875311E-01 a       925     1    19     2     5
 -2.3645567551920744E-02 a       926     1    19     2     6
 -5.9341691825171750E-01 a       927     1    19     2     7
 -5.4195045690942308E-02 a       928     1    19     2     8
 -9.1947476049480059E-02 a       929     1    19     2     9
  1.2480190760258249E-01 a       930     1    19     2    10
  2.5390874300775057E-01 a       931     1    19     2    11
 -7.7490793176984582E-02 a       932     1    19     2    12
  4.8625148622569898E-02 a       933     1    19     2    13
  4.7878145262606614E-01 a       934     1    19     2    14
 -5.3165073157573704E-02 a       935     1    19     2    15
  4.2577008235362540E-01 a       936     1    19     2    16
 -2.2974374095179900E-01 a       937     1    19     2    17
  4.7359567365299365E-01 a       938     1    19     2    18
  1.0433057009966393E-01 a       939     1    19     2    19
  4.1160518859011419E-01 a       940     1    19     2    20
 -1.2815346929022545E-02 a       941     1    20     2     1
 -3.4886431780256266E-01 a       942     1    20     2     2
  2.4266537315014633E-01 a       943     1    20     2     3
  1.6928826754140977E-01 a       944     1    20     2     4
  1.0162096065829725E-01 a       945     1    20     2     5
  2.2887710120059790E-01 a       946     1    20     2     6
  5.5812302547716308E-01 a       947     1    20     2     7
  2.9939709057172342E-01 a       948     1    20     2     8
  1.4231902611183256E-01 a       949     1    20     2     9
  1.3339579443428598E-01 a       950     1    20     2    10
  4.3951804152090812E-01 a       951     1    20     2    11
  6.2047107659311251E-01 a       952     1    20     2    12
  2.7702068168179224E-02 a       953     1    20     2    13
  6.1826911928108789E-02 a       954     1    20     2    14
  1.2481839351310212E-01 a       955     1    20     2    15
 -5.9602391956424761E-01 a       956     1    20     2    16
 -4.7234380865673187E-01 a       957     1    20     2    17
 -1.5180716202884914E-01 a       958     1    20     2    18
  1.8228936921039540E-01 a       959     1    20     2    19
 -2.6019035945925445E-01 a       960     1    20     2    20
  1.2195445447318523E+00 b       961     2     1
 -2.5252353101811731E-01 b       962     2     2
  4.9077465997658880E-02 b       963     2     3
  1.3898378186360758E+00 b       964     2     4
 -4.1327780249972101E-01 b       965     2     5
  1.4381753568251683E+00 b       966     2     6
 -8.8459121380528605E-01 b       967     2     7
  1.2069721973642649E+00 b       968     2     8
 -1.3260562541202994E+00 b       969     2     9
  8.1414084677840159E-01 b       970     2    10
  6.1159126841943101E-01 b       971     2    11
  8.5057135719387722E-01 b       972     2    12
  2.7721363531147647E-01 b       973     2    13
  1.2639096561387806E+00 b       974     2    14
  1.1657447147551798E+00 b       975     2    15
 -1.3236468149691289E+00 b       976     2    16
 -2.1833331468756853E-01 b       977     2    17
  7.6126054360771545E-01 b       978     2    18
 -6.7033397833393604E-01 b       979     2    19
 -7.2225054112486975E-01 b       980     2    20
  1.5835078950084741E-01 a       981     2     1     3     1
 -5.9455721641906933E-01 a       982     2     2     3     1
  1.1878894136611003E-01 a       983     2     3     3     1
 -1.0627077340731271E-01 a       984     2     4     3     1
 -2.6394065203592704E-01 a       985     2     5     3     1
  4.7369394109082474E-01 a       986     2     6     3     1
 -4.1452148930563004E-01 a       987     2     7     3     1
  3.6657538057560640E-01 a       988     2     8     3     1
 -1.4982779610851531E+00 a       989     2     9     3     1
  2.1310506145096300E-01 a       990     2    10     3     1
 -1.9137055543919934E-01 a       991     2    11     3     1
 -8.1891768649838614E-01 a       992     2    12     3     1
  1.3482532615170159E-01 a       993     2    13     3     1
 -1.0172566968605183E+00 a       994     2    14     3     1
 -6.7309939729567003E-01 a       995     2    15     3     1
  8.3995721749353602E-01 a       996     2    16     3     1
  1.5074121544199166E+00 a       997     2    17     3     1
 -5.3549652859199981E-01 a       998     2    18     3     1
 -7.4982515407630540E-02 a       999     2    19     3     1
 -3.2595204975628955E-02 a      1000     2    20     3     1
 -3.0501269323056779E-01 b      1001     3     1
