################################################################################
# Neural network connection values (weights and biases).
################################################################################
# Col  Name       Description
################################################################################
# 1    connection Neural network connection value.
# 2    t          Connection type (a = weight, b = bias).
# 3    index      Index enumerating weights.
# 4    l_s        Starting point layer (end point layer for biases).
# 5    n_s        Starting point neuron in starting layer (end point neuron for biases).
# 6    l_e        End point layer.
# 7    n_e        End point neuron in end layer.
################################################################################
#                      1 2         3     4     5     6     7
#             connection t     index   l_s   n_s   l_e   n_e
############################################################
 -1.7343803701060950E-01 a         1     0     1     1     1
 -8.5465976088562295E-02 a         2     0     1     1     2
  2.4341065316455873E-01 a         3     0     1     1     3
 -2.6697176708439257E-01 a         4     0     1     1     4
  2.1671140539192943E-01 a         5     0     1     1     5
 -1.1562415639036104E-01 a         6     0     1     1     6
 -2.9606576531273771E-01 a         7     0     1     1     7
 -5.0312626689202711E-01 a         8     0     1     1     8
 -2.2266486109967396E-01 a         9     0     1     1     9
  4.8419215707756369E-02 a        10     0     1     1    10
  4.2358232359650716E-01 a        11     0     1     1    11
  2.4002247808818156E-01 a        12     0     1     1    12
  4.3080128869628635E-02 a        13     0     1     1    13
 -1.5696270932445502E-01 a        14     0     1     1    14
 -2.2808598411206193E-01 a        15     0     1     1    15
 -4.0085942826528342E-01 a        16     0     1     1    16
 -3.2046227359005081E-01 a        17     0     1     1    17
 -2.8123336428256018E-01 a        18     0     1     1    18
 -6.3821756484933712E-02 a        19     0     1     1    19
  3.3249891787607311E-01 a        20     0     1     1    20
 -2.1970514567756370E-02 a        21     0     2     1     1
  1.3135400103328196E-01 a        22     0     2     1     2
 -2.6040636388691835E-01 a        23     0     2     1     3
  1.5320009595235398E-01 a        24     0     2     1     4
 -3.4775728760710534E-01 a        25     0     2     1     5
  3.6520190623206167E-01 a        26     0     2     1     6
  6.1500108518929238E-02 a        27     0     2     1     7
  2.6113955949887241E-01 a        28     0     2     1     8
  3.3046001653420252E-03 a        29     0     2     1     9
 -1.9499409076744204E-02 a        30     0     2     1    10
 -2.8724612927547660E-01 a        31     0     2     1    11
 -5.4479958846551690E-01 a        32     0     2     1    12
  1.7145825642090773E-01 a        33     0     2     1    13
  2.9823951904477608E-01 a        34     0     2     1    14
  3.9501759776519973E-01 a        35     0     2     1    15
  1.6343546562338226E-01 a        36     0     2     1    16
  2.2946881602165095E-01 a        37     0     2     1    17
  3.0961740089686825E-02 a        38     0     2     1    18
  2.9088536218321009E-01 a        39     0     2     1    19
 -1.3382402372240662E-01 a        40     0     2     1    20
  2.1390310438222393E-01 a        41     0     3     1     1
  5.7607983372574174E-02 a        42     0     3     1     2
  5.0367551342425786E-02 a        43     0     3     1     3
  3.6708204031326847E-01 a        44     0     3     1     4
  1.0575838704830183E-01 a        45     0     3     1     5
  7.0765165536707753E-02 a        46     0     3     1     6
  2.3511845334025916E-01 a        47     0     3     1     7
  1.7030330958267553E-01 a        48     0     3     1     8
 -5.1475846866573936E-02 a        49     0     3     1     9
  1.2274703910887741E-01 a        50     0     3     1    10
 -7.9634989447187873E-02 a        51     0     3     1    11
  3.2915629893852794E-01 a        52     0     3     1    12
  1.4076851588928976E-01 a        53     0     3     1    13
  5.1555647267835979E-02 a        54     0     3     1    14
 -2.5598144925292510E-01 a        55     0     3     1    15
  3.8879293990532493E-01 a        56     0     3     1    16
  2.6845919994627720E-02 a        57     0     3     1    17
  2.2282367547548154E-01 a        58     0     3     1    18
 -3.7101875431224945E-01 a        59     0     3     1    19
 -2.5172469004896014E-01 a        60     0     3     1    20
  1.3305947329246615E-01 a        61     0     4     1     1
  2.1348444214366172E-01 a        62     0     4     1     2
 -1.7593037228143155E-01 a        63     0     4     1     3
 -1.4958791458701456E-01 a        64     0     4     1     4
 -1.5649677005070789E-01 a        65     0     4     1     5
  7.1636484116980620E-02 a        66     0     4     1     6
 -2.6312649933128340E-01 a        67     0     4     1     7
 -1.5185476818711399E-02 a        68     0     4     1     8
  1.0457909200521907E-01 a        69     0     4     1     9
  9.7565328259332035E-02 a        70     0     4     1    10
  1.4230421105529714E-01 a        71     0     4     1    11
 -5.4970202569757057E-02 a        72     0     4     1    12
 -2.8764619150630683E-01 a        73     0     4     1    13
  2.9884555376237143E-01 a        74     0     4     1    14
  1.5169372488670396E-01 a        75     0     4     1    15
  1.4504778775071672E-01 a        76     0     4     1    16
  6.0448302872486460E-02 a        77     0     4     1    17
  1.7139351098741928E-01 a        78     0     4     1    18
  2.1865010244754630E-02 a        79     0     4     1    19
 -3.0059947775193235E-01 a        80     0     4     1    20
 -3.2426798189543182E-01 a        81     0     5     1     1
  2.1632169451417871E-01 a        82     0     5     1     2
 -4.6911365402637090E-01 a        83     0     5     1     3
  1.2955162699232028E-01 a        84     0     5     1     4
 -5.0285213459488354E-01 a        85     0     5     1     5
 -1.1364244052316012E-01 a        86     0     5     1     6
 -3.0366759059222503E-01 a        87     0     5     1     7
  4.1047901693750383E-01 a        88     0     5     1     8
 -2.9473721783890655E-01 a        89     0     5     1     9
 -2.7083579319185908E-01 a        90     0     5     1    10
  1.9684485412889355E-01 a        91     0     5     1    11
  6.3562112633584647E-02 a        92     0     5     1    12
  1.9667788100637580E-02 a        93     0     5     1    13
 -1.7929397229103364E-01 a        94     0     5     1    14
  2.0673224885736138E-01 a        95     0     5     1    15
 -1.5300039580553304E-01 a        96     0     5     1    16
  9.5871472369937927E-02 a        97     0     5     1    17
  4.8483981474873178E-02 a        98     0     5     1    18
  2.9514037196641757E-01 a        99     0     5     1    19
 -2.5844465370337300E-01 a       100     0     5     1    20
 -2.3699432819727345E-01 a       101     0     6     1     1
  1.5818893277258536E-01 a       102     0     6     1     2
  1.9642439103280754E-01 a       103     0     6     1     3
 -1.1262731433705186E-01 a       104     0     6     1     4
  3.3825749422993895E-01 a       105     0     6     1     5
 -1.5619507906536234E-01 a       106     0     6     1     6
  1.2058870797096718E-01 a       107     0     6     1     7
  1.9609632161720733E-01 a       108     0     6     1     8
 -2.6348761037729351E-01 a       109     0     6     1     9
 -2.9489071896196462E-01 a       110     0     6     1    10
 -1.8293870275617360E-01 a       111     0     6     1    11
  3.8517001479441443E-01 a       112     0     6     1    12
  1.7299354252754193E-01 a       113     0     6     1    13
 -4.5844198727382451E-01 a       114     0     6     1    14
 -3.2209155594718364E-01 a       115     0     6     1    15
 -2.8317501771959730E-01 a       116     0     6     1    16
  2.3737887757489945E-01 a       117     0     6     1    17
 -1.6990670374681510E-01 a       118     0     6     1    18
 -1.6697763752909150E-01 a       119     0     6     1    19
  4.3408531847805543E-01 a       120     0     6     1    20
  1.9155470460628216E-01 a       121     0     7     1     1
 -2.7959768137037377E-01 a       122     0     7     1     2
  1.8442915458390757E-01 a       123     0     7     1     3
 -4.4283629528545354E-01 a       124     0     7     1     4
  3.1001864938338969E-01 a       125     0     7     1     5
 -5.2917571155781752E-02 a       126     0     7     1     6
 -4.9993290317842304E-02 a       127     0     7     1     7
 -1.9023539742108536E-01 a       128     0     7     1     8
  5.7582418292043143E-02 a       129     0     7     1     9
  2.9775893623436966E-01 a       130     0     7     1    10
 -2.7001491474964473E-01 a       131     0     7     1    11
 -3.3349963484718276E-02 a       132     0     7     1    12
  2.4984780650887181E-01 a       133     0     7     1    13
  3.1078021225893826E-01 a       134     0     7     1    14
 -2.3109623708991178E-01 a       135     0     7     1    15
 -9.3314595626709976E-02 a       136     0     7     1    16
 -7.1656902517258397E-02 a       137     0     7     1    17
 -9.5256001095043261E-03 a       138     0     7     1    18
 -3.3098973915891799E-01 a       139     0     7     1    19
  4.4119825595903311E-01 a       140     0     7     1    20
  6.6247910709950383E-02 a       141     0     8     1     1
  1.8499277882747422E-02 a       142     0     8     1     2
  4.4483188928953268E-02 a       143     0     8     1     3
  2.5611688154933371E-01 a       144     0     8     1     4
  1.4546086781447728E-01 a       145     0     8     1     5
 -4.8436704547233739E-01 a       146     0     8     1     6
  2.7631083123885497E-01 a       147     0     8     1     7
  1.9369643011273560E-01 a       148     0     8     1     8
  2.9253036254456416E-01 a       149     0     8     1     9
  1.8099494289823873E-01 a       150     0     8     1    10
 -8.9402210445636548E-03 a       151     0     8     1    11
 -3.6946528112800192E-01 a       152     0     8     1    12
 -2.6487864420275847E-01 a       153     0     8     1    13
 -4.2531762699919214E-02 a       154     0     8     1    14
  8.5151792780405383E-02 a       155     0     8     1    15
  1.3864626307227438E-02 a       156     0     8     1    16
  4.7914694497158983E-01 a       157     0     8     1    17
  4.9211048164012144E-02 a       158     0     8     1    18
 -8.6523182799498624E-02 a       159     0     8     1    19
  1.6296489510760079E-01 a       160     0     8     1    20
  1.3307231085360463E-01 a       161     0     9     1     1
  2.9274030392281725E-01 a       162     0     9     1     2
 -2.4400098188685565E-01 a       163     0     9     1     3
  2.2990782017754130E-01 a       164     0     9     1     4
 -4.1953615628692417E-02 a       165     0     9     1     5
  2.6980434754689220E-01 a       166     0     9     1     6
 -3.2113591767845789E-01 a       167     0     9     1     7
 -3.7839915980567179E-01 a       168     0     9     1     8
 -2.0322086705039533E-01 a       169     0     9     1     9
 -3.7180616861182725E-01 a       170     0     9     1    10
 -3.1676628077192376E-01 a       171     0     9     1    11
  2.7754615418281059E-01 a       172     0     9     1    12
 -2.5771870499412997E-01 a       173     0     9     1    13
 -3.3976634272379035E-02 a       174     0     9     1    14
  1.0890889384001819E-01 a       175     0     9     1    15
 -3.6631410038959061E-01 a       176     0     9     1    16
 -4.1781094317512391E-01 a       177     0     9     1    17
  4.7939840481947341E-03 a       178     0     9     1    18
 -2.0857218363991109E-01 a       179     0     9     1    19
  7.8157959086094936E-02 a       180     0     9     1    20
  2.6915149216775652E-01 a       181     0    10     1     1
  1.9013835341741475E-02 a       182     0    10     1     2
  1.2267233837676078E-01 a       183     0    10     1     3
 -3.8881422973825075E-01 a       184     0    10     1     4
 -2.8723200160972412E-01 a       185     0    10     1     5
  3.4318422777272345E-01 a       186     0    10     1     6
 -5.0852169813065715E-02 a       187     0    10     1     7
 -1.2218728307777434E-01 a       188     0    10     1     8
 -1.2131509163139154E-01 a       189     0    10     1     9
  1.9966786232287370E-01 a       190     0    10     1    10
  6.7322375766233858E-02 a       191     0    10     1    11
 -5.1332803952359000E-02 a       192     0    10     1    12
  1.4546993409718270E-01 a       193     0    10     1    13
  1.2354898026459085E-01 a       194     0    10     1    14
  1.3360161673997772E-01 a       195     0    10     1    15
 -1.5862324390167462E-01 a       196     0    10     1    16
 -3.6441958820635589E-01 a       197     0    10     1    17
  1.4459439972499613E-01 a       198     0    10     1    18
  3.7499811155818807E-01 a       199     0    10     1    19
 -5.6409318763440663E-01 a       200     0    10     1    20
 -5.1448524288336656E-02 a       201     0    11     1     1
 -3.2385938749461118E-01 a       202     0    11     1     2
  5.8878281637448682E-02 a       203     0    11     1     3
 -2.4304920799169571E-01 a       204     0    11     1     4
  8.4770116276985844E-02 a       205     0    11     1     5
 -1.4433558763749088E-01 a       206     0    11     1     6
  8.4065887002149620E-02 a       207     0    11     1     7
  4.0136646891528743E-01 a       208     0    11     1     8
  2.6249726673596346E-01 a       209     0    11     1     9
  2.1563050662370598E-01 a       210     0    11     1    10
 -3.3933387701780587E-01 a       211     0    11     1    11
  1.1735092241182785E-01 a       212     0    11     1    12
  9.7048806918368882E-02 a       213     0    11     1    13
 -2.4741967865816167E-01 a       214     0    11     1    14
 -2.6405894541031777E-01 a       215     0    11     1    15
  1.3647043016936838E-01 a       216     0    11     1    16
 -2.1824371256331337E-02 a       217     0    11     1    17
 -7.0145369119999898E-02 a       218     0    11     1    18
 -4.0936736679271682E-02 a       219     0    11     1    19
 -1.4130270360725586E-01 a       220     0    11     1    20
 -1.7719440604993253E-01 a       221     0    12     1     1
 -2.7903224701920898E-01 a       222     0    12     1     2
 -1.6982717812753773E-01 a       223     0    12     1     3
  3.1753447544323182E-01 a       224     0    12     1     4
 -2.6494470918823981E-02 a       225     0    12     1     5
  2.9282329598249668E-01 a       226     0    12     1     6
 -7.2502135545603905E-02 a       227     0    12     1     7
  9.6760198193595409E-02 a       228     0    12     1     8
 -1.9549080727238820E-03 a       229     0    12     1     9
 -2.7732319338944178E-01 a       230     0    12     1    10
 -2.8400954453125021E-01 a       231     0    12     1    11
  1.4151134277313651E-01 a       232     0    12     1    12
 -7.2097924098348684E-02 a       233     0    12     1    13
  1.8390496248159927E-01 a       234     0    12     1    14
 -2.4701934295749961E-01 a       235     0    12     1    15
  5.3217989626826119E-02 a       236     0    12     1    16
  1.7671649722574348E-01 a       237     0    12     1    17
  5.1660419882412725E-02 a       238     0    12     1    18
 -6.5429996349968295E-02 a       239     0    12     1    19
  3.9220816946152448E-01 a       240     0    12     1    20
  2.1981491650182511E-01 a       241     0    13     1     1
  3.0819450758615874E-01 a       242     0    13     1     2
 -2.0999449400598982E-01 a       243     0    13     1     3
 -2.9986268650822534E-01 a       244     0    13     1     4
 -1.5974736942349813E-01 a       245     0    13     1     5
 -4.4744585985940270E-02 a       246     0    13     1     6
 -1.7550703734199832E-01 a       247     0    13     1     7
  1.4529673684133029E-01 a       248     0    13     1     8
 -4.4754112347015085E-01 a       249     0    13     1     9
  1.7008316677251384E-01 a       250     0    13     1    10
  4.1036376565778837E-01 a       251     0    13     1    11
 -1.6868883379684718E-01 a       252     0    13     1    12
  2.8942208710910067E-01 a       253     0    13     1    13
  8.1168995712010347E-02 a       254     0    13     1    14
  1.6394143694614494E-01 a       255     0    13     1    15
 -1.4575616532831501E-01 a       256     0    13     1    16
  1.7630746914334772E-01 a       257     0    13     1    17
  1.4177033507451908E-01 a       258     0    13     1    18
 -1.1269637492251876E-01 a       259     0    13     1    19
 -2.1710998925202132E-01 a       260     0    13     1    20
 -2.1883489129438405E-01 a       261     0    14     1     1
 -9.7957520126414482E-03 a       262     0    14     1     2
 -1.1573264858184933E-01 a       263     0    14     1     3
 -4.8648466767350969E-02 a       264     0    14     1     4
  5.3152574094564656E-02 a       265     0    14     1     5
  3.3614808991647854E-01 a       266     0    14     1     6
 -3.4607794501299699E-01 a       267     0    14     1     7
  2.3597816220571981E-02 a       268     0    14     1     8
 -3.9113374913238630E-01 a       269     0    14     1     9
  2.9753510302614566E-01 a       270     0    14     1    10
 -1.2365734976551739E-01 a       271     0    14     1    11
  6.3550495649793884E-02 a       272     0    14     1    12
 -2.7806475185299256E-01 a       273     0    14     1    13
 -4.9658092517847960E-02 a       274     0    14     1    14
 -5.2887461249600410E-03 a       275     0    14     1    15
 -2.8556016712087107E-01 a       276     0    14     1    16
 -1.4831406380725221E-01 a       277     0    14     1    17
  1.6044797673569997E-01 a       278     0    14     1    18
  2.9899926002942528E-01 a       279     0    14     1    19
 -4.0801348102759261E-02 a       280     0    14     1    20
  1.3782205961491242E-01 a       281     0    15     1     1
  2.7864557187349687E-01 a       282     0    15     1     2
  2.5532150245225071E-01 a       283     0    15     1     3
 -1.6131108360447369E-01 a       284     0    15     1     4
  7.2068987887894481E-02 a       285     0    15     1     5
 -5.4158091325394016E-02 a       286     0    15     1     6
  3.1215711117762707E-01 a       287     0    15     1     7
  1.4222133670157039E-01 a       288     0    15     1     8
  3.1203837029047587E-01 a       289     0    15     1     9
 -3.6976190576975509E-01 a       290     0    15     1    10
  3.1147952859981332E-01 a       291     0    15     1    11
 -3.6624724473771360E-02 a       292     0    15     1    12
 -1.2150861103027460E-01 a       293     0    15     1    13
 -5.5814796208634207E-02 a       294     0    15     1    14
 -1.1898981074342148E-02 a       295     0    15     1    15
  2.1645762033844643E-01 a       296     0    15     1    16
  1.9123522391733669E-01 a       297     0    15     1    17
  1.0641214476494086E-01 a       298     0    15     1    18
 -1.2922440948105418E-01 a       299     0    15     1    19
 -3.1880677117311217E-03 a       300     0    15     1    20
  7.4593615966820653E-02 a       301     0    16     1     1
 -4.4475097391800202E-02 a       302     0    16     1     2
 -1.2010879081810123E-01 a       303     0    16     1     3
 -9.4379668122461069E-02 a       304     0    16     1     4
 -7.3941672057845437E-02 a       305     0    16     1     5
  1.0191174586069580E-01 a       306     0    16     1     6
  2.2405052806571884E-02 a       307     0    16     1     7
 -6.6872064217560562E-02 a       308     0    16     1     8
  1.1324699794735829E-01 a       309     0    16     1     9
 -9.8867099449873277E-02 a       310     0    16     1    10
 -2.1325054367480046E-02 a       311     0    16     1    11
 -1.3051773594081505E-02 a       312     0    16     1    12
  1.1608609519226833E-01 a       313     0    16     1    13
  1.2857979481125947E-01 a       314     0    16     1    14
  9.4617178314603792E-04 a       315     0    16     1    15
 -1.1564184058542742E-01 a       316     0    16     1    16
 -5.8070278079106988E-02 a       317     0    16     1    17
  1.2564912837796474E-01 a       318     0    16     1    18
  5.6664777352325224E-02 a       319     0    16     1    19
  3.9963442751425889E-02 a       320     0    16     1    20
  7.1929866552597518E-02 a       321     0    17     1     1
  1.8127196464321865E-01 a       322     0    17     1     2
  1.0817387568306339E-01 a       323     0    17     1     3
  1.2581213918587503E-01 a       324     0    17     1     4
  2.4723624126080551E-01 a       325     0    17     1     5
  1.3932456124867904E-01 a       326     0    17     1     6
  3.2088494651045865E-02 a       327     0    17     1     7
 -5.8343165661939290E-02 a       328     0    17     1     8
  1.0838433673016677E-02 a       329     0    17     1     9
 -9.6149963970427743E-02 a       330     0    17     1    10
 -2.5167217274853015E-01 a       331     0    17     1    11
 -1.2333076270550435E-01 a       332     0    17     1    12
 -1.9296969189704244E-01 a       333     0    17     1    13
 -2.8279634015269506E-01 a       334     0    17     1    14
 -2.4733520633080021E-02 a       335     0    17     1    15
 -1.1001026957224123E-01 a       336     0    17     1    16
  1.3482235725246242E-01 a       337     0    17     1    17
 -7.9235452067321438E-02 a       338     0    17     1    18
 -4.5442655622167358E-02 a       339     0    17     1    19
  1.2751446173908373E-02 a       340     0    17     1    20
  2.4023919410061564E-01 a       341     0    18     1     1
 -1.5859769088169837E-01 a       342     0    18     1     2
  6.8857638184075726E-02 a       343     0    18     1     3
 -1.4831116639320804E-01 a       344     0    18     1     4
  1.1705596099084443E-01 a       345     0    18     1     5
 -2.9041704648721733E-01 a       346     0    18     1     6
  3.9729693881686323E-01 a       347     0    18     1     7
 -1.4935042323955301E-02 a       348     0    18     1     8
  3.8642538908189894E-01 a       349     0    18     1     9
 -2.3169723797227343E-01 a       350     0    18     1    10
 -2.6498937323426708E-01 a       351     0    18     1    11
  1.4928824625929271E-01 a       352     0    18     1    12
  1.6270506004114405E-01 a       353     0    18     1    13
 -4.0721809005007814E-01 a       354     0    18     1    14
 -2.2354886255590279E-02 a       355     0    18     1    15
 -3.5956722819486714E-01 a       356     0    18     1    16
  1.7086562670615732E-01 a       357     0    18     1    17
  2.4053214540277917E-01 a       358     0    18     1    18
 -1.6386229342936795E-01 a       359     0    18     1    19
 -4.9715424673357426E-02 a       360     0    18     1    20
 -1.2652551274948390E-01 a       361     0    19     1     1
 -4.3645807179828311E-01 a       362     0    19     1     2
  1.7090292059427503E-01 a       363     0    19     1     3
 -1.8201360222831642E-02 a       364     0    19     1     4
  5.9817146964569072E-02 a       365     0    19     1     5
 -3.3957532432460885E-01 a       366     0    19     1     6
  2.4771553142704603E-01 a       367     0    19     1     7
 -4.1771785939077162E-02 a       368     0    19     1     8
  2.8643325374125378E-01 a       369     0    19     1     9
 -1.0620899492634930E-01 a       370     0    19     1    10
 -1.9717907288550685E-01 a       371     0    19     1    11
  1.7345085258270018E-01 a       372     0    19     1    12
 -2.8807390627534768E-01 a       373     0    19     1    13
 -2.0781841726368253E-02 a       374     0    19     1    14
 -1.0609267373630890E-01 a       375     0    19     1    15
  2.8742262288996928E-01 a       376     0    19     1    16
 -2.2552973496079526E-01 a       377     0    19     1    17
 -8.4489170557140350E-02 a       378     0    19     1    18
 -1.1933204562219964E-01 a       379     0    19     1    19
  1.8659484354620634E-01 a       380     0    19     1    20
  9.6348796914780557E-02 a       381     0    20     1     1
  1.6264828598397964E-03 a       382     0    20     1     2
 -5.6450269763239892E-02 a       383     0    20     1     3
  9.2615776826941706E-02 a       384     0    20     1     4
  1.6582764156142579E-01 a       385     0    20     1     5
  3.3104747682431945E-01 a       386     0    20     1     6
 -1.4239203096604119E-01 a       387     0    20     1     7
  1.4917801832336250E-02 a       388     0    20     1     8
 -2.0885462552890230E-01 a       389     0    20     1     9
 -6.3466696954067574E-03 a       390     0    20     1    10
  3.4627861558134493E-02 a       391     0    20     1    11
 -6.4662787370688909E-02 a       392     0    20     1    12
 -1.5714474718430135E-01 a       393     0    20     1    13
 -8.2150434867359998E-02 a       394     0    20     1    14
  2.6494730532457753E-02 a       395     0    20     1    15
 -2.5809823672062088E-01 a       396     0    20     1    16
  8.0407454234347572E-02 a       397     0    20     1    17
  2.3915552847136212E-01 a       398     0    20     1    18
  3.1174421135546245E-02 a       399     0    20     1    19
  1.1444147931116906E-01 a       400     0    20     1    20
  3.9284488323046103E-02 a       401     0    21     1     1
  1.2072733978947151E-01 a       402     0    21     1     2
 -1.9347124359599546E-01 a       403     0    21     1     3
 -1.2180274065397152E-01 a       404     0    21     1     4
 -2.2878398941511047E-01 a       405     0    21     1     5
  1.1583508998902567E-01 a       406     0    21     1     6
  1.9869101622220151E-02 a       407     0    21     1     7
  7.3259154537962334E-02 a       408     0    21     1     8
 -5.7865115526443585E-02 a       409     0    21     1     9
 -1.5906816864325218E-01 a       410     0    21     1    10
  1.8471835198918421E-01 a       411     0    21     1    11
  5.5748512290356690E-02 a       412     0    21     1    12
  1.5886792760826976E-01 a       413     0    21     1    13
  2.2754696941111494E-01 a       414     0    21     1    14
  1.1247791648993664E-01 a       415     0    21     1    15
 -1.5821145779136242E-01 a       416     0    21     1    16
  1.4623350948247632E-01 a       417     0    21     1    17
  2.0360176262086518E-01 a       418     0    21     1    18
  3.2268163087182500E-02 a       419     0    21     1    19
  6.8317181832650768E-04 a       420     0    21     1    20
  4.2152503299683328E-02 a       421     0    22     1     1
  7.4825516092872829E-02 a       422     0    22     1     2
  1.9898485774199928E-01 a       423     0    22     1     3
 -1.1156418296992117E-01 a       424     0    22     1     4
 -3.6418230473720552E-02 a       425     0    22     1     5
 -5.9820457269715133E-02 a       426     0    22     1     6
  1.0847769770797512E-01 a       427     0    22     1     7
 -1.1618605582576470E-01 a       428     0    22     1     8
  2.2130077067766887E-01 a       429     0    22     1     9
 -9.4692794755827384E-02 a       430     0    22     1    10
  1.5578760254457377E-01 a       431     0    22     1    11
  2.6748416886667514E-02 a       432     0    22     1    12
  1.0219332018616974E-01 a       433     0    22     1    13
 -6.6110080712678224E-02 a       434     0    22     1    14
 -3.8798715334676423E-02 a       435     0    22     1    15
  9.7595895722133119E-02 a       436     0    22     1    16
 -1.7012478881868823E-01 a       437     0    22     1    17
 -8.7641423826306700E-02 a       438     0    22     1    18
  6.4298570864290291E-02 a       439     0    22     1    19
 -1.9385262057921082E-01 a       440     0    22     1    20
  2.5189495149640730E-02 a       441     0    23     1     1
 -2.6312663857541274E-01 a       442     0    23     1     2
  2.0681885766166971E-01 a       443     0    23     1     3
 -2.6958067224014415E-01 a       444     0    23     1     4
  4.9187487196322890E-02 a       445     0    23     1     5
  2.6224048673703165E-01 a       446     0    23     1     6
  2.3397691754866135E-01 a       447     0    23     1     7
  1.9314498625459633E-01 a       448     0    23     1     8
  3.1516718229841545E-01 a       449     0    23     1     9
  2.1314865689836549E-01 a       450     0    23     1    10
  2.2393477714242462E-02 a       451     0    23     1    11
 -2.0828943731236915E-01 a       452     0    23     1    12
  1.1165716827280771E-01 a       453     0    23     1    13
 -2.5263545743309807E-01 a       454     0    23     1    14
  2.8197161221921944E-02 a       455     0    23     1    15
 -5.7973927378151095E-03 a       456     0    23     1    16
  2.0125442136092581E-01 a       457     0    23     1    17
  3.4939435905534311E-01 a       458     0    23     1    18
  4.2760569677174648E-01 a       459     0    23     1    19
 -3.6339092454588190E-01 a       460     0    23     1    20
  3.1048044856894400E-02 a       461     0    24     1     1
  3.1538061537681739E-01 a       462     0    24     1     2
  1.2593400877496120E-02 a       463     0    24     1     3
 -1.9408430845603233E-01 a       464     0    24     1     4
 -3.3579048758005307E-03 a       465     0    24     1     5
 -3.7777250167357682E-02 a       466     0    24     1     6
  2.9684178248806359E-02 a       467     0    24     1     7
 -8.2201264163360099E-02 a       468     0    24     1     8
  2.9232452140947779E-01 a       469     0    24     1     9
 -1.7414110938212254E-02 a       470     0    24     1    10
  3.4490770177929314E-01 a       471     0    24     1    11
 -1.9412770047756320E-01 a       472     0    24     1    12
 -5.0240208533102002E-02 a       473     0    24     1    13
  4.5022204195784350E-02 a       474     0    24     1    14
 -6.2208897681762125E-02 a       475     0    24     1    15
  4.1352961057827103E-01 a       476     0    24     1    16
 -4.2270157931145268E-02 a       477     0    24     1    17
  4.3223289742023829E-02 a       478     0    24     1    18
 -3.7641733091352252E-03 a       479     0    24     1    19
 -1.9808391348154411E-01 a       480     0    24     1    20
 -1.1646803425667172E-01 a       481     0    25     1     1
  2.1373206710023768E-01 a       482     0    25     1     2
 -2.4829066393319840E-01 a       483     0    25     1     3
  2.2356314898946528E-01 a       484     0    25     1     4
 -2.5250142463770400E-02 a       485     0    25     1     5
  2.5817549129575718E-01 a       486     0    25     1     6
  1.2683428153600965E-01 a       487     0    25     1     7
 -2.0068427826606980E-01 a       488     0    25     1     8
  3.0951697910642650E-01 a       489     0    25     1     9
  1.7876011510733558E-01 a       490     0    25     1    10
 -4.5230101585522370E-01 a       491     0    25     1    11
  1.3970516212950984E-01 a       492     0    25     1    12
  2.1486413983408986E-01 a       493     0    25     1    13
 -4.3874904506413148E-01 a       494     0    25     1    14
  2.3233164039343401E-01 a       495     0    25     1    15
 -3.9221923425754790E-01 a       496     0    25     1    16
  3.2017472904183908E-01 a       497     0    25     1    17
  3.7241494500331790E-01 a       498     0    25     1    18
  1.3059258598502529E-02 a       499     0    25     1    19
 -3.6650823955641482E-01 a       500     0    25     1    20
 -1.5790576397640893E-01 a       501     0    26     1     1
 -1.2991061714753008E-02 a       502     0    26     1     2
  2.9672321674837070E-02 a       503     0    26     1     3
  1.5458949316466764E-01 a       504     0    26     1     4
  1.2592190351825031E-01 a       505     0    26     1     5
 -1.7258809705040715E-01 a       506     0    26     1     6
  1.9697648397099862E-01 a       507     0    26     1     7
 -1.2557642322675153E-02 a       508     0    26     1     8
  3.1762661821911031E-01 a       509     0    26     1     9
 -1.6527906406638271E-01 a       510     0    26     1    10
 -6.6923575116165687E-02 a       511     0    26     1    11
  3.9346662141853522E-01 a       512     0    26     1    12
 -2.5037292064949990E-01 a       513     0    26     1    13
 -2.6133718783154053E-01 a       514     0    26     1    14
 -2.0213615877031701E-01 a       515     0    26     1    15
  3.5638629677156052E-02 a       516     0    26     1    16
 -2.2447091779630643E-01 a       517     0    26     1    17
  1.5835709375785298E-01 a       518     0    26     1    18
 -6.2478823219524082E-02 a       519     0    26     1    19
 -5.7856319168795391E-02 a       520     0    26     1    20
  3.6843978609029637E-01 a       521     0    27     1     1
 -2.0644559060725040E-01 a       522     0    27     1     2
  1.4416215643265651E-01 a       523     0    27     1     3
  3.2719506694839945E-01 a       524     0    27     1     4
  5.3900179091122831E-02 a       525     0    27     1     5
 -5.5111580289232666E-02 a       526     0    27     1     6
  7.9836331412809578E-03 a       527     0    27     1     7
 -2.7094188015359422E-01 a       528     0    27     1     8
  8.2340180430419865E-02 a       529     0    27     1     9
 -1.8820711714610391E-01 a       530     0    27     1    10
 -1.4636584874352770E-01 a       531     0    27     1    11
 -4.7113961926990039E-01 a       532     0    27     1    12
 -4.9745089768932507E-02 a       533     0    27     1    13
  1.4490530298285695E-01 a       534     0    27     1    14
  4.7370902720108560E-01 a       535     0    27     1    15
  2.9778690619039694E-01 a       536     0    27     1    16
 -1.4321202430360777E-01 a       537     0    27     1    17
 -2.9783956067523332E-01 a       538     0    27     1    18
 -1.5234065892675352E-01 a       539     0    27     1    19
  1.2656978138237912E-01 a       540     0    27     1    20
 -2.3876467182766484E-01 a       541     0    28     1     1
 -8.2496851469624852E-03 a       542     0    28     1     2
  6.4934119173811408E-02 a       543     0    28     1     3
  9.7590137750684355E-02 a       544     0    28     1     4
 -6.6008378911249818E-02 a       545     0    28     1     5
 -2.2021107094473397E-01 a       546     0    28     1     6
  1.5524143972849108E-01 a       547     0    28     1     7
 -1.6895267215668269E-01 a       548     0    28     1     8
  3.4833187342193117E-01 a       549     0    28     1     9
  6.4201759255054960E-02 a       550     0    28     1    10
 -2.8129336822156664E-01 a       551     0    28     1    11
  1.1423615073384388E-01 a       552     0    28     1    12
  6.4233986690036188E-02 a       553     0    28     1    13
 -4.7859288249461739E-03 a       554     0    28     1    14
 -1.4929711201782378E-01 a       555     0    28     1    15
  1.4278919255697911E-01 a       556     0    28     1    16
  3.2972117850069739E-02 a       557     0    28     1    17
 -1.8085134467321151E-01 a       558     0    28     1    18
  7.5855340876240962E-02 a       559     0    28     1    19
 -1.2083168112756372E-02 a       560     0    28     1    20
  9.4142037002748688E-02 a       561     0    29     1     1
  2.5145624597020189E-01 a       562     0    29     1     2
 -7.6216856654176310E-02 a       563     0    29     1     3
 -9.2956421165056410E-02 a       564     0    29     1     4
  1.9419306131022920E-01 a       565     0    29     1     5
 -1.3140302201549992E-01 a       566     0    29     1     6
  1.0075312402885009E-01 a       567     0    29     1     7
 -2.7639470838348740E-01 a       568     0    29     1     8
  3.8764670509832766E-01 a       569     0    29     1     9
  2.5773695866452818E-02 a       570     0    29     1    10
  5.2059628566306770E-01 a       571     0    29     1    11
 -1.7871431525465084E-01 a       572     0    29     1    12
  2.9460871657967694E-02 a       573     0    29     1    13
 -1.2422414451227122E-01 a       574     0    29     1    14
  5.3875914376207160E-02 a       575     0    29     1    15
 -2.8533651058836307E-01 a       576     0    29     1    16
 -1.1340937410376878E-01 a       577     0    29     1    17
 -2.2311276684262837E-01 a       578     0    29     1    18
  1.8647482145222022E-01 a       579     0    29     1    19
  1.6896159573905270E-01 a       580     0    29     1    20
  9.3023329886108438E-02 a       581     0    30     1     1
 -3.4695388765511403E-01 a       582     0    30     1     2
  1.6878152313724484E-01 a       583     0    30     1     3
 -1.5761016581622156E-01 a       584     0    30     1     4
  5.9439932486645322E-02 a       585     0    30     1     5
 -2.0077593392491319E-01 a       586     0    30     1     6
  1.4148112086167824E-01 a       587     0    30     1     7
  2.0849688202282179E-01 a       588     0    30     1     8
 -1.8493891142475419E-01 a       589     0    30     1     9
  1.5441279088573542E-01 a       590     0    30     1    10
 -1.2611710433093665E-01 a       591     0    30     1    11
 -6.6313995992070846E-03 a       592     0    30     1    12
 -4.6314766836870995E-04 a       593     0    30     1    13
 -1.4517460394144008E-01 a       594     0    30     1    14
  1.1390968627721026E-02 a       595     0    30     1    15
 -9.6751008480806228E-02 a       596     0    30     1    16
  2.1088318266879999E-01 a       597     0    30     1    17
 -9.2243466132046384E-02 a       598     0    30     1    18
 -8.2576459087469523E-02 a       599     0    30     1    19
  9.1305041972425796E-02 a       600     0    30     1    20
 -3.0960833919545711E-01 b       601     1     1
  8.8495343510597024E-01 b       602     1     2
  9.0127734392808490E-01 b       603     1     3
  6.2760971504197649E-01 b       604     1     4
  4.0425404045478863E-01 b       605     1     5
 -1.5249184892154475E+00 b       606     1     6
 -1.3724694301609095E+00 b       607     1     7
 -9.3015503300818902E-01 b       608     1     8
 -1.4196351781231653E+00 b       609     1     9
 -5.8589912488802476E-01 b       610     1    10
 -7.6668395013795840E-02 b       611     1    11
 -5.0807829618480338E-01 b       612     1    12
 -1.2156202710815498E+00 b       613     1    13
  3.6786751948181051E-01 b       614     1    14
 -1.6172207418690814E+00 b       615     1    15
  5.2265695000992718E-01 b       616     1    16
  3.4436489670129583E-01 b       617     1    17
 -1.1974014678726064E+00 b       618     1    18
 -3.5292461106279893E-01 b       619     1    19
 -2.1785739765228460E-01 b       620     1    20
 -6.9651652792296637E-01 a       621     1     1     2     1
 -2.0258871454522565E-01 a       622     1     1     2     2
 -1.7690465328801930E-01 a       623     1     1     2     3
 -3.6958077361890690E-01 a       624     1     1     2     4
  2.0500088854376050E-01 a       625     1     1     2     5
 -4.9091428813522836E-01 a       626     1     1     2     6
 -5.5763733864953136E-01 a       627     1     1     2     7
 -6.8197098797995559E-01 a       628     1     1     2     8
  2.2534242638145155E-01 a       629     1     1     2     9
 -5.8296817116700861E-01 a       630     1     1     2    10
  2.9546082988275313E-01 a       631     1     1     2    11
 -1.7072537498330884E-01 a       632     1     1     2    12
  1.2928181350807560E-01 a       633     1     1     2    13
 -4.8463446571880858E-01 a       634     1     1     2    14
 -3.5131287627265345E-01 a       635     1     1     2    15
 -1.5627889733918449E-01 a       636     1     1     2    16
 -2.3386244807793816E-01 a       637     1     1     2    17
 -1.7173366854903396E-01 a       638     1     1     2    18
 -2.4709648757255988E-02 a       639     1     1     2    19
 -2.1664119588643072E-01 a       640     1     1     2    20
 -3.8220849652899158E-01 a       641     1     2     2     1
 -1.7895969319338831E-01 a       642     1     2     2     2
 -1.1158770711042265E-01 a       643     1     2     2     3
  2.6442630104826104E-01 a       644     1     2     2     4
 -1.2167226629069365E-01 a       645     1     2     2     5
  6.8861634665870169E-02 a       646     1     2     2     6
 -4.7740052281684070E-01 a       647     1     2     2     7
 -1.6104987432110771E-01 a       648     1     2     2     8
 -5.0062894505663080E-01 a       649     1     2     2     9
 -4.1149452473597087E-01 a       650     1     2     2    10
  3.2329411294228183E-01 a       651     1     2     2    11
  1.4980003150069426E-01 a       652     1     2     2    12
 -2.9842914236649448E-02 a       653     1     2     2    13
 -1.8802318890244960E-01 a       654     1     2     2    14
 -1.8333844085723544E-01 a       655     1     2     2    15
  3.4783093430298467E-01 a       656     1     2     2    16
  2.3090214559463434E-01 a       657     1     2     2    17
  4.6893154693022576E-01 a       658     1     2     2    18
 -6.2691363535965050E-01 a       659     1     2     2    19
  3.8646100856825460E-01 a       660     1     2     2    20
  5.9587082915141276E-01 a       661     1     3     2     1
  6.2852900010952650E-01 a       662     1     3     2     2
 -5.9076349725218913E-01 a       663     1     3     2     3
  5.2877740080644864E-01 a       664     1     3     2     4
 -6.4281111159883375E-01 a       665     1     3     2     5
  4.5775069109236172E-01 a       666     1     3     2     6
 -2.7335488908218403E-01 a       667     1     3     2     7
  2.5070284384931202E-01 a       668     1     3     2     8
 -5.1399317933353694E-01 a       669     1     3     2     9
  7.1993440191702701E-02 a       670     1     3     2    10
 -1.3439411029859213E-01 a       671     1     3     2    11
  3.1751317030342829E-01 a       672     1     3     2    12
  1.5070960626207783E-01 a       673     1     3     2    13
  5.7757237549943274E-01 a       674     1     3     2    14
  4.6801298076925102E-01 a       675     1     3     2    15
 -2.8479563397443536E-01 a       676     1     3     2    16
  5.7792144654738731E-01 a       677     1     3     2    17
  4.2054861130362531E-01 a       678     1     3     2    18
 -5.1573393498327824E-01 a       679     1     3     2    19
 -3.1744392831314988E-01 a       680     1     3     2    20
  4.4613137409081827E-01 a       681     1     4     2     1
 -4.1287223179786986E-01 a       682     1     4     2     2
 -1.0645018284691450E-01 a       683     1     4     2     3
  3.1362386913365253E-01 a       684     1     4     2     4
 -2.2375779378087604E-01 a       685     1     4     2     5
  2.6135025663337846E-02 a       686     1     4     2     6
 -6.9273951329348904E-01 a       687     1     4     2     7
  1.1732475714627932E-01 a       688     1     4     2     8
  2.5827392534919945E-03 a       689     1     4     2     9
 -6.2227275170883800E-01 a       690     1     4     2    10
  2.8612807508576834E-02 a       691     1     4     2    11
  4.3172295555148604E-01 a       692     1     4     2    12
  4.9960362336137165E-01 a       693     1     4     2    13
  1.7447541856443188E-01 a       694     1     4     2    14
 -3.9058057368054683E-01 a       695     1     4     2    15
  2.3137241349741750E-01 a       696     1     4     2    16
 -5.1496209059368914E-01 a       697     1     4     2    17
 -4.1693718481474423E-01 a       698     1     4     2    18
  7.1707527406872376E-02 a       699     1     4     2    19
  4.3228362391622782E-02 a       700     1     4     2    20
  2.6517367574206113E-01 a       701     1     5     2     1
 -1.5751302439912304E-01 a       702     1     5     2     2
 -8.2436987261092110E-02 a       703     1     5     2     3
  5.1894345644702122E-01 a       704     1     5     2     4
  6.0792070595441956E-02 a       705     1     5     2     5
 -2.1024168467065768E-01 a       706     1     5     2     6
 -2.0127643985473975E-01 a       707     1     5     2     7
 -1.5240800812552086E-01 a       708     1     5     2     8
  4.5032246941538695E-01 a       709     1     5     2     9
 -4.1741227397669506E-01 a       710     1     5     2    10
  4.1597244465880501E-01 a       711     1     5     2    11
 -1.7743289464719850E-01 a       712     1     5     2    12
 -3.2635601320657320E-01 a       713     1     5     2    13
  3.1801398833620231E-01 a       714     1     5     2    14
  6.3434397935407405E-01 a       715     1     5     2    15
 -3.4958243980928583E-01 a       716     1     5     2    16
 -1.6322085259613250E-01 a       717     1     5     2    17
 -4.3160567761363910E-01 a       718     1     5     2    18
 -4.9536482125649726E-02 a       719     1     5     2    19
  1.5415289497060880E-01 a       720     1     5     2    20
  1.4590632973785414E-01 a       721     1     6     2     1
  3.1337757930838306E-01 a       722     1     6     2     2
 -1.8679204948922931E-01 a       723     1     6     2     3
 -2.7291637892666687E-01 a       724     1     6     2     4
 -1.0698255854981882E-01 a       725     1     6     2     5
  5.0589810850995794E-02 a       726     1     6     2     6
  4.0861008468452609E-01 a       727     1     6     2     7
 -4.2578683393574968E-01 a       728     1     6     2     8
  3.2562526460194896E-01 a       729     1     6     2     9
 -3.0649436964770332E-01 a       730     1     6     2    10
 -4.1281184392623502E-02 a       731     1     6     2    11
  4.0985286567138524E-01 a       732     1     6     2    12
 -2.2524248951312256E-01 a       733     1     6     2    13
 -4.5267373106476272E-01 a       734     1     6     2    14
 -1.3889664790033407E-01 a       735     1     6     2    15
  3.5189479381684319E-01 a       736     1     6     2    16
  6.2776581735760270E-02 a       737     1     6     2    17
 -2.2125696577478313E-01 a       738     1     6     2    18
 -1.9367768074655323E-01 a       739     1     6     2    19
  3.5172425497814658E-01 a       740     1     6     2    20
 -4.5921360703167491E-01 a       741     1     7     2     1
 -1.5408297578672836E-01 a       742     1     7     2     2
  4.0631785413667276E-01 a       743     1     7     2     3
 -1.9547766746281209E-01 a       744     1     7     2     4
 -7.1424220782096159E-01 a       745     1     7     2     5
  3.5214764523399500E-01 a       746     1     7     2     6
  5.9835955154249176E-01 a       747     1     7     2     7
 -2.5604347834129348E-01 a       748     1     7     2     8
  2.4571261300576699E-01 a       749     1     7     2     9
 -5.0293331745956980E-02 a       750     1     7     2    10
 -2.6184140736937328E-01 a       751     1     7     2    11
 -1.8982356547313645E-01 a       752     1     7     2    12
  3.0584985473711607E-01 a       753     1     7     2    13
  1.6445944125632991E-01 a       754     1     7     2    14
 -3.5250457921037245E-02 a       755     1     7     2    15
 -2.4956500451688171E-01 a       756     1     7     2    16
 -3.2740096643939254E-01 a       757     1     7     2    17
 -4.6491526605383859E-01 a       758     1     7     2    18
  1.8196522097685952E-01 a       759     1     7     2    19
  6.9761165293331429E-01 a       760     1     7     2    20
  4.8204961124893336E-01 a       761     1     8     2     1
 -5.7024091044647329E-01 a       762     1     8     2     2
 -3.4197684996634686E-01 a       763     1     8     2     3
  2.0095453554886322E-01 a       764     1     8     2     4
 -4.3277341098509486E-01 a       765     1     8     2     5
 -5.6677453614382145E-02 a       766     1     8     2     6
 -3.7357977967535977E-01 a       767     1     8     2     7
  6.3231076078116832E-01 a       768     1     8     2     8
 -2.1336037215990986E-01 a       769     1     8     2     9
 -4.1025944329237146E-01 a       770     1     8     2    10
 -4.0087616614256483E-01 a       771     1     8     2    11
 -4.3589906358399044E-01 a       772     1     8     2    12
  3.8005598081300984E-01 a       773     1     8     2    13
 -5.1860403063202842E-01 a       774     1     8     2    14
  1.2942123228981356E-01 a       775     1     8     2    15
  2.7800596268233019E-01 a       776     1     8     2    16
  2.2511917369266571E-01 a       777     1     8     2    17
 -6.9818869070561076E-02 a       778     1     8     2    18
  1.4319875204937990E-01 a       779     1     8     2    19
 -2.3175438268893572E-01 a       780     1     8     2    20
  4.0996471339717999E-01 a       781     1     9     2     1
 -7.1982988867187037E-01 a       782     1     9     2     2
 -9.7976356446128662E-02 a       783     1     9     2     3
  4.4516911169262130E-01 a       784     1     9     2     4
 -1.2397270411504337E-01 a       785     1     9     2     5
 -4.2013805475946026E-01 a       786     1     9     2     6
  2.7238113763893429E-01 a       787     1     9     2     7
  4.5010071759105058E-01 a       788     1     9     2     8
  1.9140694788603499E-01 a       789     1     9     2     9
 -1.2975003349729031E-01 a       790     1     9     2    10
  4.9627980070655231E-01 a       791     1     9     2    11
  9.1331491674113641E-02 a       792     1     9     2    12
 -2.1742435582249192E-01 a       793     1     9     2    13
 -4.6372343226691559E-01 a       794     1     9     2    14
  2.0212603598930409E-01 a       795     1     9     2    15
  2.6275114155415785E-01 a       796     1     9     2    16
  1.8689547541708809E-01 a       797     1     9     2    17
  4.8747556218000943E-01 a       798     1     9     2    18
  3.5825464045264355E-01 a       799     1     9     2    19
  1.4136333237880080E-01 a       800     1     9     2    20
 -1.7591469568438045E-01 a       801     1    10     2     1
 -2.9154172797463446E-01 a       802     1    10     2     2
  5.4363723174920588E-02 a       803     1    10     2     3
  1.9490003027405850E-01 a       804     1    10     2     4
 -9.7579085901821402E-03 a       805     1    10     2     5
 -1.5480086370790364E-01 a       806     1    10     2     6
  2.7472663014946008E-01 a       807     1    10     2     7
  3.7329828089741340E-01 a       808     1    10     2     8
 -5.8665603517123732E-01 a       809     1    10     2     9
  7.1268086911579642E-01 a       810     1    10     2    10
  3.6119554291201295E-01 a       811     1    10     2    11
 -5.2212163626260766E-01 a       812     1    10     2    12
  5.0227948828439029E-01 a       813     1    10     2    13
  3.9447637083257367E-02 a       814     1    10     2    14
  1.3171144427695075E-01 a       815     1    10     2    15
  3.3465996956018140E-01 a       816     1    10     2    16
  4.8384293435451980E-01 a       817     1    10     2    17
 -9.3726682100344780E-02 a       818     1    10     2    18
  2.4216677571317993E-01 a       819     1    10     2    19
  5.5132029618133105E-01 a       820     1    10     2    20
  4.3358372756602365E-01 a       821     1    11     2     1
  4.2197986056581947E-02 a       822     1    11     2     2
  1.3696122249757545E-01 a       823     1    11     2     3
 -2.4465624193341449E-02 a       824     1    11     2     4
 -1.3228155298537517E-01 a       825     1    11     2     5
 -5.8183175995807253E-02 a       826     1    11     2     6
 -3.1572844493116664E-01 a       827     1    11     2     7
 -3.5440817962063476E-01 a       828     1    11     2     8
 -1.1067597757769420E-02 a       829     1    11     2     9
 -8.9838640091489758E-02 a       830     1    11     2    10
  1.7624383536958074E-01 a       831     1    11     2    11
  7.0466397166451855E-01 a       832     1    11     2    12
 -3.9546002202945690E-01 a       833     1    11     2    13
  5.2987791144915142E-01 a       834     1    11     2    14
 -2.2925775516506414E-01 a       835     1    11     2    15
 -3.8596923419804152E-01 a       836     1    11     2    16
 -3.8680506450760105E-01 a       837     1    11     2    17
  4.1540468850267681E-01 a       838     1    11     2    18
  5.1620822585388348E-01 a       839     1    11     2    19
 -5.7476614049192432E-01 a       840     1    11     2    20
 -2.1019126066739068E-02 a       841     1    12     2     1
 -4.7270142438240215E-01 a       842     1    12     2     2
  3.7118215694598655E-01 a       843     1    12     2     3
 -2.4129323471999020E-01 a       844     1    12     2     4
 -3.8139995828193068E-01 a       845     1    12     2     5
 -9.7715437814521647E-02 a       846     1    12     2     6
 -1.0735896066274958E-01 a       847     1    12     2     7
  1.7978938538094036E-01 a       848     1    12     2     8
 -2.6915227491424898E-01 a       849     1    12     2     9
  4.1761641580045372E-01 a       850     1    12     2    10
  5.9805313980883712E-01 a       851     1    12     2    11
  3.9791464124563547E-01 a       852     1    12     2    12
  1.8241033371288212E-01 a       853     1    12     2    13
 -4.0773155794776994E-01 a       854     1    12     2    14
 -1.0835383573495726E-01 a       855     1    12     2    15
  1.6602266584098130E-01 a       856     1    12     2    16
 -2.6449855227725866E-01 a       857     1    12     2    17
 -3.4129780668638809E-01 a       858     1    12     2    18
 -9.7890526621168081E-02 a       859     1    12     2    19
 -1.2268831254288269E-01 a       860     1    12     2    20
 -1.0815286717860483E-01 a       861     1    13     2     1
 -3.9280285722195907E-01 a       862     1    13     2     2
 -6.5328818465359029E-01 a       863     1    13     2     3
 -4.5746311524911276E-01 a       864     1    13     2     4
 -4.0351176367920577E-01 a       865     1    13     2     5
  4.8472192525585250E-01 a       866     1    13     2     6
  2.5181651820751827E-01 a       867     1    13     2     7
 -3.4776221192203485E-02 a       868     1    13     2     8
  4.9283416537189023E-01 a       869     1    13     2     9
  3.1384445097824554E-01 a       870     1    13     2    10
 -3.9449248860244329E-01 a       871     1    13     2    11
 -3.9023159315489650E-02 a       872     1    13     2    12
 -2.3444869224844209E-01 a       873     1    13     2    13
  1.8015733450162560E-01 a       874     1    13     2    14
 -2.2151132178925025E-02 a       875     1    13     2    15
 -8.2309717475727892E-02 a       876     1    13     2    16
 -1.8531738330729089E-01 a       877     1    13     2    17
 -1.7373443938554300E-01 a       878     1    13     2    18
  2.9198762357071312E-01 a       879     1    13     2    19
 -5.2272128258920758E-01 a       880     1    13     2    20
  3.2738388405361096E-01 a       881     1    14     2     1
 -8.1015517812548565E-02 a       882     1    14     2     2
  6.8140290170667595E-01 a       883     1    14     2     3
  1.5150140172718157E-01 a       884     1    14     2     4
 -4.0636450616194192E-01 a       885     1    14     2     5
  4.0187157503301468E-01 a       886     1    14     2     6
  1.5633344260362983E-01 a       887     1    14     2     7
 -4.5010461229186699E-01 a       888     1    14     2     8
 -3.3035063284506766E-01 a       889     1    14     2     9
 -3.7832643278241368E-01 a       890     1    14     2    10
 -2.7739785667292366E-01 a       891     1    14     2    11
  2.7215672992256364E-02 a       892     1    14     2    12
 -1.1967232851621515E-01 a       893     1    14     2    13
  2.4354789637935459E-01 a       894     1    14     2    14
 -3.4741720774970064E-01 a       895     1    14     2    15
 -3.7642356221388340E-01 a       896     1    14     2    16
 -4.3803763765336090E-01 a       897     1    14     2    17
 -3.8937781143652556E-01 a       898     1    14     2    18
  4.0773511776264643E-01 a       899     1    14     2    19
 -4.8941486545482549E-01 a       900     1    14     2    20
 -2.1971071850059523E-01 a       901     1    15     2     1
 -4.0925401115018878E-01 a       902     1    15     2     2
 -5.4961929304853019E-01 a       903     1    15     2     3
 -1.2275781302896029E-01 a       904     1    15     2     4
 -7.3943999503179536E-01 a       905     1    15     2     5
 -4.3242634433317212E-01 a       906     1    15     2     6
  2.3880911923193384E-02 a       907     1    15     2     7
 -1.4657072033209495E-01 a       908     1    15     2     8
 -3.3007307770912409E-01 a       909     1    15     2     9
  4.8057438689230980E-01 a       910     1    15     2    10
 -6.7167365953206259E-01 a       911     1    15     2    11
 -5.4529963470790166E-01 a       912     1    15     2    12
 -6.7502367085056292E-01 a       913     1    15     2    13
 -1.2363021500245416E-01 a       914     1    15     2    14
  4.2254792759282584E-03 a       915     1    15     2    15
 -1.7117120793424973E-01 a       916     1    15     2    16
 -6.2343698547553350E-01 a       917     1    15     2    17
 -4.3581434264637653E-01 a       918     1    15     2    18
  4.5991727353605566E-01 a       919     1    15     2    19
  3.8430055729501256E-01 a       920     1    15     2    20
 -6.0426615761890135E-01 a       921     1    16     2     1
 -7.4769726494427383E-02 a       922     1    16     2     2
 -2.5233200247238483E-03 a       923     1    16     2     3
 -1.5956100439889570E-02 a       924     1    16     2     4
  2.6421771461610299E-01 a       925     1    16     2     5
 -2.0066577178241096E-01 a       926     1    16     2     6
  8.7656897609793075E-02 a       927     1    16     2     7
 -3.7265018512196391E-01 a       928     1    16     2     8
  3.4771965674600208E-01 a       929     1    16     2     9
 -1.9479011622340298E-01 a       930     1    16     2    10
  9.7478466356917412E-02 a       931     1    16     2    11
  1.5205768192021563E-01 a       932     1    16     2    12
 -2.9917836217738619E-01 a       933     1    16     2    13
  3.5979216638297534E-01 a       934     1    16     2    14
 -7.7170031771830891E-02 a       935     1    16     2    15
 -3.7360564490631587E-01 a       936     1    16     2    16
  1.0634229725876146E-01 a       937     1    16     2    17
  1.3108775726598904E-01 a       938     1    16     2    18
  3.8698937247163452E-02 a       939     1    16     2    19
  5.6660326295389651E-01 a       940     1    16     2    20
 -1.5313313890103317E-01 a       941     1    17     2     1
  5.1602784442602367E-01 a       942     1    17     2     2
  2.0382443806578401E-01 a       943     1    17     2     3
  2.3275426352028522E-01 a       944     1    17     2     4
 -2.8717537698097755E-02 a       945     1    17     2     5
 -4.3479444057575578E-01 a       946     1    17     2     6
 -2.7349336915498440E-01 a       947     1    17     2     7
  3.6922459305730382E-01 a       948     1    17     2     8
  2.7634663313028478E-02 a       949     1    17     2     9
  2.7565228125814839E-01 a       950     1    17     2    10
  2.4804162983205966E-01 a       951     1    17     2    11
  2.8059706921921801E-01 a       952     1    17     2    12
 -1.8215908587317661E-01 a       953     1    17     2    13
 -5.3848918633471266E-01 a       954     1    17     2    14
  1.9476448916932382E-01 a       955     1    17     2    15
 -2.0011529308098491E-02 a       956     1    17     2    16
  1.9583024952816153E-01 a       957     1    17     2    17
  6.5089521862207803E-02 a       958     1    17     2    18
 -5.3573415720649176E-01 a       959     1    17     2    19
  1.9571617075365336E-01 a       960     1    17     2    20
 -2.2791244153967935E-01 a       961     1    18     2     1
 -4.8752368516604840E-02 a       962     1    18     2     2
 -2.5470614077551318E-01 a       963     1    18     2     3
  6.1275925526841224E-01 a       964     1    18     2     4
 -4.1195781836593443E-01 a       965     1    18     2     5
 -5.3862461125558281E-01 a       966     1    18     2     6
  2.7146706976749146E-01 a       967     1    18     2     7
  7.2770020190526669E-02 a       968     1    18     2     8
  5.1915746905451515E-03 a       969     1    18     2     9
  2.6843285180092225E-01 a       970     1    18     2    10
 -3.5144028014654616E-01 a       971     1    18     2    11
  4.7209030901515836E-01 a       972     1    18     2    12
  2.9859154011658001E-01 a       973     1    18     2    13
 -1.6290959247803108E-01 a       974     1    18     2    14
  6.3160499048734275E-02 a       975     1    18     2    15
 -4.3911877815269262E-01 a       976     1    18     2    16
  5.6966541544666149E-01 a       977     1    18     2    17
 -4.1836882416962318E-02 a       978     1    18     2    18
  4.5754473842648979E-01 a       979     1    18     2    19
 -9.2552502661869970E-02 a       980     1    18     2    20
  3.0562918040406485E-02 a       981     1    19     2     1
  2.1277903614124347E-01 a       982     1    19     2     2
  1.1436491600567887E-02 a       983     1    19     2     3
 -5.3970424215415203E-01 a       984     1    19     2     4
 -7.4769716556129096E-01 a       985     1    19     2     5
  3.5125187743551350E-01 a       986     1    19     2     6
  4.5782825800108967E-01 a       987     1    19     2     7
  5.9716446742147689E-01 a       988     1    19     2     8
  2.6820487210871014E-01 a       989     1    19     2     9
  1.2447141495056785E-01 a       990     1    19     2    10
  2.3942225795641919E-01 a       991     1    19     2    11
  2.4538525559688898E-01 a       992     1    19     2    12
  1.2460460744435735E-01 a       993     1    19     2    13
 -4.2603320065588485E-01 a       994     1    19     2    14
 -3.8464032034278273E-01 a       995     1    19     2    15
  2.6651278859240751E-01 a       996     1    19     2    16
 -5.4790891955619525E-01 a       997     1    19     2    17
 -1.2980224924518602E-01 a       998     1    19     2    18
  6.1604665067365905E-01 a       999     1    19     2    19
 -2.8258398151623863E-02 a      1000     1    19     2    20
 -2.9206356860325150E-01 a      1001     1    20     2     1
  3.9959339558234747E-01 a      1002     1    20     2     2
 -4.5697166121546007E-01 a      1003     1    20     2     3
  2.0335513293155372E-01 a      1004     1    20     2     4
 -1.6079790054201976E-01 a      1005     1    20     2     5
  5.4782673045552710E-01 a      1006     1    20     2     6
 -5.4271307944966030E-01 a      1007     1    20     2     7
  4.6760924293865019E-01 a      1008     1    20     2     8
 -5.3138891761519180E-01 a      1009     1    20     2     9
  2.5772893362840482E-01 a      1010     1    20     2    10
  5.1543271653271772E-02 a      1011     1    20     2    11
 -3.9250162621766754E-01 a      1012     1    20     2    12
  6.1079270242257200E-01 a      1013     1    20     2    13
 -6.1828928947814138E-02 a      1014     1    20     2    14
 -3.7520911862643708E-01 a      1015     1    20     2    15
  6.5337613088217439E-01 a      1016     1    20     2    16
  1.6933664224464975E-01 a      1017     1    20     2    17
 -2.0900473927383892E-01 a      1018     1    20     2    18
 -2.7953804243348562E-01 a      1019     1    20     2    19
 -6.6144790323729649E-02 a      1020     1    20     2    20
 -9.5119694236310626E-01 b      1021     2     1
  7.5139162864402154E-01 b      1022     2     2
  7.9015985087142371E-01 b      1023     2     3
 -1.1005660605999932E+00 b      1024     2     4
 -1.0848589138192746E+00 b      1025     2     5
  1.4432715488852976E+00 b      1026     2     6
 -8.8499721906959025E-02 b      1027     2     7
  9.0417557970935869E-01 b      1028     2     8
  1.3519471217880483E+00 b      1029     2     9
 -4.2548500067690515E-01 b      1030     2    10
  2.4033052931889979E-03 b      1031     2    11
  9.4298510543502101E-01 b      1032     2    12
 -5.7970663979948815E-02 b      1033     2    13
  1.5901485474600552E+00 b      1034     2    14
 -3.2145161443355658E-01 b      1035     2    15
  1.1123150846314303E+00 b      1036     2    16
 -3.7298436955485131E-01 b      1037     2    17
 -1.4176824432380337E+00 b      1038     2    18
 -1.1951146498866948E-01 b      1039     2    19
 -1.3424490245192933E+00 b      1040     2    20
 -5.3708309854803316E-01 a      1041     2     1     3     1
 -2.9971874948231630E-01 a      1042     2     2     3     1
 -1.1425081665562185E+00 a      1043     2     3     3     1
  3.3217969814569931E-01 a      1044     2     4     3     1
 -1.2386279901013222E+00 a      1045     2     5     3     1
  8.7693706800324778E-01 a      1046     2     6     3     1
  1.1326951834293220E+00 a      1047     2     7     3     1
  2.2057069912448757E-01 a      1048     2     8     3     1
 -8.6593495992951897E-01 a      1049     2     9     3     1
  8.2308351946130387E-01 a      1050     2    10     3     1
 -1.0767070127066791E+00 a      1051     2    11     3     1
  2.3236390555691017E-01 a      1052     2    12     3     1
 -4.3241155544795323E-01 a      1053     2    13     3     1
  2.2394982489703863E-01 a      1054     2    14     3     1
  1.0267936664829016E+00 a      1055     2    15     3     1
 -3.7608934259918803E-01 a      1056     2    16     3     1
 -1.0788945918582000E+00 a      1057     2    17     3     1
 -2.9912231083662061E-01 a      1058     2    18     3     1
  3.6015873585260905E-01 a      1059     2    19     3     1
  2.1065751283857923E-01 a      1060     2    20     3     1
 -8.8983810882336689E-01 b      1061     3     1
