################################################################################
# Neural network connection values (weights and biases).
################################################################################
# Col  Name       Description
################################################################################
# 1    connection Neural network connection value.
# 2    t          Connection type (a = weight, b = bias).
# 3    index      Index enumerating weights.
# 4    l_s        Starting point layer (end point layer for biases).
# 5    n_s        Starting point neuron in starting layer (end point neuron for biases).
# 6    l_e        End point layer.
# 7    n_e        End point neuron in end layer.
################################################################################
#                      1 2         3     4     5     6     7
#             connection t     index   l_s   n_s   l_e   n_e
############################################################
 -1.0133281822994408E-01 a         1     0     1     1     1
 -4.6341505271762223E-01 a         2     0     1     1     2
 -1.8899484266122588E-01 a         3     0     1     1     3
 -5.1859809988982475E-01 a         4     0     1     1     4
  1.7301725774926419E-01 a         5     0     1     1     5
  3.4930561599064386E-01 a         6     0     1     1     6
  3.6284968447293847E-01 a         7     0     1     1     7
  8.5321469836498173E-02 a         8     0     1     1     8
 -1.4978118447375943E-01 a         9     0     1     1     9
  2.1215191054314725E-01 a        10     0     1     1    10
 -6.2181557685145411E-02 a        11     0     1     1    11
 -4.5293465198564892E-02 a        12     0     1     1    12
 -1.3311193415697445E-01 a        13     0     1     1    13
  2.2203008141818362E-02 a        14     0     1     1    14
  3.9806697412333125E-01 a        15     0     1     1    15
  1.1979483426382644E-01 a        16     0     1     1    16
  1.5656124699311578E-02 a        17     0     1     1    17
 -2.3784492390027337E-01 a        18     0     1     1    18
 -1.3929121771174682E-01 a        19     0     1     1    19
 -4.0589670336750011E-01 a        20     0     1     1    20
 -2.8787294561425936E-01 a        21     0     2     1     1
  9.3223155370777563E-02 a        22     0     2     1     2
  3.7745054203984890E-01 a        23     0     2     1     3
  2.6301226387148102E-01 a        24     0     2     1     4
 -2.5021716948316891E-01 a        25     0     2     1     5
  1.3876871349040781E-01 a        26     0     2     1     6
  2.3470445244569133E-01 a        27     0     2     1     7
 -5.5065594373142270E-02 a        28     0     2     1     8
  5.0257274487365544E-01 a        29     0     2     1     9
  1.2933469955834823E-01 a        30     0     2     1    10
  3.5218061799607825E-03 a        31     0     2     1    11
  2.5074163524881271E-01 a        32     0     2     1    12
  3.5829837992368413E-02 a        33     0     2     1    13
 -5.3737193387958437E-01 a        34     0     2     1    14
 -3.3475161459182939E-01 a        35     0     2     1    15
  5.9971463639428860E-02 a        36     0     2     1    16
 -3.7113556627080052E-01 a        37     0     2     1    17
  6.5617489625341613E-02 a        38     0     2     1    18
 -3.1293213188994295E-01 a        39     0     2     1    19
  3.2853963926523344E-02 a        40     0     2     1    20
  1.3606718260768078E-01 a        41     0     3     1     1
  2.1126400654095437E-01 a        42     0     3     1     2
  1.6219414424468628E-01 a        43     0     3     1     3
 -3.8205744345130227E-01 a        44     0     3     1     4
  4.1554254406817515E-01 a        45     0     3     1     5
 -3.8944473339155555E-01 a        46     0     3     1     6
 -1.2329844153025650E-01 a        47     0     3     1     7
  1.2668127127783715E-01 a        48     0     3     1     8
 -3.1631690977774252E-01 a        49     0     3     1     9
 -1.0589774354734214E-02 a        50     0     3     1    10
 -9.1033325050414397E-03 a        51     0     3     1    11
  1.8954247110519090E-01 a        52     0     3     1    12
 -2.8600736399342169E-01 a        53     0     3     1    13
  9.2581439280274486E-02 a        54     0     3     1    14
  1.4326767548758132E-01 a        55     0     3     1    15
  2.7917963728812811E-01 a        56     0     3     1    16
  4.8798661746694977E-01 a        57     0     3     1    17
  3.8913607617309665E-01 a        58     0     3     1    18
  2.8480641618990843E-01 a        59     0     3     1    19
 -2.0956625658738515E-01 a        60     0     3     1    20
  1.5619725037748658E-01 a        61     0     4     1     1
  2.2843213988758981E-01 a        62     0     4     1     2
 -1.8490662429882010E-01 a        63     0     4     1     3
  4.8335881320036557E-02 a        64     0     4     1     4
  2.0409094557197138E-01 a        65     0     4     1     5
 -3.1549149992273551E-01 a        66     0     4     1     6
 -3.6735413138069034E-01 a        67     0     4     1     7
 -2.9299429741373162E-01 a        68     0     4     1     8
 -4.5096627818696888E-01 a        69     0     4     1     9
 -2.8087755251584423E-01 a        70     0     4     1    10
  1.0575849680111815E-01 a        71     0     4     1    11
 -3.1715820240478892E-01 a        72     0     4     1    12
 -2.8896960707944458E-01 a        73     0     4     1    13
  3.3039296425846998E-01 a        74     0     4     1    14
  1.2672534252962284E-01 a        75     0     4     1    15
 -4.8759132333585453E-01 a        76     0     4     1    16
 -2.5943980861589133E-01 a        77     0     4     1    17
  1.2472798537378885E-01 a        78     0     4     1    18
 -3.9491523557086350E-02 a        79     0     4     1    19
 -2.2743685254179569E-02 a        80     0     4     1    20
 -2.6675131153777587E-01 a        81     0     5     1     1
  3.2302660936260291E-01 a        82     0     5     1     2
 -3.6028722449362832E-01 a        83     0     5     1     3
  3.4874229755978681E-01 a        84     0     5     1     4
 -2.1781530771904914E-01 a        85     0     5     1     5
 -6.2982211237836191E-02 a        86     0     5     1     6
 -1.6419682006336961E-01 a        87     0     5     1     7
 -5.3247374403273351E-01 a        88     0     5     1     8
  3.4869369683999951E-01 a        89     0     5     1     9
 -9.0844881779209158E-02 a        90     0     5     1    10
 -5.0229351406725450E-02 a        91     0     5     1    11
 -2.0134109699298644E-01 a        92     0     5     1    12
  7.9849609390571175E-02 a        93     0     5     1    13
 -1.3636185158739578E-01 a        94     0     5     1    14
 -2.7843832095692733E-01 a        95     0     5     1    15
 -4.7782961693346539E-02 a        96     0     5     1    16
 -3.2801382343342134E-01 a        97     0     5     1    17
 -7.7451870299150821E-02 a        98     0     5     1    18
  2.2088512787662423E-01 a        99     0     5     1    19
  9.5448721696173924E-02 a       100     0     5     1    20
  3.0590775826203653E-01 a       101     0     6     1     1
 -2.5185248978340108E-01 a       102     0     6     1     2
  2.4916673432109915E-01 a       103     0     6     1     3
 -3.7270773770932814E-01 a       104     0     6     1     4
 -9.0746338403719262E-02 a       105     0     6     1     5
  3.3518432882435445E-01 a       106     0     6     1     6
  4.3234268863898619E-02 a       107     0     6     1     7
  1.7368871382356051E-02 a       108     0     6     1     8
  1.6369730439778749E-01 a       109     0     6     1     9
 -1.1468563443060679E-01 a       110     0     6     1    10
  1.6978656758078531E-01 a       111     0     6     1    11
  3.8840794919142757E-01 a       112     0     6     1    12
 -2.7813169885721408E-02 a       113     0     6     1    13
  3.5532614722903177E-01 a       114     0     6     1    14
 -1.4315255330916329E-01 a       115     0     6     1    15
  1.6919216539516152E-01 a       116     0     6     1    16
  3.4078084123835767E-01 a       117     0     6     1    17
  2.8805495348432635E-03 a       118     0     6     1    18
 -3.4023470222085461E-02 a       119     0     6     1    19
  4.7407096795460230E-01 a       120     0     6     1    20
  1.5249885603554922E-01 a       121     0     7     1     1
 -4.7914757295831795E-01 a       122     0     7     1     2
  2.9772577907388809E-01 a       123     0     7     1     3
 -2.9070386994173719E-01 a       124     0     7     1     4
  2.7272013293466224E-01 a       125     0     7     1     5
 -1.8654762358228172E-01 a       126     0     7     1     6
 -1.2520031595059106E-01 a       127     0     7     1     7
  3.7223751404996719E-01 a       128     0     7     1     8
 -6.0928733993225216E-02 a       129     0     7     1     9
 -9.1349228484641609E-02 a       130     0     7     1    10
  7.2486184676761170E-02 a       131     0     7     1    11
 -3.6778472412353042E-01 a       132     0     7     1    12
  2.6544100275601085E-01 a       133     0     7     1    13
 -3.3692281718400080E-01 a       134     0     7     1    14
  2.1683048327290416E-01 a       135     0     7     1    15
  2.0752922938135360E-01 a       136     0     7     1    16
  1.0154752711840226E-01 a       137     0     7     1    17
  2.9650821388427995E-01 a       138     0     7     1    18
 -2.4151636995694081E-01 a       139     0     7     1    19
 -2.6966291223588229E-01 a       140     0     7     1    20
 -4.2434012220426764E-01 a       141     0     8     1     1
  2.0626632531039754E-01 a       142     0     8     1     2
 -2.4403487161272538E-01 a       143     0     8     1     3
 -2.1734421566932116E-01 a       144     0     8     1     4
 -3.5809291196298076E-01 a       145     0     8     1     5
 -2.8874169844152781E-01 a       146     0     8     1     6
 -3.7936427342505956E-02 a       147     0     8     1     7
  2.1402003225360852E-03 a       148     0     8     1     8
  1.4270829144618087E-02 a       149     0     8     1     9
 -3.9481930503324991E-01 a       150     0     8     1    10
 -3.1599812934582994E-01 a       151     0     8     1    11
  1.0563407707601266E-01 a       152     0     8     1    12
  4.0185326912619679E-01 a       153     0     8     1    13
 -4.3171471326569016E-01 a       154     0     8     1    14
  3.1841275764297344E-01 a       155     0     8     1    15
 -4.8618904743302416E-01 a       156     0     8     1    16
 -3.9067815123038349E-02 a       157     0     8     1    17
  3.7862771927855299E-01 a       158     0     8     1    18
  1.3013430380340466E-01 a       159     0     8     1    19
 -1.4294912682637223E-01 a       160     0     8     1    20
  1.3046420087943347E-01 a       161     0     9     1     1
 -6.9738858901595910E-02 a       162     0     9     1     2
  2.1979664741497607E-01 a       163     0     9     1     3
 -3.2756997699131646E-01 a       164     0     9     1     4
  2.8592827152859795E-01 a       165     0     9     1     5
 -4.2308204953669171E-01 a       166     0     9     1     6
 -2.0207569697931230E-01 a       167     0     9     1     7
 -3.5870110663070304E-01 a       168     0     9     1     8
  1.1208678155146826E-01 a       169     0     9     1     9
  2.1390418921162851E-01 a       170     0     9     1    10
  2.2448464463646459E-01 a       171     0     9     1    11
  9.7009154868555908E-02 a       172     0     9     1    12
  1.6595223592202726E-01 a       173     0     9     1    13
  2.3297547915644110E-01 a       174     0     9     1    14
  2.1409156285628939E-01 a       175     0     9     1    15
  3.7154817230088033E-01 a       176     0     9     1    16
  8.8367552146706690E-02 a       177     0     9     1    17
 -4.1562192688006022E-01 a       178     0     9     1    18
  4.3210211298131745E-01 a       179     0     9     1    19
  7.0379789604697235E-02 a       180     0     9     1    20
  1.2447568288615471E-01 a       181     0    10     1     1
  1.5210344807471146E-01 a       182     0    10     1     2
 -1.9099928080560241E-01 a       183     0    10     1     3
  4.7471855200726121E-01 a       184     0    10     1     4
 -2.0862851891421591E-01 a       185     0    10     1     5
 -3.6078897052951420E-01 a       186     0    10     1     6
  3.8424142285745566E-01 a       187     0    10     1     7
  3.5960635248229278E-01 a       188     0    10     1     8
  4.3592625168688011E-02 a       189     0    10     1     9
 -2.2395348150341926E-01 a       190     0    10     1    10
 -3.7454452378618441E-01 a       191     0    10     1    11
  2.0967688372454005E-01 a       192     0    10     1    12
 -2.5750341234147656E-01 a       193     0    10     1    13
  1.9688614843335822E-01 a       194     0    10     1    14
 -1.4686112167750620E-01 a       195     0    10     1    15
  1.4276786739518327E-01 a       196     0    10     1    16
  1.9429977279431657E-01 a       197     0    10     1    17
 -4.9006155682252986E-02 a       198     0    10     1    18
 -4.0402104780789477E-01 a       199     0    10     1    19
  2.6239922255325142E-02 a       200     0    10     1    20
  3.0026369513622841E-01 a       201     0    11     1     1
  2.7551938602298565E-01 a       202     0    11     1     2
  1.5824672570578630E-01 a       203     0    11     1     3
 -1.6929923026971375E-01 a       204     0    11     1     4
 -2.2306217047870835E-02 a       205     0    11     1     5
 -3.4965527709574284E-01 a       206     0    11     1     6
 -3.6217570297631219E-01 a       207     0    11     1     7
  3.5901877093168374E-02 a       208     0    11     1     8
 -1.8871835328575362E-01 a       209     0    11     1     9
  2.7157895269620802E-01 a       210     0    11     1    10
 -1.0925107740728143E-01 a       211     0    11     1    11
  2.3144844837505993E-01 a       212     0    11     1    12
 -2.6965744437764683E-01 a       213     0    11     1    13
 -4.0706155660861254E-01 a       214     0    11     1    14
 -3.7060680045899475E-01 a       215     0    11     1    15
  1.0212488151493813E-01 a       216     0    11     1    16
 -1.7547904207911835E-01 a       217     0    11     1    17
  1.5402867711158333E-01 a       218     0    11     1    18
 -4.0684773673984065E-01 a       219     0    11     1    19
 -3.6242923062855936E-01 a       220     0    11     1    20
  2.5377702095992360E-01 a       221     0    12     1     1
  1.5941217687458407E-02 a       222     0    12     1     2
 -1.5712756757090776E-01 a       223     0    12     1     3
  2.4362484472014839E-01 a       224     0    12     1     4
  3.6199074667845588E-01 a       225     0    12     1     5
  3.2475855595229652E-01 a       226     0    12     1     6
 -2.9289895839885377E-01 a       227     0    12     1     7
 -1.7807420437193336E-01 a       228     0    12     1     8
 -2.6512237027920982E-01 a       229     0    12     1     9
 -2.1332878634333599E-02 a       230     0    12     1    10
 -6.1164076441998269E-02 a       231     0    12     1    11
 -1.3163820022663134E-01 a       232     0    12     1    12
 -2.9586615547625084E-01 a       233     0    12     1    13
 -3.1637533933576972E-01 a       234     0    12     1    14
 -2.5544579390308081E-01 a       235     0    12     1    15
 -3.1450449802112501E-01 a       236     0    12     1    16
  1.0904963596222203E-01 a       237     0    12     1    17
 -1.3693556561677267E-01 a       238     0    12     1    18
  8.4157654992086744E-02 a       239     0    12     1    19
 -4.3798796986855119E-03 a       240     0    12     1    20
  3.5505716166796253E-01 a       241     0    13     1     1
 -2.7820991535494094E-01 a       242     0    13     1     2
 -3.3779395494655612E-01 a       243     0    13     1     3
  9.1447935232085609E-02 a       244     0    13     1     4
 -1.8479002359133290E-01 a       245     0    13     1     5
  5.5622328100423099E-02 a       246     0    13     1     6
 -1.6556020276369224E-01 a       247     0    13     1     7
  1.9389480573873583E-01 a       248     0    13     1     8
 -5.6255274232695799E-03 a       249     0    13     1     9
  2.8971425360305730E-01 a       250     0    13     1    10
  1.3778311309426521E-02 a       251     0    13     1    11
  2.1159641891806216E-01 a       252     0    13     1    12
  3.0634542418317917E-01 a       253     0    13     1    13
  9.0755311831117610E-02 a       254     0    13     1    14
 -2.2809965503056509E-01 a       255     0    13     1    15
  2.7938189095437094E-01 a       256     0    13     1    16
  2.3819089365184484E-01 a       257     0    13     1    17
  3.9934929650924933E-02 a       258     0    13     1    18
  2.4957317605505308E-01 a       259     0    13     1    19
 -2.3029270196931156E-02 a       260     0    13     1    20
 -2.8428693014306317E-01 a       261     0    14     1     1
  1.2774781274547098E-01 a       262     0    14     1     2
 -2.2875534842880307E-01 a       263     0    14     1     3
 -1.7435525481961198E-01 a       264     0    14     1     4
 -3.3616189846882999E-01 a       265     0    14     1     5
 -1.6570830208494683E-01 a       266     0    14     1     6
 -2.1245833833373823E-01 a       267     0    14     1     7
 -1.9761952547936782E-02 a       268     0    14     1     8
 -7.8127582474893209E-02 a       269     0    14     1     9
 -1.0000360454293437E-01 a       270     0    14     1    10
  2.0745465487497594E-01 a       271     0    14     1    11
 -1.8631180212433848E-01 a       272     0    14     1    12
 -1.2692762630415522E-01 a       273     0    14     1    13
  3.5806434791090114E-01 a       274     0    14     1    14
  2.5119512491125023E-01 a       275     0    14     1    15
 -2.2132252469472416E-01 a       276     0    14     1    16
  1.5074585499910212E-01 a       277     0    14     1    17
 -7.8828727887413422E-02 a       278     0    14     1    18
 -3.2841627524467881E-01 a       279     0    14     1    19
  1.5097110929523119E-01 a       280     0    14     1    20
 -2.5674651970380163E-01 a       281     0    15     1     1
  4.0677900089102430E-02 a       282     0    15     1     2
  1.6769304410834446E-01 a       283     0    15     1     3
  3.0606015097897482E-01 a       284     0    15     1     4
 -5.1141503544821561E-02 a       285     0    15     1     5
  1.4888805154370330E-01 a       286     0    15     1     6
 -1.4312791483824219E-01 a       287     0    15     1     7
 -3.6151224375180835E-01 a       288     0    15     1     8
 -1.1598843877978461E-01 a       289     0    15     1     9
 -3.2544847637994728E-01 a       290     0    15     1    10
  2.2514785890160968E-02 a       291     0    15     1    11
  1.2720951894331017E-01 a       292     0    15     1    12
 -2.5209222121877845E-01 a       293     0    15     1    13
  3.5804516691948007E-01 a       294     0    15     1    14
  3.8988006173744739E-02 a       295     0    15     1    15
 -4.0729151452847839E-01 a       296     0    15     1    16
 -3.5500122735455375E-01 a       297     0    15     1    17
  3.2143292062420153E-01 a       298     0    15     1    18
 -1.1159851800175406E-01 a       299     0    15     1    19
  7.4230270925660813E-02 a       300     0    15     1    20
 -2.8158366849962130E-01 a       301     0    16     1     1
 -3.2401484722503032E-01 a       302     0    16     1     2
  2.2467476045846729E-01 a       303     0    16     1     3
 -7.2634526585374115E-02 a       304     0    16     1     4
  3.5733934774712553E-02 a       305     0    16     1     5
 -2.9333002947422965E-01 a       306     0    16     1     6
 -1.9081913245300069E-01 a       307     0    16     1     7
 -3.3434927746234293E-02 a       308     0    16     1     8
  2.3577946368744610E-02 a       309     0    16     1     9
 -5.7820535148421842E-03 a       310     0    16     1    10
  6.7499917185982777E-02 a       311     0    16     1    11
 -5.8978720429329889E-02 a       312     0    16     1    12
 -2.2466568946385967E-01 a       313     0    16     1    13
  1.4213793944672606E-01 a       314     0    16     1    14
 -1.6960261576037614E-01 a       315     0    16     1    15
 -4.7344635680300368E-02 a       316     0    16     1    16
 -2.8720291946551513E-01 a       317     0    16     1    17
  9.5284305272637065E-02 a       318     0    16     1    18
  2.2908444621549165E-01 a       319     0    16     1    19
 -1.1236070706745788E-01 a       320     0    16     1    20
 -1.2020703603694195E-01 a       321     0    17     1     1
  1.0224146539183324E-01 a       322     0    17     1     2
  1.6095023863070562E-01 a       323     0    17     1     3
  2.0199634435091530E-02 a       324     0    17     1     4
  3.7835641437250994E-01 a       325     0    17     1     5
 -7.4728884517382133E-02 a       326     0    17     1     6
 -7.1830272860672853E-02 a       327     0    17     1     7
 -3.3551181337620534E-01 a       328     0    17     1     8
  9.9364825921970754E-02 a       329     0    17     1     9
  2.7085469390113170E-01 a       330     0    17     1    10
  3.9491428090974362E-01 a       331     0    17     1    11
 -7.7860434438550882E-02 a       332     0    17     1    12
 -2.0779927884064189E-01 a       333     0    17     1    13
  1.6657829380945621E-01 a       334     0    17     1    14
 -2.3076746360271810E-01 a       335     0    17     1    15
 -1.2410402948815578E-01 a       336     0    17     1    16
 -1.1909426257041408E-01 a       337     0    17     1    17
 -7.0006379235158678E-02 a       338     0    17     1    18
 -2.8593901333958921E-01 a       339     0    17     1    19
  1.8250216715380874E-01 a       340     0    17     1    20
  1.0861767659792680E-01 a       341     0    18     1     1
  2.4880775145473261E-01 a       342     0    18     1     2
  1.7545917249339382E-01 a       343     0    18     1     3
  2.2118840834290968E-01 a       344     0    18     1     4
 -1.7884352120544786E-01 a       345     0    18     1     5
  1.3795878641062365E-01 a       346     0    18     1     6
  1.0171917296256058E-01 a       347     0    18     1     7
  1.6427950008747130E-01 a       348     0    18     1     8
  5.3075431317843098E-02 a       349     0    18     1     9
  9.2370251609680154E-02 a       350     0    18     1    10
  1.5569988202248439E-01 a       351     0    18     1    11
 -9.4089453383485400E-02 a       352     0    18     1    12
  3.0484763647205904E-01 a       353     0    18     1    13
 -2.3243668416890684E-02 a       354     0    18     1    14
 -2.0537297635285717E-01 a       355     0    18     1    15
 -1.8821691243549421E-01 a       356     0    18     1    16
  9.8837984368353046E-02 a       357     0    18     1    17
  5.7734214420018894E-02 a       358     0    18     1    18
  2.2445348111127092E-01 a       359     0    18     1    19
  2.1738665648173509E-02 a       360     0    18     1    20
  2.8749706059058555E-01 a       361     0    19     1     1
 -1.8546102088969652E-01 a       362     0    19     1     2
 -1.8421001699295189E-01 a       363     0    19     1     3
 -5.7101465096665020E-02 a       364     0    19     1     4
  2.0004948628134578E-01 a       365     0    19     1     5
 -4.9574080087921739E-02 a       366     0    19     1     6
  2.9609191078850255E-01 a       367     0    19     1     7
  1.5536566238551472E-01 a       368     0    19     1     8
 -1.4421560098114075E-01 a       369     0    19     1     9
  1.9879310866305822E-01 a       370     0    19     1    10
  1.9757630718796962E-01 a       371     0    19     1    11
 -1.2157977932059716E-01 a       372     0    19     1    12
  2.3494234345265094E-01 a       373     0    19     1    13
 -2.3081943848552958E-01 a       374     0    19     1    14
  1.7120084506163566E-01 a       375     0    19     1    15
 -1.1921128748497380E-01 a       376     0    19     1    16
  9.8670235367713702E-02 a       377     0    19     1    17
 -5.0262431105612460E-01 a       378     0    19     1    18
  8.8555901068051918E-02 a       379     0    19     1    19
  1.9137653798371051E-02 a       380     0    19     1    20
 -5.3839760545535461E-03 a       381     0    20     1     1
  1.4424655850988888E-01 a       382     0    20     1     2
  3.4320569645307691E-02 a       383     0    20     1     3
  8.3932425689407536E-02 a       384     0    20     1     4
  2.1531535237177135E-01 a       385     0    20     1     5
 -3.0054813090880317E-01 a       386     0    20     1     6
 -3.2583030182765976E-01 a       387     0    20     1     7
 -8.6125510769853170E-02 a       388     0    20     1     8
 -1.6042571934691297E-04 a       389     0    20     1     9
  2.4826949853373853E-01 a       390     0    20     1    10
  4.1013688602523424E-01 a       391     0    20     1    11
 -1.0370492882423095E-02 a       392     0    20     1    12
  3.1137577956840633E-03 a       393     0    20     1    13
  9.6289722796230368E-02 a       394     0    20     1    14
  3.6153319803940098E-02 a       395     0    20     1    15
 -3.2773861789282595E-03 a       396     0    20     1    16
 -1.2898222420613162E-01 a       397     0    20     1    17
  2.9395978147321594E-01 a       398     0    20     1    18
  1.4561826486145607E-01 a       399     0    20     1    19
  2.0370194575073011E-01 a       400     0    20     1    20
 -2.0208539377645490E-01 a       401     0    21     1     1
 -8.2835782428633872E-03 a       402     0    21     1     2
  2.1737850899927563E-01 a       403     0    21     1     3
  4.7958569903919154E-02 a       404     0    21     1     4
 -1.9631941730886351E-01 a       405     0    21     1     5
  1.4562823237988645E-01 a       406     0    21     1     6
 -9.0752383321562338E-02 a       407     0    21     1     7
  2.1793198314273005E-01 a       408     0    21     1     8
 -1.2278681347823484E-01 a       409     0    21     1     9
  1.5807369220305587E-01 a       410     0    21     1    10
 -1.0105179588178470E-01 a       411     0    21     1    11
  1.5658860698212773E-01 a       412     0    21     1    12
  2.1454644810088033E-01 a       413     0    21     1    13
 -2.5192629047863108E-01 a       414     0    21     1    14
  2.6954643211709556E-01 a       415     0    21     1    15
  8.8078414501775559E-02 a       416     0    21     1    16
  1.3108747771011436E-01 a       417     0    21     1    17
 -2.7438399124563928E-01 a       418     0    21     1    18
 -1.7327722297110888E-02 a       419     0    21     1    19
 -9.0468486833986603E-02 a       420     0    21     1    20
 -3.7940250171467105E-01 a       421     0    22     1     1
  1.0042088115322055E-01 a       422     0    22     1     2
  3.4214021291562186E-01 a       423     0    22     1     3
  1.9460649527401927E-01 a       424     0    22     1     4
 -8.2441287336627575E-02 a       425     0    22     1     5
 -7.8629605211366096E-02 a       426     0    22     1     6
 -2.6481576201128343E-01 a       427     0    22     1     7
  4.6976238319134354E-02 a       428     0    22     1     8
  2.0163454644235063E-01 a       429     0    22     1     9
 -1.1078208726597383E-01 a       430     0    22     1    10
 -6.7598322710262809E-02 a       431     0    22     1    11
 -1.6618194138757847E-01 a       432     0    22     1    12
  3.1735270933215093E-01 a       433     0    22     1    13
  7.2691696837756725E-02 a       434     0    22     1    14
 -4.2697209758037730E-02 a       435     0    22     1    15
  1.8135870072806803E-01 a       436     0    22     1    16
 -5.9061044984816596E-02 a       437     0    22     1    17
 -1.2327294412505845E-02 a       438     0    22     1    18
  6.2636850220238183E-02 a       439     0    22     1    19
  1.6823844257114615E-01 a       440     0    22     1    20
 -2.3930616671766708E-01 a       441     0    23     1     1
  5.1090021364138261E-01 a       442     0    23     1     2
  4.2562715417457125E-01 a       443     0    23     1     3
  1.6145105126489764E-01 a       444     0    23     1     4
  1.7015431525225924E-01 a       445     0    23     1     5
 -4.5131517031902893E-02 a       446     0    23     1     6
  3.9616009279614373E-01 a       447     0    23     1     7
  5.3567351125420937E-01 a       448     0    23     1     8
 -7.4657181713432913E-02 a       449     0    23     1     9
  2.7308066175059315E-01 a       450     0    23     1    10
 -1.5744347898769878E-01 a       451     0    23     1    11
 -9.5056066670470687E-02 a       452     0    23     1    12
 -3.6721236966021947E-02 a       453     0    23     1    13
 -2.7932847420359252E-01 a       454     0    23     1    14
  1.3478503076235920E-01 a       455     0    23     1    15
  2.9302896583746113E-01 a       456     0    23     1    16
  2.5677796789872337E-02 a       457     0    23     1    17
 -2.5093903494687031E-01 a       458     0    23     1    18
 -1.8688960629759513E-01 a       459     0    23     1    19
  5.2391541551726199E-02 a       460     0    23     1    20
 -1.2355474197137332E-01 a       461     0    24     1     1
  3.5014858011135318E-02 a       462     0    24     1     2
 -2.8715265802001733E-01 a       463     0    24     1     3
  1.9427595283434415E-01 a       464     0    24     1     4
  3.5395797222458719E-01 a       465     0    24     1     5
  4.6116615060953903E-01 a       466     0    24     1     6
 -2.3626114256024523E-03 a       467     0    24     1     7
 -3.0575306431639554E-01 a       468     0    24     1     8
  1.3078331098826934E-01 a       469     0    24     1     9
 -2.5783349395172939E-01 a       470     0    24     1    10
  4.3061925408726262E-02 a       471     0    24     1    11
 -2.5228391337733791E-01 a       472     0    24     1    12
  1.6555151281474714E-01 a       473     0    24     1    13
  1.1652515766676212E-01 a       474     0    24     1    14
 -2.7520299784002877E-01 a       475     0    24     1    15
  3.1001915737440513E-02 a       476     0    24     1    16
 -1.9102957787366870E-01 a       477     0    24     1    17
  4.7821855488490433E-01 a       478     0    24     1    18
  2.2580584671981771E-01 a       479     0    24     1    19
  7.4950313595989207E-02 a       480     0    24     1    20
  2.2417650575302331E-01 a       481     0    25     1     1
 -1.1475088868824167E-01 a       482     0    25     1     2
 -2.2216101231876240E-01 a       483     0    25     1     3
  1.7397289618927839E-01 a       484     0    25     1     4
 -1.1946220026439969E-01 a       485     0    25     1     5
 -1.9627951983180525E-01 a       486     0    25     1     6
 -2.8167832962299255E-01 a       487     0    25     1     7
  1.1502123910741843E-02 a       488     0    25     1     8
  1.1482297125107468E-01 a       489     0    25     1     9
  2.5306722702394641E-01 a       490     0    25     1    10
  1.4674724249568569E-01 a       491     0    25     1    11
  4.2106866553236963E-03 a       492     0    25     1    12
  8.7687409911402614E-02 a       493     0    25     1    13
  2.6764236598949213E-02 a       494     0    25     1    14
 -2.0146555607489944E-01 a       495     0    25     1    15
  2.9454738633571387E-02 a       496     0    25     1    16
 -6.7914978159752504E-02 a       497     0    25     1    17
  8.5871742225620842E-02 a       498     0    25     1    18
  2.9192248174903757E-01 a       499     0    25     1    19
 -9.8678020943068226E-02 a       500     0    25     1    20
 -1.6008752321281550E-01 a       501     0    26     1     1
  2.4728186211210315E-01 a       502     0    26     1     2
 -3.9535194252464795E-01 a       503     0    26     1     3
  9.2389668929179575E-02 a       504     0    26     1     4
  1.6667205191036646E-01 a       505     0    26     1     5
  2.8685495490762841E-01 a       506     0    26     1     6
  6.9619737106809382E-02 a       507     0    26     1     7
  2.8042798071310171E-01 a       508     0    26     1     8
 -1.7798653993507438E-01 a       509     0    26     1     9
 -7.5008441771137940E-02 a       510     0    26     1    10
 -2.7198751540545951E-01 a       511     0    26     1    11
  1.9751464229149704E-01 a       512     0    26     1    12
 -2.8654107201431378E-01 a       513     0    26     1    13
  2.0071167587238845E-01 a       514     0    26     1    14
  6.5302018675467449E-02 a       515     0    26     1    15
 -1.6412538926042230E-02 a       516     0    26     1    16
 -1.3372501556004415E-01 a       517     0    26     1    17
 -1.6359864521711448E-01 a       518     0    26     1    18
  2.9471136719332051E-02 a       519     0    26     1    19
 -4.6999362629833830E-01 a       520     0    26     1    20
  4.6190513489521752E-02 a       521     0    27     1     1
 -2.0995765570608352E-01 a       522     0    27     1     2
  3.0972473710811221E-01 a       523     0    27     1     3
  2.8753121231181039E-01 a       524     0    27     1     4
 -4.6951813542579279E-01 a       525     0    27     1     5
  3.4866412542739256E-01 a       526     0    27     1     6
 -4.9061686464556115E-01 a       527     0    27     1     7
 -3.7868263825154519E-01 a       528     0    27     1     8
  1.8786823654412271E-01 a       529     0    27     1     9
  3.2999532284112115E-01 a       530     0    27     1    10
 -2.7731416571479289E-01 a       531     0    27     1    11
  3.4613451745756879E-01 a       532     0    27     1    12
 -1.4016966333392973E-02 a       533     0    27     1    13
 -1.6296992342574779E-01 a       534     0    27     1    14
 -1.1998424445461775E-01 a       535     0    27     1    15
  3.7063517233277460E-01 a       536     0    27     1    16
 -3.5879908683589601E-01 a       537     0    27     1    17
  2.5577076155315420E-01 a       538     0    27     1    18
  1.0388303498335420E-01 a       539     0    27     1    19
  5.1682060352098413E-01 a       540     0    27     1    20
  8.4682965579677527E-02 a       541     0    28     1     1
 -2.6297787405252721E-01 a       542     0    28     1     2
  1.4980119265160585E-01 a       543     0    28     1     3
 -3.0772701773791483E-01 a       544     0    28     1     4
 -2.6401098888587071E-01 a       545     0    28     1     5
  3.3372474499245264E-01 a       546     0    28     1     6
  2.8289900789527034E-01 a       547     0    28     1     7
  1.9605564299587419E-01 a       548     0    28     1     8
 -9.8646700845856930E-02 a       549     0    28     1     9
  1.0559572762904343E-01 a       550     0    28     1    10
 -2.8274094650410730E-01 a       551     0    28     1    11
 -1.4900441016293520E-01 a       552     0    28     1    12
 -3.1232693024781176E-02 a       553     0    28     1    13
 -5.2217556483701223E-02 a       554     0    28     1    14
 -1.9457391182577355E-01 a       555     0    28     1    15
  1.6182197258828701E-01 a       556     0    28     1    16
  3.0680013936047895E-01 a       557     0    28     1    17
 -3.4272507335641633E-01 a       558     0    28     1    18
 -2.2736050239636854E-01 a       559     0    28     1    19
 -2.0490193192408682E-01 a       560     0    28     1    20
 -2.1021926838761426E-01 a       561     0    29     1     1
 -2.1186483358989455E-01 a       562     0    29     1     2
  2.7480381948866778E-01 a       563     0    29     1     3
  7.6258156460180054E-02 a       564     0    29     1     4
  1.7230973032082861E-01 a       565     0    29     1     5
  2.1193757458436985E-01 a       566     0    29     1     6
  1.6017190224071451E-01 a       567     0    29     1     7
 -4.5915461304806254E-02 a       568     0    29     1     8
  1.7081521305003292E-01 a       569     0    29     1     9
  2.0375710660441246E-01 a       570     0    29     1    10
  3.5830312400160080E-01 a       571     0    29     1    11
  3.3483100481493805E-01 a       572     0    29     1    12
  1.5322851869577983E-01 a       573     0    29     1    13
 -1.1360905044944451E-01 a       574     0    29     1    14
  6.8015400155596734E-02 a       575     0    29     1    15
 -2.1105727184266679E-01 a       576     0    29     1    16
  1.1379179588062818E-01 a       577     0    29     1    17
 -1.4102151401419613E-01 a       578     0    29     1    18
 -1.2735446187640942E-01 a       579     0    29     1    19
  7.2569820121414594E-02 a       580     0    29     1    20
 -9.2479731703984172E-02 a       581     0    30     1     1
 -1.2070293502083792E-02 a       582     0    30     1     2
 -6.2518040370622266E-02 a       583     0    30     1     3
 -1.2388296159939408E-01 a       584     0    30     1     4
  2.3086662909694414E-01 a       585     0    30     1     5
 -3.2046567993136217E-02 a       586     0    30     1     6
  1.8865244439247419E-01 a       587     0    30     1     7
  8.4074442220824289E-02 a       588     0    30     1     8
 -6.1548594214649005E-02 a       589     0    30     1     9
  1.5075042986630791E-01 a       590     0    30     1    10
  2.5913444452962293E-02 a       591     0    30     1    11
  5.2754517456157821E-02 a       592     0    30     1    12
  1.1070862003442405E-01 a       593     0    30     1    13
 -3.0702725702880640E-01 a       594     0    30     1    14
  2.2345966085240912E-01 a       595     0    30     1    15
  1.9709820767992284E-01 a       596     0    30     1    16
  5.2510366582706747E-02 a       597     0    30     1    17
  8.2016391252244126E-03 a       598     0    30     1    18
  2.0874422682156727E-02 a       599     0    30     1    19
  6.8916069680142064E-02 a       600     0    30     1    20
 -1.4989035655470431E+00 b       601     1     1
 -1.1196713761352748E+00 b       602     1     2
 -1.4264550076722911E+00 b       603     1     3
  1.5148742190175142E+00 b       604     1     4
  1.9551730930837127E-01 b       605     1     5
  1.3053737560320815E+00 b       606     1     6
  3.0035878171222036E-01 b       607     1     7
 -1.4126571028136767E+00 b       608     1     8
  1.1418937135658045E+00 b       609     1     9
 -8.6823298178409802E-01 b       610     1    10
 -6.0507819179846212E-01 b       611     1    11
  9.4101384870244897E-01 b       612     1    12
 -1.3168989264897707E-01 b       613     1    13
 -3.5072350827587156E-01 b       614     1    14
 -4.8179829797643925E-01 b       615     1    15
 -3.7940628943446852E-01 b       616     1    16
  6.2022258702991961E-01 b       617     1    17
 -9.9256036417601434E-01 b       618     1    18
  3.7669838778965087E-01 b       619     1    19
 -1.6376377747589896E+00 b       620     1    20
  2.4136847724431476E-01 a       621     1     1     2     1
 -4.5963619836192432E-01 a       622     1     1     2     2
 -1.7849242269877169E-01 a       623     1     1     2     3
  4.7192997851548629E-01 a       624     1     1     2     4
  3.4413649178976580E-01 a       625     1     1     2     5
  2.3066900010891106E-01 a       626     1     1     2     6
 -3.5712229001569074E-01 a       627     1     1     2     7
 -4.4228029081631431E-01 a       628     1     1     2     8
 -7.4021798101901815E-01 a       629     1     1     2     9
 -2.6500358878948177E-01 a       630     1     1     2    10
  4.6927619134870147E-01 a       631     1     1     2    11
 -1.5677388176803439E-01 a       632     1     1     2    12
 -3.8571601482455026E-01 a       633     1     1     2    13
  2.8077895014866278E-01 a       634     1     1     2    14
  2.7499794447991183E-01 a       635     1     1     2    15
 -8.6826598214551645E-02 a       636     1     1     2    16
 -3.0598123550660972E-01 a       637     1     1     2    17
 -2.8892054267786066E-01 a       638     1     1     2    18
 -6.4821212156245755E-01 a       639     1     1     2    19
  2.0635704487380970E-02 a       640     1     1     2    20
  1.5535687424955022E-01 a       641     1     2     2     1
  4.3868248997284359E-01 a       642     1     2     2     2
 -1.4691449455969458E-01 a       643     1     2     2     3
 -9.5236116521080882E-02 a       644     1     2     2     4
 -2.0108432431945619E-01 a       645     1     2     2     5
 -3.4182402839483444E-01 a       646     1     2     2     6
  7.4729467324804039E-02 a       647     1     2     2     7
  2.3383399423667223E-01 a       648     1     2     2     8
  4.1144285408030101E-01 a       649     1     2     2     9
  1.3926765803261665E-01 a       650     1     2     2    10
  3.8742952280089094E-01 a       651     1     2     2    11
 -3.0659148947352133E-01 a       652     1     2     2    12
  7.8959436443074307E-02 a       653     1     2     2    13
 -3.6288649063544565E-01 a       654     1     2     2    14
 -9.9879542884021122E-02 a       655     1     2     2    15
 -1.8704964592304421E-01 a       656     1     2     2    16
 -3.9490379345690119E-01 a       657     1     2     2    17
  6.8704868088431015E-01 a       658     1     2     2    18
  2.8400643776726248E-01 a       659     1     2     2    19
  3.5845075715393476E-01 a       660     1     2     2    20
  3.9130861953814861E-01 a       661     1     3     2     1
  3.5324876535406213E-01 a       662     1     3     2     2
  2.4231239458101694E-01 a       663     1     3     2     3
 -2.7774055829996042E-01 a       664     1     3     2     4
  4.9766264750912415E-01 a       665     1     3     2     5
 -5.1647182825883087E-01 a       666     1     3     2     6
  1.3420249490540395E-01 a       667     1     3     2     7
  8.1683351348348227E-02 a       668     1     3     2     8
  2.5287817997596812E-01 a       669     1     3     2     9
 -3.2504776798650725E-01 a       670     1     3     2    10
  2.3732243127648406E-02 a       671     1     3     2    11
  2.0147935537672015E-01 a       672     1     3     2    12
 -3.0094860835462195E-01 a       673     1     3     2    13
  2.4829193830047888E-01 a       674     1     3     2    14
  1.8122081545932420E-01 a       675     1     3     2    15
  6.1013926056349665E-01 a       676     1     3     2    16
  3.9527533492018474E-01 a       677     1     3     2    17
 -1.9057395978173078E-01 a       678     1     3     2    18
  5.3326456103534903E-01 a       679     1     3     2    19
  5.2340024877486258E-01 a       680     1     3     2    20
  9.4702606459178315E-02 a       681     1     4     2     1
 -6.7539396520831838E-02 a       682     1     4     2     2
 -3.9826460623571486E-01 a       683     1     4     2     3
 -3.8498703664354805E-01 a       684     1     4     2     4
 -1.0885219205352797E-01 a       685     1     4     2     5
  1.4782266013918445E-02 a       686     1     4     2     6
 -5.8394668463085797E-01 a       687     1     4     2     7
  1.6879959421174545E-01 a       688     1     4     2     8
  4.8198682193444159E-01 a       689     1     4     2     9
 -2.5807214773528975E-01 a       690     1     4     2    10
 -1.7797129690337321E-01 a       691     1     4     2    11
 -2.8449893159125672E-01 a       692     1     4     2    12
  5.1814458698410237E-01 a       693     1     4     2    13
 -6.9616642545055163E-01 a       694     1     4     2    14
 -2.1854596366952406E-01 a       695     1     4     2    15
 -5.9432714185434832E-01 a       696     1     4     2    16
  5.5662240079799530E-01 a       697     1     4     2    17
  5.5693228042168552E-01 a       698     1     4     2    18
 -2.9030544364651434E-01 a       699     1     4     2    19
 -1.8124621089871840E-01 a       700     1     4     2    20
  2.6662303440508661E-01 a       701     1     5     2     1
  5.0990123581663868E-02 a       702     1     5     2     2
  1.8669357739088474E-01 a       703     1     5     2     3
 -2.0789367905239020E-01 a       704     1     5     2     4
  1.9672503176973438E-01 a       705     1     5     2     5
  4.1687485274019986E-01 a       706     1     5     2     6
  5.3500477897490006E-01 a       707     1     5     2     7
 -1.7487445806749696E-01 a       708     1     5     2     8
 -7.1863065288734401E-02 a       709     1     5     2     9
 -4.6025160565968365E-02 a       710     1     5     2    10
 -4.3938774530841729E-01 a       711     1     5     2    11
  4.4185476354943487E-01 a       712     1     5     2    12
  4.6105821368537464E-01 a       713     1     5     2    13
  3.6502403438349607E-01 a       714     1     5     2    14
  3.1163349307785443E-01 a       715     1     5     2    15
  2.0974832508123994E-01 a       716     1     5     2    16
 -9.2999411308683583E-02 a       717     1     5     2    17
 -3.4387490631071760E-01 a       718     1     5     2    18
 -5.3196446962105175E-02 a       719     1     5     2    19
  3.2359958917341808E-01 a       720     1     5     2    20
 -4.4810930439069530E-01 a       721     1     6     2     1
 -6.0435404423146311E-01 a       722     1     6     2     2
 -1.2945237778481039E-01 a       723     1     6     2     3
 -4.9803336055072206E-01 a       724     1     6     2     4
 -2.9129905599790434E-01 a       725     1     6     2     5
 -2.1303709554189126E-01 a       726     1     6     2     6
  2.5801291684246619E-01 a       727     1     6     2     7
 -3.2081185515276117E-01 a       728     1     6     2     8
 -5.2675357119722233E-01 a       729     1     6     2     9
 -5.2629188498995882E-01 a       730     1     6     2    10
 -1.9179164508466853E-01 a       731     1     6     2    11
  1.0988228911108255E-01 a       732     1     6     2    12
 -3.2676200562800461E-01 a       733     1     6     2    13
 -6.0429510120143670E-01 a       734     1     6     2    14
  5.7311050323422141E-01 a       735     1     6     2    15
 -3.7094499914597234E-01 a       736     1     6     2    16
 -1.7311850412453741E-01 a       737     1     6     2    17
  7.0394149030436580E-03 a       738     1     6     2    18
 -3.3969584292565891E-01 a       739     1     6     2    19
 -5.6950328370988046E-01 a       740     1     6     2    20
  3.5856160621295520E-02 a       741     1     7     2     1
 -6.4719271064357098E-02 a       742     1     7     2     2
  3.4630382162637624E-01 a       743     1     7     2     3
 -1.7069714324437935E-01 a       744     1     7     2     4
 -5.1002330447365019E-01 a       745     1     7     2     5
 -5.2884188318910763E-01 a       746     1     7     2     6
 -2.0121413071186653E-01 a       747     1     7     2     7
  3.9721656830047403E-01 a       748     1     7     2     8
 -1.9483215035767371E-01 a       749     1     7     2     9
  5.6247125965535072E-01 a       750     1     7     2    10
 -3.1968571611710389E-01 a       751     1     7     2    11
  6.1314252185649598E-01 a       752     1     7     2    12
 -2.0475985760823068E-01 a       753     1     7     2    13
 -1.2198109289004395E-01 a       754     1     7     2    14
  5.5232517887901555E-01 a       755     1     7     2    15
  1.1222394110802844E-01 a       756     1     7     2    16
  5.2419336756146029E-01 a       757     1     7     2    17
  2.9731714143974936E-01 a       758     1     7     2    18
  2.0638600195693327E-01 a       759     1     7     2    19
 -1.0614449423029311E-01 a       760     1     7     2    20
 -3.6254346525091025E-01 a       761     1     8     2     1
  2.1108437998637203E-01 a       762     1     8     2     2
  1.9849344048842607E-01 a       763     1     8     2     3
  5.6250828589624169E-01 a       764     1     8     2     4
 -4.8043809899357159E-01 a       765     1     8     2     5
  1.0879956321344440E-01 a       766     1     8     2     6
  1.6207509225540714E-01 a       767     1     8     2     7
 -3.5009054230999748E-01 a       768     1     8     2     8
  5.7244739832712066E-01 a       769     1     8     2     9
  1.7170241135914827E-01 a       770     1     8     2    10
  5.7104715850655174E-01 a       771     1     8     2    11
 -1.4753018595737408E-01 a       772     1     8     2    12
  2.7004587954851200E-01 a       773     1     8     2    13
  1.9744055467144001E-01 a       774     1     8     2    14
  2.5066294999601874E-01 a       775     1     8     2    15
 -2.7163889770662580E-01 a       776     1     8     2    16
  1.1024483729078834E-01 a       777     1     8     2    17
 -6.1593485383548197E-01 a       778     1     8     2    18
  1.5430483185095545E-01 a       779     1     8     2    19
  2.6095476570341708E-01 a       780     1     8     2    20
 -6.4835548663906373E-01 a       781     1     9     2     1
  2.6237009768107100E-01 a       782     1     9     2     2
 -6.0985590893989161E-01 a       783     1     9     2     3
 -1.3699630131276783E-01 a       784     1     9     2     4
  3.2997068973694477E-01 a       785     1     9     2     5
 -4.1915390343282816E-01 a       786     1     9     2     6
 -1.5094143139173797E-03 a       787     1     9     2     7
 -8.4854514263725617E-02 a       788     1     9     2     8
 -6.7132787138688721E-01 a       789     1     9     2     9
  5.4744811292351014E-01 a       790     1     9     2    10
 -3.6878508529188600E-02 a       791     1     9     2    11
  3.8670622036198427E-01 a       792     1     9     2    12
 -4.0364985998996195E-01 a       793     1     9     2    13
 -4.7621845456044842E-01 a       794     1     9     2    14
  4.7663601004844669E-01 a       795     1     9     2    15
  4.6122067653474796E-01 a       796     1     9     2    16
 -2.6923904387641789E-01 a       797     1     9     2    17
 -7.7890094194448284E-02 a       798     1     9     2    18
 -5.7941030614124985E-02 a       799     1     9     2    19
 -3.4448048699300965E-01 a       800     1     9     2    20
  4.4221910198424191E-01 a       801     1    10     2     1
 -5.0627064678427847E-01 a       802     1    10     2     2
 -2.2584321040820771E-01 a       803     1    10     2     3
  6.6898120212921297E-02 a       804     1    10     2     4
 -1.1547102279348537E-02 a       805     1    10     2     5
  4.3583799727089273E-01 a       806     1    10     2     6
  7.2999917460383909E-02 a       807     1    10     2     7
 -7.7409527535231545E-02 a       808     1    10     2     8
 -4.7821691082004646E-02 a       809     1    10     2     9
  2.1195088532631054E-01 a       810     1    10     2    10
 -4.0529418734145128E-01 a       811     1    10     2    11
  3.8997069811511670E-01 a       812     1    10     2    12
 -6.1149676291003663E-01 a       813     1    10     2    13
 -1.4003776363797560E-01 a       814     1    10     2    14
 -3.8624274040636064E-01 a       815     1    10     2    15
 -1.4833303752915175E-01 a       816     1    10     2    16
  3.1038181963453265E-01 a       817     1    10     2    17
 -2.5836306592740022E-01 a       818     1    10     2    18
  3.1345583171309810E-01 a       819     1    10     2    19
 -3.8662778041713886E-01 a       820     1    10     2    20
 -3.8557945304555130E-01 a       821     1    11     2     1
  3.1020195040364906E-01 a       822     1    11     2     2
 -3.4065666823583207E-01 a       823     1    11     2     3
 -5.4639312891209857E-01 a       824     1    11     2     4
 -4.7184241051122916E-01 a       825     1    11     2     5
 -1.4273260830662310E-01 a       826     1    11     2     6
 -5.9898824176506171E-01 a       827     1    11     2     7
 -3.6632239438781106E-01 a       828     1    11     2     8
 -1.2650224099288834E-01 a       829     1    11     2     9
  1.5974784902119102E-01 a       830     1    11     2    10
 -2.9023067353628529E-01 a       831     1    11     2    11
 -5.6762443077203628E-01 a       832     1    11     2    12
  1.6972338048035057E-01 a       833     1    11     2    13
 -4.7526100058992393E-01 a       834     1    11     2    14
 -8.4074584329265623E-02 a       835     1    11     2    15
  4.2257532824905791E-01 a       836     1    11     2    16
 -7.5911236220098754E-01 a       837     1    11     2    17
  5.4551597342172120E-01 a       838     1    11     2    18
 -4.9926537568308738E-01 a       839     1    11     2    19
 -1.7442327777262603E-01 a       840     1    11     2    20
  1.1341438730498080E-01 a       841     1    12     2     1
  3.5908084530643819E-01 a       842     1    12     2     2
  3.4164898169389318E-01 a       843     1    12     2     3
  1.2000372686086148E-01 a       844     1    12     2     4
 -3.9261909418557361E-01 a       845     1    12     2     5
 -5.1602612017034888E-01 a       846     1    12     2     6
  8.4687459492329947E-02 a       847     1    12     2     7
 -5.3174822733579674E-01 a       848     1    12     2     8
 -3.1219166821963518E-01 a       849     1    12     2     9
  3.0128161970202239E-01 a       850     1    12     2    10
 -2.2751140729049490E-01 a       851     1    12     2    11
  8.3434747655877203E-02 a       852     1    12     2    12
  1.7751007849169395E-01 a       853     1    12     2    13
  2.1163263264156582E-01 a       854     1    12     2    14
  3.2360441081845498E-01 a       855     1    12     2    15
  1.8371878019146820E-01 a       856     1    12     2    16
 -3.4028012901128546E-01 a       857     1    12     2    17
 -6.3524729308054015E-02 a       858     1    12     2    18
  2.9310370638870459E-01 a       859     1    12     2    19
  5.0834861662871000E-01 a       860     1    12     2    20
 -3.7706941342840194E-01 a       861     1    13     2     1
 -4.2801098466425069E-01 a       862     1    13     2     2
 -3.7178668416213023E-01 a       863     1    13     2     3
  4.7904254857331424E-01 a       864     1    13     2     4
  1.0911158970746572E-01 a       865     1    13     2     5
 -3.9070028929527983E-01 a       866     1    13     2     6
 -6.8269864931965629E-01 a       867     1    13     2     7
  3.1097028158522955E-01 a       868     1    13     2     8
 -3.7704647287548299E-01 a       869     1    13     2     9
 -1.4897467717968405E-01 a       870     1    13     2    10
  3.0048040618146410E-01 a       871     1    13     2    11
  5.3298114735408630E-01 a       872     1    13     2    12
 -3.1846796954087958E-01 a       873     1    13     2    13
  4.6606718480133681E-02 a       874     1    13     2    14
 -2.9459794780751153E-01 a       875     1    13     2    15
  4.2240478675450144E-01 a       876     1    13     2    16
 -2.0346721707485235E-01 a       877     1    13     2    17
 -8.6761432951522499E-02 a       878     1    13     2    18
  5.5000794837041356E-01 a       879     1    13     2    19
  9.0961692952592405E-02 a       880     1    13     2    20
  3.8649594502391521E-01 a       881     1    14     2     1
  1.4545013847584756E-01 a       882     1    14     2     2
  5.8852185292751424E-01 a       883     1    14     2     3
 -6.1098878143350599E-01 a       884     1    14     2     4
 -4.6912567732506419E-02 a       885     1    14     2     5
 -4.3839511229543737E-01 a       886     1    14     2     6
  3.9729668560095072E-01 a       887     1    14     2     7
 -5.7652783838974250E-02 a       888     1    14     2     8
 -2.4720151626471157E-01 a       889     1    14     2     9
  1.9436468002080276E-01 a       890     1    14     2    10
  6.8448202076535097E-02 a       891     1    14     2    11
 -2.6485108673086460E-01 a       892     1    14     2    12
  1.1401223194023057E-01 a       893     1    14     2    13
  2.4335833347179470E-01 a       894     1    14     2    14
  1.5823771084886393E-01 a       895     1    14     2    15
  3.7007225010809863E-01 a       896     1    14     2    16
 -9.0755486716912623E-02 a       897     1    14     2    17
 -1.2992607697908004E-01 a       898     1    14     2    18
  2.2689883361968591E-02 a       899     1    14     2    19
  5.8155124802409131E-03 a       900     1    14     2    20
 -2.6241866936005309E-01 a       901     1    15     2     1
  4.8299377867247634E-01 a       902     1    15     2     2
 -2.0173886870470892E-01 a       903     1    15     2     3
  6.2232683664582700E-01 a       904     1    15     2     4
  4.0845282132124150E-01 a       905     1    15     2     5
  5.2408255912764234E-01 a       906     1    15     2     6
 -4.0342564243857471E-01 a       907     1    15     2     7
 -3.4844184405011069E-01 a       908     1    15     2     8
  1.6997456967594513E-01 a       909     1    15     2     9
 -4.8941069012432764E-01 a       910     1    15     2    10
 -1.2439589791884925E-01 a       911     1    15     2    11
  3.3199496806820300E-01 a       912     1    15     2    12
 -3.8698231746476269E-01 a       913     1    15     2    13
  1.3511993549783849E-01 a       914     1    15     2    14
  5.6383985628897049E-01 a       915     1    15     2    15
  4.7891450355515319E-01 a       916     1    15     2    16
 -4.0410286342713125E-01 a       917     1    15     2    17
 -1.8380913237321436E-02 a       918     1    15     2    18
  2.1735661762935043E-01 a       919     1    15     2    19
 -4.0276633091684177E-01 a       920     1    15     2    20
  3.7834090601544085E-01 a       921     1    16     2     1
  3.8302121458118810E-01 a       922     1    16     2     2
 -4.4071775001011781E-01 a       923     1    16     2     3
 -3.6056541023727511E-02 a       924     1    16     2     4
 -4.9808632088749266E-01 a       925     1    16     2     5
  3.0147163798518112E-01 a       926     1    16     2     6
 -7.5747908887596999E-02 a       927     1    16     2     7
 -2.7901010275816102E-01 a       928     1    16     2     8
 -1.1138354715976648E-01 a       929     1    16     2     9
  4.0709393502259317E-01 a       930     1    16     2    10
  7.6173668440539721E-01 a       931     1    16     2    11
 -4.6472089874316079E-02 a       932     1    16     2    12
  2.4193918089248362E-01 a       933     1    16     2    13
  4.8265771901041962E-02 a       934     1    16     2    14
  2.9285385967744659E-01 a       935     1    16     2    15
  1.1673831325095488E-02 a       936     1    16     2    16
 -4.8234688778453261E-01 a       937     1    16     2    17
  5.5192699489377939E-01 a       938     1    16     2    18
  4.8979196729512603E-01 a       939     1    16     2    19
  4.3132368045574532E-01 a       940     1    16     2    20
  1.4570380716370199E-01 a       941     1    17     2     1
 -4.1472053663292180E-01 a       942     1    17     2     2
 -4.4312734292154893E-01 a       943     1    17     2     3
 -6.2249129711941897E-01 a       944     1    17     2     4
  5.4893445364849025E-01 a       945     1    17     2     5
 -2.4637452474349414E-01 a       946     1    17     2     6
 -4.0132555803678666E-01 a       947     1    17     2     7
 -4.7888427061628602E-01 a       948     1    17     2     8
  2.4356077453986766E-01 a       949     1    17     2     9
  2.0383404059941343E-01 a       950     1    17     2    10
 -1.5954335857676230E-01 a       951     1    17     2    11
 -3.3063351172575119E-02 a       952     1    17     2    12
  4.8208585803391973E-01 a       953     1    17     2    13
 -9.9982223383441329E-02 a       954     1    17     2    14
  4.0530954309338435E-01 a       955     1    17     2    15
  3.3809985692981404E-01 a       956     1    17     2    16
 -4.2425435014171092E-01 a       957     1    17     2    17
 -3.3360468475244315E-01 a       958     1    17     2    18
 -3.6091816225477125E-01 a       959     1    17     2    19
 -4.6503744145259707E-01 a       960     1    17     2    20
  2.6922093222608506E-01 a       961     1    18     2     1
 -6.9039833540661644E-01 a       962     1    18     2     2
  6.5911389662876674E-01 a       963     1    18     2     3
  1.1086667649505171E-01 a       964     1    18     2     4
  1.7581938460263263E-01 a       965     1    18     2     5
  4.8034928304474617E-01 a       966     1    18     2     6
 -3.4355083577276929E-01 a       967     1    18     2     7
 -3.3826148607496476E-01 a       968     1    18     2     8
 -2.7192139873929316E-01 a       969     1    18     2     9
  3.8243847051301361E-01 a       970     1    18     2    10
  2.3011401423775283E-02 a       971     1    18     2    11
  6.7190929662873455E-01 a       972     1    18     2    12
 -5.9306009747771116E-01 a       973     1    18     2    13
 -3.0597136445651829E-01 a       974     1    18     2    14
 -3.0371016300474768E-01 a       975     1    18     2    15
  4.8368133396874596E-01 a       976     1    18     2    16
 -3.1829738635632715E-01 a       977     1    18     2    17
 -3.4480658987145218E-01 a       978     1    18     2    18
  1.8220657845313831E-02 a       979     1    18     2    19
 -5.2018918663095537E-01 a       980     1    18     2    20
  5.2743607755928401E-01 a       981     1    19     2     1
  5.6045858193480479E-02 a       982     1    19     2     2
  2.8287142641133994E-01 a       983     1    19     2     3
 -4.6704475151428997E-02 a       984     1    19     2     4
 -4.0638741818363999E-01 a       985     1    19     2     5
  2.0585606351347204E-02 a       986     1    19     2     6
  5.3549797169996927E-01 a       987     1    19     2     7
  1.7442403819953756E-01 a       988     1    19     2     8
  1.7370840972687862E-01 a       989     1    19     2     9
  3.5189683163925473E-01 a       990     1    19     2    10
 -7.9044749360383870E-01 a       991     1    19     2    11
  1.2340277036496825E-02 a       992     1    19     2    12
  3.7155486557618234E-01 a       993     1    19     2    13
 -2.5569212717699347E-01 a       994     1    19     2    14
  1.1429143808732384E-01 a       995     1    19     2    15
 -2.5839649737326559E-01 a       996     1    19     2    16
  4.4234122883283117E-01 a       997     1    19     2    17
  2.9882417620109353E-01 a       998     1    19     2    18
  2.0199862092985771E-01 a       999     1    19     2    19
  1.2271057111694574E-01 a      1000     1    19     2    20
  4.6594996241271547E-01 a      1001     1    20     2     1
 -1.4947734541821004E-02 a      1002     1    20     2     2
 -3.1858173194312017E-01 a      1003     1    20     2     3
  5.1069610465116100E-01 a      1004     1    20     2     4
 -5.2258903095241993E-01 a      1005     1    20     2     5
 -5.2243480310154307E-02 a      1006     1    20     2     6
  4.5572056682315693E-01 a      1007     1    20     2     7
  4.8694820899553853E-01 a      1008     1    20     2     8
  2.9937671074159411E-01 a      1009     1    20     2     9
 -4.6859271570123995E-01 a      1010     1    20     2    10
 -1.7715907023664670E-02 a      1011     1    20     2    11
 -5.3032101618258687E-01 a      1012     1    20     2    12
 -2.9370489610019168E-01 a      1013     1    20     2    13
  5.8835078388249140E-01 a      1014     1    20     2    14
 -5.0059067647618360E-01 a      1015     1    20     2    15
 -4.5542531279295440E-01 a      1016     1    20     2    16
  6.1146899980509609E-02 a      1017     1    20     2    17
  2.9740866351056977E-01 a      1018     1    20     2    18
  3.8333684130099632E-01 a      1019     1    20     2    19
  4.6148276058021181E-01 a      1020     1    20     2    20
  2.2564271352689003E-01 b      1021     2     1
 -1.1465543560869609E+00 b      1022     2     2
  1.0993214944329246E+00 b      1023     2     3
  1.0541093773280219E+00 b      1024     2     4
 -2.4174199407969574E-01 b      1025     2     5
 -1.2662275806922672E+00 b      1026     2     6
 -1.5400553690389529E+00 b      1027     2     7
  7.2300960956182092E-01 b      1028     2     8
 -5.1869969944824579E-01 b      1029     2     9
 -8.9888020915567568E-01 b      1030     2    10
 -9.1099505909663214E-01 b      1031     2    11
  9.7590292382523069E-01 b      1032     2    12
 -1.4351247422457025E-01 b      1033     2    13
  7.0825635387564689E-01 b      1034     2    14
  1.2199437474133799E+00 b      1035     2    15
 -1.3474192196575117E+00 b      1036     2    16
  8.0709410685505212E-01 b      1037     2    17
  5.7538028229554183E-01 b      1038     2    18
 -9.5769010657872064E-02 b      1039     2    19
 -1.3748886418953294E+00 b      1040     2    20
  7.0940834811525333E-01 a      1041     2     1     3     1
 -6.0389342976601490E-01 a      1042     2     2     3     1
  5.5901036708643700E-02 a      1043     2     3     3     1
  2.3644560602477360E-01 a      1044     2     4     3     1
 -6.2239287406561827E-01 a      1045     2     5     3     1
 -5.4530152657526176E-01 a      1046     2     6     3     1
 -5.2443603343997347E-01 a      1047     2     7     3     1
  4.4549618789339712E-01 a      1048     2     8     3     1
  1.1289442785330865E+00 a      1049     2     9     3     1
 -3.5724358164243575E-01 a      1050     2    10     3     1
  4.2710994777912215E-01 a      1051     2    11     3     1
 -1.3297675620211680E-01 a      1052     2    12     3     1
 -1.0894306207526503E+00 a      1053     2    13     3     1
  9.2188362626617359E-01 a      1054     2    14     3     1
  5.9558181009028888E-01 a      1055     2    15     3     1
  9.8736066863643168E-01 a      1056     2    16     3     1
 -1.1258821861824371E+00 a      1057     2    17     3     1
 -1.0852666278474286E+00 a      1058     2    18     3     1
 -2.7751070302326708E-01 a      1059     2    19     3     1
 -5.0029597352002142E-01 a      1060     2    20     3     1
  7.1879326053460701E-01 b      1061     3     1
