################################################################################
# Neural network connection values (weights and biases).
################################################################################
# Col  Name       Description
################################################################################
# 1    connection Neural network connection value.
# 2    t          Connection type (a = weight, b = bias).
# 3    index      Index enumerating weights.
# 4    l_s        Starting point layer (end point layer for biases).
# 5    n_s        Starting point neuron in starting layer (end point neuron for biases).
# 6    l_e        End point layer.
# 7    n_e        End point neuron in end layer.
################################################################################
#                      1 2         3     4     5     6     7
#             connection t     index   l_s   n_s   l_e   n_e
############################################################
  1.7175931441719125E-01 a         1     0     1     1     1
  3.4324812767187317E-02 a         2     0     1     1     2
  3.1721296114555469E-01 a         3     0     1     1     3
 -5.4910754279743668E-01 a         4     0     1     1     4
 -2.3323198328484368E-02 a         5     0     1     1     5
 -1.8995689863063370E-01 a         6     0     1     1     6
  2.9622650613867807E-01 a         7     0     1     1     7
  2.3839484745528475E-01 a         8     0     1     1     8
 -3.2745683986744206E-01 a         9     0     1     1     9
  8.7990836149539842E-02 a        10     0     1     1    10
 -3.6079429336070201E-01 a        11     0     1     1    11
  2.8965979626864596E-01 a        12     0     1     1    12
  1.5751641884626449E-02 a        13     0     1     1    13
 -4.0640000103411300E-01 a        14     0     1     1    14
  4.7086620634799314E-01 a        15     0     1     1    15
 -1.7692424303096438E-01 a        16     0     1     1    16
 -4.6001939148624649E-01 a        17     0     1     1    17
  3.8725102665073152E-01 a        18     0     1     1    18
  3.0565806632910997E-03 a        19     0     1     1    19
  3.1366911045640916E-01 a        20     0     1     1    20
  2.1782768002941605E-01 a        21     0     2     1     1
 -5.0432927169512309E-01 a        22     0     2     1     2
  2.8621140352587793E-01 a        23     0     2     1     3
  5.0281169925374392E-01 a        24     0     2     1     4
  2.3364761158798184E-02 a        25     0     2     1     5
  2.3455418650273593E-01 a        26     0     2     1     6
  9.3848528876952341E-03 a        27     0     2     1     7
  2.9037914328700523E-02 a        28     0     2     1     8
  2.1879566029023684E-01 a        29     0     2     1     9
 -1.0697025911958484E-01 a        30     0     2     1    10
  3.4893614832075243E-01 a        31     0     2     1    11
 -2.5436920063068341E-01 a        32     0     2     1    12
  1.2634373666177778E-01 a        33     0     2     1    13
  2.9951070080013209E-01 a        34     0     2     1    14
 -4.4605039582616260E-02 a        35     0     2     1    15
 -3.9750261108578766E-01 a        36     0     2     1    16
  4.8703938785262835E-01 a        37     0     2     1    17
  1.0340649232360846E-01 a        38     0     2     1    18
 -1.5089536233485415E-01 a        39     0     2     1    19
  4.4277411477533279E-02 a        40     0     2     1    20
 -4.9346800230068939E-02 a        41     0     3     1     1
 -6.3387543081631414E-02 a        42     0     3     1     2
 -3.9794087427288793E-01 a        43     0     3     1     3
  1.6535778866333550E-01 a        44     0     3     1     4
  6.6409974146355369E-02 a        45     0     3     1     5
  1.6691407500354805E-01 a        46     0     3     1     6
  1.9126295663646556E-02 a        47     0     3     1     7
 -7.3127733336636525E-02 a        48     0     3     1     8
  1.0386243045336871E-01 a        49     0     3     1     9
 -1.9291133562782328E-01 a        50     0     3     1    10
  3.6687604956732994E-01 a        51     0     3     1    11
 -3.9311092129760977E-01 a        52     0     3     1    12
 -2.0525309163782104E-01 a        53     0     3     1    13
 -1.3382262427803771E-01 a        54     0     3     1    14
 -1.9399161123527936E-01 a        55     0     3     1    15
 -2.9659040743440634E-01 a        56     0     3     1    16
  2.9182540107971822E-01 a        57     0     3     1    17
 -5.5786437030978686E-02 a        58     0     3     1    18
 -1.8706503217260015E-01 a        59     0     3     1    19
  2.1552047601159977E-01 a        60     0     3     1    20
 -2.1715535213298079E-01 a        61     0     4     1     1
  2.3983814476372550E-01 a        62     0     4     1     2
 -3.1619253122134910E-01 a        63     0     4     1     3
 -9.2353119722006757E-02 a        64     0     4     1     4
 -1.3962574611179109E-02 a        65     0     4     1     5
  7.0126070503865212E-02 a        66     0     4     1     6
 -1.3788217148445581E-01 a        67     0     4     1     7
 -3.3431467900595264E-02 a        68     0     4     1     8
  4.0238610782620998E-01 a        69     0     4     1     9
 -1.2076399112756059E-01 a        70     0     4     1    10
 -3.7075451836877377E-01 a        71     0     4     1    11
  1.8400617016128412E-01 a        72     0     4     1    12
 -3.2400698759678942E-01 a        73     0     4     1    13
 -8.5605810703014970E-02 a        74     0     4     1    14
 -2.5727593925069364E-01 a        75     0     4     1    15
  2.9268757741309248E-01 a        76     0     4     1    16
 -2.6369036468975188E-01 a        77     0     4     1    17
 -4.9724693515490348E-01 a        78     0     4     1    18
  7.4192481581833308E-02 a        79     0     4     1    19
 -3.8543904623302300E-01 a        80     0     4     1    20
 -8.9099447627953923E-02 a        81     0     5     1     1
  8.7017630775594670E-02 a        82     0     5     1     2
  1.7013140435679330E-01 a        83     0     5     1     3
  1.9226053911936838E-01 a        84     0     5     1     4
 -1.9847695557814735E-01 a        85     0     5     1     5
 -2.5511037653698115E-01 a        86     0     5     1     6
 -2.1286246148031188E-01 a        87     0     5     1     7
 -4.6786505011717633E-01 a        88     0     5     1     8
 -2.1183309031958927E-01 a        89     0     5     1     9
  2.4043051709175237E-01 a        90     0     5     1    10
 -1.9397939718322443E-02 a        91     0     5     1    11
  4.1418576299030962E-01 a        92     0     5     1    12
  5.0437661262322342E-01 a        93     0     5     1    13
  3.4106091587925391E-01 a        94     0     5     1    14
 -2.2342340447091558E-01 a        95     0     5     1    15
  4.5772411569201998E-01 a        96     0     5     1    16
 -3.4701366018877283E-01 a        97     0     5     1    17
 -4.3148344376185038E-01 a        98     0     5     1    18
  4.2679148375661802E-01 a        99     0     5     1    19
 -4.7608162783916319E-01 a       100     0     5     1    20
  1.8579652678869210E-01 a       101     0     6     1     1
  8.9417176451983105E-02 a       102     0     6     1     2
 -3.7710310491349658E-01 a       103     0     6     1     3
 -6.3018312661978257E-02 a       104     0     6     1     4
  1.9263554550208387E-01 a       105     0     6     1     5
 -1.0063637245528510E-01 a       106     0     6     1     6
 -1.3802084219160182E-01 a       107     0     6     1     7
 -1.0221976251669657E-01 a       108     0     6     1     8
 -6.6515084698879276E-02 a       109     0     6     1     9
  2.9073915167863768E-01 a       110     0     6     1    10
 -2.1611973971250080E-02 a       111     0     6     1    11
  1.1459891220811982E-01 a       112     0     6     1    12
  1.1347129386468237E-02 a       113     0     6     1    13
  1.2338350177766302E-01 a       114     0     6     1    14
  3.9119066901745586E-01 a       115     0     6     1    15
  2.8328078435462478E-01 a       116     0     6     1    16
  2.2469310349159136E-01 a       117     0     6     1    17
  2.7201657533984236E-01 a       118     0     6     1    18
  7.0478917736544857E-03 a       119     0     6     1    19
  2.1379177385807316E-01 a       120     0     6     1    20
  1.6206122202283771E-01 a       121     0     7     1     1
  3.4871544767167612E-01 a       122     0     7     1     2
  1.5864264826611343E-01 a       123     0     7     1     3
  2.2232184065485544E-01 a       124     0     7     1     4
  2.4208328078012145E-01 a       125     0     7     1     5
  1.3687329205347351E-01 a       126     0     7     1     6
  3.1029902183646341E-01 a       127     0     7     1     7
  3.8539241455209650E-01 a       128     0     7     1     8
 -2.0757506780737209E-01 a       129     0     7     1     9
  3.0500001095156720E-01 a       130     0     7     1    10
  2.9113291530430907E-01 a       131     0     7     1    11
 -3.1586202310114025E-01 a       132     0     7     1    12
 -1.0786987295532395E-02 a       133     0     7     1    13
  3.9864285624783080E-01 a       134     0     7     1    14
 -4.8442790380070005E-01 a       135     0     7     1    15
 -2.7704765587151281E-01 a       136     0     7     1    16
  2.2490183818463691E-01 a       137     0     7     1    17
  2.1861085427908611E-01 a       138     0     7     1    18
 -2.1597118884986571E-01 a       139     0     7     1    19
  6.5610101960057496E-02 a       140     0     7     1    20
 -3.2531240214349372E-01 a       141     0     8     1     1
  9.6148488340621077E-02 a       142     0     8     1     2
 -5.3065807464436654E-01 a       143     0     8     1     3
  5.0149510093154226E-01 a       144     0     8     1     4
 -4.3301504174287492E-01 a       145     0     8     1     5
 -8.8936844093306697E-02 a       146     0     8     1     6
  1.5985452470408992E-01 a       147     0     8     1     7
  3.9436711432692428E-01 a       148     0     8     1     8
 -1.8201685734236681E-01 a       149     0     8     1     9
 -8.2517436994612794E-02 a       150     0     8     1    10
 -4.7308470327647199E-02 a       151     0     8     1    11
 -2.2559224397761407E-01 a       152     0     8     1    12
 -1.4618043338079748E-01 a       153     0     8     1    13
 -1.9868900347244653E-01 a       154     0     8     1    14
  1.1171828825865600E-01 a       155     0     8     1    15
 -3.3519618264186524E-01 a       156     0     8     1    16
  3.8699614998383580E-01 a       157     0     8     1    17
 -2.7186804256822494E-01 a       158     0     8     1    18
  3.2669285659733938E-01 a       159     0     8     1    19
 -1.9783578597569182E-01 a       160     0     8     1    20
 -3.3830253527196580E-01 a       161     0     9     1     1
  7.0360407736681169E-03 a       162     0     9     1     2
 -3.8075570158312277E-01 a       163     0     9     1     3
 -1.7052122030612425E-02 a       164     0     9     1     4
  2.0556997923511761E-01 a       165     0     9     1     5
 -3.9767546647679963E-01 a       166     0     9     1     6
  2.4126891523627828E-01 a       167     0     9     1     7
  8.7950565661717800E-02 a       168     0     9     1     8
  1.6728964382001504E-01 a       169     0     9     1     9
 -5.7586773463778426E-02 a       170     0     9     1    10
  1.1083801736788891E-01 a       171     0     9     1    11
 -2.1609580424146194E-01 a       172     0     9     1    12
 -1.8218360130354413E-01 a       173     0     9     1    13
  4.4330249822506551E-01 a       174     0     9     1    14
 -1.3609973736098338E-01 a       175     0     9     1    15
 -3.8498182850817159E-02 a       176     0     9     1    16
 -3.3379011071857712E-01 a       177     0     9     1    17
  2.0837620786358760E-02 a       178     0     9     1    18
  1.1527104519243109E-01 a       179     0     9     1    19
  1.2412861039162852E-01 a       180     0     9     1    20
  5.0565768370372888E-01 a       181     0    10     1     1
 -3.7410849267871199E-01 a       182     0    10     1     2
  1.8895953262921819E-01 a       183     0    10     1     3
  2.8605737486001687E-01 a       184     0    10     1     4
 -3.2680476234866024E-01 a       185     0    10     1     5
 -2.5192003611709674E-01 a       186     0    10     1     6
 -8.4969662126993181E-02 a       187     0    10     1     7
 -2.6007145277694249E-01 a       188     0    10     1     8
 -1.0328628307693895E-01 a       189     0    10     1     9
  1.5448965892416419E-01 a       190     0    10     1    10
 -1.1912582366795714E-01 a       191     0    10     1    11
 -2.6652009388759154E-02 a       192     0    10     1    12
  1.5213686553134920E-01 a       193     0    10     1    13
 -1.4322964444944369E-01 a       194     0    10     1    14
  2.0777102532865793E-01 a       195     0    10     1    15
  3.4118947034868730E-01 a       196     0    10     1    16
 -3.8923929322599737E-01 a       197     0    10     1    17
 -3.1782262469875067E-01 a       198     0    10     1    18
 -2.6711009956257004E-01 a       199     0    10     1    19
  2.2900951449487886E-01 a       200     0    10     1    20
 -2.1193244984412277E-01 a       201     0    11     1     1
  3.1693669187616397E-01 a       202     0    11     1     2
  6.3064157426391709E-02 a       203     0    11     1     3
 -2.4785925549814514E-02 a       204     0    11     1     4
  4.3401738368986781E-02 a       205     0    11     1     5
 -9.1407474451614984E-02 a       206     0    11     1     6
 -7.8595027378285054E-02 a       207     0    11     1     7
 -6.2246482286285876E-03 a       208     0    11     1     8
 -2.7527176284214017E-01 a       209     0    11     1     9
 -1.5747387112749801E-02 a       210     0    11     1    10
  3.0892908241314809E-01 a       211     0    11     1    11
 -3.5564025657279297E-01 a       212     0    11     1    12
  6.9397806599480097E-02 a       213     0    11     1    13
 -1.9844676026962016E-01 a       214     0    11     1    14
  1.7652453274966406E-01 a       215     0    11     1    15
 -4.2767162121196872E-01 a       216     0    11     1    16
 -2.8962187843938209E-01 a       217     0    11     1    17
  2.0764950203757016E-02 a       218     0    11     1    18
 -8.1907177732377531E-02 a       219     0    11     1    19
  2.5020392884351628E-01 a       220     0    11     1    20
  2.9252016259471303E-01 a       221     0    12     1     1
 -2.6174914343391154E-01 a       222     0    12     1     2
  6.1522499784186974E-02 a       223     0    12     1     3
  1.6496952073370078E-01 a       224     0    12     1     4
  3.2107606065273048E-02 a       225     0    12     1     5
  8.8669627471873583E-02 a       226     0    12     1     6
 -2.4896006258678649E-01 a       227     0    12     1     7
 -2.2004634301829021E-01 a       228     0    12     1     8
  2.5233316135469641E-01 a       229     0    12     1     9
 -1.2698458333221896E-01 a       230     0    12     1    10
 -1.0759104751415607E-01 a       231     0    12     1    11
  2.9688007396791971E-01 a       232     0    12     1    12
  1.6041582406586364E-02 a       233     0    12     1    13
 -3.9701375131272082E-01 a       234     0    12     1    14
  2.2119993095858015E-01 a       235     0    12     1    15
  1.9258557743918142E-01 a       236     0    12     1    16
 -4.1357996799605570E-02 a       237     0    12     1    17
  1.1559559988706462E-01 a       238     0    12     1    18
  2.7461077222927904E-01 a       239     0    12     1    19
 -5.4358807020581568E-01 a       240     0    12     1    20
  1.5524924030915538E-01 a       241     0    13     1     1
 -5.7806280120001496E-01 a       242     0    13     1     2
  3.4688739914115296E-01 a       243     0    13     1     3
  1.6906552101369748E-02 a       244     0    13     1     4
 -2.3978209375234857E-01 a       245     0    13     1     5
  2.8372285919779244E-01 a       246     0    13     1     6
  3.5992747802570335E-01 a       247     0    13     1     7
 -2.1595708773593580E-01 a       248     0    13     1     8
 -1.2031785245290944E-01 a       249     0    13     1     9
 -2.0573994303559154E-01 a       250     0    13     1    10
  3.1223219870012120E-01 a       251     0    13     1    11
  4.3578197759854616E-02 a       252     0    13     1    12
 -3.4657774264215935E-01 a       253     0    13     1    13
  8.2977583944271308E-02 a       254     0    13     1    14
 -5.0553988557344598E-01 a       255     0    13     1    15
  1.8723479486066658E-01 a       256     0    13     1    16
  3.4974499557311778E-01 a       257     0    13     1    17
 -2.2243868548014567E-01 a       258     0    13     1    18
 -1.7156566774544829E-01 a       259     0    13     1    19
 -3.8318987447334835E-02 a       260     0    13     1    20
  5.1052301057770166E-01 a       261     0    14     1     1
  3.5829788763966280E-01 a       262     0    14     1     2
 -5.8166320075351130E-01 a       263     0    14     1     3
 -2.2550998625987864E-01 a       264     0    14     1     4
  1.0429947567100176E-01 a       265     0    14     1     5
 -9.8080469740381565E-02 a       266     0    14     1     6
 -1.1313290592783400E-01 a       267     0    14     1     7
  9.8591371200595121E-02 a       268     0    14     1     8
 -6.5208003713707566E-02 a       269     0    14     1     9
 -8.1812898565732872E-02 a       270     0    14     1    10
 -1.5685083667856481E-01 a       271     0    14     1    11
  1.5601896983641869E-01 a       272     0    14     1    12
  3.3382923687433952E-01 a       273     0    14     1    13
  1.5238503035121317E-01 a       274     0    14     1    14
  1.2143133965202310E-01 a       275     0    14     1    15
  2.2752014905274709E-01 a       276     0    14     1    16
 -2.6363990526364472E-01 a       277     0    14     1    17
  1.0781787392429490E-01 a       278     0    14     1    18
  2.6103194746194375E-01 a       279     0    14     1    19
  2.9287786201321075E-01 a       280     0    14     1    20
 -2.0351850359243415E-01 a       281     0    15     1     1
  3.7313752613700946E-01 a       282     0    15     1     2
  1.8250906446465578E-01 a       283     0    15     1     3
  2.0216174555294578E-01 a       284     0    15     1     4
  2.3559774764779554E-01 a       285     0    15     1     5
 -9.0716875276637104E-02 a       286     0    15     1     6
 -3.8946729026344695E-01 a       287     0    15     1     7
  8.1007563613943956E-02 a       288     0    15     1     8
 -1.0831695460946725E-01 a       289     0    15     1     9
  3.4043868904745944E-01 a       290     0    15     1    10
  3.1802035336128087E-01 a       291     0    15     1    11
  3.6293556571235902E-01 a       292     0    15     1    12
 -1.1382845019872524E-01 a       293     0    15     1    13
 -2.1714205463742406E-02 a       294     0    15     1    14
  7.2893922304200304E-02 a       295     0    15     1    15
  1.7465746493315981E-01 a       296     0    15     1    16
 -1.3075525298024016E-01 a       297     0    15     1    17
  1.6254620631981964E-01 a       298     0    15     1    18
 -4.9231170596618849E-02 a       299     0    15     1    19
 -2.7428256241635662E-01 a       300     0    15     1    20
 -2.1536262351943439E-01 a       301     0    16     1     1
 -8.5594841400896127E-02 a       302     0    16     1     2
 -1.4672042537567448E-01 a       303     0    16     1     3
 -2.1839518269243544E-01 a       304     0    16     1     4
  9.5953589134145340E-02 a       305     0    16     1     5
 -2.3692333020321435E-01 a       306     0    16     1     6
  5.1605117475598219E-02 a       307     0    16     1     7
 -1.5224704665662092E-01 a       308     0    16     1     8
 -1.5663118095829812E-01 a       309     0    16     1     9
 -2.0721260657181864E-01 a       310     0    16     1    10
  2.0759359688445211E-01 a       311     0    16     1    11
 -8.4144188353838967E-02 a       312     0    16     1    12
 -2.3676650463025184E-01 a       313     0    16     1    13
  4.2282943517431959E-01 a       314     0    16     1    14
 -3.0506947725847311E-01 a       315     0    16     1    15
  2.3946365504292519E-01 a       316     0    16     1    16
 -3.0673378312978301E-02 a       317     0    16     1    17
 -2.3435780575692695E-03 a       318     0    16     1    18
  2.2291947856565084E-01 a       319     0    16     1    19
 -5.3437832080907542E-02 a       320     0    16     1    20
  2.3129089121100374E-01 a       321     0    17     1     1
 -5.8621407951166826E-02 a       322     0    17     1     2
  1.5994486345626843E-01 a       323     0    17     1     3
  9.5347065088808344E-02 a       324     0    17     1     4
 -1.5331131506561912E-01 a       325     0    17     1     5
 -3.8619412501764616E-01 a       326     0    17     1     6
  3.1897131794092437E-01 a       327     0    17     1     7
  5.3895466302562268E-03 a       328     0    17     1     8
 -1.2478412133818691E-01 a       329     0    17     1     9
 -3.4277759210637820E-01 a       330     0    17     1    10
  1.0317657587766321E-01 a       331     0    17     1    11
  1.2726927205894148E-01 a       332     0    17     1    12
  2.3644346522144621E-01 a       333     0    17     1    13
 -2.8699233594889195E-01 a       334     0    17     1    14
  2.7691217599552548E-01 a       335     0    17     1    15
 -3.6064464996180934E-01 a       336     0    17     1    16
 -1.8667060331395338E-01 a       337     0    17     1    17
  7.4503734701710983E-02 a       338     0    17     1    18
  1.5603209032059651E-01 a       339     0    17     1    19
  1.8633661777685942E-01 a       340     0    17     1    20
 -5.3380985065128511E-03 a       341     0    18     1     1
  7.9064397080668189E-02 a       342     0    18     1     2
  2.1447105861569613E-01 a       343     0    18     1     3
  2.4827425632236316E-01 a       344     0    18     1     4
  4.6632504806909475E-02 a       345     0    18     1     5
  1.0425651515197676E-02 a       346     0    18     1     6
 -2.3991872894710958E-01 a       347     0    18     1     7
 -1.7983187774628023E-01 a       348     0    18     1     8
 -4.0962854826643885E-02 a       349     0    18     1     9
  2.4801661598670183E-01 a       350     0    18     1    10
  8.7153311960127804E-03 a       351     0    18     1    11
  2.2620156424019943E-02 a       352     0    18     1    12
  1.8333477796853723E-01 a       353     0    18     1    13
  1.9967648006815591E-01 a       354     0    18     1    14
 -1.8020992251284607E-01 a       355     0    18     1    15
 -1.9078662066936203E-01 a       356     0    18     1    16
  1.8613157802841829E-01 a       357     0    18     1    17
 -1.4661506749507383E-01 a       358     0    18     1    18
 -1.7089806940553645E-01 a       359     0    18     1    19
 -1.8985422930437151E-01 a       360     0    18     1    20
 -9.2877106849790045E-02 a       361     0    19     1     1
 -1.1385669304407413E-01 a       362     0    19     1     2
  4.4454915046234095E-01 a       363     0    19     1     3
  9.8468098468663633E-03 a       364     0    19     1     4
  3.5306681321349447E-02 a       365     0    19     1     5
  4.7861118572979827E-01 a       366     0    19     1     6
 -3.7015548255623892E-02 a       367     0    19     1     7
 -2.5267182709417597E-02 a       368     0    19     1     8
  1.9689403162219590E-02 a       369     0    19     1     9
 -3.1140730016648424E-02 a       370     0    19     1    10
 -7.6861580129461662E-02 a       371     0    19     1    11
  2.5873961282152361E-02 a       372     0    19     1    12
 -8.7568469017843667E-02 a       373     0    19     1    13
 -4.8860574244118972E-03 a       374     0    19     1    14
 -7.6205079826326946E-02 a       375     0    19     1    15
  3.0016076819815501E-01 a       376     0    19     1    16
  8.6858720535436001E-02 a       377     0    19     1    17
  9.9026956167879071E-02 a       378     0    19     1    18
 -2.3353883847472026E-01 a       379     0    19     1    19
  8.3417160658071920E-02 a       380     0    19     1    20
  8.6467974587705693E-02 a       381     0    20     1     1
  3.2846363108696180E-01 a       382     0    20     1     2
 -1.4835108501609831E-01 a       383     0    20     1     3
 -4.0866508178316230E-01 a       384     0    20     1     4
 -2.0814888566725162E-01 a       385     0    20     1     5
 -3.7761051134897783E-01 a       386     0    20     1     6
  7.4497448447847808E-02 a       387     0    20     1     7
  3.2107151579890122E-02 a       388     0    20     1     8
 -1.0617677974519631E-01 a       389     0    20     1     9
  8.4589753779458817E-03 a       390     0    20     1    10
 -3.4928062406661942E-01 a       391     0    20     1    11
  4.6909161339724142E-02 a       392     0    20     1    12
 -1.2502128215578998E-01 a       393     0    20     1    13
  4.1998823237065408E-01 a       394     0    20     1    14
 -4.1961220706020863E-01 a       395     0    20     1    15
 -1.5483516464960295E-01 a       396     0    20     1    16
 -1.1055757126712887E-01 a       397     0    20     1    17
 -7.8990754004576280E-02 a       398     0    20     1    18
  1.3013947777877355E-01 a       399     0    20     1    19
 -6.1056596714602743E-02 a       400     0    20     1    20
 -3.8836424317933949E-01 a       401     0    21     1     1
 -5.5062336636659093E-01 a       402     0    21     1     2
  4.8050027162442627E-01 a       403     0    21     1     3
  1.7171669466187206E-01 a       404     0    21     1     4
  6.9013782114976958E-03 a       405     0    21     1     5
  4.5526235307910334E-01 a       406     0    21     1     6
 -2.2539034387663243E-01 a       407     0    21     1     7
 -2.1344404320983276E-02 a       408     0    21     1     8
  4.5937430785764682E-01 a       409     0    21     1     9
 -1.1851403049786711E-01 a       410     0    21     1    10
  3.4210314331456765E-01 a       411     0    21     1    11
 -4.6083233357493258E-01 a       412     0    21     1    12
 -3.5444723165488323E-01 a       413     0    21     1    13
  2.7554879818094569E-01 a       414     0    21     1    14
 -4.4723627475303473E-01 a       415     0    21     1    15
 -3.7723609116741330E-01 a       416     0    21     1    16
  1.4872768585075194E-01 a       417     0    21     1    17
 -4.4753275469071696E-01 a       418     0    21     1    18
 -2.1368716264722923E-01 a       419     0    21     1    19
  2.4943020810732044E-01 a       420     0    21     1    20
  1.4290244829135301E-01 a       421     0    22     1     1
  3.3375200833242469E-01 a       422     0    22     1     2
  1.1100753150672035E-01 a       423     0    22     1     3
 -5.8926437435460899E-01 a       424     0    22     1     4
 -2.4604634548946042E-01 a       425     0    22     1     5
 -8.3722448242137482E-02 a       426     0    22     1     6
  2.1204493862598273E-01 a       427     0    22     1     7
 -2.9167083734438198E-01 a       428     0    22     1     8
 -4.7713225288144512E-01 a       429     0    22     1     9
  1.7861773952185023E-01 a       430     0    22     1    10
  1.2341564282416307E-02 a       431     0    22     1    11
  6.2066308090324152E-02 a       432     0    22     1    12
  1.6452739805669769E-01 a       433     0    22     1    13
 -2.6844186192784936E-01 a       434     0    22     1    14
 -1.0643173479741298E-01 a       435     0    22     1    15
 -6.5344337706515904E-02 a       436     0    22     1    16
  1.8868916110089437E-01 a       437     0    22     1    17
  8.9626353631970079E-02 a       438     0    22     1    18
 -2.8241955138541878E-03 a       439     0    22     1    19
 -4.6435288615919440E-01 a       440     0    22     1    20
  1.2187449459082592E-01 a       441     0    23     1     1
  2.9807325403321744E-01 a       442     0    23     1     2
  2.1748412082054466E-02 a       443     0    23     1     3
 -2.9834097773058627E-01 a       444     0    23     1     4
  1.4811650423441763E-01 a       445     0    23     1     5
 -7.0744540975916356E-02 a       446     0    23     1     6
  2.7665376037977231E-02 a       447     0    23     1     7
  3.7947881381115273E-01 a       448     0    23     1     8
 -5.0968631239315365E-01 a       449     0    23     1     9
  3.0824169508793087E-01 a       450     0    23     1    10
 -2.9176999275226312E-01 a       451     0    23     1    11
  3.0948928240568913E-01 a       452     0    23     1    12
 -2.0653585232015612E-01 a       453     0    23     1    13
 -1.6423582072788875E-01 a       454     0    23     1    14
 -5.4465098337365243E-02 a       455     0    23     1    15
  2.9903875209084853E-02 a       456     0    23     1    16
  1.4545101106618136E-01 a       457     0    23     1    17
  4.1360473775316975E-01 a       458     0    23     1    18
 -6.7752516302043708E-02 a       459     0    23     1    19
 -4.9229862761973131E-01 a       460     0    23     1    20
  8.3829800135444485E-02 a       461     0    24     1     1
 -4.7418981042375075E-02 a       462     0    24     1     2
 -5.1714438080098981E-03 a       463     0    24     1     3
  8.0256954715565952E-03 a       464     0    24     1     4
  3.8229446783490766E-02 a       465     0    24     1     5
  1.5813846421864047E-01 a       466     0    24     1     6
  4.8238480623287406E-03 a       467     0    24     1     7
 -1.2981080059010802E-01 a       468     0    24     1     8
  9.4269620077621449E-02 a       469     0    24     1     9
  7.2486459748462200E-03 a       470     0    24     1    10
  1.7946047340582896E-01 a       471     0    24     1    11
  6.7402490494084186E-02 a       472     0    24     1    12
  2.2293792329743184E-01 a       473     0    24     1    13
  2.6650729460586176E-01 a       474     0    24     1    14
  1.1038441958204345E-01 a       475     0    24     1    15
  6.5463264414123215E-02 a       476     0    24     1    16
 -2.6781463372706538E-01 a       477     0    24     1    17
 -1.9459721217303030E-01 a       478     0    24     1    18
  1.8432375754248061E-02 a       479     0    24     1    19
  3.4275567137898422E-01 a       480     0    24     1    20
 -1.5717547573254162E-01 a       481     0    25     1     1
  2.7229202468585983E-01 a       482     0    25     1     2
 -1.4636254381975722E-01 a       483     0    25     1     3
  1.0216432048536063E-01 a       484     0    25     1     4
  2.8320721863228985E-02 a       485     0    25     1     5
 -1.1446043958094772E-01 a       486     0    25     1     6
  1.5051604003312138E-01 a       487     0    25     1     7
  2.4954083945019850E-01 a       488     0    25     1     8
  1.2067632813451097E-01 a       489     0    25     1     9
 -7.8479134733686187E-02 a       490     0    25     1    10
 -3.2665829193200341E-01 a       491     0    25     1    11
 -5.8945018934460462E-02 a       492     0    25     1    12
 -2.5714503134153070E-02 a       493     0    25     1    13
 -1.0014029175389332E-01 a       494     0    25     1    14
  3.2864850075660401E-01 a       495     0    25     1    15
 -1.6063713049050093E-01 a       496     0    25     1    16
  2.6169273760490114E-01 a       497     0    25     1    17
  2.4095418469275592E-01 a       498     0    25     1    18
 -3.5032795065488448E-01 a       499     0    25     1    19
  3.3582233140597240E-01 a       500     0    25     1    20
 -1.3669455224337318E-01 a       501     0    26     1     1
  6.7351479100674294E-02 a       502     0    26     1     2
  4.4259179556895872E-02 a       503     0    26     1     3
 -6.4036992268269463E-02 a       504     0    26     1     4
  1.7869860228338103E-01 a       505     0    26     1     5
  2.8476715121320842E-02 a       506     0    26     1     6
 -2.1925904311352604E-01 a       507     0    26     1     7
 -1.9484022426624728E-01 a       508     0    26     1     8
  1.9487913570911802E-01 a       509     0    26     1     9
 -1.5193429528849145E-01 a       510     0    26     1    10
  1.6764045687765811E-01 a       511     0    26     1    11
  2.0729929309627462E-01 a       512     0    26     1    12
  1.5023714863578980E-01 a       513     0    26     1    13
 -9.8920027696463894E-02 a       514     0    26     1    14
  3.7638650014222896E-02 a       515     0    26     1    15
  1.0389437354277571E-01 a       516     0    26     1    16
  3.9301142249039511E-01 a       517     0    26     1    17
  1.3076082086845756E-01 a       518     0    26     1    18
  1.1725813554809486E-01 a       519     0    26     1    19
 -3.7817091632671032E-03 a       520     0    26     1    20
  2.7766256836833200E-02 a       521     0    27     1     1
  5.3349904339251863E-01 a       522     0    27     1     2
  1.2241059822151648E-01 a       523     0    27     1     3
  2.4788806588131037E-02 a       524     0    27     1     4
 -1.1703618120988807E-01 a       525     0    27     1     5
  4.4225941986273387E-01 a       526     0    27     1     6
  1.0250677750056635E-01 a       527     0    27     1     7
  6.9365270036330751E-02 a       528     0    27     1     8
 -9.0260876108007333E-03 a       529     0    27     1     9
 -3.0884279976130913E-01 a       530     0    27     1    10
 -5.5007174770275258E-01 a       531     0    27     1    11
 -2.1910607074533786E-01 a       532     0    27     1    12
  3.0879029956128218E-01 a       533     0    27     1    13
  2.1696094384811848E-01 a       534     0    27     1    14
  1.6762985256521448E-01 a       535     0    27     1    15
  6.8094474255070828E-02 a       536     0    27     1    16
 -5.6104625991109558E-01 a       537     0    27     1    17
  1.2371621476378425E-01 a       538     0    27     1    18
 -1.0731373568185006E-01 a       539     0    27     1    19
  1.8109077387007089E-01 a       540     0    27     1    20
  1.4337676678338416E+00 b       541     1     1
  1.1663409952629742E+00 b       542     1     2
  1.3682713060752489E+00 b       543     1     3
 -1.4401639123268322E+00 b       544     1     4
 -1.4390638524129792E-01 b       545     1     5
  1.6164035531824901E+00 b       546     1     6
  2.9816741137281866E-01 b       547     1     7
  1.4070147871598853E+00 b       548     1     8
  5.9484867967810373E-01 b       549     1     9
 -2.2539560689418553E-01 b       550     1    10
  9.3024823932642353E-01 b       551     1    11
  1.0975025475913058E+00 b       552     1    12
  1.3439677099514959E+00 b       553     1    13
  1.0972982403737817E+00 b       554     1    14
  6.2467932733159981E-01 b       555     1    15
  1.6900420634164903E+00 b       556     1    16
 -1.4837922591677253E+00 b       557     1    17
 -9.1618422800516019E-01 b       558     1    18
 -6.0685187460774215E-01 b       559     1    19
 -6.4300862275404347E-01 b       560     1    20
 -4.3113189718358885E-01 a       561     1     1     2     1
  1.0093300892661776E-01 a       562     1     1     2     2
  3.9594095671635454E-01 a       563     1     1     2     3
  2.9320844964315035E-01 a       564     1     1     2     4
  4.1508559805022982E-01 a       565     1     1     2     5
  2.8592155682198966E-01 a       566     1     1     2     6
 -3.9194947290442800E-01 a       567     1     1     2     7
 -1.6178711992449954E-01 a       568     1     1     2     8
 -2.9448397916933565E-02 a       569     1     1     2     9
  4.3780645867358942E-01 a       570     1     1     2    10
  3.4052283136252770E-01 a       571     1     1     2    11
 -3.2010359523843090E-01 a       572     1     1     2    12
  5.9351989520677439E-01 a       573     1     1     2    13
  2.2547803211950254E-01 a       574     1     1     2    14
 -4.2114580742495955E-01 a       575     1     1     2    15
  6.1650671781054864E-02 a       576     1     1     2    16
  2.7739541140560281E-01 a       577     1     1     2    17
 -1.7308539702116255E-01 a       578     1     1     2    18
 -7.5615161980351397E-01 a       579     1     1     2    19
  1.8158520726532204E-01 a       580     1     1     2    20
 -7.7671977021626135E-02 a       581     1     2     2     1
  3.5194148252551366E-01 a       582     1     2     2     2
  1.4730765397037213E-01 a       583     1     2     2     3
  2.5739710991279235E-01 a       584     1     2     2     4
 -2.3386315318460579E-01 a       585     1     2     2     5
  4.3894542876568937E-01 a       586     1     2     2     6
  4.5951631688038608E-01 a       587     1     2     2     7
 -3.7813489804430167E-01 a       588     1     2     2     8
  6.2975381615753845E-01 a       589     1     2     2     9
  1.2652585946105899E-01 a       590     1     2     2    10
 -4.0883777163211676E-01 a       591     1     2     2    11
 -1.7752933906257351E-01 a       592     1     2     2    12
 -3.6941604088657609E-01 a       593     1     2     2    13
  2.2961929316377314E-01 a       594     1     2     2    14
  5.4131802176291812E-03 a       595     1     2     2    15
  3.7010183733846197E-01 a       596     1     2     2    16
  2.6765277138331078E-03 a       597     1     2     2    17
  4.6133088197358096E-01 a       598     1     2     2    18
 -5.7278476722728711E-01 a       599     1     2     2    19
 -4.9816847684972854E-01 a       600     1     2     2    20
  2.2961043463921443E-02 a       601     1     3     2     1
 -3.6406914314498812E-01 a       602     1     3     2     2
 -1.3883252759335038E-01 a       603     1     3     2     3
  1.5374411568152360E-01 a       604     1     3     2     4
  2.6899291630430222E-01 a       605     1     3     2     5
 -4.3246421286496844E-01 a       606     1     3     2     6
  5.0986273885763223E-01 a       607     1     3     2     7
  1.5862644410875121E-01 a       608     1     3     2     8
  2.8303033101462655E-01 a       609     1     3     2     9
  2.7557015048050438E-03 a       610     1     3     2    10
  4.0531418561433097E-01 a       611     1     3     2    11
 -3.8980703727173194E-01 a       612     1     3     2    12
 -5.3935126709947634E-01 a       613     1     3     2    13
  2.4646209188786070E-01 a       614     1     3     2    14
  2.8002063611514044E-01 a       615     1     3     2    15
 -1.3180330560768274E-02 a       616     1     3     2    16
  2.9962374504254369E-01 a       617     1     3     2    17
 -4.7033471797486620E-01 a       618     1     3     2    18
  1.8288941905376127E-01 a       619     1     3     2    19
  3.3950269500195912E-01 a       620     1     3     2    20
 -4.7263437500500310E-01 a       621     1     4     2     1
  1.2578668849791858E-01 a       622     1     4     2     2
  3.4569878303346718E-01 a       623     1     4     2     3
  5.0563244451481382E-01 a       624     1     4     2     4
  6.1616008102335557E-02 a       625     1     4     2     5
 -1.7284779220585161E-01 a       626     1     4     2     6
 -9.8015234699238049E-02 a       627     1     4     2     7
  8.2236679253506181E-02 a       628     1     4     2     8
 -3.3383200168471343E-02 a       629     1     4     2     9
  5.4718099589737612E-01 a       630     1     4     2    10
 -5.3383090524884746E-01 a       631     1     4     2    11
  4.3555764490611777E-02 a       632     1     4     2    12
  8.5439009311058398E-02 a       633     1     4     2    13
  6.4569184130582935E-02 a       634     1     4     2    14
  1.3876456486505612E-01 a       635     1     4     2    15
 -3.9248186246671879E-01 a       636     1     4     2    16
  7.8875055447687381E-01 a       637     1     4     2    17
  7.6851286237578184E-02 a       638     1     4     2    18
  1.9753876754059374E-01 a       639     1     4     2    19
 -5.4275993520634391E-01 a       640     1     4     2    20
  2.4084999223987191E-01 a       641     1     5     2     1
 -1.0428309267205074E-02 a       642     1     5     2     2
  9.7705369987546670E-02 a       643     1     5     2     3
  1.8400255695143850E-01 a       644     1     5     2     4
 -9.2324752730815418E-02 a       645     1     5     2     5
 -4.9873657178499925E-01 a       646     1     5     2     6
  3.8783826924270646E-03 a       647     1     5     2     7
 -1.1741695279374320E-01 a       648     1     5     2     8
  7.0440896010242038E-01 a       649     1     5     2     9
  5.6491243231370591E-01 a       650     1     5     2    10
 -4.1221711679637729E-01 a       651     1     5     2    11
  2.8902434114929559E-01 a       652     1     5     2    12
  1.1983016255149966E-01 a       653     1     5     2    13
 -7.9997017299590273E-02 a       654     1     5     2    14
 -4.3435730275005208E-01 a       655     1     5     2    15
  5.2934753833675163E-01 a       656     1     5     2    16
  7.3855856419885374E-02 a       657     1     5     2    17
 -1.3371243839116978E-01 a       658     1     5     2    18
 -2.1945790378479393E-01 a       659     1     5     2    19
 -4.1661605710682431E-01 a       660     1     5     2    20
 -2.0697289324527104E-01 a       661     1     6     2     1
  4.0066045317699678E-01 a       662     1     6     2     2
 -6.6949930341265555E-03 a       663     1     6     2     3
  1.2968085511566987E-01 a       664     1     6     2     4
  5.9384127417863219E-01 a       665     1     6     2     5
 -7.3369710258520726E-01 a       666     1     6     2     6
  2.5036224046741818E-02 a       667     1     6     2     7
 -2.4196031048834936E-02 a       668     1     6     2     8
 -1.0168107869088046E-01 a       669     1     6     2     9
  5.2743070956378446E-01 a       670     1     6     2    10
  5.5110459717187232E-01 a       671     1     6     2    11
 -3.4799157114393159E-01 a       672     1     6     2    12
  2.5848538393173065E-01 a       673     1     6     2    13
  5.6175183244632598E-01 a       674     1     6     2    14
 -3.0763347752729886E-01 a       675     1     6     2    15
  6.1923504873367585E-01 a       676     1     6     2    16
 -2.1344505430161842E-01 a       677     1     6     2    17
 -4.3955278551338006E-01 a       678     1     6     2    18
 -1.6547642426877812E-01 a       679     1     6     2    19
  3.1508177053830377E-01 a       680     1     6     2    20
  3.3790850183926219E-01 a       681     1     7     2     1
 -1.3504889805366010E-01 a       682     1     7     2     2
  4.3260116111183333E-01 a       683     1     7     2     3
  6.6715088559148916E-01 a       684     1     7     2     4
 -4.9100902909031746E-01 a       685     1     7     2     5
 -1.6765258227085311E-01 a       686     1     7     2     6
 -3.8646562307628474E-01 a       687     1     7     2     7
 -4.7296379083790918E-01 a       688     1     7     2     8
  3.3876335205436997E-01 a       689     1     7     2     9
 -6.1753966174470064E-03 a       690     1     7     2    10
 -3.0014151592809596E-01 a       691     1     7     2    11
 -1.4459407145301797E-01 a       692     1     7     2    12
  3.5685279897740180E-01 a       693     1     7     2    13
 -1.1742033907925342E-01 a       694     1     7     2    14
 -3.2289150413284445E-01 a       695     1     7     2    15
 -8.3145470612182498E-02 a       696     1     7     2    16
  3.7762264537947715E-01 a       697     1     7     2    17
  3.7070473855242210E-02 a       698     1     7     2    18
 -3.4937076675128936E-01 a       699     1     7     2    19
 -5.5012836547206734E-01 a       700     1     7     2    20
 -3.3918915823535623E-01 a       701     1     8     2     1
  1.4240682135991867E-01 a       702     1     8     2     2
  5.0821280422314530E-01 a       703     1     8     2     3
 -3.9579181856671619E-01 a       704     1     8     2     4
  6.1454457182698630E-01 a       705     1     8     2     5
  1.4113449653461466E-01 a       706     1     8     2     6
 -2.2051252670679924E-01 a       707     1     8     2     7
  5.9666977093692752E-01 a       708     1     8     2     8
  4.0434966861234733E-01 a       709     1     8     2     9
  3.2174524566173318E-01 a       710     1     8     2    10
 -3.6725312653921738E-01 a       711     1     8     2    11
 -7.4698007858817617E-01 a       712     1     8     2    12
 -1.5038564535198665E-01 a       713     1     8     2    13
 -2.0945452477887408E-01 a       714     1     8     2    14
 -5.4683584940545005E-01 a       715     1     8     2    15
  3.8581178415229617E-01 a       716     1     8     2    16
  2.9192170372159448E-01 a       717     1     8     2    17
  6.1217072968287345E-01 a       718     1     8     2    18
 -4.9062652599584411E-01 a       719     1     8     2    19
  2.3977231287888634E-01 a       720     1     8     2    20
  1.8137051665555667E-02 a       721     1     9     2     1
 -7.1807535106761122E-01 a       722     1     9     2     2
  2.1322891335984495E-01 a       723     1     9     2     3
  4.6354557216540282E-01 a       724     1     9     2     4
 -5.7647786994954797E-01 a       725     1     9     2     5
  5.0805422620013119E-01 a       726     1     9     2     6
 -4.4574825597870738E-01 a       727     1     9     2     7
 -2.9388109860133527E-01 a       728     1     9     2     8
 -1.3479355220323205E-01 a       729     1     9     2     9
 -4.6138369362433829E-01 a       730     1     9     2    10
  1.5867902185873900E-01 a       731     1     9     2    11
  1.7134051459589986E-01 a       732     1     9     2    12
  6.6022118981922751E-01 a       733     1     9     2    13
  8.4119371553040168E-02 a       734     1     9     2    14
  1.3097840479603365E-01 a       735     1     9     2    15
 -3.4232963560198987E-01 a       736     1     9     2    16
 -5.5530542745138474E-02 a       737     1     9     2    17
  2.1368572034218133E-01 a       738     1     9     2    18
  1.0657776626718490E-03 a       739     1     9     2    19
 -4.7869555650074380E-01 a       740     1     9     2    20
  6.0411827127310991E-01 a       741     1    10     2     1
  6.0424636521029772E-02 a       742     1    10     2     2
  1.9202186661244031E-01 a       743     1    10     2     3
  2.5156805317336151E-01 a       744     1    10     2     4
 -1.1173633744363272E-01 a       745     1    10     2     5
 -1.6870457472520659E-01 a       746     1    10     2     6
 -2.5036217504891829E-02 a       747     1    10     2     7
 -3.1123865297130604E-01 a       748     1    10     2     8
 -5.6656957966497101E-01 a       749     1    10     2     9
 -1.3854952969643894E-01 a       750     1    10     2    10
 -3.9817516306405903E-01 a       751     1    10     2    11
 -2.4408892265347990E-01 a       752     1    10     2    12
 -4.9407601947611825E-02 a       753     1    10     2    13
  2.0863807757680589E-01 a       754     1    10     2    14
  6.0961443407464722E-01 a       755     1    10     2    15
 -4.0715711805409321E-01 a       756     1    10     2    16
  2.8231565336461489E-01 a       757     1    10     2    17
 -8.4670387553506754E-02 a       758     1    10     2    18
  1.5146249133809062E-01 a       759     1    10     2    19
  3.9553529724955065E-02 a       760     1    10     2    20
 -6.1116465945265930E-01 a       761     1    11     2     1
 -1.3764148372435778E-01 a       762     1    11     2     2
 -5.1463769239049306E-01 a       763     1    11     2     3
  2.0143931168551632E-01 a       764     1    11     2     4
  5.1899225609591884E-02 a       765     1    11     2     5
 -2.0574078495502091E-01 a       766     1    11     2     6
 -2.7442508634742840E-01 a       767     1    11     2     7
  3.4451741239499467E-01 a       768     1    11     2     8
 -1.2502294068930475E-01 a       769     1    11     2     9
 -1.0569101134666138E-01 a       770     1    11     2    10
 -2.6492530121789037E-01 a       771     1    11     2    11
  3.5239333365852110E-02 a       772     1    11     2    12
  8.3749280801029322E-02 a       773     1    11     2    13
  5.4631066806309703E-01 a       774     1    11     2    14
 -8.1317975746110729E-02 a       775     1    11     2    15
 -4.3840722267024190E-01 a       776     1    11     2    16
 -4.3465196112441706E-01 a       777     1    11     2    17
 -4.4673417792971520E-01 a       778     1    11     2    18
 -2.7100609316280708E-02 a       779     1    11     2    19
 -2.7362290718308169E-01 a       780     1    11     2    20
 -1.9797292156611213E-01 a       781     1    12     2     1
 -2.4783331125926247E-02 a       782     1    12     2     2
  3.9788238662909280E-02 a       783     1    12     2     3
  2.0598939717117840E-01 a       784     1    12     2     4
  2.9963098129775956E-01 a       785     1    12     2     5
  1.3020643446100025E-01 a       786     1    12     2     6
 -2.4494986512673556E-01 a       787     1    12     2     7
 -5.6826325797497657E-01 a       788     1    12     2     8
 -2.0512127600536969E-02 a       789     1    12     2     9
 -3.2172966760340910E-01 a       790     1    12     2    10
 -5.0826537485548595E-01 a       791     1    12     2    11
 -2.8055757939763226E-01 a       792     1    12     2    12
 -4.1276150072418977E-01 a       793     1    12     2    13
  1.3884872440624776E-02 a       794     1    12     2    14
  2.7583167000269071E-01 a       795     1    12     2    15
 -1.4545674035233170E-02 a       796     1    12     2    16
 -4.9686803956135916E-01 a       797     1    12     2    17
  1.0433851824825453E-01 a       798     1    12     2    18
 -1.6696134576772090E-01 a       799     1    12     2    19
  4.3358012831480353E-01 a       800     1    12     2    20
 -1.5609382580369405E-01 a       801     1    13     2     1
  5.0759802439939006E-01 a       802     1    13     2     2
  6.5731459091724231E-01 a       803     1    13     2     3
 -2.8448506146168845E-01 a       804     1    13     2     4
  1.6889284243754307E-01 a       805     1    13     2     5
 -3.2886017291846420E-01 a       806     1    13     2     6
 -5.4057172155761635E-01 a       807     1    13     2     7
 -3.1445536571666088E-01 a       808     1    13     2     8
  7.0806207792613518E-01 a       809     1    13     2     9
 -2.5247628144703405E-01 a       810     1    13     2    10
 -1.3104403743665441E-01 a       811     1    13     2    11
  4.2832166092475621E-01 a       812     1    13     2    12
 -5.3287926699701682E-01 a       813     1    13     2    13
 -4.2536075432169218E-01 a       814     1    13     2    14
 -4.7039420119708347E-01 a       815     1    13     2    15
  5.2764267976536527E-01 a       816     1    13     2    16
 -1.8054143532490535E-01 a       817     1    13     2    17
 -2.4570489203350065E-01 a       818     1    13     2    18
 -3.7683059426921550E-01 a       819     1    13     2    19
  2.0519220533429569E-01 a       820     1    13     2    20
  3.6091058629172940E-01 a       821     1    14     2     1
 -2.2854347004337197E-01 a       822     1    14     2     2
 -2.3501772810302582E-01 a       823     1    14     2     3
 -5.2490044035282357E-01 a       824     1    14     2     4
 -1.7648536872758622E-01 a       825     1    14     2     5
 -3.8622979015294778E-01 a       826     1    14     2     6
  2.2495574704759300E-01 a       827     1    14     2     7
  4.3632798670539413E-01 a       828     1    14     2     8
  2.8099469872224336E-01 a       829     1    14     2     9
 -1.4307355580115608E-01 a       830     1    14     2    10
  3.7749051457033517E-01 a       831     1    14     2    11
 -6.9898972993268846E-02 a       832     1    14     2    12
 -2.7182572278393924E-01 a       833     1    14     2    13
  6.6765160705180371E-01 a       834     1    14     2    14
 -4.8703864736927271E-01 a       835     1    14     2    15
  5.9233718158119053E-01 a       836     1    14     2    16
 -8.9513582812040030E-04 a       837     1    14     2    17
 -4.6701112542236106E-01 a       838     1    14     2    18
 -1.2091364507395362E-01 a       839     1    14     2    19
 -1.6730199840585415E-02 a       840     1    14     2    20
  4.7651375395198470E-01 a       841     1    15     2     1
 -2.0894268882103459E-01 a       842     1    15     2     2
  3.9974529125871511E-01 a       843     1    15     2     3
 -4.0646732796870116E-01 a       844     1    15     2     4
  1.8014198731198133E-01 a       845     1    15     2     5
 -5.3622491734159350E-01 a       846     1    15     2     6
  4.5097820481769874E-01 a       847     1    15     2     7
 -2.1155705812942374E-01 a       848     1    15     2     8
 -6.2434022087241525E-01 a       849     1    15     2     9
  1.8044853305050348E-01 a       850     1    15     2    10
  1.4695572219908346E-01 a       851     1    15     2    11
  3.8870884438517139E-01 a       852     1    15     2    12
 -2.2710169108791495E-01 a       853     1    15     2    13
 -6.6314528124772132E-01 a       854     1    15     2    14
  1.9319000214634247E-01 a       855     1    15     2    15
  5.0387293222003893E-01 a       856     1    15     2    16
  9.4480799344388133E-02 a       857     1    15     2    17
  2.9601575284235515E-01 a       858     1    15     2    18
  1.6181486260748049E-01 a       859     1    15     2    19
  3.0644072925425020E-01 a       860     1    15     2    20
  3.8302523985339521E-01 a       861     1    16     2     1
  5.7925156354372120E-01 a       862     1    16     2     2
  1.7964591468720340E-01 a       863     1    16     2     3
 -6.0896631794555167E-01 a       864     1    16     2     4
 -5.5298421643998708E-01 a       865     1    16     2     5
 -2.2591372762225731E-01 a       866     1    16     2     6
  3.8025828042852172E-01 a       867     1    16     2     7
  5.6513479059541964E-03 a       868     1    16     2     8
  1.1807824205585674E-01 a       869     1    16     2     9
 -9.4837114537120557E-02 a       870     1    16     2    10
 -3.8341390534074267E-02 a       871     1    16     2    11
 -4.7089245199218543E-01 a       872     1    16     2    12
 -8.1412780218344555E-02 a       873     1    16     2    13
  2.9838730334254077E-01 a       874     1    16     2    14
 -6.9555453835431935E-01 a       875     1    16     2    15
 -2.7081368079694538E-03 a       876     1    16     2    16
 -3.3134167316456326E-01 a       877     1    16     2    17
  3.2775690399126861E-01 a       878     1    16     2    18
  5.5686665234701627E-01 a       879     1    16     2    19
 -1.4042094120686008E-01 a       880     1    16     2    20
  5.3580918426195900E-01 a       881     1    17     2     1
 -7.0181471114784844E-01 a       882     1    17     2     2
  4.7884464419010947E-01 a       883     1    17     2     3
  5.3297987431294991E-02 a       884     1    17     2     4
  1.2478179795777601E-01 a       885     1    17     2     5
  9.2673597732090704E-02 a       886     1    17     2     6
 -1.4724431124114681E-01 a       887     1    17     2     7
 -2.0348924675542091E-01 a       888     1    17     2     8
 -1.4422466020441319E-01 a       889     1    17     2     9
  6.8609417320446842E-01 a       890     1    17     2    10
 -5.1927966728411667E-01 a       891     1    17     2    11
 -5.9114065614718736E-01 a       892     1    17     2    12
 -6.0571772031381566E-01 a       893     1    17     2    13
  2.1429106514386889E-01 a       894     1    17     2    14
 -8.2482376096054674E-02 a       895     1    17     2    15
 -1.3800767272795175E-01 a       896     1    17     2    16
  5.0823655227103015E-01 a       897     1    17     2    17
 -1.4951883432980584E-01 a       898     1    17     2    18
 -1.8294057766189861E-01 a       899     1    17     2    19
 -2.5216730086031858E-01 a       900     1    17     2    20
  5.5790748023998638E-02 a       901     1    18     2     1
 -7.0551766943601468E-01 a       902     1    18     2     2
 -1.3984259295922610E-01 a       903     1    18     2     3
  3.3541200131664123E-01 a       904     1    18     2     4
  1.8985006666065837E-02 a       905     1    18     2     5
  1.9377372238518883E-01 a       906     1    18     2     6
  3.4636374233389700E-01 a       907     1    18     2     7
 -1.1702051604969083E-01 a       908     1    18     2     8
 -2.8949156282061819E-02 a       909     1    18     2     9
 -5.7341486517065487E-01 a       910     1    18     2    10
 -3.9836403636302670E-01 a       911     1    18     2    11
 -6.6357067634040989E-01 a       912     1    18     2    12
  8.4012442781915539E-02 a       913     1    18     2    13
 -6.3176535089940589E-01 a       914     1    18     2    14
  7.1121588926278334E-01 a       915     1    18     2    15
 -1.6682010532698402E-01 a       916     1    18     2    16
 -1.2055590649903929E-01 a       917     1    18     2    17
 -1.5220483081365122E-01 a       918     1    18     2    18
 -3.7175443739895225E-01 a       919     1    18     2    19
  5.3078686300334676E-01 a       920     1    18     2    20
  3.7900873347075709E-01 a       921     1    19     2     1
  6.0918823746341069E-02 a       922     1    19     2     2
 -3.8204378221277535E-01 a       923     1    19     2     3
 -2.2331099833311127E-01 a       924     1    19     2     4
  4.0148938253891953E-01 a       925     1    19     2     5
 -4.6397038308224468E-02 a       926     1    19     2     6
 -4.7495391467487874E-01 a       927     1    19     2     7
 -2.6404577313949934E-02 a       928     1    19     2     8
  3.8922458559927225E-01 a       929     1    19     2     9
  5.0479856107298848E-01 a       930     1    19     2    10
  1.2771826153177965E-01 a       931     1    19     2    11
  4.1759473996720320E-01 a       932     1    19     2    12
  1.7198931761510264E-01 a       933     1    19     2    13
 -2.2025721704303611E-01 a       934     1    19     2    14
  1.5817503472599143E-01 a       935     1    19     2    15
 -2.3855262432491484E-01 a       936     1    19     2    16
 -6.9834115303291500E-01 a       937     1    19     2    17
 -1.9219001564607444E-01 a       938     1    19     2    18
  8.1431345938445032E-01 a       939     1    19     2    19
 -1.1730331217867734E-02 a       940     1    19     2    20
 -3.5865181601109225E-01 a       941     1    20     2     1
  1.0274145411899525E-02 a       942     1    20     2     2
  1.6307244590976849E-01 a       943     1    20     2     3
 -4.0302974495138327E-01 a       944     1    20     2     4
  3.6696536672148328E-01 a       945     1    20     2     5
  5.7700771944161144E-01 a       946     1    20     2     6
  1.3901654058396742E-01 a       947     1    20     2     7
  2.3452518648119941E-01 a       948     1    20     2     8
  1.4212899052865707E-01 a       949     1    20     2     9
  1.5920951788240784E-01 a       950     1    20     2    10
  1.1445953577134399E-01 a       951     1    20     2    11
  5.5256911795168895E-01 a       952     1    20     2    12
  2.1383266390101849E-01 a       953     1    20     2    13
 -6.4021832297025993E-01 a       954     1    20     2    14
  5.9523709381894019E-01 a       955     1    20     2    15
  3.1315300544760749E-01 a       956     1    20     2    16
 -1.5566728642934907E-01 a       957     1    20     2    17
  4.1592665692044600E-01 a       958     1    20     2    18
  2.2662995066587094E-01 a       959     1    20     2    19
  5.8328562978863652E-01 a       960     1    20     2    20
  9.9446070499004857E-01 b       961     2     1
  1.2363632929625039E+00 b       962     2     2
  9.5444250974754008E-01 b       963     2     3
  6.0836207072057924E-01 b       964     2     4
  2.8748080732124393E-01 b       965     2     5
 -1.3471435843095976E+00 b       966     2     6
 -1.5793482422491749E+00 b       967     2     7
 -3.6892376872637613E-02 b       968     2     8
 -8.8787353860340357E-01 b       969     2     9
 -5.9836935218994114E-01 b       970     2    10
  5.6297746310813113E-01 b       971     2    11
  6.4663481096534503E-01 b       972     2    12
  1.0589699031786683E+00 b       973     2    13
 -1.0036219068473162E+00 b       974     2    14
  1.1077761733612832E+00 b       975     2    15
 -5.2914629398623914E-01 b       976     2    16
  1.3344690515915765E+00 b       977     2    17
  1.6846008605494892E-01 b       978     2    18
 -2.6755054468853373E-01 b       979     2    19
  1.1560232971565623E+00 b       980     2    20
 -1.7009881942403202E-01 a       981     2     1     3     1
 -9.7678667025134902E-01 a       982     2     2     3     1
 -7.9563575143194210E-01 a       983     2     3     3     1
 -3.0594247810226305E-01 a       984     2     4     3     1
 -3.2613844779117790E-01 a       985     2     5     3     1
  2.0054052123957933E-01 a       986     2     6     3     1
  5.3251535544168316E-01 a       987     2     7     3     1
 -5.0333520898457962E-01 a       988     2     8     3     1
  1.1843692570318447E-01 a       989     2     9     3     1
  1.1405312658026070E+00 a       990     2    10     3     1
 -5.4150034933266689E-01 a       991     2    11     3     1
  7.3378607649496816E-02 a       992     2    12     3     1
  2.4216024403421102E-01 a       993     2    13     3     1
  2.4585195176819816E-02 a       994     2    14     3     1
  1.5652354320450501E+00 a       995     2    15     3     1
 -1.5684679755367698E-01 a       996     2    16     3     1
  2.5651887753564356E-01 a       997     2    17     3     1
 -3.7403587865937793E-01 a       998     2    18     3     1
  1.5645143335804237E+00 a       999     2    19     3     1
  5.2979428394807093E-01 a      1000     2    20     3     1
 -6.7970501697399555E-01 b      1001     3     1
